{"learner":{"attributes":{},"feature_names":["day_of_week","hour_of_day"],"feature_types":[],"gradient_booster":{"model":{"cats":{"enc":[],"feature_segments":[],"sorted_idx":[]},"gbtree_model_param":{"num_parallel_tree":"1","num_trees":"50"},"iteration_indptr":[0,1,2,3,4,5,6,7,8,9,10,11,12,13,14,15,16,17,18,19,20,21,22,23,24,25,26,27,28,29,30,31,32,33,34,35,36,37,38,39,40,41,42,43,44,45,46,47,48,49,50],"tree_info":[0,0,0,0,0,0,0,0,0,0,0,0,0,0,0,0,0,0,0,0,0,0,0,0,0,0,0,0,0,0,0,0,0,0,0,0,0,0,0,0,0,0,0,0,0,0,0,0,0,0],"trees":[{"base_weights":[4.0896367E-7,-1.0155401E1,1.8259822E0,-1.0667194E1,-5.844981E0,3.911234E0,-5.4360886E0,-1.166574E0,-9.032278E-1,-2.3482108E-1,-9.0982103E-1,-1.0563865E0,4.5967617E0,-3.1566632E0,-8.247528E0,1.7384772E-1,-7.5480634E-1,5.295199E-1,9.3515955E-2,-4.2800784E-1,3.1983636E-2,-1.0017275E0,-3.9581597E-1],"categories":[],"categories_nodes":[],"categories_segments":[],"categories_sizes":[],"default_left":[0,0,0,0,0,0,0,0,0,0,0,0,0,0,0,0,0,0,0,0,0,0,0],"id":0,"left_children":[1,3,5,7,9,11,13,-1,-1,-1,-1,15,17,19,21,-1,-1,-1,-1,-1,-1,-1,-1],"loss_changes":[5.134717E4,8.6860156E2,3.556246E4,5.0846484E2,5.13298E2,6.216377E3,3.332002E3,0E0,0E0,0E0,0E0,4.0409465E3,4.0945625E3,1.1378843E3,1.736667E3,0E0,0E0,0E0,0E0,0E0,0E0,0E0,0E0],"parents":[2147483647,0,0,1,1,2,2,3,3,4,4,5,5,6,6,11,11,12,12,13,13,14,14],"right_children":[2,4,6,8,10,12,14,-1,-1,-1,-1,16,18,20,22,-1,-1,-1,-1,-1,-1,-1,-1],"split_conditions":[4E0,3E0,2E1,5E0,2E0,6E0,2.2E1,-1.166574E0,-9.032278E-1,-2.3482108E-1,-9.0982103E-1,5E0,1.8E1,4E0,4E0,1.7384772E-1,-7.5480634E-1,5.295199E-1,9.3515955E-2,-4.2800784E-1,3.1983636E-2,-1.0017275E0,-3.9581597E-1],"split_indices":[1,1,1,0,0,1,1,0,0,0,0,0,1,0,0,0,0,0,0,0,0,0,0],"split_type":[0,0,0,0,0,0,0,0,0,0,0,0,0,0,0,0,0,0,0,0,0,0,0],"sum_hessian":[2.767E3,4.21E2,2.346E3,3.75E2,4.6E1,1.823E3,5.23E2,2.29E2,1.46E2,2.3E1,2.3E1,2.21E2,1.602E3,2.9E2,2.33E2,1.55E2,6.6E1,1.345E3,2.57E2,2.19E2,7.1E1,1.64E2,6.9E1],"tree_param":{"num_deleted":"0","num_feature":"2","num_nodes":"23","size_leaf_vector":"1"}},{"base_weights":[-1.7940509E-3,-9.147478E0,1.6426374E0,-9.60598E0,-5.284837E0,3.5201333E0,-4.8959026E0,-1.050424E0,-8.135194E-1,-2.1231738E-1,-8.2262987E-1,-9.533651E-1,4.1374736E0,-2.8423576E0,-7.4287477E0,1.5657435E-1,-6.804523E-1,4.7660717E-1,8.420055E-2,-3.8540158E-1,2.8829709E-2,-9.021619E-1,-3.5679984E-1],"categories":[],"categories_nodes":[],"categories_segments":[],"categories_sizes":[],"default_left":[0,0,0,0,0,0,0,0,0,0,0,0,0,0,0,0,0,0,0,0,0,0,0],"id":1,"left_children":[1,3,5,7,9,11,13,-1,-1,-1,-1,15,17,19,21,-1,-1,-1,-1,-1,-1,-1,-1],"loss_changes":[4.1644227E4,6.9660547E2,2.8829197E4,4.1129688E2,4.1962988E2,5.0412324E3,2.704373E3,0E0,0E0,0E0,0E0,3.2828677E3,3.3166406E3,9.227522E2,1.406835E3,0E0,0E0,0E0,0E0,0E0,0E0,0E0,0E0],"parents":[2147483647,0,0,1,1,2,2,3,3,4,4,5,5,6,6,11,11,12,12,13,13,14,14],"right_children":[2,4,6,8,10,12,14,-1,-1,-1,-1,16,18,20,22,-1,-1,-1,-1,-1,-1,-1,-1],"split_conditions":[4E0,3E0,2E1,5E0,2E0,6E0,2.2E1,-1.050424E0,-8.135194E-1,-2.1231738E-1,-8.2262987E-1,5E0,1.8E1,4E0,4E0,1.5657435E-1,-6.804523E-1,4.7660717E-1,8.420055E-2,-3.8540158E-1,2.8829709E-2,-9.021619E-1,-3.5679984E-1],"split_indices":[1,1,1,0,0,1,1,0,0,0,0,0,1,0,0,0,0,0,0,0,0,0,0],"split_type":[0,0,0,0,0,0,0,0,0,0,0,0,0,0,0,0,0,0,0,0,0,0,0],"sum_hessian":[2.767E3,4.21E2,2.346E3,3.75E2,4.6E1,1.823E3,5.23E2,2.29E2,1.46E2,2.3E1,2.3E1,2.21E2,1.602E3,2.9E2,2.33E2,1.55E2,6.6E1,1.345E3,2.57E2,2.19E2,7.1E1,1.64E2,6.9E1],"tree_param":{"num_deleted":"0","num_feature":"2","num_nodes":"23","size_leaf_vector":"1"}},{"base_weights":[-3.2322775E-3,-8.2396E0,1.477701E0,-8.650339E0,-4.7783732E0,3.1681402E0,-4.4093957E0,-9.458383E-1,-7.327209E-1,-1.9197027E-1,-7.437945E-1,-8.6038834E-1,3.7240758E0,-2.559347E0,-6.691253E0,1.4101729E-1,-6.1342263E-1,4.2898187E-1,7.58131E-2,-3.4703657E-1,2.5986794E-2,-8.124925E-1,-3.2162955E-1],"categories":[],"categories_nodes":[],"categories_segments":[],"categories_sizes":[],"default_left":[0,0,0,0,0,0,0,0,0,0,0,0,0,0,0,0,0,0,0,0,0,0,0],"id":2,"left_children":[1,3,5,7,9,11,13,-1,-1,-1,-1,15,17,19,21,-1,-1,-1,-1,-1,-1,-1,-1],"loss_changes":[3.3774887E4,5.586094E2,2.3370793E4,3.3269336E2,3.430548E2,4.0882422E3,2.1949658E3,0E0,0E0,0E0,0E0,2.6670054E3,2.6865195E3,7.482942E2,1.1396445E3,0E0,0E0,0E0,0E0,0E0,0E0,0E0,0E0],"parents":[2147483647,0,0,1,1,2,2,3,3,4,4,5,5,6,6,11,11,12,12,13,13,14,14],"right_children":[2,4,6,8,10,12,14,-1,-1,-1,-1,16,18,20,22,-1,-1,-1,-1,-1,-1,-1,-1],"split_conditions":[4E0,3E0,2E1,5E0,2E0,6E0,2.2E1,-9.458383E-1,-7.327209E-1,-1.9197027E-1,-7.437945E-1,5E0,1.8E1,4E0,4E0,1.4101729E-1,-6.1342263E-1,4.2898187E-1,7.58131E-2,-3.4703657E-1,2.5986794E-2,-8.124925E-1,-3.2162955E-1],"split_indices":[1,1,1,0,0,1,1,0,0,0,0,0,1,0,0,0,0,0,0,0,0,0,0],"split_type":[0,0,0,0,0,0,0,0,0,0,0,0,0,0,0,0,0,0,0,0,0,0,0],"sum_hessian":[2.767E3,4.21E2,2.346E3,3.75E2,4.6E1,1.823E3,5.23E2,2.29E2,1.46E2,2.3E1,2.3E1,2.21E2,1.602E3,2.9E2,2.33E2,1.55E2,6.6E1,1.345E3,2.57E2,2.19E2,7.1E1,1.64E2,6.9E1],"tree_param":{"num_deleted":"0","num_feature":"2","num_nodes":"23","size_leaf_vector":"1"}},{"base_weights":[-4.367485E-3,-7.421835E0,1.3293247E0,-7.7897696E0,-4.320446E0,3.0958383E0,-3.2483563E0,-8.516657E-1,-6.599472E0,-1.7357317E-1,-6.725142E-1,-7.764772E-1,3.6773443E0,-1.6962302E0,-6.0269747E0,-5.7355154E-1,-6.960426E-1,1.27006E-1,-5.52996E-1,4.1253185E-1,1.6477385E-1,-2.62369E-1,7.075333E-2,-7.3173565E-1,-2.8992605E-1],"categories":[],"categories_nodes":[],"categories_segments":[],"categories_sizes":[],"default_left":[0,0,0,0,0,0,0,0,0,0,0,0,0,0,0,0,0,0,0,0,0,0,0,0,0],"id":3,"left_children":[1,3,5,7,9,11,13,-1,15,-1,-1,17,19,21,23,-1,-1,-1,-1,-1,-1,-1,-1,-1,-1],"loss_changes":[2.7392635E4,4.4789453E2,1.8989156E4,2.6911328E2,2.804533E2,3.8173613E3,2.8103257E3,0E0,5.92041E0,0E0,0E0,2.166679E3,1.3324707E3,9.404315E2,9.231953E2,0E0,0E0,0E0,0E0,0E0,0E0,0E0,0E0,0E0,0E0],"parents":[2147483647,0,0,1,1,2,2,3,3,4,4,5,5,6,6,8,8,11,11,12,12,13,13,14,14],"right_children":[2,4,6,8,10,12,14,-1,16,-1,-1,18,20,22,24,-1,-1,-1,-1,-1,-1,-1,-1,-1,-1],"split_conditions":[4E0,3E0,1.9E1,5E0,2E0,6E0,2.2E1,-8.516657E-1,7E0,-1.7357317E-1,-6.725142E-1,5E0,5E0,4E0,4E0,-5.7355154E-1,-6.960426E-1,1.27006E-1,-5.52996E-1,4.1253185E-1,1.6477385E-1,-2.62369E-1,7.075333E-2,-7.3173565E-1,-2.8992605E-1],"split_indices":[1,1,1,0,0,1,1,0,0,0,0,0,0,0,0,0,0,0,0,0,0,0,0,0,0],"split_type":[0,0,0,0,0,0,0,0,0,0,0,0,0,0,0,0,0,0,0,0,0,0,0,0,0],"sum_hessian":[2.767E3,4.21E2,2.346E3,3.75E2,4.6E1,1.693E3,6.53E2,2.29E2,1.46E2,2.3E1,2.3E1,2.21E2,1.472E3,4.2E2,2.33E2,4.8E1,9.8E1,1.55E2,6.6E1,1.205E3,2.67E2,3.03E2,1.17E2,1.64E2,6.9E1],"tree_param":{"num_deleted":"0","num_feature":"2","num_nodes":"25","size_leaf_vector":"1"}},{"base_weights":[-5.3863805E-3,-6.686683E0,1.1959399E0,-7.0164347E0,-3.9064033E0,2.574206E0,-3.603972E0,-7.668694E-1,-5.948161E0,-1.5693904E-1,-6.0806495E-1,-7.0074826E-1,3.02615E0,-2.1243255E0,-5.4286437E0,-4.7570068E-1,-6.1532587E-1,1.14386834E-1,-4.9852178E-1,3.498077E-1,5.5235125E-2,-2.8637302E-1,1.644717E-2,-6.590056E-1,-2.6134768E-1],"categories":[],"categories_nodes":[],"categories_segments":[],"categories_sizes":[],"default_left":[0,0,0,0,0,0,0,0,0,0,0,0,0,0,0,0,0,0,0,0,0,0,0,0,0],"id":4,"left_children":[1,3,5,7,9,11,13,-1,15,-1,-1,17,19,21,23,-1,-1,-1,-1,-1,-1,-1,-1,-1,-1],"loss_changes":[2.222512E4,3.5948047E2,1.5535989E4,2.163789E2,2.2927539E2,2.7018135E3,1.4031997E3,0E0,6.6416016E0,0E0,0E0,1.7602136E3,1.8694941E3,4.929441E2,7.4785596E2,0E0,0E0,0E0,0E0,0E0,0E0,0E0,0E0,0E0,0E0],"parents":[2147483647,0,0,1,1,2,2,3,3,4,4,5,5,6,6,8,8,11,11,12,12,13,13,14,14],"right_children":[2,4,6,8,10,12,14,-1,16,-1,-1,18,20,22,24,-1,-1,-1,-1,-1,-1,-1,-1,-1,-1],"split_conditions":[4E0,3E0,2E1,5E0,2E0,6E0,2.2E1,-7.668694E-1,1E0,-1.5693904E-1,-6.0806495E-1,5E0,1.8E1,4E0,4E0,-4.7570068E-1,-6.1532587E-1,1.14386834E-1,-4.9852178E-1,3.498077E-1,5.5235125E-2,-2.8637302E-1,1.644717E-2,-6.590056E-1,-2.6134768E-1],"split_indices":[1,1,1,0,0,1,1,0,1,0,0,0,1,0,0,0,0,0,0,0,0,0,0,0,0],"split_type":[0,0,0,0,0,0,0,0,0,0,0,0,0,0,0,0,0,0,0,0,0,0,0,0,0],"sum_hessian":[2.767E3,4.21E2,2.346E3,3.75E2,4.6E1,1.823E3,5.23E2,2.29E2,1.46E2,2.3E1,2.3E1,2.21E2,1.602E3,2.9E2,2.33E2,2.5E1,1.21E2,1.55E2,6.6E1,1.345E3,2.57E2,2.19E2,7.1E1,1.64E2,6.9E1],"tree_param":{"num_deleted":"0","num_feature":"2","num_nodes":"25","size_leaf_vector":"1"}},{"base_weights":[-6.2177693E-3,-6.02423E0,1.0758476E0,-6.319732E0,-3.5320394E0,2.316797E0,-3.2458463E0,-6.905159E-1,-5.3607674E0,-1.41899E-1,-5.4979205E-1,-6.324036E-1,2.7237875E0,-1.9128203E0,-4.889713E0,-4.6421385E-1,-5.662303E-1,1.03021495E-1,-4.4941363E-1,3.1485292E-1,4.973304E-2,-2.5786588E-1,1.4825324E-2,-5.935045E-1,-2.3558627E-1],"categories":[],"categories_nodes":[],"categories_segments":[],"categories_sizes":[],"default_left":[0,0,0,0,0,0,0,0,0,0,0,0,0,0,0,0,0,0,0,0,0,0,0,0,0],"id":5,"left_children":[1,3,5,7,9,11,13,-1,15,-1,-1,17,19,21,23,-1,-1,-1,-1,-1,-1,-1,-1,-1,-1],"loss_changes":[1.8031373E4,2.8845898E2,1.259449E4,1.7407129E2,1.874367E2,2.1910635E3,1.1388965E3,0E0,5.5683594E0,0E0,0E0,1.4300006E3,1.5143418E3,3.99734E2,6.058179E2,0E0,0E0,0E0,0E0,0E0,0E0,0E0,0E0,0E0,0E0],"parents":[2147483647,0,0,1,1,2,2,3,3,4,4,5,5,6,6,8,8,11,11,12,12,13,13,14,14],"right_children":[2,4,6,8,10,12,14,-1,16,-1,-1,18,20,22,24,-1,-1,-1,-1,-1,-1,-1,-1,-1,-1],"split_conditions":[4E0,3E0,2E1,5E0,2E0,6E0,2.2E1,-6.905159E-1,7E0,-1.41899E-1,-5.4979205E-1,5E0,1.8E1,4E0,4E0,-4.6421385E-1,-5.662303E-1,1.03021495E-1,-4.4941363E-1,3.1485292E-1,4.973304E-2,-2.5786588E-1,1.4825324E-2,-5.935045E-1,-2.3558627E-1],"split_indices":[1,1,1,0,0,1,1,0,0,0,0,0,1,0,0,0,0,0,0,0,0,0,0,0,0],"split_type":[0,0,0,0,0,0,0,0,0,0,0,0,0,0,0,0,0,0,0,0,0,0,0,0,0],"sum_hessian":[2.767E3,4.21E2,2.346E3,3.75E2,4.6E1,1.823E3,5.23E2,2.29E2,1.46E2,2.3E1,2.3E1,2.21E2,1.602E3,2.9E2,2.33E2,4.8E1,9.8E1,1.55E2,6.6E1,1.345E3,2.57E2,2.19E2,7.1E1,1.64E2,6.9E1],"tree_param":{"num_deleted":"0","num_feature":"2","num_nodes":"25","size_leaf_vector":"1"}},{"base_weights":[-6.8483376E-3,-5.4275246E0,9.6781385E-1,-5.692336E0,-3.1935523E0,2.267788E0,-2.400877E0,-6.217645E0,-4.831701E0,-1.2830034E-1,-4.9710366E-1,2.8603554E0,-1.5362562E-1,-4.51822E-1,-3.7274778E0,-5.6819546E-1,-6.521432E-1,-3.8532436E-1,-5.0006205E-1,9.2785396E-2,3.1079587E-1,-4.3070602E-1,1.8502595E-1,-1.08134486E-1,1.3262898E-1,-4.6935868E-1,-1.4689259E-1],"categories":[],"categories_nodes":[],"categories_segments":[],"categories_sizes":[],"default_left":[0,0,0,0,0,0,0,0,0,0,0,0,0,0,0,0,0,0,0,0,0,0,0,0,0,0,0],"id":6,"left_children":[1,3,5,7,9,11,13,15,17,-1,-1,19,21,23,25,-1,-1,-1,-1,-1,-1,-1,-1,-1,-1,-1,-1],"loss_changes":[1.4629505E4,2.3146875E2,1.0283451E4,1.3994727E2,1.5323273E2,2.4310771E3,1.68931E3,3.75E-1,5.0273438E0,0E0,0E0,6.483467E2,2.7878533E3,2.9918445E2,8.4190674E2,0E0,0E0,0E0,0E0,0E0,0E0,0E0,0E0,0E0,0E0,0E0,0E0],"parents":[2147483647,0,0,1,1,2,2,3,3,4,4,5,5,6,6,7,7,8,8,11,11,12,12,13,13,14,14],"right_children":[2,4,6,8,10,12,14,16,18,-1,-1,20,22,24,26,-1,-1,-1,-1,-1,-1,-1,-1,-1,-1,-1,-1],"split_conditions":[4E0,3E0,1.9E1,5E0,2E0,5E0,2.1E1,2E0,1E0,-1.2830034E-1,-4.9710366E-1,5E0,9E0,4E0,4E0,-5.6819546E-1,-6.521432E-1,-3.8532436E-1,-5.0006205E-1,9.2785396E-2,3.1079587E-1,-4.3070602E-1,1.8502595E-1,-1.08134486E-1,1.3262898E-1,-4.6935868E-1,-1.4689259E-1],"split_indices":[1,1,1,0,0,0,1,0,1,0,0,1,1,0,0,0,0,0,0,0,0,0,0,0,0,0,0],"split_type":[0,0,0,0,0,0,0,0,0,0,0,0,0,0,0,0,0,0,0,0,0,0,0,0,0,0,0],"sum_hessian":[2.767E3,4.21E2,2.346E3,3.75E2,4.6E1,1.693E3,6.53E2,2.29E2,1.46E2,2.3E1,2.3E1,1.36E3,3.33E2,2.65E2,3.88E2,9E1,1.39E2,2.5E1,1.21E2,1.55E2,1.205E3,1.08E2,2.25E2,1.96E2,6.9E1,2.71E2,1.17E2],"tree_param":{"num_deleted":"0","num_feature":"2","num_nodes":"27","size_leaf_vector":"1"}},{"base_weights":[-7.307351E-3,-4.891244E0,8.708471E-1,-5.1287026E0,-2.8875031E0,2.0411017E0,-2.1616943E0,-5.6011863E0,-4.3545537E0,-1.1600486E-1,-4.4946453E-1,2.5746155E0,-1.389986E-1,-4.06548E-1,-3.3563144E0,-5.120003E-1,-5.873947E-1,-3.7560818E-1,-4.606782E-1,8.356628E-2,2.7974197E-1,-3.880306E-1,1.6660522E-1,-9.737595E-2,1.1955551E-1,-4.225954E-1,-1.3232782E-1],"categories":[],"categories_nodes":[],"categories_segments":[],"categories_sizes":[],"default_left":[0,0,0,0,0,0,0,0,0,0,0,0,0,0,0,0,0,0,0,0,0,0,0,0,0,0,0],"id":7,"left_children":[1,3,5,7,9,11,13,15,17,-1,-1,19,21,23,25,-1,-1,-1,-1,-1,-1,-1,-1,-1,-1,-1,-1],"loss_changes":[1.1875798E4,1.8598242E2,8.333553E3,1.1313965E2,1.2527045E2,1.9706724E3,1.3698992E3,1.1230469E-1,4.8864746E0,0E0,0E0,5.2497656E2,2.26205E3,2.4288669E2,6.821631E2,0E0,0E0,0E0,0E0,0E0,0E0,0E0,0E0,0E0,0E0,0E0,0E0],"parents":[2147483647,0,0,1,1,2,2,3,3,4,4,5,5,6,6,7,7,8,8,11,11,12,12,13,13,14,14],"right_children":[2,4,6,8,10,12,14,16,18,-1,-1,20,22,24,26,-1,-1,-1,-1,-1,-1,-1,-1,-1,-1,-1,-1],"split_conditions":[4E0,3E0,1.9E1,5E0,2E0,5E0,2.1E1,2E0,7E0,-1.1600486E-1,-4.4946453E-1,5E0,9E0,4E0,4E0,-5.120003E-1,-5.873947E-1,-3.7560818E-1,-4.606782E-1,8.356628E-2,2.7974197E-1,-3.880306E-1,1.6660522E-1,-9.737595E-2,1.1955551E-1,-4.225954E-1,-1.3232782E-1],"split_indices":[1,1,1,0,0,0,1,0,0,0,0,1,1,0,0,0,0,0,0,0,0,0,0,0,0,0,0],"split_type":[0,0,0,0,0,0,0,0,0,0,0,0,0,0,0,0,0,0,0,0,0,0,0,0,0,0,0],"sum_hessian":[2.767E3,4.21E2,2.346E3,3.75E2,4.6E1,1.693E3,6.53E2,2.29E2,1.46E2,2.3E1,2.3E1,1.36E3,3.33E2,2.65E2,3.88E2,9E1,1.39E2,4.8E1,9.8E1,1.55E2,1.205E3,1.08E2,2.25E2,1.96E2,6.9E1,2.71E2,1.17E2],"tree_param":{"num_deleted":"0","num_feature":"2","num_nodes":"27","size_leaf_vector":"1"}},{"base_weights":[-7.62121E-3,-4.4080462E0,7.835961E-1,-4.6209807E0,-2.610784E0,1.8370756E0,-1.9463395E0,-5.045848E-1,-3.9247873E0,-1.0488772E-1,-4.0639082E-1,2.3174214E0,-1.2576213E-1,-9.687652E-1,-3.69682E0,-3.3881387E-1,-4.150757E-1,1.8012063E-1,2.940666E-1,-3.4958348E-1,1.5001833E-1,-1.5526775E-1,5.4376103E-2,-4.954616E-1,-2.4606255E-1],"categories":[],"categories_nodes":[],"categories_segments":[],"categories_sizes":[],"default_left":[0,0,0,0,0,0,0,0,0,0,0,0,0,0,0,0,0,0,0,0,0,0,0,0,0],"id":8,"left_children":[1,3,5,7,9,11,13,-1,15,-1,-1,17,19,21,23,-1,-1,-1,-1,-1,-1,-1,-1,-1,-1],"loss_changes":[9.640778E3,1.4943457E2,6.7533867E3,9.1413086E1,1.0241077E2,1.5974639E3,1.1155596E3,0E0,3.7629395E0,0E0,0E0,4.325752E2,1.8354155E3,3.7266415E2,3.5165063E2,0E0,0E0,0E0,0E0,0E0,0E0,0E0,0E0,0E0,0E0],"parents":[2147483647,0,0,1,1,2,2,3,3,4,4,5,5,6,6,8,8,11,11,12,12,13,13,14,14],"right_children":[2,4,6,8,10,12,14,-1,16,-1,-1,18,20,22,24,-1,-1,-1,-1,-1,-1,-1,-1,-1,-1],"split_conditions":[4E0,3E0,1.9E1,5E0,2E0,5E0,2.2E1,-5.045848E-1,7E0,-1.0488772E-1,-4.0639082E-1,1.3E1,9E0,4E0,3E0,-3.3881387E-1,-4.150757E-1,1.8012063E-1,2.940666E-1,-3.4958348E-1,1.5001833E-1,-1.5526775E-1,5.4376103E-2,-4.954616E-1,-2.4606255E-1],"split_indices":[1,1,1,0,0,0,1,0,0,0,0,1,1,0,0,0,0,0,0,0,0,0,0,0,0],"split_type":[0,0,0,0,0,0,0,0,0,0,0,0,0,0,0,0,0,0,0,0,0,0,0,0,0],"sum_hessian":[2.767E3,4.21E2,2.346E3,3.75E2,4.6E1,1.693E3,6.53E2,2.29E2,1.46E2,2.3E1,2.3E1,1.36E3,3.33E2,4.2E2,2.33E2,4.8E1,9.8E1,7.46E2,6.14E2,1.08E2,2.25E2,3.03E2,1.17E2,1.14E2,1.19E2],"tree_param":{"num_deleted":"0","num_feature":"2","num_nodes":"25","size_leaf_vector":"1"}},{"base_weights":[-7.703685E-3,-3.9714353E0,7.0499444E-1,-4.1622295E0,-2.3605838E0,1.3938004E0,-2.7656374E0,-4.5434566E0,-3.537437E0,-9.483596E-2,-3.6744508E-1,1.7610302E0,-7.399357E-2,-3.490944E0,-1.0703065E0,-4.1145894E-1,-4.789768E-1,-2.795795E-1,-3.6664966E-1,2.2670487E-1,-1.1378361E-2,-1.3080668E-1,9.023826E-2,-2.6171792E-1,-4.0417057E-1,-2.8338289E-2,-1.6058631E-1],"categories":[],"categories_nodes":[],"categories_segments":[],"categories_sizes":[],"default_left":[0,0,0,0,0,0,0,0,0,0,0,0,0,0,0,0,0,0,0,0,0,0,0,0,0,0,0],"id":9,"left_children":[1,3,5,7,9,11,13,15,17,-1,-1,19,21,23,25,-1,-1,-1,-1,-1,-1,-1,-1,-1,-1,-1,-1],"loss_changes":[7.822246E3,1.1987256E2,5.614573E3,7.348584E1,8.3722595E1,1.0560664E3,4.745913E2,4.588379E0,3.819458E0,0E0,0E0,1.486856E3,4.7471378E2,1.203186E2,4.9275085E1,0E0,0E0,0E0,0E0,0E0,0E0,0E0,0E0,0E0,0E0,0E0,0E0],"parents":[2147483647,0,0,1,1,2,2,3,3,4,4,5,5,6,6,7,7,8,8,11,11,12,12,13,13,14,14],"right_children":[2,4,6,8,10,12,14,16,18,-1,-1,20,22,24,26,-1,-1,-1,-1,-1,-1,-1,-1,-1,-1,-1,-1],"split_conditions":[4E0,3E0,2.1E1,5E0,2E0,1.8E1,4E0,2E0,1E0,-9.483596E-2,-3.6744508E-1,5E0,3E0,2.2E1,2.2E1,-4.1145894E-1,-4.789768E-1,-2.795795E-1,-3.6664966E-1,2.2670487E-1,-1.1378361E-2,-1.3080668E-1,9.023826E-2,-2.6171792E-1,-4.0417057E-1,-2.8338289E-2,-1.6058631E-1],"split_indices":[1,1,1,0,0,1,0,0,1,0,0,0,0,1,1,0,0,0,0,0,0,0,0,0,0,0,0],"split_type":[0,0,0,0,0,0,0,0,0,0,0,0,0,0,0,0,0,0,0,0,0,0,0,0,0,0,0],"sum_hessian":[2.767E3,4.21E2,2.346E3,3.75E2,4.6E1,1.958E3,3.88E2,2.29E2,1.46E2,2.3E1,2.3E1,1.566E3,3.92E2,2.71E2,1.17E2,9E1,1.39E2,2.5E1,1.21E2,1.233E3,3.33E2,1.73E2,2.19E2,1.07E2,1.64E2,4.8E1,6.9E1],"tree_param":{"num_deleted":"0","num_feature":"2","num_nodes":"27","size_leaf_vector":"1"}},{"base_weights":[-7.9013705E-3,-3.5790286E0,6.34205E-1,-3.7500935E0,-2.134361E0,1.2545092E0,-2.491271E0,-4.092983E0,-3.1880896E0,-8.574748E-2,-3.3223158E-1,-6.27176E-1,1.4941407E0,-3.1442978E0,-9.6487683E-1,-3.7076518E-1,-4.314212E-1,-2.7414963E-1,-3.376928E-1,3.4841448E-2,-2.8893393E-1,1.9487584E-1,-6.669753E-3,-2.3578846E-1,-3.6399847E-1,-2.5562271E-2,-1.4475708E-1],"categories":[],"categories_nodes":[],"categories_segments":[],"categories_sizes":[],"default_left":[0,0,0,0,0,0,0,0,0,0,0,0,0,0,0,0,0,0,0,0,0,0,0,0,0,0,0],"id":10,"left_children":[1,3,5,7,9,11,13,15,17,-1,-1,19,21,23,25,-1,-1,-1,-1,-1,-1,-1,-1,-1,-1,-1,-1],"loss_changes":[6.3494146E3,9.6285645E1,4.5533623E3,5.9408203E1,6.844469E1,8.842722E2,3.8471216E2,3.611084E0,3.1391602E0,0E0,0E0,4.9094846E2,1.2333877E3,9.744653E1,4.0027588E1,0E0,0E0,0E0,0E0,0E0,0E0,0E0,0E0,0E0,0E0,0E0,0E0],"parents":[2147483647,0,0,1,1,2,2,3,3,4,4,5,5,6,6,7,7,8,8,11,11,12,12,13,13,14,14],"right_children":[2,4,6,8,10,12,14,16,18,-1,-1,20,22,24,26,-1,-1,-1,-1,-1,-1,-1,-1,-1,-1,-1,-1],"split_conditions":[4E0,3E0,2.1E1,5E0,2E0,6E0,4E0,2E0,7E0,-8.574748E-2,-3.3223158E-1,5E0,1.8E1,2.2E1,2.2E1,-3.7076518E-1,-4.314212E-1,-2.7414963E-1,-3.376928E-1,3.4841448E-2,-2.8893393E-1,1.9487584E-1,-6.669753E-3,-2.3578846E-1,-3.6399847E-1,-2.5562271E-2,-1.4475708E-1],"split_indices":[1,1,1,0,0,1,0,0,0,0,0,0,1,1,1,0,0,0,0,0,0,0,0,0,0,0,0],"split_type":[0,0,0,0,0,0,0,0,0,0,0,0,0,0,0,0,0,0,0,0,0,0,0,0,0,0,0],"sum_hessian":[2.767E3,4.21E2,2.346E3,3.75E2,4.6E1,1.958E3,3.88E2,2.29E2,1.46E2,2.3E1,2.3E1,2.21E2,1.737E3,2.71E2,1.17E2,9E1,1.39E2,4.8E1,9.8E1,1.55E2,6.6E1,1.345E3,3.92E2,1.07E2,1.64E2,4.8E1,6.9E1],"tree_param":{"num_deleted":"0","num_feature":"2","num_nodes":"27","size_leaf_vector":"1"}},{"base_weights":[-8.074997E-3,-3.2254672E0,5.7042843E-1,-3.3788447E0,-1.9298182E0,1.1290249E0,-2.2441237E0,-3.687172E0,-2.873443E0,-7.752999E-2,-3.0039272E-1,-5.656029E-1,1.3448352E0,-2.8320732E0,-8.6983246E-1,-3.3409607E-1,-3.8858724E-1,-2.2633636E-1,-2.979907E-1,3.137965E-2,-2.604718E-1,1.7540275E-1,-6.0044476E-3,-2.1242796E-1,-3.2781923E-1,-2.3058211E-2,-1.3048814E-1],"categories":[],"categories_nodes":[],"categories_segments":[],"categories_sizes":[],"default_left":[0,0,0,0,0,0,0,0,0,0,0,0,0,0,0,0,0,0,0,0,0,0,0,0,0,0,0],"id":11,"left_children":[1,3,5,7,9,11,13,15,17,-1,-1,19,21,23,25,-1,-1,-1,-1,-1,-1,-1,-1,-1,-1,-1,-1],"loss_changes":[5.153842E3,7.734033E1,3.692484E3,4.799707E1,5.5954773E1,7.172024E2,3.11854E2,2.8398438E0,2.8033447E0,0E0,0E0,3.9890698E2,9.992224E2,7.892285E1,3.251555E1,0E0,0E0,0E0,0E0,0E0,0E0,0E0,0E0,0E0,0E0,0E0,0E0],"parents":[2147483647,0,0,1,1,2,2,3,3,4,4,5,5,6,6,7,7,8,8,11,11,12,12,13,13,14,14],"right_children":[2,4,6,8,10,12,14,16,18,-1,-1,20,22,24,26,-1,-1,-1,-1,-1,-1,-1,-1,-1,-1,-1,-1],"split_conditions":[4E0,3E0,2.1E1,5E0,2E0,6E0,4E0,2E0,1E0,-7.752999E-2,-3.0039272E-1,5E0,1.8E1,2.2E1,2.2E1,-3.3409607E-1,-3.8858724E-1,-2.2633636E-1,-2.979907E-1,3.137965E-2,-2.604718E-1,1.7540275E-1,-6.0044476E-3,-2.1242796E-1,-3.2781923E-1,-2.3058211E-2,-1.3048814E-1],"split_indices":[1,1,1,0,0,1,0,0,1,0,0,0,1,1,1,0,0,0,0,0,0,0,0,0,0,0,0],"split_type":[0,0,0,0,0,0,0,0,0,0,0,0,0,0,0,0,0,0,0,0,0,0,0,0,0,0,0],"sum_hessian":[2.767E3,4.21E2,2.346E3,3.75E2,4.6E1,1.958E3,3.88E2,2.29E2,1.46E2,2.3E1,2.3E1,2.21E2,1.737E3,2.71E2,1.17E2,9E1,1.39E2,2.5E1,1.21E2,1.55E2,6.6E1,1.345E3,3.92E2,1.07E2,1.64E2,4.8E1,6.9E1],"tree_param":{"num_deleted":"0","num_feature":"2","num_nodes":"27","size_leaf_vector":"1"}},{"base_weights":[-8.12718E-3,-2.906771E0,5.13064E-1,-3.044277E0,-1.7448772E0,1.0160912E0,-2.0214949E0,-3.321597E0,-2.5896654E0,-7.010004E-2,-2.716051E-1,1.2837276E0,-2.8987527E-1,-2.550852E0,-7.8415036E-1,-3.010536E-1,-3.500061E-1,-2.2175907E-1,-2.7476653E-1,1.7087398E-1,-5.405542E-3,-2.9481933E-1,9.935164E-2,-1.9138186E-1,-2.9523596E-1,-2.0799473E-2,-1.1762571E-1],"categories":[],"categories_nodes":[],"categories_segments":[],"categories_sizes":[],"default_left":[0,0,0,0,0,0,0,0,0,0,0,0,0,0,0,0,0,0,0,0,0,0,0,0,0,0,0],"id":12,"left_children":[1,3,5,7,9,11,13,15,17,-1,-1,19,21,23,25,-1,-1,-1,-1,-1,-1,-1,-1,-1,-1,-1,-1],"loss_changes":[4.183241E3,6.2109863E1,2.9943667E3,3.8801514E1,4.5743988E1,6.850897E2,2.527937E2,2.2312012E0,2.548584E0,0E0,0E0,9.2459424E2,1.1424246E3,6.3920166E1,2.6413254E1,0E0,0E0,0E0,0E0,0E0,0E0,0E0,0E0,0E0,0E0,0E0,0E0],"parents":[2147483647,0,0,1,1,2,2,3,3,4,4,5,5,6,6,7,7,8,8,11,11,12,12,13,13,14,14],"right_children":[2,4,6,8,10,12,14,16,18,-1,-1,20,22,24,26,-1,-1,-1,-1,-1,-1,-1,-1,-1,-1,-1,-1],"split_conditions":[4E0,3E0,2.1E1,5E0,2E0,5E0,4E0,2E0,7E0,-7.010004E-2,-2.716051E-1,1.8E1,9E0,2.2E1,2.2E1,-3.010536E-1,-3.500061E-1,-2.2175907E-1,-2.7476653E-1,1.7087398E-1,-5.405542E-3,-2.9481933E-1,9.935164E-2,-1.9138186E-1,-2.9523596E-1,-2.0799473E-2,-1.1762571E-1],"split_indices":[1,1,1,0,0,0,0,0,0,0,0,1,1,1,1,0,0,0,0,0,0,0,0,0,0,0,0],"split_type":[0,0,0,0,0,0,0,0,0,0,0,0,0,0,0,0,0,0,0,0,0,0,0,0,0,0,0],"sum_hessian":[2.767E3,4.21E2,2.346E3,3.75E2,4.6E1,1.958E3,3.88E2,2.29E2,1.46E2,2.3E1,2.3E1,1.625E3,3.33E2,2.71E2,1.17E2,9E1,1.39E2,4.8E1,9.8E1,1.233E3,3.92E2,1.08E2,2.25E2,1.07E2,1.64E2,4.8E1,6.9E1],"tree_param":{"num_deleted":"0","num_feature":"2","num_nodes":"27","size_leaf_vector":"1"}},{"base_weights":[-8.089086E-3,-2.6196232E0,4.6147865E-1,-2.7429013E0,-1.57766E0,9.14467E-1,-1.8209522E0,-2.992268E0,-2.3340766E0,-6.338214E-2,-2.4557626E-1,1.1554568E0,-2.6147318E-1,-2.297556E0,-7.069087E-1,-2.712791E-1,-3.152555E-1,-1.8325026E-1,-2.4218376E-1,1.5380047E-1,-4.8663747E-3,-2.656079E-1,8.946042E-2,-1.724209E-1,-2.6589128E-1,-1.8761959E-2,-1.0603124E-1],"categories":[],"categories_nodes":[],"categories_segments":[],"categories_sizes":[],"default_left":[0,0,0,0,0,0,0,0,0,0,0,0,0,0,0,0,0,0,0,0,0,0,0,0,0,0,0],"id":13,"left_children":[1,3,5,7,9,11,13,15,17,-1,-1,19,21,23,25,-1,-1,-1,-1,-1,-1,-1,-1,-1,-1,-1,-1],"loss_changes":[3.3955852E3,4.9879395E1,2.4282627E3,3.13479E1,3.7396484E1,5.554624E2,2.0491809E2,1.7509766E0,2.0327148E0,0E0,0E0,7.490652E2,9.2700476E2,5.1769287E1,2.1456272E1,0E0,0E0,0E0,0E0,0E0,0E0,0E0,0E0,0E0,0E0,0E0,0E0],"parents":[2147483647,0,0,1,1,2,2,3,3,4,4,5,5,6,6,7,7,8,8,11,11,12,12,13,13,14,14],"right_children":[2,4,6,8,10,12,14,16,18,-1,-1,20,22,24,26,-1,-1,-1,-1,-1,-1,-1,-1,-1,-1,-1,-1],"split_conditions":[4E0,3E0,2.1E1,5E0,2E0,5E0,4E0,2E0,1E0,-6.338214E-2,-2.4557626E-1,1.8E1,9E0,2.2E1,2.2E1,-2.712791E-1,-3.152555E-1,-1.8325026E-1,-2.4218376E-1,1.5380047E-1,-4.8663747E-3,-2.656079E-1,8.946042E-2,-1.724209E-1,-2.6589128E-1,-1.8761959E-2,-1.0603124E-1],"split_indices":[1,1,1,0,0,0,0,0,1,0,0,1,1,1,1,0,0,0,0,0,0,0,0,0,0,0,0],"split_type":[0,0,0,0,0,0,0,0,0,0,0,0,0,0,0,0,0,0,0,0,0,0,0,0,0,0,0],"sum_hessian":[2.767E3,4.21E2,2.346E3,3.75E2,4.6E1,1.958E3,3.88E2,2.29E2,1.46E2,2.3E1,2.3E1,1.625E3,3.33E2,2.71E2,1.17E2,9E1,1.39E2,2.5E1,1.21E2,1.233E3,3.92E2,1.08E2,2.25E2,1.07E2,1.64E2,4.8E1,6.9E1],"tree_param":{"num_deleted":"0","num_feature":"2","num_nodes":"27","size_leaf_vector":"1"}},{"base_weights":[-7.970818E-3,-2.360791E0,4.1507906E-1,-2.4713027E0,-1.4264675E0,9.8635495E-1,-1.0652825E0,-2.6955914E0,-2.103563E0,-5.730802E-2,-2.2204188E-1,5.740515E-1,2.0249205E0,-2.2036152E-1,-1.6403048E0,-2.444493E-1,-2.8395513E-1,-1.7931843E-1,-2.235937E-1,-5.7014793E-2,8.292763E-2,3.201969E-1,7.687968E-2,-1.4877267E-1,2.2240898E-2,-2.069412E-1,-6.372755E-2],"categories":[],"categories_nodes":[],"categories_segments":[],"categories_sizes":[],"default_left":[0,0,0,0,0,0,0,0,0,0,0,0,0,0,0,0,0,0,0,0,0,0,0,0,0,0,0],"id":14,"left_children":[1,3,5,7,9,11,13,15,17,-1,-1,19,21,23,25,-1,-1,-1,-1,-1,-1,-1,-1,-1,-1,-1,-1],"loss_changes":[2.7561375E3,4.0047607E1,1.9858966E3,2.5342285E1,3.0572273E1,7.242152E2,3.1738342E2,1.3728027E0,2.0302124E0,0E0,0E0,3.549948E2,7.0870593E2,1.4959729E2,1.6610962E2,0E0,0E0,0E0,0E0,0E0,0E0,0E0,0E0,0E0,0E0,0E0,0E0],"parents":[2147483647,0,0,1,1,2,2,3,3,4,4,5,5,6,6,7,7,8,8,11,11,12,12,13,13,14,14],"right_children":[2,4,6,8,10,12,14,16,18,-1,-1,20,22,24,26,-1,-1,-1,-1,-1,-1,-1,-1,-1,-1,-1,-1],"split_conditions":[4E0,3E0,1.9E1,5E0,2E0,1.5E1,2.1E1,2E0,7E0,-5.730802E-2,-2.2204188E-1,6E0,1.7E1,2E0,4E0,-2.444493E-1,-2.8395513E-1,-1.7931843E-1,-2.235937E-1,-5.7014793E-2,8.292763E-2,3.201969E-1,7.687968E-2,-1.4877267E-1,2.2240898E-2,-2.069412E-1,-6.372755E-2],"split_indices":[1,1,1,0,0,1,1,0,0,0,0,1,1,0,0,0,0,0,0,0,0,0,0,0,0,0,0],"split_type":[0,0,0,0,0,0,0,0,0,0,0,0,0,0,0,0,0,0,0,0,0,0,0,0,0,0,0],"sum_hessian":[2.767E3,4.21E2,2.346E3,3.75E2,4.6E1,1.693E3,6.53E2,2.29E2,1.46E2,2.3E1,2.3E1,1.213E3,4.8E2,2.65E2,3.88E2,9E1,1.39E2,4.8E1,9.8E1,2.21E2,9.92E2,2.47E2,2.33E2,6.8E1,1.97E2,2.71E2,1.17E2],"tree_param":{"num_deleted":"0","num_feature":"2","num_nodes":"27","size_leaf_vector":"1"}},{"base_weights":[-7.6017478E-3,-2.127581E0,3.735822E-1,-2.2266493E0,-1.2897642E0,8.180347E-1,-1.1742325E0,-2.4283297E0,-1.8959477E0,-5.1815983E-2,-2.0076285E-1,1.0658947E0,-2.908793E-1,-2.1488504E0,-8.2707554E-1,-2.2027302E-1,-2.5576243E-1,-1.6175254E-1,-2.0146017E-1,1.2720732E-1,7.562297E-3,-2.3903386E-1,7.2297886E-2,-1.427744E-1,-2.8388143E-1,-4.174837E-2,-1.3723281E-1],"categories":[],"categories_nodes":[],"categories_segments":[],"categories_sizes":[],"default_left":[0,0,0,0,0,0,0,0,0,0,0,0,0,0,0,0,0,0,0,0,0,0,0,0,0,0,0],"id":15,"left_children":[1,3,5,7,9,11,13,15,17,-1,-1,19,21,23,25,-1,-1,-1,-1,-1,-1,-1,-1,-1,-1,-1,-1],"loss_changes":[2.237621E3,3.2154785E1,1.6155325E3,2.0473755E1,2.499337E1,5.0164636E2,1.7551569E2,1.0749512E0,1.5975952E0,0E0,0E0,3.0432532E2,7.1266516E2,6.410956E1,8.607947E1,0E0,0E0,0E0,0E0,0E0,0E0,0E0,0E0,0E0,0E0,0E0,0E0],"parents":[2147483647,0,0,1,1,2,2,3,3,4,4,5,5,6,6,7,7,8,8,11,11,12,12,13,13,14,14],"right_children":[2,4,6,8,10,12,14,16,18,-1,-1,20,22,24,26,-1,-1,-1,-1,-1,-1,-1,-1,-1,-1,-1,-1],"split_conditions":[4E0,3E0,2E1,5E0,2E0,5E0,2E0,2E0,7E0,-5.1815983E-2,-2.0076285E-1,1.8E1,9E0,2.2E1,2.2E1,-2.2027302E-1,-2.5576243E-1,-1.6175254E-1,-2.0146017E-1,1.2720732E-1,7.562297E-3,-2.3903386E-1,7.2297886E-2,-1.427744E-1,-2.8388143E-1,-4.174837E-2,-1.3723281E-1],"split_indices":[1,1,1,0,0,0,0,0,0,0,0,1,1,1,1,0,0,0,0,0,0,0,0,0,0,0,0],"split_type":[0,0,0,0,0,0,0,0,0,0,0,0,0,0,0,0,0,0,0,0,0,0,0,0,0,0,0],"sum_hessian":[2.767E3,4.21E2,2.346E3,3.75E2,4.6E1,1.823E3,5.23E2,2.29E2,1.46E2,2.3E1,2.3E1,1.49E3,3.33E2,1.36E2,3.87E2,9E1,1.39E2,4.8E1,9.8E1,1.233E3,2.57E2,1.08E2,2.25E2,6.8E1,6.8E1,2.22E2,1.65E2],"tree_param":{"num_deleted":"0","num_feature":"2","num_nodes":"27","size_leaf_vector":"1"}},{"base_weights":[-7.466246E-3,-1.9174099E0,3.3595246E-1,-2.0062165E0,-1.1661619E0,8.004497E-1,-8.677086E-1,-2.1875665E0,-1.7088236E0,-4.6850286E-2,-1.8152307E-1,4.3232366E-1,1.7279022E0,-1.8484558E0,-4.9137333E-1,-1.9848779E-1,-2.3036888E-1,-1.3283473E-1,-1.7759019E-1,-5.3114217E-2,6.472855E-2,2.75637E-1,6.305178E-2,-1.3981971E-1,-2.5590467E-1,2.2040008E-2,-9.983761E-2],"categories":[],"categories_nodes":[],"categories_segments":[],"categories_sizes":[],"default_left":[0,0,0,0,0,0,0,0,0,0,0,0,0,0,0,0,0,0,0,0,0,0,0,0,0,0,0],"id":16,"left_children":[1,3,5,7,9,11,13,15,17,-1,-1,19,21,23,25,-1,-1,-1,-1,-1,-1,-1,-1,-1,-1,-1,-1],"loss_changes":[1.8162042E3,2.5814331E1,1.312896E3,1.6540405E1,2.0432507E1,5.776173E2,2.4047641E2,8.409424E-1,1.3926697E0,0E0,0E0,2.5177338E2,5.411306E2,5.4332825E1,1.7127292E2,0E0,0E0,0E0,0E0,0E0,0E0,0E0,0E0,0E0,0E0,0E0,0E0],"parents":[2147483647,0,0,1,1,2,2,3,3,4,4,5,5,6,6,7,7,8,8,11,11,12,12,13,13,14,14],"right_children":[2,4,6,8,10,12,14,16,18,-1,-1,20,22,24,26,-1,-1,-1,-1,-1,-1,-1,-1,-1,-1,-1,-1],"split_conditions":[4E0,3E0,1.9E1,5E0,2E0,1.5E1,2E0,2E0,1E0,-4.6850286E-2,-1.8152307E-1,6E0,1.7E1,2.2E1,2.1E1,-1.9848779E-1,-2.3036888E-1,-1.3283473E-1,-1.7759019E-1,-5.3114217E-2,6.472855E-2,2.75637E-1,6.305178E-2,-1.3981971E-1,-2.5590467E-1,2.2040008E-2,-9.983761E-2],"split_indices":[1,1,1,0,0,1,0,0,1,0,0,1,1,1,1,0,0,0,0,0,0,0,0,0,0,0,0],"split_type":[0,0,0,0,0,0,0,0,0,0,0,0,0,0,0,0,0,0,0,0,0,0,0,0,0,0,0],"sum_hessian":[2.767E3,4.21E2,2.346E3,3.75E2,4.6E1,1.693E3,6.53E2,2.29E2,1.46E2,2.3E1,2.3E1,1.213E3,4.8E2,1.8E2,4.73E2,9E1,1.39E2,2.5E1,1.21E2,2.21E2,9.92E2,2.47E2,2.33E2,1.12E2,6.8E1,1.97E2,2.76E2],"tree_param":{"num_deleted":"0","num_feature":"2","num_nodes":"27","size_leaf_vector":"1"}},{"base_weights":[-7.1134744E-3,-1.7279619E0,3.02305E-1,-1.8075609E0,-1.0544049E0,6.6440004E-1,-9.586942E-1,-1.9706745E0,-1.5400528E0,-4.2360473E-2,-1.6412716E-1,8.807831E-1,-3.035387E-1,-1.2588813E0,-1.3436426E-1,-1.5199666E-1,-2.0158057E-1,-1.3079421E-1,-1.6393797E-1,6.226573E-2,1.6181052E-1,-2.1462782E-1,5.865593E-2,-8.2590245E-2,-1.828557E-1,1.0684625E-1,-3.7786834E-2],"categories":[],"categories_nodes":[],"categories_segments":[],"categories_sizes":[],"default_left":[0,0,0,0,0,0,0,0,0,0,0,0,0,0,0,0,0,0,0,0,0,0,0,0,0,0,0],"id":17,"left_children":[1,3,5,7,9,11,13,15,17,-1,-1,19,21,23,25,-1,-1,-1,-1,-1,-1,-1,-1,-1,-1,-1,-1],"loss_changes":[1.4743782E3,2.071936E1,1.0722806E3,1.337146E1,1.6703938E1,3.8229596E2,1.2949634E2,1.6144409E0,1.244873E0,0E0,0E0,2.8276233E2,5.4909204E2,9.320624E1,4.1701683E1,0E0,0E0,0E0,0E0,0E0,0E0,0E0,0E0,0E0,0E0,0E0,0E0],"parents":[2147483647,0,0,1,1,2,2,3,3,4,4,5,5,6,6,7,7,8,8,11,11,12,12,13,13,14,14],"right_children":[2,4,6,8,10,12,14,16,18,-1,-1,20,22,24,26,-1,-1,-1,-1,-1,-1,-1,-1,-1,-1,-1,-1],"split_conditions":[4E0,3E0,2E1,5E0,2E0,5E0,4E0,1E0,7E0,-4.2360473E-2,-1.6412716E-1,4E0,9E0,2.2E1,2.1E1,-1.5199666E-1,-2.0158057E-1,-1.3079421E-1,-1.6393797E-1,6.226573E-2,1.6181052E-1,-2.1462782E-1,5.865593E-2,-8.2590245E-2,-1.828557E-1,1.0684625E-1,-3.7786834E-2],"split_indices":[1,1,1,0,0,0,0,1,0,0,0,0,1,1,1,0,0,0,0,0,0,0,0,0,0,0,0],"split_type":[0,0,0,0,0,0,0,0,0,0,0,0,0,0,0,0,0,0,0,0,0,0,0,0,0,0,0],"sum_hessian":[2.767E3,4.21E2,2.346E3,3.75E2,4.6E1,1.823E3,5.23E2,2.29E2,1.46E2,2.3E1,2.3E1,1.49E3,3.33E2,3.83E2,1.4E2,2.4E1,2.05E2,4.8E1,9.8E1,1.105E3,3.85E2,1.08E2,2.25E2,2.19E2,1.64E2,2.3E1,1.17E2],"tree_param":{"num_deleted":"0","num_feature":"2","num_nodes":"27","size_leaf_vector":"1"}},{"base_weights":[-6.7571932E-3,-1.5571914E0,2.7201995E-1,-1.6285291E0,-9.533577E-1,6.565952E-1,-7.245281E-1,-1.7751445E0,-1.3880525E0,-3.8300943E-2,-1.4839827E-1,3.3341178E-1,1.4709153E0,-1.5812072E0,-3.9587104E-1,-1.5892059E-1,-1.8833248E-1,-1.0748579E-1,-1.4434214E-1,-4.7721405E-2,5.1430356E-2,2.3925363E-1,4.87869E-2,-1.234159E-1,-2.1266453E-1,1.7259507E-2,-8.007824E-2],"categories":[],"categories_nodes":[],"categories_segments":[],"categories_sizes":[],"default_left":[0,0,0,0,0,0,0,0,0,0,0,0,0,0,0,0,0,0,0,0,0,0,0,0,0,0,0],"id":18,"left_children":[1,3,5,7,9,11,13,15,17,-1,-1,19,21,23,25,-1,-1,-1,-1,-1,-1,-1,-1,-1,-1,-1,-1],"loss_changes":[1.1968241E3,1.6625671E1,8.999581E2,1.0792786E1,1.3655754E1,4.4532758E2,1.8351007E2,1.6334229E0,9.9768066E-1,0E0,0E0,1.7826099E2,4.3461682E2,3.1637482E1,1.09242744E2,0E0,0E0,0E0,0E0,0E0,0E0,0E0,0E0,0E0,0E0,0E0,0E0],"parents":[2147483647,0,0,1,1,2,2,3,3,4,4,5,5,6,6,7,7,8,8,11,11,12,12,13,13,14,14],"right_children":[2,4,6,8,10,12,14,16,18,-1,-1,20,22,24,26,-1,-1,-1,-1,-1,-1,-1,-1,-1,-1,-1,-1],"split_conditions":[4E0,3E0,1.9E1,5E0,2E0,1.5E1,2E0,2E0,1E0,-3.8300943E-2,-1.4839827E-1,6E0,1.7E1,2.2E1,2.1E1,-1.5892059E-1,-1.8833248E-1,-1.0748579E-1,-1.4434214E-1,-4.7721405E-2,5.1430356E-2,2.3925363E-1,4.87869E-2,-1.234159E-1,-2.1266453E-1,1.7259507E-2,-8.007824E-2],"split_indices":[1,1,1,0,0,1,0,0,1,0,0,1,1,1,1,0,0,0,0,0,0,0,0,0,0,0,0],"split_type":[0,0,0,0,0,0,0,0,0,0,0,0,0,0,0,0,0,0,0,0,0,0,0,0,0,0,0],"sum_hessian":[2.767E3,4.21E2,2.346E3,3.75E2,4.6E1,1.693E3,6.53E2,2.29E2,1.46E2,2.3E1,2.3E1,1.213E3,4.8E2,1.8E2,4.73E2,9E1,1.39E2,2.5E1,1.21E2,2.21E2,9.92E2,2.47E2,2.33E2,1.12E2,6.8E1,1.97E2,2.76E2],"tree_param":{"num_deleted":"0","num_feature":"2","num_nodes":"27","size_leaf_vector":"1"}},{"base_weights":[-6.403874E-3,-1.4033343E0,2.4477254E-1,-1.4672695E0,-8.619943E-1,5.911082E-1,-6.526853E-1,-1.5991398E0,-1.2509605E0,-3.4630477E-2,-1.3417675E-1,3.000742E-1,1.3244226E0,-9.606145E-1,1.2145138E-1,-1.1932506E-1,-1.6406354E-1,-1.05722524E-1,-1.3342138E-1,5.2925326E-2,-3.0533541E-2,2.1542469E-1,4.392908E-2,-6.578708E-2,-1.512575E-1,5.146561E-2,-5.4311443E-2],"categories":[],"categories_nodes":[],"categories_segments":[],"categories_sizes":[],"default_left":[0,0,0,0,0,0,0,0,0,0,0,0,0,0,0,0,0,0,0,0,0,0,0,0,0,0,0],"id":19,"left_children":[1,3,5,7,9,11,13,15,17,-1,-1,19,21,23,25,-1,-1,-1,-1,-1,-1,-1,-1,-1,-1,-1,-1],"loss_changes":[9.7156824E2,1.3340881E1,7.298843E2,8.724915E0,1.1163795E1,3.61135E2,1.5601672E2,1.9161377E0,9.6040344E-1,0E0,0E0,1.686007E2,3.523501E2,7.7208954E1,4.914456E1,0E0,0E0,0E0,0E0,0E0,0E0,0E0,0E0,0E0,0E0,0E0,0E0],"parents":[2147483647,0,0,1,1,2,2,3,3,4,4,5,5,6,6,7,7,8,8,11,11,12,12,13,13,14,14],"right_children":[2,4,6,8,10,12,14,16,18,-1,-1,20,22,24,26,-1,-1,-1,-1,-1,-1,-1,-1,-1,-1,-1,-1],"split_conditions":[4E0,3E0,1.9E1,5E0,2E0,1.5E1,4E0,1E0,7E0,-3.4630477E-2,-1.3417675E-1,5E0,1.7E1,2.2E1,2.2E1,-1.1932506E-1,-1.6406354E-1,-1.05722524E-1,-1.3342138E-1,5.2925326E-2,-3.0533541E-2,2.1542469E-1,4.392908E-2,-6.578708E-2,-1.512575E-1,5.146561E-2,-5.4311443E-2],"split_indices":[1,1,1,0,0,1,0,1,0,0,0,0,1,1,1,0,0,0,0,0,0,0,0,0,0,0,0],"split_type":[0,0,0,0,0,0,0,0,0,0,0,0,0,0,0,0,0,0,0,0,0,0,0,0,0,0,0],"sum_hessian":[2.767E3,4.21E2,2.346E3,3.75E2,4.6E1,1.693E3,6.53E2,2.29E2,1.46E2,2.3E1,2.3E1,1.213E3,4.8E2,4.67E2,1.86E2,2.4E1,2.05E2,4.8E1,9.8E1,8.8E2,3.33E2,2.47E2,2.33E2,3.03E2,1.64E2,1.17E2,6.9E1],"tree_param":{"num_deleted":"0","num_feature":"2","num_nodes":"27","size_leaf_vector":"1"}},{"base_weights":[-5.990919E-3,-9.879641E-1,2.9100567E-1,-1.3219323E0,-5.1572526E-1,7.4611056E-1,-4.9370903E-1,-1.4404579E0,-1.1274912E0,1.1279839E0,-8.613947E-1,4.3249413E-1,1.6237235E0,-1.142559E0,1.0228028E-1,-1.3661398E-1,-1.7080323E-1,-9.5366046E-2,-1.20214E-1,-3.1311695E-2,2.5220856E-1,-7.149065E-2,-1.3916187E-1,1.9056424E-1,3.589245E-2,7.0414245E-2,2.0575908E-1,-2.581468E-1,-9.7214244E-2,9.068196E-2,-3.942036E-2],"categories":[],"categories_nodes":[],"categories_segments":[],"categories_sizes":[],"default_left":[0,0,0,0,0,0,0,0,0,0,0,0,0,0,0,0,0,0,0,0,0,0,0,0,0,0,0,0,0,0,0],"id":20,"left_children":[1,3,5,7,9,11,13,15,17,19,21,23,25,27,29,-1,-1,-1,-1,-1,-1,-1,-1,-1,-1,-1,-1,-1,-1,-1,-1],"loss_changes":[8.0755444E2,1.0072754E2,7.5962146E2,7.041321E0,1.5324387E2,3.6976245E2,3.0213556E2,2.240326E0,7.610626E-1,9.521463E1,1.6248215E1,1.06936356E2,1.397887E2,8.92005E1,1.6332932E2,0E0,0E0,0E0,0E0,0E0,0E0,0E0,0E0,0E0,0E0,0E0,0E0,0E0,0E0,0E0,0E0],"parents":[2147483647,0,0,1,1,2,2,3,3,4,4,5,5,6,6,7,7,8,8,9,9,10,10,11,11,12,12,13,13,14,14],"right_children":[2,4,6,8,10,12,14,16,18,20,22,24,26,28,30,-1,-1,-1,-1,-1,-1,-1,-1,-1,-1,-1,-1,-1,-1,-1,-1],"split_conditions":[6E0,3E0,1.8E1,5E0,2E0,1.5E1,3E0,4E0,7E0,4E0,7E0,7E0,2E0,1.9E1,2E1,-1.3661398E-1,-1.7080323E-1,-9.5366046E-2,-1.20214E-1,-3.1311695E-2,2.5220856E-1,-7.149065E-2,-1.3916187E-1,1.9056424E-1,3.589245E-2,7.0414245E-2,2.0575908E-1,-2.581468E-1,-9.7214244E-2,9.068196E-2,-3.942036E-2],"split_indices":[1,1,1,0,0,1,0,0,0,1,0,1,0,1,1,0,0,0,0,0,0,0,0,0,0,0,0,0,0,0,0],"split_type":[0,0,0,0,0,0,0,0,0,0,0,0,0,0,0,0,0,0,0,0,0,0,0,0,0,0,0,0,0,0,0],"sum_hessian":[2.767E3,6.42E2,2.125E3,3.75E2,2.67E2,1.345E3,7.8E2,2.29E2,1.46E2,4.6E1,2.21E2,9.92E2,3.53E2,3.73E2,4.07E2,1.84E2,4.5E1,4.8E1,9.8E1,2.3E1,2.3E1,1.75E2,4.6E1,4.6E1,9.46E2,1.14E2,2.39E2,3.8E1,3.35E2,1.55E2,2.52E2],"tree_param":{"num_deleted":"0","num_feature":"2","num_nodes":"31","size_leaf_vector":"1"}},{"base_weights":[-5.505327E-3,-8.899652E-1,2.6199853E-1,-1.19113E0,-4.6411467E-1,6.718729E-1,-4.4472742E-1,-1.2977487E0,-1.0162088E0,1.0198855E0,-7.762043E-1,3.8947272E-1,1.4621315E0,-1.029253E0,9.217777E-2,-1.13465846E-1,-1.3944878E-1,-7.78152E-2,-1.0586126E-1,-2.8310964E-2,2.2803855E-1,-5.6176513E-2,-1.0844733E-1,1.7191319E-1,3.230699E-2,6.343412E-2,1.852689E-1,-2.3299399E-1,-8.7521724E-2,8.167189E-2,-3.549392E-2],"categories":[],"categories_nodes":[],"categories_segments":[],"categories_sizes":[],"default_left":[0,0,0,0,0,0,0,0,0,0,0,0,0,0,0,0,0,0,0,0,0,0,0,0,0,0,0,0,0,0,0],"id":21,"left_children":[1,3,5,7,9,11,13,15,17,19,21,23,25,27,29,-1,-1,-1,-1,-1,-1,-1,-1,-1,-1,-1,-1,-1,-1,-1,-1],"loss_changes":[6.55132E2,8.191269E1,6.161348E2,5.6936035E0,1.2491345E2,2.9981622E2,2.4519989E2,2.0464783E0,6.60141E-1,7.7839584E1,1.4066086E1,8.711966E1,1.1327283E2,7.289261E1,1.324634E2,0E0,0E0,0E0,0E0,0E0,0E0,0E0,0E0,0E0,0E0,0E0,0E0,0E0,0E0,0E0,0E0],"parents":[2147483647,0,0,1,1,2,2,3,3,4,4,5,5,6,6,7,7,8,8,9,9,10,10,11,11,12,12,13,13,14,14],"right_children":[2,4,6,8,10,12,14,16,18,20,22,24,26,28,30,-1,-1,-1,-1,-1,-1,-1,-1,-1,-1,-1,-1,-1,-1,-1,-1],"split_conditions":[6E0,3E0,1.8E1,5E0,2E0,1.5E1,3E0,2E0,1E0,4E0,5E0,7E0,2E0,1.9E1,2E1,-1.13465846E-1,-1.3944878E-1,-7.78152E-2,-1.0586126E-1,-2.8310964E-2,2.2803855E-1,-5.6176513E-2,-1.0844733E-1,1.7191319E-1,3.230699E-2,6.343412E-2,1.852689E-1,-2.3299399E-1,-8.7521724E-2,8.167189E-2,-3.549392E-2],"split_indices":[1,1,1,0,0,1,0,0,1,1,0,1,0,1,1,0,0,0,0,0,0,0,0,0,0,0,0,0,0,0,0],"split_type":[0,0,0,0,0,0,0,0,0,0,0,0,0,0,0,0,0,0,0,0,0,0,0,0,0,0,0,0,0,0,0],"sum_hessian":[2.767E3,6.42E2,2.125E3,3.75E2,2.67E2,1.345E3,7.8E2,2.29E2,1.46E2,4.6E1,2.21E2,9.92E2,3.53E2,3.73E2,4.07E2,9E1,1.39E2,2.5E1,1.21E2,2.3E1,2.3E1,1.32E2,8.9E1,4.6E1,9.46E2,1.14E2,2.39E2,3.8E1,3.35E2,1.55E2,2.52E2],"tree_param":{"num_deleted":"0","num_feature":"2","num_nodes":"31","size_leaf_vector":"1"}},{"base_weights":[-5.035216E-3,-8.015931E-1,2.3588282E-1,-1.0731782E0,-4.175723E-1,6.0502243E-1,-4.0060598E-1,-1.1690733E0,-9.1583747E-1,9.221463E-1,-6.9932544E-1,3.507314E-1,1.3166211E0,-9.271849E-1,8.3073206E-2,-8.13678E-2,-1.2065288E-1,-7.708492E-2,-9.783485E-2,-2.5597846E-2,2.0618485E-1,-5.7519447E-2,-1.14927724E-1,5.238818E-2,-1.1963397E-2,1.05959825E-1,2.362881E-1,-6.572141E-2,-1.5294912E-1,7.355708E-2,-3.1958565E-2],"categories":[],"categories_nodes":[],"categories_segments":[],"categories_sizes":[],"default_left":[0,0,0,0,0,0,0,0,0,0,0,0,0,0,0,0,0,0,0,0,0,0,0,0,0,0,0,0,0,0,0],"id":22,"left_children":[1,3,5,7,9,11,13,15,17,19,21,23,25,27,29,-1,-1,-1,-1,-1,-1,-1,-1,-1,-1,-1,-1,-1,-1,-1,-1],"loss_changes":[5.3138257E2,6.66131E1,4.997529E2,4.6025085E0,1.0180682E2,2.4310114E2,1.9899402E2,2.079895E0,5.781479E-1,6.3635216E1,1.1738304E1,8.093652E1,9.269147E1,5.9809143E1,1.0743051E2,0E0,0E0,0E0,0E0,0E0,0E0,0E0,0E0,0E0,0E0,0E0,0E0,0E0,0E0,0E0,0E0],"parents":[2147483647,0,0,1,1,2,2,3,3,4,4,5,5,6,6,7,7,8,8,9,9,10,10,11,11,12,12,13,13,14,14],"right_children":[2,4,6,8,10,12,14,16,18,20,22,24,26,28,30,-1,-1,-1,-1,-1,-1,-1,-1,-1,-1,-1,-1,-1,-1,-1,-1],"split_conditions":[6E0,3E0,1.8E1,5E0,2E0,1.5E1,3E0,1E0,7E0,4E0,7E0,5E0,4E0,2.2E1,2E1,-8.13678E-2,-1.2065288E-1,-7.708492E-2,-9.783485E-2,-2.5597846E-2,2.0618485E-1,-5.7519447E-2,-1.14927724E-1,5.238818E-2,-1.1963397E-2,1.05959825E-1,2.362881E-1,-6.572141E-2,-1.5294912E-1,7.355708E-2,-3.1958565E-2],"split_indices":[1,1,1,0,0,1,0,1,0,1,0,0,0,1,1,0,0,0,0,0,0,0,0,0,0,0,0,0,0,0,0],"split_type":[0,0,0,0,0,0,0,0,0,0,0,0,0,0,0,0,0,0,0,0,0,0,0,0,0,0,0,0,0,0,0],"sum_hessian":[2.767E3,6.42E2,2.125E3,3.75E2,2.67E2,1.345E3,7.8E2,2.29E2,1.46E2,4.6E1,2.21E2,9.92E2,3.53E2,3.73E2,4.07E2,2.4E1,2.05E2,4.8E1,9.8E1,2.3E1,2.3E1,1.75E2,4.6E1,7.25E2,2.67E2,2.85E2,6.8E1,2.59E2,1.14E2,1.55E2,2.52E2],"tree_param":{"num_deleted":"0","num_feature":"2","num_nodes":"31","size_leaf_vector":"1"}},{"base_weights":[-4.5903088E-3,-7.220073E-1,2.1239167E-1,-9.6686274E-1,-3.7578464E-1,5.448051E-1,-3.6077204E-1,-1.0530444E0,-8.2544345E-1,8.337735E-1,-6.301695E-1,3.1569958E-1,1.1859266E0,-6.606901E-1,3.6505976E-1,-9.8930515E-2,-1.2864947E-1,-6.292096E-2,-8.604979E-2,-2.3144746E-2,1.8642539E-1,-1.06982544E-1,-5.154803E-2,1.4996038E-1,2.5660856E-2,4.664206E-2,1.5257484E-1,-4.741201E-2,-1.0965389E-1,8.9835495E-2,-1.4421244E-2],"categories":[],"categories_nodes":[],"categories_segments":[],"categories_sizes":[],"default_left":[0,0,0,0,0,0,0,0,0,0,0,0,0,0,0,0,0,0,0,0,0,0,0,0,0,0,0,0,0,0,0],"id":23,"left_children":[1,3,5,7,9,11,13,15,17,19,21,23,25,27,29,-1,-1,-1,-1,-1,-1,-1,-1,-1,-1,-1,-1,-1,-1,-1,-1],"loss_changes":[4.3103836E2,5.4146698E1,4.0525763E2,3.7133484E0,8.298723E1,1.9733209E2,1.7025714E2,2.1496277E0,4.697647E-1,5.2022873E1,1.0642609E1,6.908359E1,8.584277E1,4.4448044E1,6.232421E1,0E0,0E0,0E0,0E0,0E0,0E0,0E0,0E0,0E0,0E0,0E0,0E0,0E0,0E0,0E0,0E0],"parents":[2147483647,0,0,1,1,2,2,3,3,4,4,5,5,6,6,7,7,8,8,9,9,10,10,11,11,12,12,13,13,14,14],"right_children":[2,4,6,8,10,12,14,16,18,20,22,24,26,28,30,-1,-1,-1,-1,-1,-1,-1,-1,-1,-1,-1,-1,-1,-1,-1,-1],"split_conditions":[6E0,3E0,1.8E1,5E0,2E0,1.5E1,4E0,4E0,1E0,4E0,3E0,7E0,2E0,2.2E1,2.1E1,-9.8930515E-2,-1.2864947E-1,-6.292096E-2,-8.604979E-2,-2.3144746E-2,1.8642539E-1,-1.06982544E-1,-5.154803E-2,1.4996038E-1,2.5660856E-2,4.664206E-2,1.5257484E-1,-4.741201E-2,-1.0965389E-1,8.9835495E-2,-1.4421244E-2],"split_indices":[1,1,1,0,0,1,0,0,1,1,0,1,0,1,1,0,0,0,0,0,0,0,0,0,0,0,0,0,0,0,0],"split_type":[0,0,0,0,0,0,0,0,0,0,0,0,0,0,0,0,0,0,0,0,0,0,0,0,0,0,0,0,0,0,0],"sum_hessian":[2.767E3,6.42E2,2.125E3,3.75E2,2.67E2,1.345E3,7.8E2,2.29E2,1.46E2,4.6E1,2.21E2,9.92E2,3.53E2,5.52E2,2.28E2,1.84E2,4.5E1,2.5E1,1.21E2,2.3E1,2.3E1,4.4E1,1.77E2,4.6E1,9.46E2,1.14E2,2.39E2,3.88E2,1.64E2,1.11E2,1.17E2],"tree_param":{"num_deleted":"0","num_feature":"2","num_nodes":"31","size_leaf_vector":"1"}},{"base_weights":[-4.1598454E-3,-6.5038484E-1,1.9129021E-1,-8.71178E-1,-3.3818856E-1,4.9060273E-1,-3.2479933E-1,-9.4872934E-1,-7.4391264E-1,7.5386983E-1,-5.6786674E-1,2.8430596E-1,1.0678967E0,-7.6879364E-1,8.299152E-2,-8.05269E-2,-1.0352021E-1,-6.2284417E-2,-7.9632126E-2,-2.092671E-2,1.6855955E-1,-3.7942436E-2,-8.4003314E-2,4.3806497E-2,-1.33281145E-2,8.441935E-2,1.979654E-1,-1.9926874E-1,-6.2444646E-2,6.321719E-2,-2.5596157E-2],"categories":[],"categories_nodes":[],"categories_segments":[],"categories_sizes":[],"default_left":[0,0,0,0,0,0,0,0,0,0,0,0,0,0,0,0,0,0,0,0,0,0,0,0,0,0,0,0,0,0,0],"id":24,"left_children":[1,3,5,7,9,11,13,15,17,19,21,23,25,27,29,-1,-1,-1,-1,-1,-1,-1,-1,-1,-1,-1,-1,-1,-1,-1,-1],"loss_changes":[3.4973584E2,4.4027863E1,3.2856696E2,3.005188E0,6.7648384E1,1.5999673E2,1.4146918E2,2.0196075E0,4.3672943E-1,4.2529575E1,1.1067139E1,6.381671E1,7.053177E1,6.482858E1,7.610954E1,0E0,0E0,0E0,0E0,0E0,0E0,0E0,0E0,0E0,0E0,0E0,0E0,0E0,0E0,0E0,0E0],"parents":[2147483647,0,0,1,1,2,2,3,3,4,4,5,5,6,6,7,7,8,8,9,9,10,10,11,11,12,12,13,13,14,14],"right_children":[2,4,6,8,10,12,14,16,18,20,22,24,26,28,30,-1,-1,-1,-1,-1,-1,-1,-1,-1,-1,-1,-1,-1,-1,-1,-1],"split_conditions":[6E0,3E0,1.8E1,5E0,2E0,1.5E1,3E0,2E0,7E0,4E0,5E0,5E0,4E0,1.9E1,2E1,-8.05269E-2,-1.0352021E-1,-6.2284417E-2,-7.9632126E-2,-2.092671E-2,1.6855955E-1,-3.7942436E-2,-8.4003314E-2,4.3806497E-2,-1.33281145E-2,8.441935E-2,1.979654E-1,-1.9926874E-1,-6.2444646E-2,6.321719E-2,-2.5596157E-2],"split_indices":[1,1,1,0,0,1,0,0,0,1,0,0,0,1,1,0,0,0,0,0,0,0,0,0,0,0,0,0,0,0,0],"split_type":[0,0,0,0,0,0,0,0,0,0,0,0,0,0,0,0,0,0,0,0,0,0,0,0,0,0,0,0,0,0,0],"sum_hessian":[2.767E3,6.42E2,2.125E3,3.75E2,2.67E2,1.345E3,7.8E2,2.29E2,1.46E2,4.6E1,2.21E2,9.92E2,3.53E2,3.73E2,4.07E2,9E1,1.39E2,4.8E1,9.8E1,2.3E1,2.3E1,1.32E2,8.9E1,7.25E2,2.67E2,2.85E2,6.8E1,3.8E1,3.35E2,1.55E2,2.52E2],"tree_param":{"num_deleted":"0","num_feature":"2","num_nodes":"31","size_leaf_vector":"1"}},{"base_weights":[-3.8200512E-3,-5.858132E-1,1.722032E-1,-7.8492707E-1,-3.042736E-1,3.4300274E-1,-5.91349E-1,-5.351923E-2,-8.207124E-1,6.8162364E-1,-5.11629E-1,-1.407392E-1,4.7484222E-1,-8.0036694E-1,-1.0453352E-1,-9.17286E-2,-7.203355E-2,-1.8921256E-2,1.5240589E-1,-9.2812076E-2,-4.0346183E-2,4.06056E-2,-1.1539491E-1,6.194678E-2,-1.2000232E-2,-1.0788955E-1,-5.9865393E-2,6.172388E-3,-7.939326E-2],"categories":[],"categories_nodes":[],"categories_segments":[],"categories_sizes":[],"default_left":[0,0,0,0,0,0,0,0,0,0,0,0,0,0,0,0,0,0,0,0,0,0,0,0,0,0,0,0,0],"id":25,"left_children":[1,3,5,7,9,11,13,-1,15,17,19,21,23,25,27,-1,-1,-1,-1,-1,-1,-1,-1,-1,-1,-1,-1,-1,-1],"loss_changes":[2.8366675E2,3.5806747E1,2.7746378E2,2.9210205E0,5.5136276E1,1.10910034E2,3.949832E1,0E0,2.5091248E0,3.4768654E1,9.626801E0,2.071174E2,1.1759091E2,1.4635849E1,1.3573893E1,0E0,0E0,0E0,0E0,0E0,0E0,0E0,0E0,0E0,0E0,0E0,0E0,0E0,0E0],"parents":[2147483647,0,0,1,1,2,2,3,3,4,4,5,5,6,6,8,8,9,9,10,10,11,11,12,12,13,13,14,14],"right_children":[2,4,6,8,10,12,14,-1,16,18,20,22,24,26,28,-1,-1,-1,-1,-1,-1,-1,-1,-1,-1,-1,-1,-1,-1],"split_conditions":[6E0,3E0,2.1E1,1E0,2E0,2E0,4E0,-5.351923E-2,2E0,4E0,3E0,1.7E1,5E0,2E0,2.3E1,-9.17286E-2,-7.203355E-2,-1.8921256E-2,1.5240589E-1,-9.2812076E-2,-4.0346183E-2,4.06056E-2,-1.1539491E-1,6.194678E-2,-1.2000232E-2,-1.0788955E-1,-5.9865393E-2,6.172388E-3,-7.939326E-2],"split_indices":[1,1,1,1,0,0,0,0,1,1,0,1,0,0,1,0,0,0,0,0,0,0,0,0,0,0,0,0,0],"split_type":[0,0,0,0,0,0,0,0,0,0,0,0,0,0,0,0,0,0,0,0,0,0,0,0,0,0,0,0,0],"sum_hessian":[2.767E3,6.42E2,2.125E3,3.75E2,2.67E2,1.737E3,3.88E2,4.9E1,3.26E2,4.6E1,2.21E2,3.72E2,1.365E3,2.71E2,1.17E2,1.62E2,1.64E2,2.3E1,2.3E1,4.4E1,1.77E2,2.42E2,1.3E2,1.098E3,2.67E2,1.12E2,1.59E2,9.5E1,2.2E1],"tree_param":{"num_deleted":"0","num_feature":"2","num_nodes":"29","size_leaf_vector":"1"}},{"base_weights":[-3.612451E-3,-5.2756935E-1,1.5485786E-1,-7.0701224E-1,-2.738451E-1,4.0417725E-1,-2.750253E-1,-4.827435E-2,-7.3914194E-1,6.1630076E-1,-4.6106586E-1,2.1760182E-1,9.263954E-1,-5.106938E-1,2.952791E-1,-8.2612E-2,-6.487385E-2,-1.7108005E-2,1.3780023E-1,-2.843666E-2,-7.170652E-2,1.2597756E-1,1.6564852E-2,1.1886181E-1,3.0996898E-2,-3.6233954E-2,-8.573551E-2,1.1739781E-1,9.164625E-3],"categories":[],"categories_nodes":[],"categories_segments":[],"categories_sizes":[],"default_left":[0,0,0,0,0,0,0,0,0,0,0,0,0,0,0,0,0,0,0,0,0,0,0,0,0,0,0,0,0],"id":26,"left_children":[1,3,5,7,9,11,13,-1,15,17,19,21,23,25,27,-1,-1,-1,-1,-1,-1,-1,-1,-1,-1,-1,-1,-1,-1],"loss_changes":[2.2991321E2,2.9081543E1,2.2797202E2,2.3525238E0,4.4947365E1,1.3094334E2,1.05119354E2,0E0,2.0353088E0,2.842396E1,9.838238E0,5.3556675E1,5.6852478E1,2.812941E1,4.086783E1,0E0,0E0,0E0,0E0,0E0,0E0,0E0,0E0,0E0,0E0,0E0,0E0,0E0,0E0],"parents":[2147483647,0,0,1,1,2,2,3,3,4,4,5,5,6,6,8,8,9,9,10,10,11,11,12,12,13,13,14,14],"right_children":[2,4,6,8,10,12,14,-1,16,18,20,22,24,26,28,-1,-1,-1,-1,-1,-1,-1,-1,-1,-1,-1,-1,-1,-1],"split_conditions":[6E0,3E0,1.8E1,1E0,2E0,1.5E1,4E0,-4.827435E-2,2E0,4E0,5E0,7E0,1.7E1,2.2E1,1.9E1,-8.2612E-2,-6.487385E-2,-1.7108005E-2,1.3780023E-1,-2.843666E-2,-7.170652E-2,1.2597756E-1,1.6564852E-2,1.1886181E-1,3.0996898E-2,-3.6233954E-2,-8.573551E-2,1.1739781E-1,9.164625E-3],"split_indices":[1,1,1,1,0,1,0,0,1,1,0,1,1,1,1,0,0,0,0,0,0,0,0,0,0,0,0,0,0],"split_type":[0,0,0,0,0,0,0,0,0,0,0,0,0,0,0,0,0,0,0,0,0,0,0,0,0,0,0,0,0],"sum_hessian":[2.767E3,6.42E2,2.125E3,3.75E2,2.67E2,1.345E3,7.8E2,4.9E1,3.26E2,4.6E1,2.21E2,9.92E2,3.53E2,5.52E2,2.28E2,1.62E2,1.64E2,2.3E1,2.3E1,1.32E2,8.9E1,4.6E1,9.46E2,2.47E2,1.06E2,3.88E2,1.64E2,4.2E1,1.86E2],"tree_param":{"num_deleted":"0","num_feature":"2","num_nodes":"29","size_leaf_vector":"1"}},{"base_weights":[-3.2074065E-3,-4.7508493E-1,1.3951153E-1,-6.3683164E-1,-2.4638397E-1,2.8021196E-1,-4.894779E-1,-6.993858E-1,-5.3462565E-1,5.5723864E-1,-4.1541043E-1,-1.5886E-1,3.9989984E-1,-9.062588E-1,-3.176883E-1,-6.485023E-2,-8.888216E-2,-4.280618E-2,-5.819691E-2,-1.546849E-2,1.2459439E-1,-8.095661E-2,-3.1343058E-2,3.092962E-2,-1.0260592E-1,5.274272E-2,-1.2454973E-2,-6.277163E-2,-1.0747828E-1,-4.7345452E-2,-1.0378758E-2],"categories":[],"categories_nodes":[],"categories_segments":[],"categories_sizes":[],"default_left":[0,0,0,0,0,0,0,0,0,0,0,0,0,0,0,0,0,0,0,0,0,0,0,0,0,0,0,0,0,0,0],"id":27,"left_children":[1,3,5,7,9,11,13,15,17,19,21,23,25,27,29,-1,-1,-1,-1,-1,-1,-1,-1,-1,-1,-1,-1,-1,-1,-1,-1],"loss_changes":[1.8647961E2,2.3628708E1,1.8828622E2,2.030014E0,3.663486E1,9.139818E1,2.7563965E1,1.6406021E0,4.9251175E-1,2.3237083E1,8.669754E0,1.5174965E2,9.1426056E1,4.629677E0,9.180088E0,0E0,0E0,0E0,0E0,0E0,0E0,0E0,0E0,0E0,0E0,0E0,0E0,0E0,0E0,0E0,0E0],"parents":[2147483647,0,0,1,1,2,2,3,3,4,4,5,5,6,6,7,7,8,8,9,9,10,10,11,11,12,12,13,13,14,14],"right_children":[2,4,6,8,10,12,14,16,18,20,22,24,26,28,30,-1,-1,-1,-1,-1,-1,-1,-1,-1,-1,-1,-1,-1,-1,-1,-1],"split_conditions":[6E0,3E0,2.1E1,5E0,2E0,2E0,2E0,4E0,7E0,4E0,3E0,1.7E1,5E0,2.2E1,4E0,-6.485023E-2,-8.888216E-2,-4.280618E-2,-5.819691E-2,-1.546849E-2,1.2459439E-1,-8.095661E-2,-3.1343058E-2,3.092962E-2,-1.0260592E-1,5.274272E-2,-1.2454973E-2,-6.277163E-2,-1.0747828E-1,-4.7345452E-2,-1.0378758E-2],"split_indices":[1,1,1,0,0,0,0,0,0,1,0,1,0,1,0,0,0,0,0,0,0,0,0,0,0,0,0,0,0,0,0],"split_type":[0,0,0,0,0,0,0,0,0,0,0,0,0,0,0,0,0,0,0,0,0,0,0,0,0,0,0,0,0,0,0],"sum_hessian":[2.767E3,6.42E2,2.125E3,3.75E2,2.67E2,1.737E3,3.88E2,2.29E2,1.46E2,4.6E1,2.21E2,3.72E2,1.365E3,1.12E2,2.76E2,1.84E2,4.5E1,4.8E1,9.8E1,2.3E1,2.3E1,4.4E1,1.77E2,2.42E2,1.3E2,1.098E3,2.67E2,4.4E1,6.8E1,1.59E2,1.17E2],"tree_param":{"num_deleted":"0","num_feature":"2","num_nodes":"31","size_leaf_vector":"1"}},{"base_weights":[-3.0733116E-3,-4.279774E-1,1.2543865E-1,-5.53264E-1,-1.8789223E-1,3.3320636E-1,-2.3279536E-1,-4.4150975E-1,-5.927032E-1,1.12654164E-1,-3.4547272E-1,1.646043E-1,8.052081E-1,-4.3066302E-1,2.4604134E-1,-5.1621377E-2,-1.3986083E-2,-6.996509E-2,-5.0114226E-2,-7.3040865E-2,-2.3148831E-2,-1.6087268E-2,3.51583E-2,6.216457E-2,1.5543912E-1,-3.151861E-2,-7.0029855E-2,4.933637E-2,-3.2278173E-2],"categories":[],"categories_nodes":[],"categories_segments":[],"categories_sizes":[],"default_left":[0,0,0,0,0,0,0,0,0,0,0,0,0,0,0,0,0,0,0,0,0,0,0,0,0,0,0,0,0],"id":28,"left_children":[1,3,5,7,9,11,13,15,17,-1,19,21,23,25,27,-1,-1,-1,-1,-1,-1,-1,-1,-1,-1,-1,-1,-1,-1],"loss_changes":[1.5120105E2,1.9237122E1,1.5831458E2,1.5982819E0,4.637186E1,1.0698276E2,7.410282E1,2.4967213E0,2.6751785E0,0E0,8.562386E0,6.048781E1,4.771643E1,1.6997864E1,3.2375572E1,0E0,0E0,0E0,0E0,0E0,0E0,0E0,0E0,0E0,0E0,0E0,0E0,0E0,0E0],"parents":[2147483647,0,0,1,1,2,2,3,3,4,4,5,5,6,6,7,7,8,8,10,10,11,11,12,12,13,13,14,14],"right_children":[2,4,6,8,10,12,14,16,18,-1,20,22,24,26,28,-1,-1,-1,-1,-1,-1,-1,-1,-1,-1,-1,-1,-1,-1],"split_conditions":[6E0,4E0,1.8E1,2E0,2E0,1.5E1,4E0,3E0,5E0,1.12654164E-1,3E0,3E0,4E0,2.2E1,2.2E1,-5.1621377E-2,-1.3986083E-2,-6.996509E-2,-5.0114226E-2,-7.3040865E-2,-2.3148831E-2,-1.6087268E-2,3.51583E-2,6.216457E-2,1.5543912E-1,-3.151861E-2,-7.0029855E-2,4.933637E-2,-3.2278173E-2],"split_indices":[1,1,1,0,0,1,0,1,0,0,0,0,0,1,1,0,0,0,0,0,0,0,0,0,0,0,0,0,0],"split_type":[0,0,0,0,0,0,0,0,0,0,0,0,0,0,0,0,0,0,0,0,0,0,0,0,0,0,0,0,0],"sum_hessian":[2.767E3,6.42E2,2.125E3,4.21E2,2.21E2,1.345E3,7.8E2,1.13E2,3.08E2,2.3E1,1.98E2,9.92E2,3.53E2,5.52E2,2.28E2,9E1,2.3E1,1.39E2,1.69E2,4.4E1,1.54E2,3.62E2,6.3E2,2.85E2,6.8E1,3.88E2,1.64E2,1.59E2,6.9E1],"tree_param":{"num_deleted":"0","num_feature":"2","num_nodes":"29","size_leaf_vector":"1"}},{"base_weights":[-2.7721405E-3,-3.8544288E-1,1.1296636E-1,-4.9837765E-1,-1.6902883E-1,3.0006146E-1,-2.0962386E-1,-3.24263E-2,-5.203813E-1,1.0185818E-1,-3.1140885E-1,1.4816292E-1,7.2530216E-1,-3.8778016E-1,2.2151177E-1,-6.120044E-2,-4.471351E-2,-2.3276825E-2,-8.751314E-2,-1.4483041E-2,3.164805E-2,2.3053037E-2,9.5935814E-2,-2.8374821E-2,-6.306933E-2,9.5960744E-2,5.060468E-3],"categories":[],"categories_nodes":[],"categories_segments":[],"categories_sizes":[],"default_left":[0,0,0,0,0,0,0,0,0,0,0,0,0,0,0,0,0,0,0,0,0,0,0,0,0,0,0],"id":29,"left_children":[1,3,5,7,9,11,13,-1,15,-1,17,19,21,23,25,-1,-1,-1,-1,-1,-1,-1,-1,-1,-1,-1,-1],"loss_changes":[1.2263754E2,1.5631111E1,1.2837773E2,1.4480057E0,3.785562E1,8.683531E1,6.0074142E1,0E0,2.2295685E0,0E0,8.618263E0,4.9016556E1,4.0773575E1,1.37957535E1,2.8838823E1,0E0,0E0,0E0,0E0,0E0,0E0,0E0,0E0,0E0,0E0,0E0,0E0],"parents":[2147483647,0,0,1,1,2,2,3,3,4,4,5,5,6,6,8,8,10,10,11,11,12,12,13,13,14,14],"right_children":[2,4,6,8,10,12,14,-1,16,-1,18,20,22,24,26,-1,-1,-1,-1,-1,-1,-1,-1,-1,-1,-1,-1],"split_conditions":[6E0,4E0,1.8E1,1E0,2E0,1.5E1,4E0,-3.24263E-2,2E0,1.0185818E-1,7E0,3E0,2E0,2.2E1,1.9E1,-6.120044E-2,-4.471351E-2,-2.3276825E-2,-8.751314E-2,-1.4483041E-2,3.164805E-2,2.3053037E-2,9.5935814E-2,-2.8374821E-2,-6.306933E-2,9.5960744E-2,5.060468E-3],"split_indices":[1,1,1,1,0,1,0,0,1,0,0,0,0,1,1,0,0,0,0,0,0,0,0,0,0,0,0],"split_type":[0,0,0,0,0,0,0,0,0,0,0,0,0,0,0,0,0,0,0,0,0,0,0,0,0,0,0],"sum_hessian":[2.767E3,6.42E2,2.125E3,4.21E2,2.21E2,1.345E3,7.8E2,4.9E1,3.72E2,2.3E1,1.98E2,9.92E2,3.53E2,5.52E2,2.28E2,1.62E2,2.1E2,1.75E2,2.3E1,3.62E2,6.3E2,1.14E2,2.39E2,3.88E2,1.64E2,4.2E1,1.86E2],"tree_param":{"num_deleted":"0","num_feature":"2","num_nodes":"27","size_leaf_vector":"1"}},{"base_weights":[-2.4956148E-3,-3.4712753E-1,1.0173807E-1,-4.6604896E-1,-1.7898728E-1,2.0735641E-1,-3.7041208E-1,-2.9248515E-2,-4.9116254E-1,4.2758837E-1,-3.0660018E-1,-1.4130546E-1,3.0241022E-1,-7.13723E-1,-2.2902383E-1,-5.400284E-2,-4.0462542E-2,-8.360704E-3,9.209676E-2,-1.4604012E-2,-5.4046568E-2,1.4826773E-1,-3.6300126E-2,4.1945733E-2,-1.7869858E-2,-5.077768E-2,-8.3769195E-2,-1.8647572E-2,-6.907954E-2],"categories":[],"categories_nodes":[],"categories_segments":[],"categories_sizes":[],"default_left":[0,0,0,0,0,0,0,0,0,0,0,0,0,0,0,0,0,0,0,0,0,0,0,0,0,0,0,0,0],"id":30,"left_children":[1,3,5,7,9,11,13,-1,15,17,19,21,23,25,27,-1,-1,-1,-1,-1,-1,-1,-1,-1,-1,-1,-1,-1,-1],"loss_changes":[9.946811E1,1.2773682E1,1.0609558E2,1.4952545E0,2.0876144E1,5.7642906E1,1.8718655E1,0E0,1.1642838E0,1.193102E1,8.25705E0,1.3482945E2,7.699767E1,2.4596329E0,5.3135443E0,0E0,0E0,0E0,0E0,0E0,0E0,0E0,0E0,0E0,0E0,0E0,0E0,0E0,0E0],"parents":[2147483647,0,0,1,1,2,2,3,3,4,4,5,5,6,6,8,8,9,9,10,10,11,11,12,12,13,13,14,14],"right_children":[2,4,6,8,10,12,14,-1,16,18,20,22,24,26,28,-1,-1,-1,-1,-1,-1,-1,-1,-1,-1,-1,-1,-1,-1],"split_conditions":[6E0,3E0,2.1E1,1E0,2E0,2E0,2E0,-2.9248515E-2,5E0,4E0,5E0,9E0,5E0,2.2E1,2.3E1,-5.400284E-2,-4.0462542E-2,-8.360704E-3,9.209676E-2,-1.4604012E-2,-5.4046568E-2,1.4826773E-1,-3.6300126E-2,4.1945733E-2,-1.7869858E-2,-5.077768E-2,-8.3769195E-2,-1.8647572E-2,-6.907954E-2],"split_indices":[1,1,1,1,0,0,0,0,0,1,0,1,0,1,1,0,0,0,0,0,0,0,0,0,0,0,0,0,0],"split_type":[0,0,0,0,0,0,0,0,0,0,0,0,0,0,0,0,0,0,0,0,0,0,0,0,0,0,0,0,0],"sum_hessian":[2.767E3,6.42E2,2.125E3,3.75E2,2.67E2,1.737E3,3.88E2,4.9E1,3.26E2,4.6E1,2.21E2,3.72E2,1.365E3,1.12E2,2.76E2,2.05E2,1.21E2,2.3E1,2.3E1,1.32E2,8.9E1,4.4E1,3.28E2,1.098E3,2.67E2,4.4E1,6.8E1,2.54E2,2.2E1],"tree_param":{"num_deleted":"0","num_feature":"2","num_nodes":"29","size_leaf_vector":"1"}},{"base_weights":[-2.3166172E-3,-3.1258377E-1,9.15235E-2,-4.197731E-1,-1.6103235E-1,2.50699E-1,-1.8292177E-1,-2.6382154E-2,-4.423352E-1,3.8661146E-1,-2.762496E-1,1.1291787E-1,6.364786E-1,-3.3861083E-1,1.9384232E-1,-4.8628774E-2,-3.644946E-2,-7.5594545E-3,8.327087E-2,-6.2195163E-2,-1.8730106E-2,1.5501839E-2,-8.940026E-2,9.650891E-2,2.0344483E-2,-4.272481E-2,-1.5256114E-2,8.249076E-2,4.7694487E-3],"categories":[],"categories_nodes":[],"categories_segments":[],"categories_sizes":[],"default_left":[0,0,0,0,0,0,0,0,0,0,0,0,0,0,0,0,0,0,0,0,0,0,0,0,0,0,0,0,0],"id":31,"left_children":[1,3,5,7,9,11,13,-1,15,17,19,21,23,25,27,-1,-1,-1,-1,-1,-1,-1,-1,-1,-1,-1,-1,-1,-1],"loss_changes":[8.062033E1,1.0377747E1,9.29201E1,1.2062836E0,1.7017069E1,7.147227E1,4.587757E1,0E0,9.4151306E-1,9.753821E0,6.709938E0,4.2233727E1,5.0177658E1,9.054306E0,2.1081055E1,0E0,0E0,0E0,0E0,0E0,0E0,0E0,0E0,0E0,0E0,0E0,0E0,0E0,0E0],"parents":[2147483647,0,0,1,1,2,2,3,3,4,4,5,5,6,6,8,8,9,9,10,10,11,11,12,12,13,13,14,14],"right_children":[2,4,6,8,10,12,14,-1,16,18,20,22,24,26,28,-1,-1,-1,-1,-1,-1,-1,-1,-1,-1,-1,-1,-1,-1],"split_conditions":[6E0,3E0,1.8E1,1E0,2E0,1.5E1,4E0,-2.6382154E-2,5E0,4E0,3E0,1.4E1,3E0,3E0,1.9E1,-4.8628774E-2,-3.644946E-2,-7.5594545E-3,8.327087E-2,-6.2195163E-2,-1.8730106E-2,1.5501839E-2,-8.940026E-2,9.650891E-2,2.0344483E-2,-4.272481E-2,-1.5256114E-2,8.249076E-2,4.7694487E-3],"split_indices":[1,1,1,1,0,1,0,0,0,1,0,1,0,0,1,0,0,0,0,0,0,0,0,0,0,0,0,0,0],"split_type":[0,0,0,0,0,0,0,0,0,0,0,0,0,0,0,0,0,0,0,0,0,0,0,0,0,0,0,0,0],"sum_hessian":[2.767E3,6.42E2,2.125E3,3.75E2,2.67E2,1.345E3,7.8E2,4.9E1,3.26E2,4.6E1,2.21E2,9.92E2,3.53E2,5.52E2,2.28E2,2.05E2,1.21E2,2.3E1,2.3E1,4.4E1,1.77E2,9.53E2,3.9E1,2E2,1.53E2,3.73E2,1.79E2,4.2E1,1.86E2],"tree_param":{"num_deleted":"0","num_feature":"2","num_nodes":"29","size_leaf_vector":"1"}},{"base_weights":[-2.1006677E-3,-3.6566442E-1,6.327045E-2,-2.6590508E-1,-4.0128547E-1,1.3748302E-1,-3.1062594E-1,-3.1508557E-2,-6.834976E-3,-4.805136E-1,-3.3367828E-1,2.1165703E-1,-2.2402723E-1,-6.011947E-1,-1.9096927E-1,-2.2953287E-2,-5.3046193E-2,-2.272824E-2,-3.7367597E-2,4.566967E-3,7.054491E-2,-1.517687E-1,4.0089726E-2,-4.163521E-2,-7.130313E-2,-2.5418997E-3,-3.0151544E-2],"categories":[],"categories_nodes":[],"categories_segments":[],"categories_sizes":[],"default_left":[0,0,0,0,0,0,0,0,0,0,0,0,0,0,0,0,0,0,0,0,0,0,0,0,0,0,0],"id":32,"left_children":[1,3,5,7,9,11,13,-1,-1,15,17,19,21,23,25,-1,-1,-1,-1,-1,-1,-1,-1,-1,-1,-1,-1],"loss_changes":[6.5809E1,1.3928871E0,6.516682E1,1.0860729E0,1.4947853E0,5.257735E1,1.3410133E1,0E0,0E0,1.6332932E0,6.385193E-1,1.3324002E2,2.706273E2,2.0390854E0,5.061697E0,0E0,0E0,0E0,0E0,0E0,0E0,0E0,0E0,0E0,0E0,0E0,0E0],"parents":[2147483647,0,0,1,1,2,2,3,3,4,4,5,5,6,6,9,9,10,10,11,11,12,12,13,13,14,14],"right_children":[2,4,6,8,10,12,14,-1,-1,16,18,20,22,24,26,-1,-1,-1,-1,-1,-1,-1,-1,-1,-1,-1,-1],"split_conditions":[4E0,2E0,2.1E1,3E0,5E0,5E0,2E0,-3.1508557E-2,-6.834976E-3,1E0,7E0,4E0,9E0,2.2E1,2.2E1,-2.2953287E-2,-5.3046193E-2,-2.272824E-2,-3.7367597E-2,4.566967E-3,7.054491E-2,-1.517687E-1,4.0089726E-2,-4.163521E-2,-7.130313E-2,-2.5418997E-3,-3.0151544E-2],"split_indices":[1,0,1,1,0,0,0,0,0,1,0,0,1,1,1,0,0,0,0,0,0,0,0,0,0,0,0],"split_type":[0,0,0,0,0,0,0,0,0,0,0,0,0,0,0,0,0,0,0,0,0,0,0,0,0,0,0],"sum_hessian":[2.767E3,4.21E2,2.346E3,1.13E2,3.08E2,1.958E3,3.88E2,9E1,2.3E1,1.39E2,1.69E2,1.625E3,3.33E2,1.12E2,2.76E2,2.4E1,1.15E2,4.8E1,1.21E2,1.217E3,4.08E2,1.08E2,2.25E2,4.4E1,6.8E1,1.11E2,1.65E2],"tree_param":{"num_deleted":"0","num_feature":"2","num_nodes":"27","size_leaf_vector":"1"}},{"base_weights":[-2.019365E-3,-3.2951128E-1,5.6865852E-2,-2.39651E-1,-3.6159724E-1,1.6540325E-1,-1.6097662E-1,-2.8392334E-2,-6.1799567E-3,-4.330051E-1,-3.0066374E-1,8.15852E-3,4.561482E-1,-2.8957114E-1,1.5026248E-1,-2.0749774E-2,-4.77873E-2,-2.050178E-2,-3.366145E-2,1.2127092E-2,-1.3018118E-1,5.8603264E-2,-5.5718094E-2,-5.6506503E-2,-2.3832746E-2,3.1862043E-2,-2.367023E-2],"categories":[],"categories_nodes":[],"categories_segments":[],"categories_sizes":[],"default_left":[0,0,0,0,0,0,0,0,0,0,0,0,0,0,0,0,0,0,0,0,0,0,0,0,0,0,0],"id":33,"left_children":[1,3,5,7,9,11,13,-1,-1,15,17,19,21,23,25,-1,-1,-1,-1,-1,-1,-1,-1,-1,-1,-1,-1],"loss_changes":[5.3398052E1,1.1300735E0,5.551922E1,8.8007784E-1,1.2143097E0,7.1636566E1,3.1301977E1,0E0,0E0,1.3173695E0,5.155401E-1,1.5099887E2,7.271513E1,7.672207E0,1.4994448E1,0E0,0E0,0E0,0E0,0E0,0E0,0E0,0E0,0E0,0E0,0E0,0E0],"parents":[2147483647,0,0,1,1,2,2,3,3,4,4,5,5,6,6,9,9,10,10,11,11,12,12,13,13,14,14],"right_children":[2,4,6,8,10,12,14,-1,-1,16,18,20,22,24,26,-1,-1,-1,-1,-1,-1,-1,-1,-1,-1,-1,-1],"split_conditions":[4E0,2E0,1.8E1,3E0,5E0,1.3E1,4E0,-2.8392334E-2,-6.1799567E-3,1E0,7E0,1.2E1,5E0,1.9E1,2.2E1,-2.0749774E-2,-4.77873E-2,-2.050178E-2,-3.366145E-2,1.2127092E-2,-1.3018118E-1,5.8603264E-2,-5.5718094E-2,-5.6506503E-2,-2.3832746E-2,3.1862043E-2,-2.367023E-2],"split_indices":[1,0,1,1,0,1,0,0,0,1,0,1,0,1,1,0,0,0,0,0,0,0,0,0,0,0,0],"split_type":[0,0,0,0,0,0,0,0,0,0,0,0,0,0,0,0,0,0,0,0,0,0,0,0,0,0,0],"sum_hessian":[2.767E3,4.21E2,2.346E3,1.13E2,3.08E2,1.566E3,7.8E2,9E1,2.3E1,1.39E2,1.69E2,1.017E3,5.49E2,5.52E2,2.28E2,2.4E1,1.15E2,4.8E1,1.21E2,9.37E2,8E1,4.87E2,6.2E1,8.5E1,4.67E2,1.59E2,6.9E1],"tree_param":{"num_deleted":"0","num_feature":"2","num_nodes":"27","size_leaf_vector":"1"}},{"base_weights":[-1.9419627E-3,-2.3831202E-1,6.6253185E-2,-5.063455E-2,-2.909432E-1,-2.5193566E-1,1.5889904E-1,-2.1598917E-1,7.369097E-2,-5.2667654E-1,-2.3501852E-1,1.3062258E-1,-4.1036046E-1,2.8145427E-1,-6.903617E-2,-2.55843E-2,-5.587725E-3,-1.875779E-2,-6.4359985E-2,9.417178E-3,-3.359477E-2,-2.4032235E-1,-2.000839E-2,1.5689738E-2,1.2178283E-1,-2.0063477E-2,1.3527187E-2],"categories":[],"categories_nodes":[],"categories_segments":[],"categories_sizes":[],"default_left":[0,0,0,0,0,0,0,0,0,0,0,0,0,0,0,0,0,0,0,0,0,0,0,0,0,0,0],"id":34,"left_children":[1,3,5,7,9,11,13,15,-1,17,19,-1,21,23,25,-1,-1,-1,-1,-1,-1,-1,-1,-1,-1,-1,-1],"loss_changes":[4.4633987E1,6.109436E0,6.339014E1,1.7999866E1,6.2569466E0,1.2025895E2,4.653063E1,7.131467E-1,0E0,3.5269413E0,1.3089024E1,0E0,1.8432123E2,1.2612121E2,1.5702057E1,0E0,0E0,0E0,0E0,0E0,0E0,0E0,0E0,0E0,0E0,0E0,0E0],"parents":[2147483647,0,0,1,1,2,2,3,3,4,4,5,5,6,6,7,7,9,9,10,10,12,12,13,13,14,14],"right_children":[2,4,6,8,10,12,14,16,-1,18,20,-1,22,24,26,-1,-1,-1,-1,-1,-1,-1,-1,-1,-1,-1,-1],"split_conditions":[5E0,2E0,2E0,4E0,3E0,9E0,1.8E1,3E0,7.369097E-2,1E0,4E0,1.3062258E-1,1E1,1.6E1,4E0,-2.55843E-2,-5.587725E-3,-1.875779E-2,-6.4359985E-2,9.417178E-3,-3.359477E-2,-2.4032235E-1,-2.000839E-2,1.5689738E-2,1.2178283E-1,-2.0063477E-2,1.3527187E-2],"split_indices":[1,0,0,1,0,1,1,1,0,1,0,0,1,1,0,0,0,0,0,0,0,0,0,0,0,0,0],"split_type":[0,0,0,0,0,0,0,0,0,0,0,0,0,0,0,0,0,0,0,0,0,0,0,0,0,0,0],"sum_hessian":[2.767E3,6.19E2,2.148E3,1.36E2,4.83E2,4.84E2,1.664E3,1.13E2,2.3E1,9.1E1,3.92E2,4.4E1,4.4E2,1.082E3,5.82E2,9E1,2.3E1,2.4E1,6.7E1,9.2E1,3E2,4.1E1,3.99E2,9.56E2,1.26E2,3.54E2,2.28E2],"tree_param":{"num_deleted":"0","num_feature":"2","num_nodes":"27","size_leaf_vector":"1"}},{"base_weights":[-1.7707865E-3,-2.1458538E-1,5.9628386E-2,-4.5260727E-2,-2.620707E-1,-2.2700976E-1,1.4308777E-1,-1.9466382E-1,6.6628985E-2,-4.7491255E-1,-2.1157828E-1,2.4569826E-1,-6.987836E-1,2.5343576E-1,-6.2143702E-2,-2.3053994E-2,-5.052249E-3,-1.6957035E-2,-5.8018666E-2,8.485577E-3,-3.024646E-2,-3.0743176E-2,1.5900053E-1,-2.2398083E-1,-3.467992E-2,1.7542167E-2,1.5137364E-1,-1.8062789E-2,1.2180401E-2],"categories":[],"categories_nodes":[],"categories_segments":[],"categories_sizes":[],"default_left":[0,0,0,0,0,0,0,0,0,0,0,0,0,0,0,0,0,0,0,0,0,0,0,0,0,0,0,0,0],"id":35,"left_children":[1,3,5,7,9,11,13,15,-1,17,19,21,23,25,27,-1,-1,-1,-1,-1,-1,-1,-1,-1,-1,-1,-1,-1,-1],"loss_changes":[3.6181255E1,4.9732056E0,5.144224E1,1.4693878E1,5.101017E0,1.0833217E2,3.7722794E1,5.7787323E-1,0E0,2.8589249E0,1.0613796E1,1.8117792E2,1.3103049E2,1.0621633E2,1.2728423E1,0E0,0E0,0E0,0E0,0E0,0E0,0E0,0E0,0E0,0E0,0E0,0E0,0E0,0E0],"parents":[2147483647,0,0,1,1,2,2,3,3,4,4,5,5,6,6,7,7,9,9,10,10,11,11,12,12,13,13,14,14],"right_children":[2,4,6,8,10,12,14,16,-1,18,20,22,24,26,28,-1,-1,-1,-1,-1,-1,-1,-1,-1,-1,-1,-1,-1,-1],"split_conditions":[5E0,2E0,2E0,4E0,3E0,1.7E1,1.8E1,3E0,6.6628985E-2,1E0,4E0,1.4E1,1.8E1,1.7E1,4E0,-2.3053994E-2,-5.052249E-3,-1.6957035E-2,-5.8018666E-2,8.485577E-3,-3.024646E-2,-3.0743176E-2,1.5900053E-1,-2.2398083E-1,-3.467992E-2,1.7542167E-2,1.5137364E-1,-1.8062789E-2,1.2180401E-2],"split_indices":[1,0,0,1,0,1,1,1,0,1,0,1,1,1,0,0,0,0,0,0,0,0,0,0,0,0,0,0,0],"split_type":[0,0,0,0,0,0,0,0,0,0,0,0,0,0,0,0,0,0,0,0,0,0,0,0,0,0,0,0,0],"sum_hessian":[2.767E3,6.19E2,2.148E3,1.36E2,4.83E2,4.84E2,1.664E3,1.13E2,2.3E1,9.1E1,3.92E2,2.42E2,2.42E2,1.082E3,5.82E2,9E1,2.3E1,2.4E1,6.7E1,9.2E1,3E2,1.72E2,7E1,4.4E1,1.98E2,1.02E3,6.2E1,3.54E2,2.28E2],"tree_param":{"num_deleted":"0","num_feature":"2","num_nodes":"29","size_leaf_vector":"1"}},{"base_weights":[-1.6029046E-3,-2.4689841E-1,4.250289E-2,-1.7544399E-1,-2.724612E-1,9.8472804E-2,-2.3947027E-1,-2.077394E-2,-4.5680446E-3,-3.494563E-1,-2.0745076E-1,1.6207193E-1,-2.1143933E-1,-4.6424854E-1,-1.469092E-1,-1.5329163E-2,-3.8872063E-2,-1.223966E-2,-2.3991145E-2,2.2528628E-3,5.7723492E-2,-1.3739584E-1,3.5018027E-2,-2.9886601E-2,-5.6537848E-2,-1.0525057E-2,-6.0238946E-2],"categories":[],"categories_nodes":[],"categories_segments":[],"categories_sizes":[],"default_left":[0,0,0,0,0,0,0,0,0,0,0,0,0,0,0,0,0,0,0,0,0,0,0,0,0,0,0],"id":36,"left_children":[1,3,5,7,9,11,13,-1,-1,15,17,19,21,23,25,-1,-1,-1,-1,-1,-1,-1,-1,-1,-1,-1,-1],"loss_changes":[2.9957355E1,7.230129E-1,3.7063972E1,4.682579E-1,1.4742012E0,3.8646435E1,8.025221E0,0E0,0E0,1.0187302E0,4.39991E-1,9.418642E1,2.1854758E2,1.7209663E0,5.192588E0,0E0,0E0,0E0,0E0,0E0,0E0,0E0,0E0,0E0,0E0,0E0,0E0],"parents":[2147483647,0,0,1,1,2,2,3,3,4,4,5,5,6,6,9,9,10,10,11,11,12,12,13,13,14,14],"right_children":[2,4,6,8,10,12,14,-1,-1,16,18,20,22,24,26,-1,-1,-1,-1,-1,-1,-1,-1,-1,-1,-1,-1],"split_conditions":[4E0,2E0,2.1E1,3E0,5E0,5E0,2E0,-2.077394E-2,-4.5680446E-3,1E0,7E0,4E0,9E0,2.2E1,2.3E1,-1.5329163E-2,-3.8872063E-2,-1.223966E-2,-2.3991145E-2,2.2528628E-3,5.7723492E-2,-1.3739584E-1,3.5018027E-2,-2.9886601E-2,-5.6537848E-2,-1.0525057E-2,-6.0238946E-2],"split_indices":[1,0,1,1,0,0,0,0,0,1,0,0,1,1,1,0,0,0,0,0,0,0,0,0,0,0,0],"split_type":[0,0,0,0,0,0,0,0,0,0,0,0,0,0,0,0,0,0,0,0,0,0,0,0,0,0,0],"sum_hessian":[2.767E3,4.21E2,2.346E3,1.13E2,3.08E2,1.958E3,3.88E2,9E1,2.3E1,1.39E2,1.69E2,1.625E3,3.33E2,1.12E2,2.76E2,2.4E1,1.15E2,4.8E1,1.21E2,1.217E3,4.08E2,1.08E2,2.25E2,4.4E1,6.8E1,2.54E2,2.2E1],"tree_param":{"num_deleted":"0","num_feature":"2","num_nodes":"27","size_leaf_vector":"1"}},{"base_weights":[-1.5565366E-3,-2.2248292E-1,3.8167577E-2,-1.5812191E-1,-2.4550775E-1,1.2827876E-1,-1.1029985E-1,-1.8719377E-2,-4.130268E-3,-3.1489778E-1,-1.8691885E-1,6.639837E-2,1.059155E0,-6.099419E-1,7.810839E-2,-1.3857566E-2,-3.5018362E-2,-1.104069E-2,-2.1611696E-2,1.4903026E-2,-1.9060252E-2,2.0770739E-1,6.200325E-2,-2.0230082E-1,-2.8733924E-2,1.3625495E-1,-6.0824533E-3],"categories":[],"categories_nodes":[],"categories_segments":[],"categories_sizes":[],"default_left":[0,0,0,0,0,0,0,0,0,0,0,0,0,0,0,0,0,0,0,0,0,0,0,0,0,0,0],"id":37,"left_children":[1,3,5,7,9,11,13,-1,-1,15,17,19,21,23,25,-1,-1,-1,-1,-1,-1,-1,-1,-1,-1,-1,-1],"loss_changes":[2.430075E1,5.865402E-1,3.1413666E1,3.7943006E-1,1.1973763E0,8.408763E1,8.354688E1,0E0,0E0,8.225069E-1,3.5591984E-1,2.9143604E1,3.9388336E1,1.1019243E2,1.1518386E2,0E0,0E0,0E0,0E0,0E0,0E0,0E0,0E0,0E0,0E0,0E0,0E0],"parents":[2147483647,0,0,1,1,2,2,3,3,4,4,5,5,6,6,9,9,10,10,11,11,12,12,13,13,14,14],"right_children":[2,4,6,8,10,12,14,-1,-1,16,18,20,22,24,26,-1,-1,-1,-1,-1,-1,-1,-1,-1,-1,-1,-1],"split_conditions":[4E0,2E0,1.7E1,3E0,5E0,1.6E1,2E0,-1.8719377E-2,-4.130268E-3,1E0,7E0,5E0,2E0,1.8E1,1.8E1,-1.3857566E-2,-3.5018362E-2,-1.104069E-2,-2.1611696E-2,1.4903026E-2,-1.9060252E-2,2.0770739E-1,6.200325E-2,-2.0230082E-1,-2.8733924E-2,1.3625495E-1,-6.0824533E-3],"split_indices":[1,0,1,1,0,1,0,0,0,1,0,0,0,1,1,0,0,0,0,0,0,0,0,0,0,0,0],"split_type":[0,0,0,0,0,0,0,0,0,0,0,0,0,0,0,0,0,0,0,0,0,0,0,0,0,0,0],"sum_hessian":[2.767E3,4.21E2,2.346E3,1.13E2,3.08E2,1.46E3,8.86E2,9E1,2.3E1,1.39E2,1.69E2,1.37E3,9E1,2.42E2,6.44E2,2.4E1,1.15E2,4.8E1,1.21E2,1.037E3,3.33E2,2.6E1,6.4E1,4.4E1,1.98E2,6.2E1,5.82E2],"tree_param":{"num_deleted":"0","num_feature":"2","num_nodes":"27","size_leaf_vector":"1"}},{"base_weights":[-1.3788023E-3,2.5574448E-2,-2.9336643E-1,-1.5891275E-1,8.525946E-2,-5.382597E-1,-5.623239E-2,-1.592871E-2,-1.9905716E-1,-1.4843406E-2,2.5761673E-1,-5.9784163E-2,-2.0574873E-2,5.763264E-2,-5.3895153E-2,-1.4251011E-2,5.8599662E-2,-4.103546E-2,-1.4908664E-2,6.0754027E-2,-9.011341E-3,-5.8534082E-2,4.0968005E-2,1.5141599E-2,-4.321285E-3],"categories":[],"categories_nodes":[],"categories_segments":[],"categories_sizes":[],"default_left":[0,0,0,0,0,0,0,0,0,0,0,0,0,0,0,0,0,0,0,0,0,0,0,0,0],"id":38,"left_children":[1,3,5,7,9,11,13,15,17,19,21,-1,-1,23,-1,-1,-1,-1,-1,-1,-1,-1,-1,-1,-1],"loss_changes":[2.1791704E1,2.792674E1,1.3558702E1,3.5556364E0,3.3061447E1,2.1553345E0,6.6268406E0,1.052189E1,5.049204E0,5.687994E1,9.0480576E1,0E0,0E0,9.3339074E-1,0E0,0E0,0E0,0E0,0E0,0E0,0E0,0E0,0E0,0E0,0E0],"parents":[2147483647,0,0,1,1,2,2,3,3,4,4,5,5,6,6,7,7,8,8,9,9,10,10,13,13],"right_children":[2,4,6,8,10,12,14,16,18,20,22,-1,-1,24,-1,-1,-1,-1,-1,-1,-1,-1,-1,-1,-1],"split_conditions":[2.2E1,5E0,3E0,2E0,4E0,2.3E1,2.3E1,4E0,3E0,9E0,9E0,-5.9784163E-2,-2.0574873E-2,4E0,-5.3895153E-2,-1.4251011E-2,5.8599662E-2,-4.103546E-2,-1.4908664E-2,6.0754027E-2,-9.011341E-3,-5.8534082E-2,4.0968005E-2,1.5141599E-2,-4.321285E-3],"split_indices":[1,1,0,0,0,1,1,1,0,1,1,0,0,0,0,0,0,0,0,0,0,0,0,0,0],"split_type":[0,0,0,0,0,0,0,0,0,0,0,0,0,0,0,0,0,0,0,0,0,0,0,0,0],"sum_hessian":[2.767E3,2.534E3,2.33E2,6.19E2,1.915E3,1.14E2,1.19E2,1.36E2,4.83E2,1.212E3,7.03E2,9.6E1,1.8E1,9.7E1,2.2E1,1.13E2,2.3E1,9.1E1,3.92E2,1.3E2,1.082E3,1.07E2,5.96E2,5E1,4.7E1],"tree_param":{"num_deleted":"0","num_feature":"2","num_nodes":"25","size_leaf_vector":"1"}},{"base_weights":[-1.2771616E-3,3.7362184E-2,-1.7534372E-1,-5.2908093E-2,3.0542E-1,-5.5586374E-1,2.935054E-1,1.04299866E-1,-1.09596685E-1,-2.915758E-1,4.1479313E-1,-1.4516306E-1,-2.7970147E-1,1.5589144E0,-5.097284E-1,-7.7358456E-3,5.472492E-2,-4.5265213E-2,6.343362E-4,-3.251934E-2,-2.4980336E-2,1.09285586E-1,1.4589E-2,-1.7830951E-2,1.5506006E-2,6.761473E-2,2.4263147E-1,-3.5671987E-2,-8.7950654E-2],"categories":[],"categories_nodes":[],"categories_segments":[],"categories_sizes":[],"default_left":[0,0,0,0,0,0,0,0,0,0,0,0,0,0,0,0,0,0,0,0,0,0,0,0,0,0,0,0,0],"id":39,"left_children":[1,3,5,7,9,11,13,15,17,19,21,23,-1,25,27,-1,-1,-1,-1,-1,-1,-1,-1,-1,-1,-1,-1,-1,-1],"loss_changes":[1.8623615E1,5.4848045E1,8.99016E1,1.512601E1,3.7404552E1,2.5547687E2,2.3050537E2,3.6251778E1,4.9600883E1,4.3747425E-2,8.790749E1,2.376162E0,0E0,6.574214E1,7.5507774E0,0E0,0E0,0E0,0E0,0E0,0E0,0E0,0E0,0E0,0E0,0E0,0E0,0E0,0E0],"parents":[2147483647,0,0,1,1,2,2,3,3,4,4,5,5,6,6,7,7,8,8,9,9,10,10,11,11,13,13,14,14],"right_children":[2,4,6,8,10,12,14,16,18,20,22,24,-1,26,28,-1,-1,-1,-1,-1,-1,-1,-1,-1,-1,-1,-1,-1,-1],"split_conditions":[5E0,4E0,9E0,9E0,5E0,6E0,1.1E1,5E0,1.3E1,2E0,1.2E1,5E0,-2.7970147E-1,1E1,1.4E1,-7.7358456E-3,5.472492E-2,-4.5265213E-2,6.343362E-4,-3.251934E-2,-2.4980336E-2,1.09285586E-1,1.4589E-2,-1.7830951E-2,1.5506006E-2,6.761473E-2,2.4263147E-1,-3.5671987E-2,-8.7950654E-2],"split_indices":[0,0,1,1,1,1,1,1,1,1,1,1,0,1,1,0,0,0,0,0,0,0,0,0,0,0,0,0,0],"split_type":[0,0,0,0,0,0,0,0,0,0,0,0,0,0,0,0,0,0,0,0,0,0,0,0,0,0,0,0,0],"sum_hessian":[2.767E3,2.265E3,5.02E2,1.695E3,5.7E2,2.77E2,2.25E2,4.49E2,1.246E3,8.8E1,4.82E2,2.35E2,4.2E1,8.7E1,1.38E2,3.19E2,1.3E2,3.14E2,9.32E2,4.5E1,4.3E1,1.36E2,3.46E2,2.12E2,2.3E1,4.4E1,4.3E1,9.9E1,3.9E1],"tree_param":{"num_deleted":"0","num_feature":"2","num_nodes":"29","size_leaf_vector":"1"}},{"base_weights":[-1.1592869E-3,2.3592982E-2,-2.6930392E-1,-6.275241E-2,1.3683586E-1,-4.8576143E-1,-5.9621256E-2,4.4904137E-3,-1.1901629E0,3.925894E-1,-3.7004203E-2,-5.393017E-2,-1.868579E-2,4.46593E-2,-5.013549E-2,-7.929018E-3,3.290866E-2,-1.7959346E-1,1.6035145E-2,8.61378E-2,4.495798E-3,-5.6545746E-2,1.55738145E-2,1.35949645E-2,-5.3267083E-3],"categories":[],"categories_nodes":[],"categories_segments":[],"categories_sizes":[],"default_left":[0,0,0,0,0,0,0,0,0,0,0,0,0,0,0,0,0,0,0,0,0,0,0,0,0],"id":40,"left_children":[1,3,5,7,9,11,13,15,17,19,21,-1,-1,23,-1,-1,-1,-1,-1,-1,-1,-1,-1,-1,-1],"loss_changes":[1.8378092E1,2.4795816E1,1.0591686E1,1.0909633E2,4.8787376E1,1.7396183E0,5.5500975E0,3.6983906E1,6.6554344E1,7.231801E1,6.670145E1,0E0,0E0,8.833354E-1,0E0,0E0,0E0,0E0,0E0,0E0,0E0,0E0,0E0,0E0,0E0],"parents":[2147483647,0,0,1,1,2,2,3,3,4,4,5,5,6,6,7,7,8,8,9,9,10,10,13,13],"right_children":[2,4,6,8,10,12,14,16,18,20,22,-1,-1,24,-1,-1,-1,-1,-1,-1,-1,-1,-1,-1,-1],"split_conditions":[2.2E1,1.3E1,3E0,1.2E1,1.7E1,2.3E1,2.3E1,1E1,5E0,3E0,2E0,-5.393017E-2,-1.868579E-2,4E0,-5.013549E-2,-7.929018E-3,3.290866E-2,-1.7959346E-1,1.6035145E-2,8.61378E-2,4.495798E-3,-5.6545746E-2,1.55738145E-2,1.35949645E-2,-5.3267083E-3],"split_indices":[1,1,0,1,1,1,1,1,0,0,0,0,0,0,0,0,0,0,0,0,0,0,0,0,0],"split_type":[0,0,0,0,0,0,0,0,0,0,0,0,0,0,0,0,0,0,0,0,0,0,0,0,0],"sum_hessian":[2.767E3,2.534E3,2.33E2,1.438E3,1.096E3,1.14E2,1.19E2,1.358E3,8E1,4.43E2,6.53E2,9.6E1,1.8E1,9.7E1,2.2E1,1.08E3,2.78E2,5.5E1,2.5E1,1.88E2,2.55E2,1.74E2,4.79E2,5E1,4.7E1],"tree_param":{"num_deleted":"0","num_feature":"2","num_nodes":"25","size_leaf_vector":"1"}},{"base_weights":[-1.1168816E-3,3.424982E-2,-1.604406E-1,-4.7005635E-2,2.7553704E-1,-4.9339157E-1,2.498285E-1,1.01885505E-1,-1.006977E-1,-2.5522435E-1,3.727673E-1,-1.227614E-1,-2.516074E-1,1.3944316E0,-4.7660962E-1,-6.174247E-3,5.0080966E-2,-3.93669E-2,-1.6766264E-4,-2.8562441E-2,-2.1764193E-2,9.788252E-2,1.3241373E-2,-1.5267073E-2,1.4779895E-2,6.17787E-2,2.1570356E-1,-3.4323186E-2,-7.9813875E-2],"categories":[],"categories_nodes":[],"categories_segments":[],"categories_sizes":[],"default_left":[0,0,0,0,0,0,0,0,0,0,0,0,0,0,0,0,0,0,0,0,0,0,0,0,0,0,0,0,0],"id":41,"left_children":[1,3,5,7,9,11,13,15,17,19,21,23,-1,25,27,-1,-1,-1,-1,-1,-1,-1,-1,-1,-1,-1,-1,-1,-1],"loss_changes":[1.5602493E1,4.4439926E1,6.883282E1,1.3568546E1,2.956221E1,2.0809856E2,1.8857983E2,2.940474E1,3.6175232E1,3.951931E-2,7.022812E1,1.9323423E0,0E0,5.078737E1,5.687048E0,0E0,0E0,0E0,0E0,0E0,0E0,0E0,0E0,0E0,0E0,0E0,0E0,0E0,0E0],"parents":[2147483647,0,0,1,1,2,2,3,3,4,4,5,5,6,6,7,7,8,8,9,9,10,10,11,11,13,13,14,14],"right_children":[2,4,6,8,10,12,14,16,18,20,22,24,-1,26,28,-1,-1,-1,-1,-1,-1,-1,-1,-1,-1,-1,-1,-1,-1],"split_conditions":[5E0,4E0,9E0,9E0,5E0,6E0,1.1E1,5E0,1.3E1,2E0,1.2E1,5E0,-2.516074E-1,1E1,1.4E1,-6.174247E-3,5.0080966E-2,-3.93669E-2,-1.6766264E-4,-2.8562441E-2,-2.1764193E-2,9.788252E-2,1.3241373E-2,-1.5267073E-2,1.4779895E-2,6.17787E-2,2.1570356E-1,-3.4323186E-2,-7.9813875E-2],"split_indices":[0,0,1,1,1,1,1,1,1,1,1,1,0,1,1,0,0,0,0,0,0,0,0,0,0,0,0,0,0],"split_type":[0,0,0,0,0,0,0,0,0,0,0,0,0,0,0,0,0,0,0,0,0,0,0,0,0,0,0,0,0],"sum_hessian":[2.767E3,2.265E3,5.02E2,1.695E3,5.7E2,2.77E2,2.25E2,4.49E2,1.246E3,8.8E1,4.82E2,2.35E2,4.2E1,8.7E1,1.38E2,3.19E2,1.3E2,3.14E2,9.32E2,4.5E1,4.3E1,1.36E2,3.46E2,2.12E2,2.3E1,4.4E1,4.3E1,9.9E1,3.9E1],"tree_param":{"num_deleted":"0","num_feature":"2","num_nodes":"29","size_leaf_vector":"1"}},{"base_weights":[-1.0136925E-3,2.1660823E-2,-2.4664995E-1,-5.6112986E-2,1.2366159E-1,-4.376505E-1,-6.1552335E-2,2.7485057E-3,-1.0429852E0,3.592359E-1,-3.645868E-2,-4.8576158E-2,-1.6899671E-2,3.4012426E-2,-4.660651E-2,-6.704318E-3,2.7315015E-2,-1.5912168E-1,1.7793575E-2,7.758629E-2,5.024474E-3,-5.0906785E-2,1.3592272E-2,1.2278561E-2,-6.1017675E-3],"categories":[],"categories_nodes":[],"categories_segments":[],"categories_sizes":[],"default_left":[0,0,0,0,0,0,0,0,0,0,0,0,0,0,0,0,0,0,0,0,0,0,0,0,0],"id":42,"left_children":[1,3,5,7,9,11,13,15,17,19,21,-1,-1,23,-1,-1,-1,-1,-1,-1,-1,-1,-1,-1,-1],"loss_changes":[1.5422226E1,2.0117065E1,8.245836E0,8.359261E1,4.139218E1,1.4043083E0,4.654712E0,2.5665071E1,5.4500267E1,5.711894E1,5.3349937E1,0E0,0E0,8.342322E-1,0E0,0E0,0E0,0E0,0E0,0E0,0E0,0E0,0E0,0E0,0E0],"parents":[2147483647,0,0,1,1,2,2,3,3,4,4,5,5,6,6,7,7,8,8,9,9,10,10,13,13],"right_children":[2,4,6,8,10,12,14,16,18,20,22,-1,-1,24,-1,-1,-1,-1,-1,-1,-1,-1,-1,-1,-1],"split_conditions":[2.2E1,1.3E1,3E0,1.2E1,1.7E1,2.3E1,2.3E1,1E1,5E0,3E0,2E0,-4.8576158E-2,-1.6899671E-2,4E0,-4.660651E-2,-6.704318E-3,2.7315015E-2,-1.5912168E-1,1.7793575E-2,7.758629E-2,5.024474E-3,-5.0906785E-2,1.3592272E-2,1.2278561E-2,-6.1017675E-3],"split_indices":[1,1,0,1,1,1,1,1,0,0,0,0,0,0,0,0,0,0,0,0,0,0,0,0,0],"split_type":[0,0,0,0,0,0,0,0,0,0,0,0,0,0,0,0,0,0,0,0,0,0,0,0,0],"sum_hessian":[2.767E3,2.534E3,2.33E2,1.438E3,1.096E3,1.14E2,1.19E2,1.358E3,8E1,4.43E2,6.53E2,9.6E1,1.8E1,9.7E1,2.2E1,1.08E3,2.78E2,5.5E1,2.5E1,1.88E2,2.55E2,1.74E2,4.79E2,5E1,4.7E1],"tree_param":{"num_deleted":"0","num_feature":"2","num_nodes":"25","size_leaf_vector":"1"}},{"base_weights":[-9.778581E-4,3.1414617E-2,-1.4690304E-1,-4.175014E-2,2.4867558E-1,-4.3827924E-1,2.1216546E-1,9.848384E-2,-9.232235E-2,3.983321E-1,-6.0770556E-2,-1.0381157E-1,-2.2637697E-1,1.2481463E0,-4.4523364E-1,-4.890417E-3,4.5776382E-2,-3.4146488E-2,-8.107748E-4,2.1438451E-2,1.0353779E-1,-1.0120785E-3,-4.214854E-2,-1.3080264E-2,1.4005971E-2,5.639362E-2,1.9195396E-1,-6.998774E-2,-2.8970292E-2],"categories":[],"categories_nodes":[],"categories_segments":[],"categories_sizes":[],"default_left":[0,0,0,0,0,0,0,0,0,0,0,0,0,0,0,0,0,0,0,0,0,0,0,0,0,0,0,0,0],"id":43,"left_children":[1,3,5,7,9,11,13,15,17,19,21,23,-1,25,27,-1,-1,-1,-1,-1,-1,-1,-1,-1,-1,-1,-1,-1,-1],"loss_changes":[1.30886135E1,3.603037E1,5.2718864E1,1.20370245E1,2.6467571E1,1.6950276E2,1.5447366E2,2.385149E1,2.6161087E1,4.4893497E1,3.4122477E0,1.5717542E0,0E0,3.9342422E1,5.302328E0,0E0,0E0,0E0,0E0,0E0,0E0,0E0,0E0,0E0,0E0,0E0,0E0,0E0,0E0],"parents":[2147483647,0,0,1,1,2,2,3,3,4,4,5,5,6,6,7,7,8,8,9,9,10,10,11,11,13,13,14,14],"right_children":[2,4,6,8,10,12,14,16,18,20,22,24,-1,26,28,-1,-1,-1,-1,-1,-1,-1,-1,-1,-1,-1,-1,-1,-1],"split_conditions":[5E0,4E0,9E0,9E0,1.9E1,6E0,1.1E1,5E0,1.3E1,1.6E1,2.3E1,5E0,-2.2637697E-1,1E1,1.2E1,-4.890417E-3,4.5776382E-2,-3.4146488E-2,-8.107748E-4,2.1438451E-2,1.0353779E-1,-1.0120785E-3,-4.214854E-2,-1.3080264E-2,1.4005971E-2,5.639362E-2,1.9195396E-1,-6.998774E-2,-2.8970292E-2],"split_indices":[0,0,1,1,1,1,1,1,1,1,1,1,0,1,1,0,0,0,0,0,0,0,0,0,0,0,0,0,0],"split_type":[0,0,0,0,0,0,0,0,0,0,0,0,0,0,0,0,0,0,0,0,0,0,0,0,0,0,0,0,0],"sum_hessian":[2.767E3,2.265E3,5.02E2,1.695E3,5.7E2,2.77E2,2.25E2,4.49E2,1.246E3,3.84E2,1.86E2,2.35E2,4.2E1,8.7E1,1.38E2,3.19E2,1.3E2,3.14E2,9.32E2,2.99E2,8.5E1,1.64E2,2.2E1,2.12E2,2.3E1,4.4E1,4.3E1,5.1E1,8.7E1],"tree_param":{"num_deleted":"0","num_feature":"2","num_nodes":"29","size_leaf_vector":"1"}},{"base_weights":[-8.758346E-4,1.913937E-2,-2.1770348E-1,5.661452E-2,-1.3236383E-1,-3.9365104E-1,-4.7272872E-2,-1.575729E-2,2.773655E-1,-3.9526248E-1,1.9161046E-1,-4.368837E-2,-1.5221844E-2,3.1572964E-2,-3.8116936E-2,8.872634E-3,-5.915699E-3,-2.448362E-2,3.889563E-2,-9.342666E-3,-2.0426576E-1,1.12615444E-1,-4.0142175E-2,1.1154253E-2,-5.405247E-3],"categories":[],"categories_nodes":[],"categories_segments":[],"categories_sizes":[],"default_left":[0,0,0,0,0,0,0,0,0,0,0,0,0,0,0,0,0,0,0,0,0,0,0,0,0],"id":44,"left_children":[1,3,5,7,9,11,13,15,17,19,21,-1,-1,23,-1,-1,-1,-1,-1,-1,-1,-1,-1,-1,-1],"loss_changes":[1.2016871E1,1.4400222E1,6.998315E0,3.248388E1,4.2917458E1,1.1338425E0,3.1711962E0,6.952192E0,2.9348228E1,1.380427E2,1.2570458E2,0E0,0E0,6.770772E-1,0E0,0E0,0E0,0E0,0E0,0E0,0E0,0E0,0E0,0E0,0E0],"parents":[2147483647,0,0,1,1,2,2,3,3,4,4,5,5,6,6,7,7,8,8,9,9,10,10,13,13],"right_children":[2,4,6,8,10,12,14,16,18,20,22,-1,-1,24,-1,-1,-1,-1,-1,-1,-1,-1,-1,-1,-1],"split_conditions":[2.2E1,5E0,3E0,4E0,9E0,2.3E1,2.3E1,9E0,5E0,6E0,1.1E1,-4.368837E-2,-1.5221844E-2,4E0,-3.8116936E-2,8.872634E-3,-5.915699E-3,-2.448362E-2,3.889563E-2,-9.342666E-3,-2.0426576E-1,1.12615444E-1,-4.0142175E-2,1.1154253E-2,-5.405247E-3],"split_indices":[1,0,0,0,1,1,1,1,1,1,1,0,0,0,0,0,0,0,0,0,0,0,0,0,0],"split_type":[0,0,0,0,0,0,0,0,0,0,0,0,0,0,0,0,0,0,0,0,0,0,0,0,0],"sum_hessian":[2.767E3,2.534E3,2.33E2,2.032E3,5.02E2,1.14E2,1.19E2,1.531E3,5.01E2,2.77E2,2.25E2,9.6E1,1.8E1,9.7E1,2.2E1,4.49E2,1.082E3,8.8E1,4.13E2,2.35E2,4.2E1,8.7E1,1.38E2,5E1,4.7E1],"tree_param":{"num_deleted":"0","num_feature":"2","num_nodes":"25","size_leaf_vector":"1"}},{"base_weights":[-8.658597E-4,2.3525318E-2,-1.50095E-1,-4.7007427E-2,1.3124622E-1,-2.3960395E-1,-1.1303866E-1,4.19741E-3,-9.0553045E-1,3.1480935E-1,-3.234752E-2,-1.2155178E-2,-3.1312197E-1,3.2521322E-2,-1.8098469E-1,-5.391764E-3,2.2935214E-2,-1.4153086E-1,2.2728106E-2,9.664138E-2,1.3466944E-2,-5.6174666E-2,1.5568401E-2,-3.722992E-2,-1.37797715E-2,5.13739E-2,-4.084336E-2,-4.1526135E-2,-4.281511E-3],"categories":[],"categories_nodes":[],"categories_segments":[],"categories_sizes":[],"default_left":[0,0,0,0,0,0,0,0,0,0,0,0,0,0,0,0,0,0,0,0,0,0,0,0,0,0,0,0,0],"id":45,"left_children":[1,3,5,7,9,11,13,15,17,19,21,-1,23,25,27,-1,-1,-1,-1,-1,-1,-1,-1,-1,-1,-1,-1,-1,-1],"loss_changes":[1.0078703E1,1.8089056E1,1.2631798E0,6.3263E1,2.8298235E1,9.4266224E-1,2.7454774E0,1.7794714E1,4.7097755E1,5.1986553E1,4.9759777E1,0E0,6.64587E-1,1.909521E1,6.100133E0,0E0,0E0,0E0,0E0,0E0,0E0,0E0,0E0,0E0,0E0,0E0,0E0,0E0,0E0],"parents":[2147483647,0,0,1,1,2,2,3,3,4,4,5,5,6,6,7,7,8,8,9,9,10,10,12,12,13,13,14,14],"right_children":[2,4,6,8,10,12,14,16,18,20,22,-1,24,26,28,-1,-1,-1,-1,-1,-1,-1,-1,-1,-1,-1,-1,-1,-1],"split_conditions":[2.1E1,1.3E1,2E0,1.2E1,1.7E1,2.2E1,3E0,1E1,5E0,2E0,2E0,-1.2155178E-2,2.3E1,2.2E1,2.2E1,-5.391764E-3,2.2935214E-2,-1.4153086E-1,2.2728106E-2,9.664138E-2,1.3466944E-2,-5.6174666E-2,1.5568401E-2,-3.722992E-2,-1.37797715E-2,5.13739E-2,-4.084336E-2,-4.1526135E-2,-4.281511E-3],"split_indices":[1,1,0,1,1,1,0,1,0,0,0,0,1,1,1,0,0,0,0,0,0,0,0,0,0,0,0,0,0],"split_type":[0,0,0,0,0,0,0,0,0,0,0,0,0,0,0,0,0,0,0,0,0,0,0,0,0,0,0,0,0],"sum_hessian":[2.767E3,2.379E3,3.88E2,1.438E3,9.41E2,1.12E2,2.76E2,1.358E3,8E1,4.43E2,4.98E2,4.4E1,6.8E1,8.8E1,1.88E2,1.08E3,2.78E2,5.5E1,2.5E1,9.5E1,3.48E2,1.3E2,3.68E2,5E1,1.8E1,4.2E1,4.6E1,6.9E1,1.19E2],"tree_param":{"num_deleted":"0","num_feature":"2","num_nodes":"29","size_leaf_vector":"1"}},{"base_weights":[-8.264599E-4,2.6303204E-2,-1.2304314E-1,-3.305744E-2,2.0257176E-1,-3.5113233E-1,1.5807119E-1,8.5253134E-2,-7.5725205E-2,3.3294314E-1,-6.692315E-2,-7.875481E-2,-1.8378757E-1,1.0063072E0,-3.800788E-1,-1.4376141E-2,2.809312E-2,-2.896373E-2,-3.4229146E-4,-2.152964E-2,4.961094E-2,-3.315127E-2,2.1747996E-3,-1.0311885E-2,1.4075749E-2,4.0395595E-2,1.599478E-1,-2.5992328E-2,-6.7096554E-2],"categories":[],"categories_nodes":[],"categories_segments":[],"categories_sizes":[],"default_left":[0,0,0,0,0,0,0,0,0,0,0,0,0,0,0,0,0,0,0,0,0,0,0,0,0,0,0,0,0],"id":46,"left_children":[1,3,5,7,9,11,13,15,17,19,21,23,-1,25,27,-1,-1,-1,-1,-1,-1,-1,-1,-1,-1,-1,-1,-1,-1],"loss_changes":[9.181088E0,2.3716795E1,3.2307434E1,8.567944E0,2.0084034E1,1.1243289E2,1.0354656E2,2.0206295E1,1.9285526E1,3.4546673E1,4.3945026E0,1.2766914E0,0E0,3.0796028E1,4.6838818E0,0E0,0E0,0E0,0E0,0E0,0E0,0E0,0E0,0E0,0E0,0E0,0E0,0E0,0E0],"parents":[2147483647,0,0,1,1,2,2,3,3,4,4,5,5,6,6,7,7,8,8,9,9,10,10,11,11,13,13,14,14],"right_children":[2,4,6,8,10,12,14,16,18,20,22,24,-1,26,28,-1,-1,-1,-1,-1,-1,-1,-1,-1,-1,-1,-1,-1,-1],"split_conditions":[5E0,4E0,9E0,9E0,1.9E1,6E0,1.1E1,4E0,1.3E1,5E0,2E1,5E0,-1.8378757E-1,1E1,1.4E1,-1.4376141E-2,2.809312E-2,-2.896373E-2,-3.4229146E-4,-2.152964E-2,4.961094E-2,-3.315127E-2,2.1747996E-3,-1.0311885E-2,1.4075749E-2,4.0395595E-2,1.599478E-1,-2.5992328E-2,-6.7096554E-2],"split_indices":[0,0,1,1,1,1,1,1,1,1,1,1,0,1,1,0,0,0,0,0,0,0,0,0,0,0,0,0,0],"split_type":[0,0,0,0,0,0,0,0,0,0,0,0,0,0,0,0,0,0,0,0,0,0,0,0,0,0,0,0,0],"sum_hessian":[2.767E3,2.265E3,5.02E2,1.695E3,5.7E2,2.77E2,2.25E2,4.49E2,1.246E3,3.84E2,1.86E2,2.35E2,4.2E1,8.7E1,1.38E2,2.07E2,2.42E2,3.14E2,9.32E2,8.8E1,2.96E2,4.6E1,1.4E2,2.12E2,2.3E1,4.4E1,4.3E1,9.9E1,3.9E1],"tree_param":{"num_deleted":"0","num_feature":"2","num_nodes":"29","size_leaf_vector":"1"}},{"base_weights":[-7.768952E-4,3.372331E-2,-8.859461E-2,-4.044849E-2,2.2772239E-1,-5.046842E-2,-1.7750296E-1,4.818347E-3,-7.994261E-1,3.038076E-1,-3.6525047E-1,-2.0799068E-1,-2.455786E-3,-3.1977773E-1,-3.967713E-2,-4.3761465E-3,1.9302607E-2,-1.2212953E-2,-1.601559E-1,1.7492367E-2,7.5566836E-2,5.046129E-3,-6.055463E-2,-1.4488143E-1,3.3201057E-2,1.7170567E-2,-1.9576272E-2,-3.5474725E-2,-1.2441876E-2,3.1843984E-3,-3.426942E-2],"categories":[],"categories_nodes":[],"categories_segments":[],"categories_sizes":[],"default_left":[0,0,0,0,0,0,0,0,0,0,0,0,0,0,0,0,0,0,0,0,0,0,0,0,0,0,0,0,0,0,0],"id":47,"left_children":[1,3,5,7,9,11,13,15,17,19,21,23,25,27,29,-1,-1,-1,-1,-1,-1,-1,-1,-1,-1,-1,-1,-1,-1,-1,-1],"loss_changes":[8.389277E0,2.8615063E1,2.6384263E0,4.9442875E1,2.4925013E1,4.144045E0,4.575851E0,1.2433913E1,4.381023E1,2.8287758E1,6.323865E0,8.624695E1,1.420726E1,7.41498E-1,2.6115665E0,0E0,0E0,0E0,0E0,0E0,0E0,0E0,0E0,0E0,0E0,0E0,0E0,0E0,0E0,0E0,0E0],"parents":[2147483647,0,0,1,1,2,2,3,3,4,4,5,5,6,6,7,7,8,8,9,9,10,10,11,11,12,12,13,13,14,14],"right_children":[2,4,6,8,10,12,14,16,18,20,22,24,26,28,30,-1,-1,-1,-1,-1,-1,-1,-1,-1,-1,-1,-1,-1,-1,-1,-1],"split_conditions":[1.8E1,1.3E1,2.2E1,1.2E1,5E0,1.9E1,3E0,1E1,4E0,4E0,1.4E1,3E0,3E0,2.3E1,2.3E1,-4.3761465E-3,1.9302607E-2,-1.2212953E-2,-1.601559E-1,1.7492367E-2,7.5566836E-2,5.046129E-3,-6.055463E-2,-1.4488143E-1,3.3201057E-2,1.7170567E-2,-1.9576272E-2,-3.5474725E-2,-1.2441876E-2,3.1843984E-3,-3.426942E-2],"split_indices":[1,1,1,1,0,1,0,1,0,0,1,0,0,1,1,0,0,0,0,0,0,0,0,0,0,0,0,0,0,0,0],"split_type":[0,0,0,0,0,0,0,0,0,0,0,0,0,0,0,0,0,0,0,0,0,0,0,0,0,0,0,0,0,0,0],"sum_hessian":[2.767E3,1.987E3,7.8E2,1.438E3,5.49E2,5.47E2,2.33E2,1.358E3,8E1,4.87E2,6.2E1,1.27E2,4.2E2,1.14E2,1.19E2,1.08E3,2.78E2,4.4E1,3.6E1,3.8E2,1.07E2,2.3E1,3.9E1,3.8E1,8.9E1,2.21E2,1.99E2,9.6E1,1.8E1,9.7E1,2.2E1],"tree_param":{"num_deleted":"0","num_feature":"2","num_nodes":"31","size_leaf_vector":"1"}},{"base_weights":[-8.1241777E-4,1.958443E-2,-1.256034E-1,-3.6513206E-2,1.05258435E-1,-1.5963729E-1,-4.6087913E-2,4.34733E-3,-7.2161144E-1,2.5512254E-1,-2.8298527E-2,-9.7482875E-2,-3.3093452E-1,1.7600695E-2,-3.099148E-2,-1.1193513E-2,7.1521713E-3,-1.22223794E-1,3.8441543E-2,6.3311435E-2,-2.4938271E-3,-5.005425E-2,1.3943116E-2,1.5575692E-2,-2.8821662E-2,-1.3195555E-1,1.0201836E-2,8.328123E-3,-4.981486E-3],"categories":[],"categories_nodes":[],"categories_segments":[],"categories_sizes":[],"default_left":[0,0,0,0,0,0,0,0,0,0,0,0,0,0,0,0,0,0,0,0,0,0,0,0,0,0,0,0,0],"id":48,"left_children":[1,3,5,7,9,11,13,15,17,19,21,23,25,27,-1,-1,-1,-1,-1,-1,-1,-1,-1,-1,-1,-1,-1,-1,-1],"loss_changes":[7.047968E0,1.1442384E1,1.0453634E0,4.0285755E1,1.8861723E1,2.8636909E0,1.9881814E0,1.062343E1,4.532007E1,4.7017937E1,3.959525E1,9.753468E0,3.0952517E1,4.29226E-1,0E0,0E0,0E0,0E0,0E0,0E0,0E0,0E0,0E0,0E0,0E0,0E0,0E0,0E0,0E0],"parents":[2147483647,0,0,1,1,2,2,3,3,4,4,5,5,6,6,7,7,8,8,9,9,10,10,11,11,12,12,13,13],"right_children":[2,4,6,8,10,12,14,16,18,20,22,24,26,28,-1,-1,-1,-1,-1,-1,-1,-1,-1,-1,-1,-1,-1,-1,-1],"split_conditions":[2.1E1,1.3E1,4E0,1.2E1,1.7E1,3E0,2.3E1,3E0,5E0,3E0,2E0,2.2E1,2.2E1,2.2E1,-3.099148E-2,-1.1193513E-2,7.1521713E-3,-1.22223794E-1,3.8441543E-2,6.3311435E-2,-2.4938271E-3,-5.005425E-2,1.3943116E-2,1.5575692E-2,-2.8821662E-2,-1.3195555E-1,1.0201836E-2,8.328123E-3,-4.981486E-3],"split_indices":[1,1,0,1,1,0,1,0,0,0,0,1,1,1,0,0,0,0,0,0,0,0,0,0,0,0,0,0,0],"split_type":[0,0,0,0,0,0,0,0,0,0,0,0,0,0,0,0,0,0,0,0,0,0,0,0,0,0,0,0,0],"sum_hessian":[2.767E3,2.379E3,3.88E2,1.438E3,9.41E2,2.71E2,1.17E2,1.358E3,8E1,4.43E2,4.98E2,2E2,7.1E1,9.5E1,2.2E1,4.97E2,8.61E2,5.5E1,2.5E1,1.88E2,2.55E2,1.3E2,3.68E2,8.6E1,1.14E2,2.1E1,5E1,4.8E1,4.7E1],"tree_param":{"num_deleted":"0","num_feature":"2","num_nodes":"29","size_leaf_vector":"1"}},{"base_weights":[-8.127144E-4,2.2709552E-2,-1.06778204E-1,-2.7539887E-2,1.7192206E-1,-3.1943274E-1,1.5527816E-1,8.691176E-2,-6.881952E-2,3.8097587E-1,3.5872966E-2,-7.3627606E-2,-1.6610742E-1,8.936374E-1,-3.1328943E-1,-3.7785552E-3,3.9085247E-2,-2.8555026E-2,-8.632363E-4,1.1766677E-3,1.8174255E-1,-5.1785344E-1,2.2199502E-2,1.4157342E-3,-1.28817875E-2,3.617425E-2,1.417311E-1,-6.1481427E-2,-1.3155556E-2],"categories":[],"categories_nodes":[],"categories_segments":[],"categories_sizes":[],"default_left":[0,0,0,0,0,0,0,0,0,0,0,0,0,0,0,0,0,0,0,0,0,0,0,0,0,0,0,0,0],"id":49,"left_children":[1,3,5,7,9,11,13,15,17,19,21,23,-1,25,27,-1,-1,-1,-1,-1,-1,-1,-1,-1,-1,-1,-1,-1,-1],"loss_changes":[6.9017997E0,1.699485E1,2.808052E1,8.01877E0,1.6226477E1,9.155719E1,7.846947E1,1.7070032E1,1.6263908E1,1.1930745E2,3.379187E2,1.1452137E0,0E0,2.3998756E1,7.53594E0,0E0,0E0,0E0,0E0,0E0,0E0,0E0,0E0,0E0,0E0,0E0,0E0,0E0,0E0],"parents":[2147483647,0,0,1,1,2,2,3,3,4,4,5,5,6,6,7,7,8,8,9,9,10,10,11,11,13,13,14,14],"right_children":[2,4,6,8,10,12,14,16,18,20,22,24,-1,26,28,-1,-1,-1,-1,-1,-1,-1,-1,-1,-1,-1,-1,-1,-1],"split_conditions":[5E0,4E0,9E0,9E0,1.2E1,6E0,1.1E1,5E0,1.2E1,1E1,1.3E1,7E0,-1.6610742E-1,1E1,1.2E1,-3.7785552E-3,3.9085247E-2,-2.8555026E-2,-8.632363E-4,1.1766677E-3,1.8174255E-1,-5.1785344E-1,2.2199502E-2,1.4157342E-3,-1.28817875E-2,3.617425E-2,1.417311E-1,-6.1481427E-2,-1.3155556E-2],"split_indices":[0,0,1,1,1,1,1,1,1,1,1,0,0,1,1,0,0,0,0,0,0,0,0,0,0,0,0,0,0],"split_type":[0,0,0,0,0,0,0,0,0,0,0,0,0,0,0,0,0,0,0,0,0,0,0,0,0,0,0,0,0],"sum_hessian":[2.767E3,2.265E3,5.02E2,1.695E3,5.7E2,2.77E2,2.25E2,4.49E2,1.246E3,2.24E2,3.46E2,2.35E2,4.2E1,8.7E1,1.38E2,3.19E2,1.3E2,2.7E2,9.76E2,1.79E2,4.5E1,1.1E1,3.35E2,9.1E1,1.44E2,4.4E1,4.3E1,5.1E1,8.7E1],"tree_param":{"num_deleted":"0","num_feature":"2","num_nodes":"29","size_leaf_vector":"1"}}]},"name":"gbtree"},"learner_model_param":{"base_score":"[1.3450307E1]","boost_from_average":"1","num_class":"0","num_feature":"2","num_target":"1"},"objective":{"name":"reg:squarederror","reg_loss_param":{"scale_pos_weight":"1"}}},"version":[3,2,0]}