{"learner":{"attributes":{},"feature_names":["day_of_week","hour_of_day"],"feature_types":[],"gradient_booster":{"model":{"cats":{"enc":[],"feature_segments":[],"sorted_idx":[]},"gbtree_model_param":{"num_parallel_tree":"1","num_trees":"50"},"iteration_indptr":[0,1,2,3,4,5,6,7,8,9,10,11,12,13,14,15,16,17,18,19,20,21,22,23,24,25,26,27,28,29,30,31,32,33,34,35,36,37,38,39,40,41,42,43,44,45,46,47,48,49,50],"tree_info":[0,0,0,0,0,0,0,0,0,0,0,0,0,0,0,0,0,0,0,0,0,0,0,0,0,0,0,0,0,0,0,0,0,0,0,0,0,0,0,0,0,0,0,0,0,0,0,0,0,0],"trees":[{"base_weights":[-2.5833955E-7,-9.930662E0,1.2644843E0,-1.0593155E1,-7.2573028E0,3.2735631E0,-4.6905823E0,-1.1841565E0,-8.8341284E-1,-2.726834E-1,-8.384791E0,-1.7536391E0,4.0207977E0,-2.368321E0,-7.536675E0,-7.221744E-1,-9.2105705E-1,1.872603E-1,-6.911998E-1,4.373575E-1,-1.1982295E-2,-5.026246E-1,-7.4754365E-2,-1.0372652E0,-6.2261224E-1],"categories":[],"categories_nodes":[],"categories_segments":[],"categories_sizes":[],"default_left":[0,0,0,0,0,0,0,0,0,0,0,0,0,0,0,0,0,0,0,0,0,0,0,0,0],"id":0,"left_children":[1,3,5,7,9,11,13,-1,-1,-1,15,17,19,21,23,-1,-1,-1,-1,-1,-1,-1,-1,-1,-1],"loss_changes":[6.14799E4,9.0253125E2,5.1975867E4,8.638203E2,5.543457E2,1.2208156E4,7.2260215E3,0E0,0E0,0E0,1.9921387E1,7.8879414E3,4.1314336E3,2.6025247E3,1.7640352E3,0E0,0E0,0E0,0E0,0E0,0E0,0E0,0E0,0E0,0E0],"parents":[2147483647,0,0,1,1,2,2,3,3,4,4,5,5,6,6,10,10,11,11,12,12,13,13,14,14],"right_children":[2,4,6,8,10,12,14,-1,-1,-1,16,18,20,22,24,-1,-1,-1,-1,-1,-1,-1,-1,-1,-1],"split_conditions":[4E0,3E0,2E1,5E0,2E0,7E0,2.2E1,-1.1841565E0,-8.8341284E-1,-2.726834E-1,7E0,5E0,1.9E1,4E0,4E0,-7.221744E-1,-9.2105705E-1,1.872603E-1,-6.911998E-1,4.373575E-1,-1.1982295E-2,-5.026246E-1,-7.4754365E-2,-1.0372652E0,-6.2261224E-1],"split_indices":[1,1,1,0,0,1,1,0,0,0,0,0,1,0,0,0,0,0,0,0,0,0,0,0,0],"split_type":[0,0,0,0,0,0,0,0,0,0,0,0,0,0,0,0,0,0,0,0,0,0,0,0,0],"sum_hessian":[4.894E3,5.52E2,4.342E3,4.4E2,1.12E2,3.247E3,1.095E3,2.54E2,1.86E2,2.3E1,8.9E1,4.2E2,2.827E3,6.04E2,4.91E2,4.1E1,4.8E1,2.47E2,1.73E2,2.605E3,2.22E2,2.28E2,3.76E2,1.53E2,3.38E2],"tree_param":{"num_deleted":"0","num_feature":"2","num_nodes":"25","size_leaf_vector":"1"}},{"base_weights":[-1.2872972E-3,-8.9448E0,1.1375024E0,-9.5385275E0,-6.5485277E0,2.9461825E0,-4.2235656E0,-1.0662053E0,-7.955441E-1,-2.4655128E-1,-7.56457E0,-1.5794725E0,3.6188679E0,-2.132443E0,-6.7863812E0,-6.516764E-1,-8.3083105E-1,1.6860975E-1,-6.224771E-1,3.936385E-1,-1.0789472E-2,-4.525816E-1,-6.72987E-2,-9.342123E-1,-5.605347E-1],"categories":[],"categories_nodes":[],"categories_segments":[],"categories_sizes":[],"default_left":[0,0,0,0,0,0,0,0,0,0,0,0,0,0,0,0,0,0,0,0,0,0,0,0,0],"id":1,"left_children":[1,3,5,7,9,11,13,-1,-1,-1,15,17,19,21,23,-1,-1,-1,-1,-1,-1,-1,-1,-1,-1],"loss_changes":[4.986467E4,7.243086E2,4.212415E4,6.995586E2,4.5013184E2,9.893736E3,5.859172E3,0E0,0E0,0E0,1.5993164E1,6.396875E3,3.3468281E3,2.1102327E3,1.4326953E3,0E0,0E0,0E0,0E0,0E0,0E0,0E0,0E0,0E0,0E0],"parents":[2147483647,0,0,1,1,2,2,3,3,4,4,5,5,6,6,10,10,11,11,12,12,13,13,14,14],"right_children":[2,4,6,8,10,12,14,-1,-1,-1,16,18,20,22,24,-1,-1,-1,-1,-1,-1,-1,-1,-1,-1],"split_conditions":[4E0,3E0,2E1,5E0,2E0,7E0,2.2E1,-1.0662053E0,-7.955441E-1,-2.4655128E-1,7E0,5E0,1.9E1,4E0,4E0,-6.516764E-1,-8.3083105E-1,1.6860975E-1,-6.224771E-1,3.936385E-1,-1.0789472E-2,-4.525816E-1,-6.72987E-2,-9.342123E-1,-5.605347E-1],"split_indices":[1,1,1,0,0,1,1,0,0,0,0,0,1,0,0,0,0,0,0,0,0,0,0,0,0],"split_type":[0,0,0,0,0,0,0,0,0,0,0,0,0,0,0,0,0,0,0,0,0,0,0,0,0],"sum_hessian":[4.894E3,5.52E2,4.342E3,4.4E2,1.12E2,3.247E3,1.095E3,2.54E2,1.86E2,2.3E1,8.9E1,4.2E2,2.827E3,6.04E2,4.91E2,4.1E1,4.8E1,2.47E2,1.73E2,2.605E3,2.22E2,2.28E2,3.76E2,1.53E2,3.38E2],"tree_param":{"num_deleted":"0","num_feature":"2","num_nodes":"25","size_leaf_vector":"1"}},{"base_weights":[-2.318257E-3,-8.056813E0,1.0232719E0,-8.588897E0,-5.9089766E0,2.6515424E0,-3.803047E0,-9.600029E-1,-7.164151E-1,-2.2292343E-1,-6.824586E0,-1.4226031E0,3.2571166E0,-1.9200579E0,-6.110781E0,-5.880604E-1,-7.494436E-1,1.5181677E-1,-5.605871E-1,3.696445E-1,1.0280988E-1,-4.075211E-1,-6.058667E-2,-8.413977E-1,-5.0464666E-1],"categories":[],"categories_nodes":[],"categories_segments":[],"categories_sizes":[],"default_left":[0,0,0,0,0,0,0,0,0,0,0,0,0,0,0,0,0,0,0,0,0,0,0,0,0],"id":2,"left_children":[1,3,5,7,9,11,13,-1,-1,-1,15,17,19,21,23,-1,-1,-1,-1,-1,-1,-1,-1,-1,-1],"loss_changes":[4.0443934E4,5.812344E2,3.4139777E4,5.6653125E2,3.6550635E2,8.01809E3,4.750868E3,0E0,0E0,0E0,1.2837891E1,5.187666E3,2.7655781E3,1.711062E3,1.1635918E3,0E0,0E0,0E0,0E0,0E0,0E0,0E0,0E0,0E0,0E0],"parents":[2147483647,0,0,1,1,2,2,3,3,4,4,5,5,6,6,10,10,11,11,12,12,13,13,14,14],"right_children":[2,4,6,8,10,12,14,-1,-1,-1,16,18,20,22,24,-1,-1,-1,-1,-1,-1,-1,-1,-1,-1],"split_conditions":[4E0,3E0,2E1,5E0,2E0,7E0,2.2E1,-9.600029E-1,-7.164151E-1,-2.2292343E-1,7E0,5E0,1.8E1,4E0,4E0,-5.880604E-1,-7.494436E-1,1.5181677E-1,-5.605871E-1,3.696445E-1,1.0280988E-1,-4.075211E-1,-6.058667E-2,-8.413977E-1,-5.0464666E-1],"split_indices":[1,1,1,0,0,1,1,0,0,0,0,0,1,0,0,0,0,0,0,0,0,0,0,0,0],"split_type":[0,0,0,0,0,0,0,0,0,0,0,0,0,0,0,0,0,0,0,0,0,0,0,0,0],"sum_hessian":[4.894E3,5.52E2,4.342E3,4.4E2,1.12E2,3.247E3,1.095E3,2.54E2,1.86E2,2.3E1,8.9E1,4.2E2,2.827E3,6.04E2,4.91E2,4.1E1,4.8E1,2.47E2,1.73E2,2.361E3,4.66E2,2.28E2,3.76E2,1.53E2,3.38E2],"tree_param":{"num_deleted":"0","num_feature":"2","num_nodes":"25","size_leaf_vector":"1"}},{"base_weights":[-3.105124E-3,-7.256985E0,9.205419E-1,-7.7338085E0,-5.3318877E0,2.154392E0,-4.2733846E0,-8.6437905E-1,-6.451567E-1,-2.0155993E-1,-6.156988E0,-1.2813137E0,2.6217957E0,-6.4889407E0,-3.2128577E0,-5.306545E-1,-6.7602867E-1,1.3669635E-1,-5.0485057E-1,3.198379E-1,-4.817034E-2,-4.9871245E-1,-7.5780433E-1,-1.9246037E-1,-6.5273076E-1],"categories":[],"categories_nodes":[],"categories_segments":[],"categories_sizes":[],"default_left":[0,0,0,0,0,0,0,0,0,0,0,0,0,0,0,0,0,0,0,0,0,0,0,0,0],"id":3,"left_children":[1,3,5,7,9,11,13,-1,-1,-1,15,17,19,21,23,-1,-1,-1,-1,-1,-1,-1,-1,-1,-1],"loss_changes":[3.28033E4,4.6638086E2,2.7841438E4,4.5880078E2,2.9678882E2,5.6399346E3,1.9387646E3,0E0,0E0,0E0,1.030249E1,4.207036E3,5.5308633E3,4.0219336E2,2.4041748E3,0E0,0E0,0E0,0E0,0E0,0E0,0E0,0E0,0E0,0E0],"parents":[2147483647,0,0,1,1,2,2,3,3,4,4,5,5,6,6,10,10,11,11,12,12,13,13,14,14],"right_children":[2,4,6,8,10,12,14,-1,-1,-1,16,18,20,22,24,-1,-1,-1,-1,-1,-1,-1,-1,-1,-1],"split_conditions":[4E0,3E0,2.1E1,5E0,2E0,7E0,4E0,-8.6437905E-1,-6.451567E-1,-2.0155993E-1,7E0,5E0,1.9E1,2.2E1,7E0,-5.306545E-1,-6.7602867E-1,1.3669635E-1,-5.0485057E-1,3.198379E-1,-4.817034E-2,-4.9871245E-1,-7.5780433E-1,-1.9246037E-1,-6.5273076E-1],"split_indices":[1,1,1,0,0,1,0,0,0,0,0,0,1,1,0,0,0,0,0,0,0,0,0,0,0],"split_type":[0,0,0,0,0,0,0,0,0,0,0,0,0,0,0,0,0,0,0,0,0,0,0,0,0],"sum_hessian":[4.894E3,5.52E2,4.342E3,4.4E2,1.12E2,3.509E3,8.33E2,2.54E2,1.86E2,2.3E1,8.9E1,4.2E2,3.089E3,2.68E2,5.65E2,4.1E1,4.8E1,2.47E2,1.73E2,2.605E3,4.84E2,1.15E2,1.53E2,4.08E2,1.57E2],"tree_param":{"num_deleted":"0","num_feature":"2","num_nodes":"25","size_leaf_vector":"1"}},{"base_weights":[-3.8396744E-3,-6.536563E0,8.279816E-1,-6.9638505E0,-4.8111615E0,1.9389254E0,-3.848566E0,-7.7828014E-1,-5.8098596E-1,-1.8224376E-1,-5.554697E0,-1.154057E0,2.3597043E0,-2.1175063E0,-5.04756E0,-4.7885248E-1,-6.098055E-1,1.23081796E-1,-4.5465565E-1,2.878664E-1,-4.3363262E-2,-4.4927117E-1,-8.997812E-2,-4.382399E-1,-7.817259E-1],"categories":[],"categories_nodes":[],"categories_segments":[],"categories_sizes":[],"default_left":[0,0,0,0,0,0,0,0,0,0,0,0,0,0,0,0,0,0,0,0,0,0,0,0,0],"id":4,"left_children":[1,3,5,7,9,11,13,-1,-1,-1,15,17,19,21,23,-1,-1,-1,-1,-1,-1,-1,-1,-1,-1],"loss_changes":[2.6605129E4,3.741914E2,2.2571004E4,3.715547E2,2.4098804E2,4.5708535E3,1.7203037E3,0E0,0E0,0E0,8.266846E0,3.4117756E3,4.4806016E3,9.880325E2,8.7215137E2,0E0,0E0,0E0,0E0,0E0,0E0,0E0,0E0,0E0,0E0],"parents":[2147483647,0,0,1,1,2,2,3,3,4,4,5,5,6,6,10,10,11,11,12,12,13,13,14,14],"right_children":[2,4,6,8,10,12,14,-1,-1,-1,16,18,20,22,24,-1,-1,-1,-1,-1,-1,-1,-1,-1,-1],"split_conditions":[4E0,3E0,2.1E1,5E0,2E0,7E0,2.2E1,-7.7828014E-1,-5.8098596E-1,-1.8224376E-1,7E0,5E0,1.9E1,4E0,7E0,-4.7885248E-1,-6.098055E-1,1.23081796E-1,-4.5465565E-1,2.878664E-1,-4.3363262E-2,-4.4927117E-1,-8.997812E-2,-4.382399E-1,-7.817259E-1],"split_indices":[1,1,1,0,0,1,1,0,0,0,0,0,1,0,0,0,0,0,0,0,0,0,0,0,0],"split_type":[0,0,0,0,0,0,0,0,0,0,0,0,0,0,0,0,0,0,0,0,0,0,0,0,0],"sum_hessian":[4.894E3,5.52E2,4.342E3,4.4E2,1.12E2,3.509E3,8.33E2,2.54E2,1.86E2,2.3E1,8.9E1,4.2E2,3.089E3,3.42E2,4.91E2,4.1E1,4.8E1,2.47E2,1.73E2,2.605E3,4.84E2,1.15E2,2.27E2,3.98E2,9.3E1],"tree_param":{"num_deleted":"0","num_feature":"2","num_nodes":"25","size_leaf_vector":"1"}},{"base_weights":[-4.3702642E-3,-5.887663E0,7.4475825E-1,-6.270548E0,-4.3412924E0,1.745008E0,-3.465819E0,-7.007573E-1,-5.2319807E-1,-1.6477878E-1,-5.011324E0,-1.0394391E0,2.123813E0,-5.4033914E0,-2.538835E0,-4.3210736E-1,-5.500695E-1,1.1082323E-1,-4.094514E-1,2.5909078E-1,-3.903585E-2,-4.0473133E-1,-6.389765E-1,-1.4342396E-1,-5.3821313E-1],"categories":[],"categories_nodes":[],"categories_segments":[],"categories_sizes":[],"default_left":[0,0,0,0,0,0,0,0,0,0,0,0,0,0,0,0,0,0,0,0,0,0,0,0,0],"id":5,"left_children":[1,3,5,7,9,11,13,-1,-1,-1,15,17,19,21,23,-1,-1,-1,-1,-1,-1,-1,-1,-1,-1],"loss_changes":[2.1578326E4,3.0019922E2,1.829715E4,3.009004E2,1.95677E2,3.7044219E3,1.4842275E3,0E0,0E0,0E0,6.63208E0,2.7668438E3,3.6297754E3,3.3395312E2,1.7699121E3,0E0,0E0,0E0,0E0,0E0,0E0,0E0,0E0,0E0,0E0],"parents":[2147483647,0,0,1,1,2,2,3,3,4,4,5,5,6,6,10,10,11,11,12,12,13,13,14,14],"right_children":[2,4,6,8,10,12,14,-1,-1,-1,16,18,20,22,24,-1,-1,-1,-1,-1,-1,-1,-1,-1,-1],"split_conditions":[4E0,3E0,2.1E1,5E0,2E0,7E0,4E0,-7.007573E-1,-5.2319807E-1,-1.6477878E-1,7E0,5E0,1.9E1,2.2E1,7E0,-4.3210736E-1,-5.500695E-1,1.1082323E-1,-4.094514E-1,2.5909078E-1,-3.903585E-2,-4.0473133E-1,-6.389765E-1,-1.4342396E-1,-5.3821313E-1],"split_indices":[1,1,1,0,0,1,0,0,0,0,0,0,1,1,0,0,0,0,0,0,0,0,0,0,0],"split_type":[0,0,0,0,0,0,0,0,0,0,0,0,0,0,0,0,0,0,0,0,0,0,0,0,0],"sum_hessian":[4.894E3,5.52E2,4.342E3,4.4E2,1.12E2,3.509E3,8.33E2,2.54E2,1.86E2,2.3E1,8.9E1,4.2E2,3.089E3,2.68E2,5.65E2,4.1E1,4.8E1,2.47E2,1.73E2,2.605E3,4.84E2,1.15E2,1.53E2,4.08E2,1.57E2],"tree_param":{"num_deleted":"0","num_feature":"2","num_nodes":"25","size_leaf_vector":"1"}},{"base_weights":[-4.7859936E-3,-5.303184E0,6.698672E-1,-5.6462684E0,-3.9173133E0,1.7448677E0,-2.516512E0,-6.309564E-1,-4.7115803E-1,-1.4898749E-1,-4.5211043E0,-2.2108486E-1,2.3219798E0,-1.1649148E0,-4.173422E0,-3.899255E-1,-4.9618506E-1,1.852809E-1,-3.0903733E-1,2.7289924E-1,5.3469222E-2,-2.9257286E-1,-9.225911E-3,-3.612169E-1,-6.511362E-1],"categories":[],"categories_nodes":[],"categories_segments":[],"categories_sizes":[],"default_left":[0,0,0,0,0,0,0,0,0,0,0,0,0,0,0,0,0,0,0,0,0,0,0,0,0],"id":6,"left_children":[1,3,5,7,9,11,13,-1,-1,-1,15,17,19,21,23,-1,-1,-1,-1,-1,-1,-1,-1,-1,-1],"loss_changes":[1.7501129E4,2.4081738E2,1.4880726E4,2.4368066E2,1.588844E2,3.6856123E3,2.449601E3,0E0,0E0,0E0,5.319336E0,4.3972686E3,1.825166E3,1.1424221E3,6.220703E2,0E0,0E0,0E0,0E0,0E0,0E0,0E0,0E0,0E0,0E0],"parents":[2147483647,0,0,1,1,2,2,3,3,4,4,5,5,6,6,10,10,11,11,12,12,13,13,14,14],"right_children":[2,4,6,8,10,12,14,-1,-1,-1,16,18,20,22,24,-1,-1,-1,-1,-1,-1,-1,-1,-1,-1],"split_conditions":[4E0,3E0,2E1,5E0,2E0,9E0,2.2E1,-6.309564E-1,-4.7115803E-1,-1.4898749E-1,7E0,5E0,1.8E1,4E0,7E0,-3.899255E-1,-4.9618506E-1,1.852809E-1,-3.0903733E-1,2.7289924E-1,5.3469222E-2,-2.9257286E-1,-9.225911E-3,-3.612169E-1,-6.511362E-1],"split_indices":[1,1,1,0,0,1,1,0,0,0,0,0,1,0,0,0,0,0,0,0,0,0,0,0,0],"split_type":[0,0,0,0,0,0,0,0,0,0,0,0,0,0,0,0,0,0,0,0,0,0,0,0,0],"sum_hessian":[4.894E3,5.52E2,4.342E3,4.4E2,1.12E2,3.247E3,1.095E3,2.54E2,1.86E2,2.3E1,8.9E1,7.37E2,2.51E3,6.04E2,4.91E2,4.1E1,4.8E1,4.28E2,3.09E2,2.044E3,4.66E2,2.28E2,3.76E2,3.98E2,9.3E1],"tree_param":{"num_deleted":"0","num_feature":"2","num_nodes":"25","size_leaf_vector":"1"}},{"base_weights":[-4.971255E-3,-4.77673E0,6.0262436E-1,-5.084141E0,-3.5347416E0,1.4188907E0,-2.833464E0,-5.681082E-1,-4.242942E-1,-1.3470949E-1,-4.0788393E0,-9.179171E-1,1.7368121E0,-4.536404E0,-2.01911E0,-3.518613E-1,-4.475792E-1,8.133218E-2,-3.3801547E-1,2.2279668E-1,1.430615E-2,-3.35602E-1,-5.3960675E-1,-1.0711127E-1,-4.4603238E-1],"categories":[],"categories_nodes":[],"categories_segments":[],"categories_sizes":[],"default_left":[0,0,0,0,0,0,0,0,0,0,0,0,0,0,0,0,0,0,0,0,0,0,0,0,0],"id":7,"left_children":[1,3,5,7,9,11,13,-1,-1,-1,15,17,19,21,23,-1,-1,-1,-1,-1,-1,-1,-1,-1,-1],"loss_changes":[1.4194951E4,1.9316504E2,1.2185107E4,1.9734082E2,1.2900867E2,2.609247E3,1.1474282E3,0E0,0E0,0E0,4.265869E0,1.7973547E3,2.4184668E3,2.54854E2,1.3050962E3,0E0,0E0,0E0,0E0,0E0,0E0,0E0,0E0,0E0,0E0],"parents":[2147483647,0,0,1,1,2,2,3,3,4,4,5,5,6,6,10,10,11,11,12,12,13,13,14,14],"right_children":[2,4,6,8,10,12,14,-1,-1,-1,16,18,20,22,24,-1,-1,-1,-1,-1,-1,-1,-1,-1,-1],"split_conditions":[4E0,3E0,2.1E1,5E0,2E0,7E0,4E0,-5.681082E-1,-4.242942E-1,-1.3470949E-1,7E0,5E0,1.8E1,2.2E1,7E0,-3.518613E-1,-4.475792E-1,8.133218E-2,-3.3801547E-1,2.2279668E-1,1.430615E-2,-3.35602E-1,-5.3960675E-1,-1.0711127E-1,-4.4603238E-1],"split_indices":[1,1,1,0,0,1,0,0,0,0,0,0,1,1,0,0,0,0,0,0,0,0,0,0,0],"split_type":[0,0,0,0,0,0,0,0,0,0,0,0,0,0,0,0,0,0,0,0,0,0,0,0,0],"sum_hessian":[4.894E3,5.52E2,4.342E3,4.4E2,1.12E2,3.509E3,8.33E2,2.54E2,1.86E2,2.3E1,8.9E1,4.2E2,3.089E3,2.68E2,5.65E2,4.1E1,4.8E1,2.47E2,1.73E2,2.361E3,7.28E2,1.15E2,1.53E2,4.08E2,1.57E2],"tree_param":{"num_deleted":"0","num_feature":"2","num_nodes":"25","size_leaf_vector":"1"}},{"base_weights":[-5.163806E-3,-4.3025413E0,5.420282E-1,-4.5779767E0,-3.1895344E0,1.418256E0,-2.0551708E0,-5.115202E-1,-3.8209164E-1,-1.2179984E-1,-3.6798382E0,2.3606453E0,4.9622604E-1,-9.1528386E-1,-3.452684E0,-3.1751296E-1,-4.0373468E-1,2.675056E-1,-1.1998947E-1,-2.6914415E-1,1.2366164E-1,-2.4729589E-1,3.3317816E-3,-5.3556365E-1,-2.897129E-1],"categories":[],"categories_nodes":[],"categories_segments":[],"categories_sizes":[],"default_left":[0,0,0,0,0,0,0,0,0,0,0,0,0,0,0,0,0,0,0,0,0,0,0,0,0],"id":8,"left_children":[1,3,5,7,9,11,13,-1,-1,-1,15,17,19,21,23,-1,-1,-1,-1,-1,-1,-1,-1,-1,-1],"loss_changes":[1.1512877E4,1.5492773E2,9.886445E3,1.5981445E2,1.0474951E2,2.8210518E3,1.7427754E3,0E0,0E0,0E0,3.420288E0,1.801081E3,3.8810024E3,8.940382E2,5.0462354E2,0E0,0E0,0E0,0E0,0E0,0E0,0E0,0E0,0E0,0E0],"parents":[2147483647,0,0,1,1,2,2,3,3,4,4,5,5,6,6,10,10,11,11,12,12,13,13,14,14],"right_children":[2,4,6,8,10,12,14,-1,-1,-1,16,18,20,22,24,-1,-1,-1,-1,-1,-1,-1,-1,-1,-1],"split_conditions":[4E0,3E0,2E1,5E0,2E0,5E0,2.2E1,-5.115202E-1,-3.8209164E-1,-1.2179984E-1,7E0,1.9E1,9E0,4E0,3E0,-3.1751296E-1,-4.0373468E-1,2.675056E-1,-1.1998947E-1,-2.6914415E-1,1.2366164E-1,-2.4729589E-1,3.3317816E-3,-5.3556365E-1,-2.897129E-1],"split_indices":[1,1,1,0,0,0,1,0,0,0,0,1,1,0,0,0,0,0,0,0,0,0,0,0,0],"split_type":[0,0,0,0,0,0,0,0,0,0,0,0,0,0,0,0,0,0,0,0,0,0,0,0,0],"sum_hessian":[4.894E3,5.52E2,4.342E3,4.4E2,1.12E2,3.247E3,1.095E3,2.54E2,1.86E2,2.3E1,8.9E1,1.605E3,1.642E3,6.04E2,4.91E2,4.1E1,4.8E1,1.475E3,1.3E2,3.09E2,1.333E3,2.28E2,3.76E2,1.09E2,3.82E2],"tree_param":{"num_deleted":"0","num_feature":"2","num_nodes":"25","size_leaf_vector":"1"}},{"base_weights":[-5.2201315E-3,-3.8754275E0,4.8757973E-1,-4.1222053E0,-2.878042E0,1.1535772E0,-2.3159437E0,-4.6056873E-1,-3.4408683E-1,-1.1012739E-1,-3.3198686E0,-8.730818E-1,1.429328E0,-3.715895E0,-1.646504E0,-2.865177E-1,-3.6418518E-1,4.658904E-2,-2.7764842E-1,1.8375874E-1,1.0458428E-2,-4.648783E-1,-3.0103493E-1,1.4283006E-2,-2.7846438E-1],"categories":[],"categories_nodes":[],"categories_segments":[],"categories_sizes":[],"default_left":[0,0,0,0,0,0,0,0,0,0,0,0,0,0,0,0,0,0,0,0,0,0,0,0,0],"id":9,"left_children":[1,3,5,7,9,11,13,-1,-1,-1,15,17,19,21,23,-1,-1,-1,-1,-1,-1,-1,-1,-1,-1],"loss_changes":[9.337817E3,1.2424707E2,8.111658E3,1.2942383E2,8.5051575E1,1.9628213E3,7.754922E2,0E0,0E0,0E0,2.7416992E0,1.0742554E3,1.671E3,1.6305981E2,1.1530635E3,0E0,0E0,0E0,0E0,0E0,0E0,0E0,0E0,0E0,0E0],"parents":[2147483647,0,0,1,1,2,2,3,3,4,4,5,5,6,6,10,10,11,11,12,12,13,13,14,14],"right_children":[2,4,6,8,10,12,14,-1,-1,-1,16,18,20,22,24,-1,-1,-1,-1,-1,-1,-1,-1,-1,-1],"split_conditions":[4E0,3E0,2.1E1,5E0,2E0,7E0,4E0,-4.6056873E-1,-3.4408683E-1,-1.1012739E-1,7E0,5E0,1.8E1,2E0,6E0,-2.865177E-1,-3.6418518E-1,4.658904E-2,-2.7764842E-1,1.8375874E-1,1.0458428E-2,-4.648783E-1,-3.0103493E-1,1.4283006E-2,-2.7846438E-1],"split_indices":[1,1,1,0,0,1,0,0,0,0,0,0,1,0,0,0,0,0,0,0,0,0,0,0,0],"split_type":[0,0,0,0,0,0,0,0,0,0,0,0,0,0,0,0,0,0,0,0,0,0,0,0,0],"sum_hessian":[4.894E3,5.52E2,4.342E3,4.4E2,1.12E2,3.509E3,8.33E2,2.54E2,1.86E2,2.3E1,8.9E1,4.2E2,3.089E3,2.68E2,5.65E2,4.1E1,4.8E1,2.47E2,1.73E2,2.361E3,7.28E2,1.13E2,1.55E2,2.2E2,3.45E2],"tree_param":{"num_deleted":"0","num_feature":"2","num_nodes":"25","size_leaf_vector":"1"}},{"base_weights":[-5.2362806E-3,-3.4907155E0,4.3857566E-1,-3.7118094E0,-2.5969706E0,1.0382084E0,-2.0855844E0,-4.1469246E-1,-3.0986217E-1,-9.9573515E-2,-2.9951115E0,-3.147156E-1,1.3978982E0,-9.223408E-1,-2.892306E0,-2.5854808E-1,-3.285099E-1,1.1558958E-1,-2.348837E-1,1.8619771E-1,9.414069E-3,-2.4147344E-1,-1.5900744E-2,-2.420611E-1,-4.8637325E-1],"categories":[],"categories_nodes":[],"categories_segments":[],"categories_sizes":[],"default_left":[0,0,0,0,0,0,0,0,0,0,0,0,0,0,0,0,0,0,0,0,0,0,0,0,0],"id":10,"left_children":[1,3,5,7,9,11,13,-1,-1,-1,15,17,19,21,23,-1,-1,-1,-1,-1,-1,-1,-1,-1,-1],"loss_changes":[7.573593E3,9.9634766E1,6.5755957E3,1.048125E2,6.905707E1,1.7085212E3,7.7996924E2,0E0,0E0,0E0,2.1973877E0,2.2103694E3,1.6776182E3,3.9035953E2,4.4574365E2,0E0,0E0,0E0,0E0,0E0,0E0,0E0,0E0,0E0,0E0],"parents":[2147483647,0,0,1,1,2,2,3,3,4,4,5,5,6,6,10,10,11,11,12,12,13,13,14,14],"right_children":[2,4,6,8,10,12,14,-1,-1,-1,16,18,20,22,24,-1,-1,-1,-1,-1,-1,-1,-1,-1,-1],"split_conditions":[4E0,3E0,2.1E1,5E0,2E0,9E0,2.2E1,-4.1469246E-1,-3.0986217E-1,-9.9573515E-2,7E0,5E0,1.8E1,4E0,7E0,-2.5854808E-1,-3.285099E-1,1.1558958E-1,-2.348837E-1,1.8619771E-1,9.414069E-3,-2.4147344E-1,-1.5900744E-2,-2.420611E-1,-4.8637325E-1],"split_indices":[1,1,1,0,0,1,1,0,0,0,0,0,1,0,0,0,0,0,0,0,0,0,0,0,0],"split_type":[0,0,0,0,0,0,0,0,0,0,0,0,0,0,0,0,0,0,0,0,0,0,0,0,0],"sum_hessian":[4.894E3,5.52E2,4.342E3,4.4E2,1.12E2,3.509E3,8.33E2,2.54E2,1.86E2,2.3E1,8.9E1,7.37E2,2.772E3,3.42E2,4.91E2,4.1E1,4.8E1,4.28E2,3.09E2,2.044E3,7.28E2,1.15E2,2.27E2,3.98E2,9.3E1],"tree_param":{"num_deleted":"0","num_feature":"2","num_nodes":"25","size_leaf_vector":"1"}},{"base_weights":[-5.1865373E-3,-2.4704452E0,5.083089E-1,-3.1441958E0,-1.1860117E0,1.3743441E0,-1.2891984E0,-3.3422716E0,-2.3433502E0,-4.995144E-1,-4.846421E-1,2.4900122E0,4.012007E-1,-5.051049E-1,-2.604556E0,-3.7338585E-1,-2.7904165E-1,-9.0031095E-2,-2.7021235E-1,-1.7856304E-1,5.032523E-3,1.905781E-1,3.0639789E-1,-1.6413248E-1,7.643222E-2,-1.9744313E-1,3.934818E-2,-2.1791568E-1,-4.382533E-1],"categories":[],"categories_nodes":[],"categories_segments":[],"categories_sizes":[],"default_left":[0,0,0,0,0,0,0,0,0,0,0,0,0,0,0,0,0,0,0,0,0,0,0,0,0,0,0,0,0],"id":11,"left_children":[1,3,5,7,9,11,13,15,17,19,-1,21,23,25,27,-1,-1,-1,-1,-1,-1,-1,-1,-1,-1,-1,-1,-1,-1],"loss_changes":[6.1978315E3,7.266587E2,6.3095386E3,7.988867E1,7.313345E2,2.9684048E3,1.3580215E3,8.488086E1,5.607007E1,1.7475778E2,0E0,4.2136963E2,1.0855979E3,1.0926792E3,3.6257422E2,0E0,0E0,0E0,0E0,0E0,0E0,0E0,0E0,0E0,0E0,0E0,0E0,0E0,0E0],"parents":[2147483647,0,0,1,1,2,2,3,3,4,4,5,5,6,6,7,7,8,8,9,9,11,11,12,12,13,13,14,14],"right_children":[2,4,6,8,10,12,14,16,18,20,-1,22,24,26,28,-1,-1,-1,-1,-1,-1,-1,-1,-1,-1,-1,-1,-1,-1],"split_conditions":[6E0,4E0,1.9E1,3E0,6E0,5E0,2.2E1,5E0,2E0,2E0,-4.846421E-1,1.3E1,9E0,4E0,7E0,-3.7338585E-1,-2.7904165E-1,-9.0031095E-2,-2.7021235E-1,-1.7856304E-1,5.032523E-3,1.905781E-1,3.0639789E-1,-1.6413248E-1,7.643222E-2,-1.9744313E-1,3.934818E-2,-2.1791568E-1,-4.382533E-1],"split_indices":[1,1,1,1,0,0,1,0,0,0,0,1,1,0,0,0,0,0,0,0,0,0,0,0,0,0,0,0,0],"split_type":[0,0,0,0,0,0,0,0,0,0,0,0,0,0,0,0,0,0,0,0,0,0,0,0,0,0,0,0,0],"sum_hessian":[4.894E3,8.43E2,4.051E3,5.52E2,2.91E2,2.734E3,1.317E3,4.4E2,1.12E2,2.46E2,4.5E1,1.273E3,1.461E3,8.26E2,4.91E2,2.54E2,1.86E2,2.3E1,8.9E1,7.3E1,1.73E2,6.33E2,6.4E2,2.2E2,1.241E3,3.13E2,5.13E2,3.98E2,9.3E1],"tree_param":{"num_deleted":"0","num_feature":"2","num_nodes":"29","size_leaf_vector":"1"}},{"base_weights":[-5.091893E-3,-2.2253804E0,4.5737812E-1,-2.8316076E0,-1.0696645E0,1.2370595E0,-1.1608965E0,-3.0095236E0,-2.1122034E0,-4.502655E-1,-4.3723145E-1,2.2414007E0,3.6102134E-1,-2.7656767E0,-6.220877E-1,-3.3619368E-1,-2.5128672E-1,-8.140316E-2,-2.4349137E-1,-1.6094804E-1,4.5321686E-3,1.7155032E-1,2.758059E-1,-1.4779352E-1,6.879524E-2,-2.15596E-1,-3.971053E-1,-1.788437E-2,-3.116738E-1],"categories":[],"categories_nodes":[],"categories_segments":[],"categories_sizes":[],"default_left":[0,0,0,0,0,0,0,0,0,0,0,0,0,0,0,0,0,0,0,0,0,0,0,0,0,0,0,0,0],"id":12,"left_children":[1,3,5,7,9,11,13,15,17,19,-1,21,23,25,27,-1,-1,-1,-1,-1,-1,-1,-1,-1,-1,-1,-1,-1,-1],"loss_changes":[5.027286E3,5.882998E2,5.114001E3,6.442383E1,5.953635E2,2.4055566E3,1.1379141E3,6.87395E1,4.535736E1,1.4197247E2,0E0,3.4142578E2,8.799887E2,2.3470312E2,1.0919124E3,0E0,0E0,0E0,0E0,0E0,0E0,0E0,0E0,0E0,0E0,0E0,0E0,0E0,0E0],"parents":[2147483647,0,0,1,1,2,2,3,3,4,4,5,5,6,6,7,7,8,8,9,9,11,11,12,12,13,13,14,14],"right_children":[2,4,6,8,10,12,14,16,18,20,-1,22,24,26,28,-1,-1,-1,-1,-1,-1,-1,-1,-1,-1,-1,-1,-1,-1],"split_conditions":[6E0,4E0,1.9E1,3E0,6E0,5E0,3E0,5E0,2E0,2E0,-4.3723145E-1,1.3E1,9E0,2.2E1,2.3E1,-3.3619368E-1,-2.5128672E-1,-8.140316E-2,-2.4349137E-1,-1.6094804E-1,4.5321686E-3,1.7155032E-1,2.758059E-1,-1.4779352E-1,6.879524E-2,-2.15596E-1,-3.971053E-1,-1.788437E-2,-3.116738E-1],"split_indices":[1,1,1,1,0,0,0,0,0,0,0,1,1,1,1,0,0,0,0,0,0,0,0,0,0,0,0,0,0],"split_type":[0,0,0,0,0,0,0,0,0,0,0,0,0,0,0,0,0,0,0,0,0,0,0,0,0,0,0,0,0],"sum_hessian":[4.894E3,8.43E2,4.051E3,5.52E2,2.91E2,2.734E3,1.317E3,4.4E2,1.12E2,2.46E2,4.5E1,1.273E3,1.461E3,3.3E2,9.87E2,2.54E2,1.86E2,2.3E1,8.9E1,7.3E1,1.73E2,6.33E2,6.4E2,2.2E2,1.241E3,2.21E2,1.09E2,8.39E2,1.48E2],"tree_param":{"num_deleted":"0","num_feature":"2","num_nodes":"29","size_leaf_vector":"1"}},{"base_weights":[-5.007971E-3,-2.0046268E0,4.1149825E-1,-2.5500968E0,-9.64731E-1,1.0288368E0,-1.2544521E0,-2.7099037E0,-1.9038584E0,-4.0587202E-1,-3.9445886E-1,1.7491888E0,3.773549E-1,-5.198728E-1,-2.1551962E0,-3.0270618E-1,-2.2629242E-1,-7.360205E-2,-2.1941279E-1,-1.4507075E-1,4.081587E-3,2.0176113E-1,-8.746248E-2,-1.3308103E-1,6.600589E-2,-2.9112825E-1,-2.1162856E-2,-1.7645107E-1,-3.7906042E-1],"categories":[],"categories_nodes":[],"categories_segments":[],"categories_sizes":[],"default_left":[0,0,0,0,0,0,0,0,0,0,0,0,0,0,0,0,0,0,0,0,0,0,0,0,0,0,0,0,0],"id":13,"left_children":[1,3,5,7,9,11,13,15,17,19,-1,21,23,25,27,-1,-1,-1,-1,-1,-1,-1,-1,-1,-1,-1,-1,-1,-1],"loss_changes":[4.0776436E3,4.762837E2,4.1685923E3,5.1950928E1,4.8467245E2,1.3870493E3,7.240676E2,5.5667236E1,3.6690674E1,1.1533789E2,0E0,9.9058887E2,7.513129E2,4.4535248E2,3.0766528E2,0E0,0E0,0E0,0E0,0E0,0E0,0E0,0E0,0E0,0E0,0E0,0E0,0E0,0E0],"parents":[2147483647,0,0,1,1,2,2,3,3,4,4,5,5,6,6,7,7,8,8,9,9,11,11,12,12,13,13,14,14],"right_children":[2,4,6,8,10,12,14,16,18,20,-1,22,24,26,28,-1,-1,-1,-1,-1,-1,-1,-1,-1,-1,-1,-1,-1,-1],"split_conditions":[6E0,4E0,2E1,3E0,6E0,5E0,2.2E1,5E0,2E0,2E0,-3.9445886E-1,1.9E1,9E0,2E0,7E0,-3.0270618E-1,-2.2629242E-1,-7.360205E-2,-2.1941279E-1,-1.4507075E-1,4.081587E-3,2.0176113E-1,-8.746248E-2,-1.3308103E-1,6.600589E-2,-2.9112825E-1,-2.1162856E-2,-1.7645107E-1,-3.7906042E-1],"split_indices":[1,1,1,1,0,0,1,0,0,0,0,1,1,0,0,0,0,0,0,0,0,0,0,0,0,0,0,0,0],"split_type":[0,0,0,0,0,0,0,0,0,0,0,0,0,0,0,0,0,0,0,0,0,0,0,0,0,0,0,0,0],"sum_hessian":[4.894E3,8.43E2,4.051E3,5.52E2,2.91E2,2.956E3,1.095E3,4.4E2,1.12E2,2.46E2,4.5E1,1.403E3,1.553E3,6.04E2,4.91E2,2.54E2,1.86E2,2.3E1,8.9E1,7.3E1,1.73E2,1.273E3,1.3E2,2.2E2,1.333E3,6.8E1,5.36E2,3.98E2,9.3E1],"tree_param":{"num_deleted":"0","num_feature":"2","num_nodes":"29","size_leaf_vector":"1"}},{"base_weights":[-4.9520754E-3,-1.8057724E0,3.7014598E-1,-2.2965734E0,-8.700917E-1,9.259692E-1,-1.1297988E0,-2.4401128E0,-1.7160656E0,-3.6585566E-1,-3.558705E-1,1.5743512E0,3.3957645E-1,-3.0951726E0,-8.5048485E-1,-2.7255425E-1,-2.0378415E-1,-6.654855E-2,-1.977153E-1,-1.524962E-2,-2.2543879E-1,1.9497518E-1,-5.4082195E-3,-1.19833104E-1,5.941027E-2,-2.6243737E-1,-3.5273778E-1,-1.9050492E-2,-1.6823877E-1],"categories":[],"categories_nodes":[],"categories_segments":[],"categories_sizes":[],"default_left":[0,0,0,0,0,0,0,0,0,0,0,0,0,0,0,0,0,0,0,0,0,0,0,0,0,0,0,0,0],"id":14,"left_children":[1,3,5,7,9,11,13,15,17,19,-1,21,23,25,27,-1,-1,-1,-1,-1,-1,-1,-1,-1,-1,-1,-1,-1,-1],"loss_changes":[3.3071636E3,3.8559448E2,3.3792148E3,4.1891357E1,3.9456113E2,1.1237361E3,5.990237E2,4.5081543E1,2.9679382E1,9.918145E1,0E0,8.583916E2,6.090062E2,1.8416382E1,5.273062E2,0E0,0E0,0E0,0E0,0E0,0E0,0E0,0E0,0E0,0E0,0E0,0E0,0E0,0E0],"parents":[2147483647,0,0,1,1,2,2,3,3,4,4,5,5,6,6,7,7,8,8,9,9,11,11,12,12,13,13,14,14],"right_children":[2,4,6,8,10,12,14,16,18,20,-1,22,24,26,28,-1,-1,-1,-1,-1,-1,-1,-1,-1,-1,-1,-1,-1,-1],"split_conditions":[6E0,4E0,2E1,3E0,6E0,5E0,2E0,5E0,2E0,5E0,-3.558705E-1,1.8E1,9E0,2.2E1,2.2E1,-2.7255425E-1,-2.0378415E-1,-6.654855E-2,-1.977153E-1,-1.524962E-2,-2.2543879E-1,1.9497518E-1,-5.4082195E-3,-1.19833104E-1,5.941027E-2,-2.6243737E-1,-3.5273778E-1,-1.9050492E-2,-1.6823877E-1],"split_indices":[1,1,1,1,0,0,0,0,0,1,0,1,1,1,1,0,0,0,0,0,0,0,0,0,0,0,0,0,0],"split_type":[0,0,0,0,0,0,0,0,0,0,0,0,0,0,0,0,0,0,0,0,0,0,0,0,0,0,0,0,0],"sum_hessian":[4.894E3,8.43E2,4.051E3,5.52E2,2.91E2,2.956E3,1.095E3,4.4E2,1.12E2,2.46E2,4.5E1,1.403E3,1.553E3,1.35E2,9.6E2,2.54E2,1.86E2,2.3E1,8.9E1,2.22E2,2.4E1,1.14E3,2.63E2,2.2E2,1.333E3,6.8E1,6.7E1,5.36E2,4.24E2],"tree_param":{"num_deleted":"0","num_feature":"2","num_nodes":"29","size_leaf_vector":"1"}},{"base_weights":[-4.867518E-3,-1.6267796E0,3.329653E-1,-2.0682554E0,-7.8512585E-1,7.514197E-1,-1.2825476E0,-2.1971815E0,-1.5467978E0,-8.2725346E-2,-2.3607056E0,1.2045699E0,3.371337E-1,-2.3125453E0,-7.907596E-1,-2.4540567E-1,-1.8351474E-1,-6.0171004E-2,-1.7816345E-1,-1.2925537E-1,6.0658246E-2,-1.4394945E-1,-3.2105708E-1,1.6421057E-1,-9.114338E-2,-1.0790403E-1,5.5082977E-2,-1.5633327E-1,-2.8618708E-1,7.8477055E-2,-1.79481E-1],"categories":[],"categories_nodes":[],"categories_segments":[],"categories_sizes":[],"default_left":[0,0,0,0,0,0,0,0,0,0,0,0,0,0,0,0,0,0,0,0,0,0,0,0,0,0,0,0,0,0,0],"id":15,"left_children":[1,3,5,7,9,11,13,15,17,19,21,23,25,27,29,-1,-1,-1,-1,-1,-1,-1,-1,-1,-1,-1,-1,-1,-1,-1,-1],"loss_changes":[2.682684E3,3.1198096E2,2.7401904E3,3.3779297E1,3.2295764E2,6.039092E2,4.2062622E2,3.65083E1,2.4007355E1,1.7007469E2,6.5839874E1,1.4244927E3,5.09922E2,1.06236084E2,8.967704E2,0E0,0E0,0E0,0E0,0E0,0E0,0E0,0E0,0E0,0E0,0E0,0E0,0E0,0E0,0E0,0E0],"parents":[2147483647,0,0,1,1,2,2,3,3,4,4,5,5,6,6,7,7,8,8,9,9,10,10,11,11,12,12,13,13,14,14],"right_children":[2,4,6,8,10,12,14,16,18,20,22,24,26,28,30,-1,-1,-1,-1,-1,-1,-1,-1,-1,-1,-1,-1,-1,-1,-1,-1],"split_conditions":[6E0,4E0,2.1E1,3E0,5E0,5E0,4E0,5E0,2E0,2E0,6E0,1.9E1,9E0,2.2E1,6E0,-2.4540567E-1,-1.8351474E-1,-6.0171004E-2,-1.7816345E-1,-1.2925537E-1,6.0658246E-2,-1.4394945E-1,-3.2105708E-1,1.6421057E-1,-9.114338E-2,-1.0790403E-1,5.5082977E-2,-1.5633327E-1,-2.8618708E-1,7.8477055E-2,-1.79481E-1],"split_indices":[1,1,1,1,0,0,0,0,0,0,0,1,1,1,0,0,0,0,0,0,0,0,0,0,0,0,0,0,0,0,0],"split_type":[0,0,0,0,0,0,0,0,0,0,0,0,0,0,0,0,0,0,0,0,0,0,0,0,0,0,0,0,0,0,0],"sum_hessian":[4.894E3,8.43E2,4.051E3,5.52E2,2.91E2,3.218E3,8.33E2,4.4E2,1.12E2,2.02E2,8.9E1,1.536E3,1.682E3,2.68E2,5.65E2,2.54E2,1.86E2,2.3E1,8.9E1,7.3E1,1.29E2,4.4E1,4.5E1,1.273E3,2.63E2,2.2E2,1.462E3,1.15E2,1.53E2,2.2E2,3.45E2],"tree_param":{"num_deleted":"0","num_feature":"2","num_nodes":"31","size_leaf_vector":"1"}},{"base_weights":[-4.7330214E-3,-1.4655244E0,2.9953963E-1,-1.8626364E0,-7.084407E-1,6.76284E-1,-1.1549445E0,-1.9784361E0,-1.394227E0,-7.479086E-2,-2.1298018E0,8.69478E-1,-2.0055774E-1,-8.192366E-1,-2.4328854E0,-2.2096136E-1,-1.6526143E-1,-5.4404598E-2,-1.6054507E-1,-1.1650451E-1,5.463907E-2,-1.298744E-1,-2.896493E-1,1.1106942E-1,4.4742837E-3,-7.9940334E-2,2.9224519E-2,-1.9855903E-1,-1.33648245E-2,-1.7555946E-1,-4.2646322E-1],"categories":[],"categories_nodes":[],"categories_segments":[],"categories_sizes":[],"default_left":[0,0,0,0,0,0,0,0,0,0,0,0,0,0,0,0,0,0,0,0,0,0,0,0,0,0,0,0,0,0,0],"id":16,"left_children":[1,3,5,7,9,11,13,15,17,19,21,23,25,27,29,-1,-1,-1,-1,-1,-1,-1,-1,-1,-1,-1,-1,-1,-1,-1,-1],"loss_changes":[2.176163E3,2.5242651E2,2.221151E3,2.7237183E1,2.628291E2,5.4547473E2,3.5580542E2,2.9565674E1,1.9418915E1,1.381175E2,5.358304E1,5.2475244E2,1.719893E2,5.2909534E2,2.0714117E2,0E0,0E0,0E0,0E0,0E0,0E0,0E0,0E0,0E0,0E0,0E0,0E0,0E0,0E0,0E0,0E0],"parents":[2147483647,0,0,1,1,2,2,3,3,4,4,5,5,6,6,7,7,8,8,9,9,10,10,11,11,12,12,13,13,14,14],"right_children":[2,4,6,8,10,12,14,16,18,20,22,24,26,28,30,-1,-1,-1,-1,-1,-1,-1,-1,-1,-1,-1,-1,-1,-1,-1,-1],"split_conditions":[6E0,4E0,2.1E1,3E0,5E0,7E0,2.3E1,5E0,2E0,2E0,6E0,1.8E1,1.4E1,4E0,7E0,-2.2096136E-1,-1.6526143E-1,-5.4404598E-2,-1.6054507E-1,-1.1650451E-1,5.463907E-2,-1.298744E-1,-2.896493E-1,1.1106942E-1,4.4742837E-3,-7.9940334E-2,2.9224519E-2,-1.9855903E-1,-1.33648245E-2,-1.7555946E-1,-4.2646322E-1],"split_indices":[1,1,1,1,0,0,1,0,0,0,0,1,1,0,0,0,0,0,0,0,0,0,0,0,0,0,0,0,0,0,0],"split_type":[0,0,0,0,0,0,0,0,0,0,0,0,0,0,0,0,0,0,0,0,0,0,0,0,0,0,0,0,0,0,0],"sum_hessian":[4.894E3,8.43E2,4.051E3,5.52E2,2.91E2,3.218E3,8.33E2,4.4E2,1.12E2,2.02E2,8.9E1,2.637E3,5.81E2,6.61E2,1.72E2,2.54E2,1.86E2,2.3E1,8.9E1,7.3E1,1.29E2,4.4E1,4.5E1,2.04E3,5.97E2,2.62E2,3.19E2,2.44E2,4.17E2,1.27E2,4.5E1],"tree_param":{"num_deleted":"0","num_feature":"2","num_nodes":"31","size_leaf_vector":"1"}},{"base_weights":[-4.633697E-3,-1.3202547E0,2.6940104E-1,-1.6774601E0,-6.392451E-1,6.770682E-1,-8.3072764E-1,-1.7814683E0,-1.2567068E0,-6.761627E-2,-1.9214829E0,1.1855787E0,2.1720594E-1,-1.6600645E0,-3.8647956E-1,-1.9895189E-1,-1.4882366E-1,-8.883754E-2,-1.7196625E-1,-1.05011486E-1,4.9217228E-2,-1.1717558E-1,-2.6131403E-1,1.988523E-2,1.5812525E-1,-1.006997E-1,4.1985337E-2,-1.1660727E-1,-2.3838568E-1,9.21193E-2,-1.255335E-1],"categories":[],"categories_nodes":[],"categories_segments":[],"categories_sizes":[],"default_left":[0,0,0,0,0,0,0,0,0,0,0,0,0,0,0,0,0,0,0,0,0,0,0,0,0,0,0,0,0,0,0],"id":17,"left_children":[1,3,5,7,9,11,13,15,17,19,21,23,25,27,29,-1,-1,-1,-1,-1,-1,-1,-1,-1,-1,-1,-1,-1,-1,-1,-1],"loss_changes":[1.7651298E3,2.0423926E2,1.817829E3,2.1961548E1,2.138956E2,6.9122156E2,4.0315906E2,2.3943237E1,1.7741196E1,1.1216511E2,4.360791E1,5.478379E2,3.8594153E2,1.3380334E2,8.1352405E2,0E0,0E0,0E0,0E0,0E0,0E0,0E0,0E0,0E0,0E0,0E0,0E0,0E0,0E0,0E0,0E0],"parents":[2147483647,0,0,1,1,2,2,3,3,4,4,5,5,6,6,7,7,8,8,9,9,10,10,11,11,12,12,13,13,14,14],"right_children":[2,4,6,8,10,12,14,16,18,20,22,24,26,28,30,-1,-1,-1,-1,-1,-1,-1,-1,-1,-1,-1,-1,-1,-1,-1,-1],"split_conditions":[6E0,4E0,2E1,3E0,5E0,5E0,4E0,5E0,7E0,2E0,6E0,2E0,9E0,2.2E1,6E0,-1.9895189E-1,-1.4882366E-1,-8.883754E-2,-1.7196625E-1,-1.05011486E-1,4.9217228E-2,-1.1717558E-1,-2.6131403E-1,1.988523E-2,1.5812525E-1,-1.006997E-1,4.1985337E-2,-1.1660727E-1,-2.3838568E-1,9.21193E-2,-1.255335E-1],"split_indices":[1,1,1,1,0,0,0,0,0,0,0,0,1,1,0,0,0,0,0,0,0,0,0,0,0,0,0,0,0,0,0],"split_type":[0,0,0,0,0,0,0,0,0,0,0,0,0,0,0,0,0,0,0,0,0,0,0,0,0,0,0,0,0,0,0],"sum_hessian":[4.894E3,8.43E2,4.051E3,5.52E2,2.91E2,2.956E3,1.095E3,4.4E2,1.12E2,2.02E2,8.9E1,1.403E3,1.553E3,3.81E2,7.14E2,2.54E2,1.86E2,6.4E1,4.8E1,7.3E1,1.29E2,4.4E1,4.5E1,4.02E2,1.001E3,2.2E2,1.333E3,2.28E2,1.53E2,2.85E2,4.29E2],"tree_param":{"num_deleted":"0","num_feature":"2","num_nodes":"31","size_leaf_vector":"1"}},{"base_weights":[-4.438148E-3,-1.1894648E0,2.4239476E-1,-1.5108145E0,-5.768078E-1,7.265584E-1,-5.298805E-1,-1.60411E0,-1.1333442E0,-6.11293E-2,-1.7335403E0,1.3623887E0,1.8902393E-1,-1.8457223E0,-1.0676149E-1,-1.7913471E-1,-1.3402088E-1,-8.0090456E-2,-1.551206E-1,-9.46522E-2,4.4333365E-2,-1.0571845E-1,-2.357507E-1,7.572555E-2,2.1149324E-1,-6.321349E-2,4.8346084E-2,-2.2555232E-1,-1.3629816E-1,1.7193913E-2,-2.0419855E-1],"categories":[],"categories_nodes":[],"categories_segments":[],"categories_sizes":[],"default_left":[0,0,0,0,0,0,0,0,0,0,0,0,0,0,0,0,0,0,0,0,0,0,0,0,0,0,0,0,0,0,0],"id":18,"left_children":[1,3,5,7,9,11,13,15,17,19,21,23,25,27,29,-1,-1,-1,-1,-1,-1,-1,-1,-1,-1,-1,-1,-1,-1,-1,-1],"loss_changes":[1.4320934E3,1.6529272E2,1.5154585E3,1.7656616E1,1.7407263E2,8.511183E2,8.694585E2,1.9390015E1,1.445488E1,9.1089134E1,3.5489838E1,5.1799756E2,3.2694965E2,7.210022E1,6.3839996E2,0E0,0E0,0E0,0E0,0E0,0E0,0E0,0E0,0E0,0E0,0E0,0E0,0E0,0E0,0E0,0E0],"parents":[2147483647,0,0,1,1,2,2,3,3,4,4,5,5,6,6,7,7,8,8,9,9,10,10,11,11,12,12,13,13,14,14],"right_children":[2,4,6,8,10,12,14,16,18,20,22,24,26,28,30,-1,-1,-1,-1,-1,-1,-1,-1,-1,-1,-1,-1,-1,-1,-1,-1],"split_conditions":[6E0,4E0,1.8E1,3E0,5E0,5E0,3E0,5E0,7E0,2E0,6E0,1.3E1,1E1,2E0,2.3E1,-1.7913471E-1,-1.3402088E-1,-8.0090456E-2,-1.551206E-1,-9.46522E-2,4.4333365E-2,-1.0571845E-1,-2.357507E-1,7.572555E-2,2.1149324E-1,-6.321349E-2,4.8346084E-2,-2.2555232E-1,-1.3629816E-1,1.7193913E-2,-2.0419855E-1],"split_indices":[1,1,1,1,0,0,0,0,0,0,0,1,1,0,1,0,0,0,0,0,0,0,0,0,0,0,0,0,0,0,0],"split_type":[0,0,0,0,0,0,0,0,0,0,0,0,0,0,0,0,0,0,0,0,0,0,0,0,0,0,0,0,0,0,0],"sum_hessian":[4.894E3,8.43E2,4.051E3,5.52E2,2.91E2,2.49E3,1.561E3,4.4E2,1.12E2,2.02E2,8.9E1,1.14E3,1.35E3,3.79E2,1.182E3,2.54E2,1.86E2,6.4E1,4.8E1,7.3E1,1.29E2,4.4E1,4.5E1,6.33E2,5.07E2,3.56E2,9.94E2,2.03E2,1.76E2,1.034E3,1.48E2],"tree_param":{"num_deleted":"0","num_feature":"2","num_nodes":"31","size_leaf_vector":"1"}},{"base_weights":[-4.2427494E-3,-1.0716323E0,2.1808721E-1,-1.3607247E0,-5.2046883E-1,5.0302935E-1,-8.81969E-1,-1.4444093E0,-1.0220913E0,-5.5264384E-2,-1.5639803E0,6.590736E-1,-2.0512825E-1,-5.9251934E-1,-2.1166234E0,-1.612915E-1,-1.20690465E-1,-3.300191E-2,-1.19528726E-1,-5.7487722E-2,6.876975E-2,-9.538152E-2,-2.1268813E-1,8.3961405E-2,4.177909E-3,-7.061378E-2,2.0727998E-2,-1.5672451E-1,5.000818E-3,-1.5246214E-1,-3.524876E-1],"categories":[],"categories_nodes":[],"categories_segments":[],"categories_sizes":[],"default_left":[0,0,0,0,0,0,0,0,0,0,0,0,0,0,0,0,0,0,0,0,0,0,0,0,0,0,0,0,0,0,0],"id":19,"left_children":[1,3,5,7,9,11,13,15,17,19,21,23,25,27,29,-1,-1,-1,-1,-1,-1,-1,-1,-1,-1,-1,-1,-1,-1,-1,-1],"loss_changes":[1.1618794E3,1.3377234E2,1.2705527E3,1.4194702E1,1.4166385E2,3.5584723E2,2.967926E2,1.5702576E1,1.3150177E1,7.876401E1,2.8882965E1,2.9396118E2,1.20399445E2,4.240755E2,1.26348755E2,0E0,0E0,0E0,0E0,0E0,0E0,0E0,0E0,0E0,0E0,0E0,0E0,0E0,0E0,0E0,0E0],"parents":[2147483647,0,0,1,1,2,2,3,3,4,4,5,5,6,6,7,7,8,8,9,9,10,10,11,11,12,12,13,13,14,14],"right_children":[2,4,6,8,10,12,14,16,18,20,22,24,26,28,30,-1,-1,-1,-1,-1,-1,-1,-1,-1,-1,-1,-1,-1,-1,-1,-1],"split_conditions":[6E0,4E0,2.1E1,3E0,5E0,7E0,7E0,5E0,2E0,3E0,6E0,1.8E1,1.4E1,4E0,2.3E1,-1.612915E-1,-1.20690465E-1,-3.300191E-2,-1.19528726E-1,-5.7487722E-2,6.876975E-2,-9.538152E-2,-2.1268813E-1,8.3961405E-2,4.177909E-3,-7.061378E-2,2.0727998E-2,-1.5672451E-1,5.000818E-3,-1.5246214E-1,-3.524876E-1],"split_indices":[1,1,1,1,0,0,0,0,0,0,0,1,1,0,1,0,0,0,0,0,0,0,0,0,0,0,0,0,0,0,0],"split_type":[0,0,0,0,0,0,0,0,0,0,0,0,0,0,0,0,0,0,0,0,0,0,0,0,0,0,0,0,0,0,0],"sum_hessian":[4.894E3,8.43E2,4.051E3,5.52E2,2.91E2,3.218E3,8.33E2,4.4E2,1.12E2,2.02E2,8.9E1,2.637E3,5.81E2,6.76E2,1.57E2,2.54E2,1.86E2,2.3E1,8.9E1,1.19E2,8.3E1,4.4E1,4.5E1,2.04E3,5.97E2,2.62E2,3.19E2,2.68E2,4.08E2,1.12E2,4.5E1],"tree_param":{"num_deleted":"0","num_feature":"2","num_nodes":"31","size_leaf_vector":"1"}},{"base_weights":[-4.0941983E-3,-9.6533555E-1,1.961259E-1,-1.225438E0,-4.6943834E-1,3.8779604E-1,-1.191544E0,-1.3006077E0,-9.21232E-1,-4.9682382E-2,-1.4110053E0,5.364372E-1,-2.8376028E-1,-9.036695E-1,-2.4008036E0,-1.4522557E-1,-1.0868597E-1,-6.349736E-2,-1.2821619E-1,-7.964382E-2,3.757762E-2,-8.605531E-2,-1.9188172E-1,7.556937E-2,2.497726E-3,-3.5985396E-3,-7.055528E-2,-1.8609227E-1,-3.0073995E-2,-1.6202688E-1,-3.180051E-1],"categories":[],"categories_nodes":[],"categories_segments":[],"categories_sizes":[],"default_left":[0,0,0,0,0,0,0,0,0,0,0,0,0,0,0,0,0,0,0,0,0,0,0,0,0,0,0,0,0,0,0],"id":20,"left_children":[1,3,5,7,9,11,13,15,17,19,21,23,25,27,29,-1,-1,-1,-1,-1,-1,-1,-1,-1,-1,-1,-1,-1,-1,-1,-1],"loss_changes":[9.422803E2,1.0828729E2,1.0781924E3,1.1447327E1,1.1533657E2,3.5561456E2,1.6910309E2,1.271637E1,1.0860939E1,6.479515E1,2.3506119E1,3.26984E2,6.748779E1,2.2972565E2,5.2021057E1,0E0,0E0,0E0,0E0,0E0,0E0,0E0,0E0,0E0,0E0,0E0,0E0,0E0,0E0,0E0,0E0],"parents":[2147483647,0,0,1,1,2,2,3,3,4,4,5,5,6,6,7,7,8,8,9,9,10,10,11,11,12,12,13,13,14,14],"right_children":[2,4,6,8,10,12,14,16,18,20,22,24,26,28,30,-1,-1,-1,-1,-1,-1,-1,-1,-1,-1,-1,-1,-1,-1,-1,-1],"split_conditions":[6E0,4E0,2.2E1,3E0,5E0,7E0,7E0,5E0,7E0,2E0,6E0,1.8E1,1.7E1,4E0,2.3E1,-1.4522557E-1,-1.0868597E-1,-6.349736E-2,-1.2821619E-1,-7.964382E-2,3.757762E-2,-8.605531E-2,-1.9188172E-1,7.556937E-2,2.497726E-3,-3.5985396E-3,-7.055528E-2,-1.8609227E-1,-3.0073995E-2,-1.6202688E-1,-3.180051E-1],"split_indices":[1,1,1,1,0,0,0,0,0,0,0,1,1,0,1,0,0,0,0,0,0,0,0,0,0,0,0,0,0,0,0],"split_type":[0,0,0,0,0,0,0,0,0,0,0,0,0,0,0,0,0,0,0,0,0,0,0,0,0,0,0,0,0,0,0],"sum_hessian":[4.894E3,8.43E2,4.051E3,5.52E2,2.91E2,3.56E3,4.91E2,4.4E2,1.12E2,2.02E2,8.9E1,2.915E3,6.45E2,3.98E2,9.3E1,2.54E2,1.86E2,6.4E1,4.8E1,7.3E1,1.29E2,4.4E1,4.5E1,2.04E3,8.75E2,4.07E2,2.38E2,1.53E2,2.45E2,4.8E1,4.5E1],"tree_param":{"num_deleted":"0","num_feature":"2","num_nodes":"31","size_leaf_vector":"1"}},{"base_weights":[-3.9824983E-3,-8.697091E-1,1.7634258E-1,-1.1037E0,-4.2359027E-1,3.4901768E-1,-1.0738046E0,-1.1711227E0,-8.308052E-1,-4.4921234E-2,-1.2729927E0,4.8282036E-1,-2.5549877E-1,-8.138442E-1,-2.16583E0,-1.3075998E-1,-9.78755E-2,-2.375405E-2,-9.7977795E-2,-4.8382338E-2,5.8261663E-2,-7.764097E-2,-1.7311068E-1,-2.6670357E-2,6.269508E-2,-6.3220724E-2,3.172656E-4,-1.6760388E-1,-2.7078811E-2,-1.4615487E-1,-2.8689593E-1],"categories":[],"categories_nodes":[],"categories_segments":[],"categories_sizes":[],"default_left":[0,0,0,0,0,0,0,0,0,0,0,0,0,0,0,0,0,0,0,0,0,0,0,0,0,0,0,0,0,0,0],"id":21,"left_children":[1,3,5,7,9,11,13,15,17,19,21,23,25,27,29,-1,-1,-1,-1,-1,-1,-1,-1,-1,-1,-1,-1,-1,-1,-1,-1],"loss_changes":[7.6432263E2,8.76358E1,8.750771E2,9.201843E0,9.38624E1,2.881581E2,1.3790796E2,1.0298035E1,9.754234E0,5.619371E1,1.9130219E1,3.1518042E2,6.295064E1,1.8636597E2,4.2355743E1,0E0,0E0,0E0,0E0,0E0,0E0,0E0,0E0,0E0,0E0,0E0,0E0,0E0,0E0,0E0,0E0],"parents":[2147483647,0,0,1,1,2,2,3,3,4,4,5,5,6,6,7,7,8,8,9,9,10,10,11,11,12,12,13,13,14,14],"right_children":[2,4,6,8,10,12,14,16,18,20,22,24,26,28,30,-1,-1,-1,-1,-1,-1,-1,-1,-1,-1,-1,-1,-1,-1,-1,-1],"split_conditions":[6E0,4E0,2.2E1,3E0,5E0,7E0,7E0,5E0,2E0,3E0,6E0,2E0,1.4E1,4E0,2.3E1,-1.3075998E-1,-9.78755E-2,-2.375405E-2,-9.7977795E-2,-4.8382338E-2,5.8261663E-2,-7.764097E-2,-1.7311068E-1,-2.6670357E-2,6.269508E-2,-6.3220724E-2,3.172656E-4,-1.6760388E-1,-2.7078811E-2,-1.4615487E-1,-2.8689593E-1],"split_indices":[1,1,1,1,0,0,0,0,0,0,0,0,1,0,1,0,0,0,0,0,0,0,0,0,0,0,0,0,0,0,0],"split_type":[0,0,0,0,0,0,0,0,0,0,0,0,0,0,0,0,0,0,0,0,0,0,0,0,0,0,0,0,0,0,0],"sum_hessian":[4.894E3,8.43E2,4.051E3,5.52E2,2.91E2,3.56E3,4.91E2,4.4E2,1.12E2,2.02E2,8.9E1,2.915E3,6.45E2,3.98E2,9.3E1,2.54E2,1.86E2,2.3E1,8.9E1,1.19E2,8.3E1,4.4E1,4.5E1,4.7E2,2.445E3,2.62E2,3.83E2,1.53E2,2.45E2,4.8E1,4.5E1],"tree_param":{"num_deleted":"0","num_feature":"2","num_nodes":"31","size_leaf_vector":"1"}},{"base_weights":[-3.8385985E-3,-7.834387E-1,1.5854697E-1,-9.939636E-1,-3.8205612E-1,4.982978E-1,-3.8337234E-1,-1.0545288E0,-7.4880207E-1,-4.0380247E-2,-1.1484799E0,1.0305309E0,4.842643E-2,-1.4944667E0,-2.6145589E-2,-1.1773526E-1,-8.814027E-2,-5.022463E-2,-1.0605842E-1,-6.7014135E-2,3.1840976E-2,-7.004946E-2,-1.5617596E-1,6.1375733E-2,1.9149214E-1,-9.2346124E-2,2.3829272E-2,-2.1705861E-1,-1.2074041E-1,6.0013592E-2,-6.154234E-2],"categories":[],"categories_nodes":[],"categories_segments":[],"categories_sizes":[],"default_left":[0,0,0,0,0,0,0,0,0,0,0,0,0,0,0,0,0,0,0,0,0,0,0,0,0,0,0,0,0,0,0],"id":22,"left_children":[1,3,5,7,9,11,13,15,17,19,21,23,25,27,29,-1,-1,-1,-1,-1,-1,-1,-1,-1,-1,-1,-1,-1,-1,-1,-1],"loss_changes":[6.198106E2,7.093915E1,7.462353E2,7.4214478E0,7.6419235E1,5.963862E2,6.199385E2,8.339691E0,8.1538315E0,4.608163E1,1.5568878E1,4.1938647E2,2.4951833E2,7.113287E1,4.3696E2,0E0,0E0,0E0,0E0,0E0,0E0,0E0,0E0,0E0,0E0,0E0,0E0,0E0,0E0,0E0,0E0],"parents":[2147483647,0,0,1,1,2,2,3,3,4,4,5,5,6,6,7,7,8,8,9,9,10,10,11,11,12,12,13,13,14,14],"right_children":[2,4,6,8,10,12,14,16,18,20,22,24,26,28,30,-1,-1,-1,-1,-1,-1,-1,-1,-1,-1,-1,-1,-1,-1,-1,-1],"split_conditions":[6E0,4E0,1.8E1,3E0,5E0,5E0,3E0,5E0,7E0,2E0,6E0,1.4E1,9E0,2E1,6E0,-1.1773526E-1,-8.814027E-2,-5.022463E-2,-1.0605842E-1,-6.7014135E-2,3.1840976E-2,-7.004946E-2,-1.5617596E-1,6.1375733E-2,1.9149214E-1,-9.2346124E-2,2.3829272E-2,-2.1705861E-1,-1.2074041E-1,6.0013592E-2,-6.154234E-2],"split_indices":[1,1,1,1,0,0,0,0,0,0,0,1,1,1,0,0,0,0,0,0,0,0,0,0,0,0,0,0,0,0,0],"split_type":[0,0,0,0,0,0,0,0,0,0,0,0,0,0,0,0,0,0,0,0,0,0,0,0,0,0,0,0,0,0,0],"sum_hessian":[4.894E3,8.43E2,4.051E3,5.52E2,2.91E2,2.49E3,1.561E3,4.4E2,1.12E2,2.02E2,8.9E1,1.14E3,1.35E3,3.79E2,1.182E3,2.54E2,1.86E2,6.4E1,4.8E1,7.3E1,1.29E2,4.4E1,4.5E1,7.76E2,3.64E2,2.2E2,1.13E3,1.11E2,2.68E2,5.73E2,6.09E2],"tree_param":{"num_deleted":"0","num_feature":"2","num_nodes":"31","size_leaf_vector":"1"}},{"base_weights":[-3.6137358E-3,-7.058337E-1,1.4265409E-1,-8.9522207E-1,-3.447459E-1,2.9241726E-1,-9.415925E-1,-9.4954276E-1,-6.753049E-1,-3.651578E-2,-1.0361456E0,4.4854215E-1,-7.0980944E-2,-7.150995E-1,-1.892966E0,-1.0600791E-1,-7.937336E-2,-1.6664451E-2,-8.034443E-2,-4.0728282E-2,4.9358614E-2,-6.320019E-2,-1.4089786E-1,9.276989E-2,4.353373E-3,-1.01159744E-1,5.0026443E-2,-1.2631568E-1,-2.056918E-3,-1.25809E-1,-2.5280958E-1],"categories":[],"categories_nodes":[],"categories_segments":[],"categories_sizes":[],"default_left":[0,0,0,0,0,0,0,0,0,0,0,0,0,0,0,0,0,0,0,0,0,0,0,0,0,0,0,0,0,0,0],"id":23,"left_children":[1,3,5,7,9,11,13,15,17,19,21,23,25,27,29,-1,-1,-1,-1,-1,-1,-1,-1,-1,-1,-1,-1,-1,-1,-1,-1],"loss_changes":[5.028768E2,5.7409027E1,6.5824E2,5.9649353E0,6.2190346E1,2.0206696E2,1.046622E2,6.7537537E0,7.2313843E0,4.0099525E1,1.2670555E1,4.833694E2,5.759789E2,1.5185034E2,3.472293E1,0E0,0E0,0E0,0E0,0E0,0E0,0E0,0E0,0E0,0E0,0E0,0E0,0E0,0E0,0E0,0E0],"parents":[2147483647,0,0,1,1,2,2,3,3,4,4,5,5,6,6,7,7,8,8,9,9,10,10,11,11,12,12,13,13,14,14],"right_children":[2,4,6,8,10,12,14,16,18,20,22,24,26,28,30,-1,-1,-1,-1,-1,-1,-1,-1,-1,-1,-1,-1,-1,-1,-1,-1],"split_conditions":[6E0,4E0,2.2E1,3E0,5E0,1.8E1,7E0,5E0,2E0,3E0,6E0,5E0,4E0,5E0,2.3E1,-1.0600791E-1,-7.937336E-2,-1.6664451E-2,-8.034443E-2,-4.0728282E-2,4.9358614E-2,-6.320019E-2,-1.4089786E-1,9.276989E-2,4.353373E-3,-1.01159744E-1,5.0026443E-2,-1.2631568E-1,-2.056918E-3,-1.25809E-1,-2.5280958E-1],"split_indices":[1,1,1,1,0,1,0,0,0,0,0,0,0,0,1,0,0,0,0,0,0,0,0,0,0,0,0,0,0,0,0],"split_type":[0,0,0,0,0,0,0,0,0,0,0,0,0,0,0,0,0,0,0,0,0,0,0,0,0,0,0,0,0,0,0],"sum_hessian":[4.894E3,8.43E2,4.051E3,5.52E2,2.91E2,3.56E3,4.91E2,4.4E2,1.12E2,2.02E2,8.9E1,2.49E3,1.07E3,3.98E2,9.3E1,2.54E2,1.86E2,2.3E1,8.9E1,1.19E2,8.3E1,4.4E1,4.5E1,1.14E3,1.35E3,4.04E2,6.66E2,2.22E2,1.76E2,4.8E1,4.5E1],"tree_param":{"num_deleted":"0","num_feature":"2","num_nodes":"31","size_leaf_vector":"1"}},{"base_weights":[-3.4439221E-3,-6.358165E-1,1.282752E-1,-8.062106E-1,-3.1094062E-1,2.6318878E-1,-8.484636E-1,-9.03107E-1,-6.99798E-1,-3.2821476E-2,-9.347989E-1,3.724807E-1,-2.3055497E-1,-5.2363646E-1,-1.4443955E0,-9.696242E-2,-1.6988251E-2,-5.5270035E-2,-8.2451485E-2,-5.63855E-2,2.6971161E-2,-5.7020623E-2,-1.271144E-1,-3.031897E-2,5.0243504E-2,4.750313E-4,-6.31283E-2,-1.1121192E-1,2.1254238E-2,-8.9504145E-2,-1.9528306E-1],"categories":[],"categories_nodes":[],"categories_segments":[],"categories_sizes":[],"default_left":[0,0,0,0,0,0,0,0,0,0,0,0,0,0,0,0,0,0,0,0,0,0,0,0,0,0,0,0,0,0,0],"id":24,"left_children":[1,3,5,7,9,11,13,15,17,19,21,23,25,27,29,-1,-1,-1,-1,-1,-1,-1,-1,-1,-1,-1,-1,-1,-1,-1,-1],"loss_changes":[4.0781335E2,4.647058E1,5.341769E2,5.0700073E0,5.0633335E1,1.9224527E2,9.448251E1,1.3784073E1,4.4608917E0,3.276509E1,1.031179E1,2.561955E2,6.091655E1,1.388695E2,4.6572937E1,0E0,0E0,0E0,0E0,0E0,0E0,0E0,0E0,0E0,0E0,0E0,0E0,0E0,0E0,0E0,0E0],"parents":[2147483647,0,0,1,1,2,2,3,3,4,4,5,5,6,6,7,7,8,8,9,9,10,10,11,11,12,12,13,13,14,14],"right_children":[2,4,6,8,10,12,14,16,18,20,22,24,26,28,30,-1,-1,-1,-1,-1,-1,-1,-1,-1,-1,-1,-1,-1,-1,-1,-1],"split_conditions":[6E0,4E0,2.2E1,2E0,5E0,7E0,2.3E1,7E0,7E0,2E0,6E0,2E0,1.7E1,5E0,6E0,-9.696242E-2,-1.6988251E-2,-5.5270035E-2,-8.2451485E-2,-5.63855E-2,2.6971161E-2,-5.7020623E-2,-1.271144E-1,-3.031897E-2,5.0243504E-2,4.750313E-4,-6.31283E-2,-1.1121192E-1,2.1254238E-2,-8.9504145E-2,-1.9528306E-1],"split_indices":[1,1,1,1,0,0,1,0,0,0,0,0,1,0,0,0,0,0,0,0,0,0,0,0,0,0,0,0,0,0,0],"split_type":[0,0,0,0,0,0,0,0,0,0,0,0,0,0,0,0,0,0,0,0,0,0,0,0,0,0,0,0,0,0,0],"sum_hessian":[4.894E3,8.43E2,4.051E3,5.52E2,2.91E2,3.56E3,4.91E2,2.85E2,2.67E2,2.02E2,8.9E1,2.915E3,6.45E2,3.19E2,1.72E2,2.61E2,2.4E1,1.25E2,1.42E2,7.3E1,1.29E2,4.4E1,4.5E1,4.7E2,2.445E3,4.07E2,2.38E2,1.77E2,1.42E2,8.4E1,8.8E1],"tree_param":{"num_deleted":"0","num_feature":"2","num_nodes":"31","size_leaf_vector":"1"}},{"base_weights":[-3.2797828E-3,-5.727861E-1,1.1534475E-1,-7.2604465E-1,-2.8057793E-1,3.1942502E-1,-4.3536755E-1,-7.714787E-1,-5.4230595E-1,-2.9684227E-2,-8.433651E-1,6.362336E-1,3.2990836E-2,-2.7271172E-1,-1.3016022E0,-5.8741897E-2,-8.456976E-2,-9.7707035E-3,-6.548401E-2,-3.4293164E-2,4.1816544E-2,-5.1445294E-2,-1.1467929E-1,-8.120834E-3,9.2415065E-2,-6.447833E-2,2.3493772E-2,-8.964884E-2,1.2161767E-2,-1.0081948E-1,-2.0897444E-1],"categories":[],"categories_nodes":[],"categories_segments":[],"categories_sizes":[],"default_left":[0,0,0,0,0,0,0,0,0,0,0,0,0,0,0,0,0,0,0,0,0,0,0,0,0,0,0,0,0,0,0],"id":25,"left_children":[1,3,5,7,9,11,13,15,17,19,21,23,25,27,29,-1,-1,-1,-1,-1,-1,-1,-1,-1,-1,-1,-1,-1,-1,-1,-1],"loss_changes":[3.307596E2,3.7593475E1,4.5554132E2,4.198059E0,4.1205288E1,2.683114E2,1.5406934E2,5.527588E0,5.589691E0,2.8621815E1,8.392128E0,2.900905E2,2.1285425E2,2.2738852E2,3.7898834E1,0E0,0E0,0E0,0E0,0E0,0E0,0E0,0E0,0E0,0E0,0E0,0E0,0E0,0E0,0E0,0E0],"parents":[2147483647,0,0,1,1,2,2,3,3,4,4,5,5,6,6,7,7,8,8,9,9,10,10,11,11,12,12,13,13,14,14],"right_children":[2,4,6,8,10,12,14,16,18,20,22,24,26,28,30,-1,-1,-1,-1,-1,-1,-1,-1,-1,-1,-1,-1,-1,-1,-1,-1],"split_conditions":[6E0,4E0,2E1,3E0,5E0,5E0,2.3E1,1E0,2E0,3E0,6E0,2E0,1E1,4E0,7E0,-5.8741897E-2,-8.456976E-2,-9.7707035E-3,-6.548401E-2,-3.4293164E-2,4.1816544E-2,-5.1445294E-2,-1.1467929E-1,-8.120834E-3,9.2415065E-2,-6.447833E-2,2.3493772E-2,-8.964884E-2,1.2161767E-2,-1.0081948E-1,-2.0897444E-1],"split_indices":[1,1,1,1,0,0,1,1,0,0,0,0,1,0,0,0,0,0,0,0,0,0,0,0,0,0,0,0,0,0,0],"split_type":[0,0,0,0,0,0,0,0,0,0,0,0,0,0,0,0,0,0,0,0,0,0,0,0,0,0,0,0,0,0,0],"sum_hessian":[4.894E3,8.43E2,4.051E3,5.52E2,2.91E2,2.956E3,1.095E3,4.4E2,1.12E2,2.02E2,8.9E1,1.403E3,1.553E3,9.23E2,1.72E2,1.29E2,3.11E2,2.3E1,8.9E1,1.19E2,8.3E1,4.4E1,4.5E1,4.02E2,1.001E3,3.56E2,1.197E3,3.57E2,5.66E2,1.27E2,4.5E1],"tree_param":{"num_deleted":"0","num_feature":"2","num_nodes":"31","size_leaf_vector":"1"}},{"base_weights":[-3.0993167E-3,-5.159544E-1,1.0372515E-1,-6.538354E-1,-2.5306332E-1,2.590841E-1,-4.9604005E-1,-7.4057025E-1,-5.588354E-1,-2.6678808E-2,-7.608744E-1,4.6281454E-1,7.28733E-2,-2.9902843E-1,-1.3370578E0,-7.991357E-2,-9.71814E-3,-4.3383464E-2,-6.6506796E-2,-4.7440227E-2,2.2838438E-2,-4.6415094E-2,-1.0346066E-1,7.052352E-2,-7.088023E-2,-8.021045E-2,2.0499717E-2,-8.8890135E-2,8.966312E-3,-1.102042E-1,-1.8853131E-1],"categories":[],"categories_nodes":[],"categories_segments":[],"categories_sizes":[],"default_left":[0,0,0,0,0,0,0,0,0,0,0,0,0,0,0,0,0,0,0,0,0,0,0,0,0,0,0,0,0,0,0],"id":26,"left_children":[1,3,5,7,9,11,13,15,17,19,21,23,25,27,29,-1,-1,-1,-1,-1,-1,-1,-1,-1,-1,-1,-1,-1,-1,-1,-1],"loss_changes":[2.6822836E2,3.0427582E1,3.7768936E2,4.142761E0,3.3548183E1,1.2208482E2,1.3778587E2,1.0698914E1,3.2702866E0,2.3290493E1,6.829834E0,4.37045E2,1.947284E2,1.5530133E2,1.8280365E1,0E0,0E0,0E0,0E0,0E0,0E0,0E0,0E0,0E0,0E0,0E0,0E0,0E0,0E0,0E0,0E0],"parents":[2147483647,0,0,1,1,2,2,3,3,4,4,5,5,6,6,7,7,8,8,9,9,10,10,11,11,12,12,13,13,14,14],"right_children":[2,4,6,8,10,12,14,16,18,20,22,24,26,28,30,-1,-1,-1,-1,-1,-1,-1,-1,-1,-1,-1,-1,-1,-1,-1,-1],"split_conditions":[6E0,4E0,2.1E1,2E0,5E0,5E0,7E0,7E0,7E0,2E0,6E0,1.9E1,9E0,4E0,2.3E1,-7.991357E-2,-9.71814E-3,-4.3383464E-2,-6.6506796E-2,-4.7440227E-2,2.2838438E-2,-4.6415094E-2,-1.0346066E-1,7.052352E-2,-7.088023E-2,-8.021045E-2,2.0499717E-2,-8.8890135E-2,8.966312E-3,-1.102042E-1,-1.8853131E-1],"split_indices":[1,1,1,1,0,0,0,0,0,0,0,1,1,0,1,0,0,0,0,0,0,0,0,0,0,0,0,0,0,0,0],"split_type":[0,0,0,0,0,0,0,0,0,0,0,0,0,0,0,0,0,0,0,0,0,0,0,0,0,0,0,0,0,0,0],"sum_hessian":[4.894E3,8.43E2,4.051E3,5.52E2,2.91E2,3.218E3,8.33E2,2.85E2,2.67E2,2.02E2,8.9E1,1.536E3,1.682E3,6.76E2,1.57E2,2.61E2,2.4E1,1.25E2,1.42E2,7.3E1,1.29E2,4.4E1,4.5E1,1.273E3,2.63E2,2.2E2,1.462E3,2.68E2,4.08E2,1.12E2,4.5E1],"tree_param":{"num_deleted":"0","num_feature":"2","num_nodes":"31","size_leaf_vector":"1"}},{"base_weights":[-2.9557524E-3,6.924776E-2,-6.492592E-1,-2.8755504E-1,2.7294677E-1,-4.7436923E-1,-1.3847044E0,-7.379258E-2,-5.483556E-1,4.859345E-1,-7.214535E-2,-9.032753E-1,6.868398E-2,-1.0596269E-1,-1.7008801E-1,-7.187545E-2,1.8863022E-2,-6.198427E-2,-2.3909783E-2,8.728564E-2,1.9768514E-2,-8.625182E-2,4.078744E-2,-1.18725374E-1,-6.2133756E-2,9.960453E-2,-7.6075256E-2],"categories":[],"categories_nodes":[],"categories_segments":[],"categories_sizes":[],"default_left":[0,0,0,0,0,0,0,0,0,0,0,0,0,0,0,0,0,0,0,0,0,0,0,0,0,0,0],"id":27,"left_children":[1,3,5,7,9,11,13,15,17,19,21,23,25,-1,-1,-1,-1,-1,-1,-1,-1,-1,-1,-1,-1,-1,-1],"loss_changes":[2.2847198E2,3.2016287E2,6.2625137E1,8.921428E1,2.0613013E2,9.299665E1,7.8591766E0,1.4924722E2,1.5791611E1,1.9322049E2,4.0668338E2,1.7116638E1,1.3690392E2,0E0,0E0,0E0,0E0,0E0,0E0,0E0,0E0,0E0,0E0,0E0,0E0,0E0,0E0],"parents":[2147483647,0,0,1,1,2,2,3,3,4,4,5,5,6,6,7,7,8,8,9,9,10,10,11,11,12,12],"right_children":[2,4,6,8,10,12,14,16,18,20,22,24,26,-1,-1,-1,-1,-1,-1,-1,-1,-1,-1,-1,-1,-1,-1],"split_conditions":[2.2E1,1E1,7E0,5E0,1.8E1,5E0,2.3E1,3E0,9E0,5E0,4E0,3E0,6E0,-1.0596269E-1,-1.7008801E-1,-7.187545E-2,1.8863022E-2,-6.198427E-2,-2.3909783E-2,8.728564E-2,1.9768514E-2,-8.625182E-2,4.078744E-2,-1.18725374E-1,-6.2133756E-2,9.960453E-2,-7.6075256E-2],"split_indices":[1,1,0,0,1,0,1,1,1,0,0,0,0,0,0,0,0,0,0,0,0,0,0,0,0,0,0],"split_type":[0,0,0,0,0,0,0,0,0,0,0,0,0,0,0,0,0,0,0,0,0,0,0,0,0,0,0],"sum_hessian":[4.894E3,4.403E3,4.91E2,1.6E3,2.803E3,3.98E2,9.3E1,8.8E2,7.2E2,1.733E3,1.07E3,2.22E2,1.76E2,4.8E1,4.5E1,2.54E2,6.26E2,5.84E2,1.36E2,7.39E2,9.94E2,4.04E2,6.66E2,1.09E2,1.13E2,8.3E1,9.3E1],"tree_param":{"num_deleted":"0","num_feature":"2","num_nodes":"27","size_leaf_vector":"1"}},{"base_weights":[-2.7644348E-3,3.5686806E-2,-1.0524895E0,-4.2146736E-1,1.3512042E-1,-6.850153E-1,-1.3916223E0,-5.591137E-1,-2.7017158E-1,-3.678294E-1,2.1185969E-1,-1.2304888E-1,-4.5023095E-2,-1.2106333E-1,-1.5344897E-1,-6.471611E-2,-4.360591E-2,-1.2620454E-2,-7.43614E-2,3.5170503E-2,-1.2790985E-1,3.3670954E-2,-2.694953E-2],"categories":[],"categories_nodes":[],"categories_segments":[],"categories_sizes":[],"default_left":[0,0,0,0,0,0,0,0,0,0,0,0,0,0,0,0,0,0,0,0,0,0,0],"id":28,"left_children":[1,3,5,7,9,11,13,15,17,19,21,-1,-1,-1,-1,-1,-1,-1,-1,-1,-1,-1,-1],"loss_changes":[1.9761559E2,2.1474797E2,2.0606415E1,1.7425491E1,1.4983041E2,1.0331833E1,4.4358826E-1,4.49588E0,2.7442837E1,3.3747427E2,2.0243765E2,0E0,0E0,0E0,0E0,0E0,0E0,0E0,0E0,0E0,0E0,0E0,0E0],"parents":[2147483647,0,0,1,1,2,2,3,3,4,4,5,5,6,6,7,7,8,8,9,9,10,10],"right_children":[2,4,6,8,10,12,14,16,18,20,22,-1,-1,-1,-1,-1,-1,-1,-1,-1,-1,-1,-1],"split_conditions":[2.3E1,6E0,6E0,3E0,2E0,2E0,7E0,5E0,7E0,1.7E1,7E0,-1.2304888E-1,-4.5023095E-2,-1.2106333E-1,-1.5344897E-1,-6.471611E-2,-4.360591E-2,-1.2620454E-2,-7.43614E-2,3.5170503E-2,-1.2790985E-1,3.3670954E-2,-2.694953E-2],"split_indices":[1,1,0,1,0,0,0,0,0,1,0,0,0,0,0,0,0,0,0,0,0,0,0],"split_type":[0,0,0,0,0,0,0,0,0,0,0,0,0,0,0,0,0,0,0,0,0,0,0],"sum_hessian":[4.894E3,4.722E3,1.72E2,8.43E2,3.879E3,8.4E1,8.8E1,4.4E2,4.03E2,5.13E2,3.366E3,2.4E1,6E1,4.3E1,4.5E1,2.54E2,1.86E2,3.1E2,9.3E1,2.87E2,2.26E2,2.673E3,6.93E2],"tree_param":{"num_deleted":"0","num_feature":"2","num_nodes":"23","size_leaf_vector":"1"}},{"base_weights":[-2.6357318E-3,5.8615193E-2,-5.509008E-1,-2.4779245E-1,2.3354387E-1,-4.055638E-1,-1.1619495E0,-6.0132276E-2,-4.7675338E-1,4.190746E-1,-6.705726E-2,-7.9184467E-1,8.3397746E-2,-9.294274E-2,-1.3843764E-1,-5.8269877E-2,1.5249068E-2,-5.340922E-2,-2.2843255E-2,7.6199986E-2,1.6361356E-2,-7.558077E-2,3.512501E-2,-1.0056158E-1,-5.786283E-2,8.239281E-2,-7.6520205E-2],"categories":[],"categories_nodes":[],"categories_segments":[],"categories_sizes":[],"default_left":[0,0,0,0,0,0,0,0,0,0,0,0,0,0,0,0,0,0,0,0,0,0,0,0,0,0,0],"id":29,"left_children":[1,3,5,7,9,11,13,15,17,19,21,23,25,-1,-1,-1,-1,-1,-1,-1,-1,-1,-1,-1,-1,-1,-1],"loss_changes":[1.6441492E2,2.3611002E2,4.322229E1,6.8761246E1,1.5640929E2,7.542776E1,3.574936E0,9.797644E1,1.0143906E1,1.5178073E2,3.088306E2,9.582352E0,1.1185974E2,0E0,0E0,0E0,0E0,0E0,0E0,0E0,0E0,0E0,0E0,0E0,0E0,0E0,0E0],"parents":[2147483647,0,0,1,1,2,2,3,3,4,4,5,5,6,6,7,7,8,8,9,9,10,10,11,11,12,12],"right_children":[2,4,6,8,10,12,14,16,18,20,22,24,26,-1,-1,-1,-1,-1,-1,-1,-1,-1,-1,-1,-1,-1,-1],"split_conditions":[2.2E1,1E1,7E0,5E0,1.8E1,5E0,2.3E1,3E0,9E0,5E0,4E0,3E0,2.3E1,-9.294274E-2,-1.3843764E-1,-5.8269877E-2,1.5249068E-2,-5.340922E-2,-2.2843255E-2,7.6199986E-2,1.6361356E-2,-7.558077E-2,3.512501E-2,-1.0056158E-1,-5.786283E-2,8.239281E-2,-7.6520205E-2],"split_indices":[1,1,0,0,1,0,1,1,1,0,0,0,1,0,0,0,0,0,0,0,0,0,0,0,0,0,0],"split_type":[0,0,0,0,0,0,0,0,0,0,0,0,0,0,0,0,0,0,0,0,0,0,0,0,0,0,0],"sum_hessian":[4.894E3,4.403E3,4.91E2,1.6E3,2.803E3,3.98E2,9.3E1,8.8E2,7.2E2,1.733E3,1.07E3,2.22E2,1.76E2,4.8E1,4.5E1,2.54E2,6.26E2,5.84E2,1.36E2,7.39E2,9.94E2,4.04E2,6.66E2,1.09E2,1.13E2,9.4E1,8.2E1],"tree_param":{"num_deleted":"0","num_feature":"2","num_nodes":"27","size_leaf_vector":"1"}},{"base_weights":[-2.464401E-3,5.2738316E-2,-4.9659103E-1,-2.230878E-1,2.1020795E-1,-2.746655E-1,-8.5708636E-1,-5.4167945E-2,-4.2918393E-1,3.772204E-1,-6.0389366E-2,-7.133705E-1,8.9326173E-1,-5.863815E-1,-1.1485773E-1,-5.2465733E-2,1.372658E-2,-3.4357123E-2,-5.684181E-2,1.9416722E-2,8.137376E-2,-6.804138E-2,3.161777E-2,-9.059684E-2,-5.2127283E-2,1.9444296E-1,-3.1163365E-2,-3.327662E-2,-8.383814E-2],"categories":[],"categories_nodes":[],"categories_segments":[],"categories_sizes":[],"default_left":[0,0,0,0,0,0,0,0,0,0,0,0,0,0,0,0,0,0,0,0,0,0,0,0,0,0,0,0,0],"id":30,"left_children":[1,3,5,7,9,11,13,15,17,19,21,23,25,27,-1,-1,-1,-1,-1,-1,-1,-1,-1,-1,-1,-1,-1,-1,-1],"loss_changes":[1.3354776E2,1.913313E2,3.912613E1,5.571354E1,1.26744286E2,1.5742413E2,1.4082291E1,7.9421524E1,8.399185E0,1.3839873E2,2.5027304E2,7.778206E0,1.0699592E2,6.0482025E0,0E0,0E0,0E0,0E0,0E0,0E0,0E0,0E0,0E0,0E0,0E0,0E0,0E0,0E0,0E0],"parents":[2147483647,0,0,1,1,2,2,3,3,4,4,5,5,6,6,7,7,8,8,9,9,10,10,11,11,12,12,13,13],"right_children":[2,4,6,8,10,12,14,16,18,20,22,24,26,28,-1,-1,-1,-1,-1,-1,-1,-1,-1,-1,-1,-1,-1,-1,-1],"split_conditions":[2.2E1,1E1,6E0,5E0,1.8E1,5E0,2.3E1,3E0,7E0,1.6E1,4E0,3E0,2.3E1,7E0,-1.1485773E-1,-5.2465733E-2,1.372658E-2,-3.4357123E-2,-5.684181E-2,1.9416722E-2,8.137376E-2,-6.804138E-2,3.161777E-2,-9.059684E-2,-5.2127283E-2,1.9444296E-1,-3.1163365E-2,-3.327662E-2,-8.383814E-2],"split_indices":[1,1,0,0,1,0,1,1,1,1,0,0,1,0,0,0,0,0,0,0,0,0,0,0,0,0,0,0,0],"split_type":[0,0,0,0,0,0,0,0,0,0,0,0,0,0,0,0,0,0,0,0,0,0,0,0,0,0,0,0,0],"sum_hessian":[4.894E3,4.403E3,4.91E2,1.6E3,2.803E3,3.05E2,1.86E2,8.8E2,7.2E2,1.733E3,1.07E3,2.22E2,8.3E1,9.8E1,8.8E1,2.54E2,6.26E2,4.48E2,2.72E2,1.222E3,5.11E2,4.04E2,6.66E2,1.09E2,1.13E2,4.4E1,3.9E1,5E1,4.8E1],"tree_param":{"num_deleted":"0","num_feature":"2","num_nodes":"29","size_leaf_vector":"1"}},{"base_weights":[-2.2746164E-3,7.748904E-2,-3.3358526E-1,-3.622588E-1,1.8233085E-1,-1.15010515E-1,-7.4010384E-1,-2.1557268E-2,-1.0530776E0,-2.0159125E-1,2.832587E-1,-4.3587756E-1,9.2749625E-1,-5.197237E-1,-9.7951156E-1,-2.4615925E-2,4.7448477E-1,-1.2618801E-1,-7.910792E-2,5.242006E-3,-5.8665544E-2,3.60974E-2,-2.3093658E-2,-2.0771602E-2,-2.6609173E-1,2.1910337E-1,2.6662648E-2,-1.2837358E-1,-2.6111577E-2,-9.06901E-2,-1.1365874E-1],"categories":[],"categories_nodes":[],"categories_segments":[],"categories_sizes":[],"default_left":[0,0,0,0,0,0,0,0,0,0,0,0,0,0,0,0,0,0,0,0,0,0,0,0,0,0,0,0,0,0,0],"id":31,"left_children":[1,3,5,7,9,11,13,15,17,19,21,23,25,27,29,-1,-1,-1,-1,-1,-1,-1,-1,-1,-1,-1,-1,-1,-1,-1,-1],"loss_changes":[1.2938379E2,1.8199228E2,8.432684E1,1.7885316E2,1.2354837E2,2.074635E2,1.7007477E1,5.4714545E2,1.2732941E1,6.497703E1,1.0094449E2,2.4008212E2,1.2133074E2,3.4241222E1,7.7127075E-1,0E0,0E0,0E0,0E0,0E0,0E0,0E0,0E0,0E0,0E0,0E0,0E0,0E0,0E0,0E0,0E0],"parents":[2147483647,0,0,1,1,2,2,3,3,4,4,5,5,6,6,7,7,8,8,9,9,10,10,11,11,12,12,13,13,14,14],"right_children":[2,4,6,8,10,12,14,16,18,20,22,24,26,28,30,-1,-1,-1,-1,-1,-1,-1,-1,-1,-1,-1,-1,-1,-1,-1,-1],"split_conditions":[7E0,2E0,1.7E1,1.7E1,8E0,1.4E1,2.1E1,1.6E1,2.1E1,5E0,2.2E1,1.3E1,1.5E1,1.8E1,2.3E1,-2.4615925E-2,4.7448477E-1,-1.2618801E-1,-7.910792E-2,5.242006E-3,-5.8665544E-2,3.60974E-2,-2.3093658E-2,-2.0771602E-2,-2.6609173E-1,2.1910337E-1,2.6662648E-2,-1.2837358E-1,-2.6111577E-2,-9.06901E-2,-1.1365874E-1],"split_indices":[0,0,1,1,1,1,1,1,1,0,1,1,1,1,1,0,0,0,0,0,0,0,0,0,0,0,0,0,0,0,0],"split_type":[0,0,0,0,0,0,0,0,0,0,0,0,0,0,0,0,0,0,0,0,0,0,0,0,0,0,0,0,0,0,0],"sum_hessian":[4.894E3,3.945E3,9.49E2,7.59E2,3.186E3,6.18E2,3.31E2,5.09E2,2.5E2,6.63E2,2.523E3,4.73E2,1.45E2,1.74E2,1.57E2,4.87E2,2.2E1,1.37E2,1.13E2,4E2,2.63E2,2.192E3,3.31E2,4.3E2,4.3E1,4.9E1,9.6E1,4.3E1,1.31E2,1.12E2,4.5E1],"tree_param":{"num_deleted":"0","num_feature":"2","num_nodes":"31","size_leaf_vector":"1"}},{"base_weights":[-2.0868934E-3,6.97922E-2,-3.0064777E-1,-3.2571092E-1,1.6408545E-1,-1.03575945E-1,-6.671743E-1,-1.8519232E-2,-9.485876E-1,-1.17187835E-1,2.7620187E-1,-3.9289513E-1,8.3642995E-1,-4.6863398E-1,-8.828539E-1,-2.2159351E-2,4.2909923E-1,-1.13660626E-1,-7.1266524E-2,1.0572246E-2,-4.3202605E-2,6.841489E-2,1.4572561E-2,-1.869928E-2,-2.4008726E-1,1.9763128E-1,2.4023851E-2,-1.1582792E-1,-2.3520198E-2,-8.170136E-2,-1.0253996E-1],"categories":[],"categories_nodes":[],"categories_segments":[],"categories_sizes":[],"default_left":[0,0,0,0,0,0,0,0,0,0,0,0,0,0,0,0,0,0,0,0,0,0,0,0,0,0,0,0,0,0,0],"id":32,"left_children":[1,3,5,7,9,11,13,15,17,19,21,23,25,27,29,-1,-1,-1,-1,-1,-1,-1,-1,-1,-1,-1,-1,-1,-1,-1,-1],"loss_changes":[1.0506908E2,1.4721269E2,6.855134E1,1.4540277E2,1.0053554E2,1.6867294E2,1.3802872E1,4.472778E2,1.03237915E1,6.383991E1,1.2120555E2,1.9552501E2,9.874512E1,2.7899994E1,6.4510345E-1,0E0,0E0,0E0,0E0,0E0,0E0,0E0,0E0,0E0,0E0,0E0,0E0,0E0,0E0,0E0,0E0],"parents":[2147483647,0,0,1,1,2,2,3,3,4,4,5,5,6,6,7,7,8,8,9,9,10,10,11,11,12,12,13,13,14,14],"right_children":[2,4,6,8,10,12,14,16,18,20,22,24,26,28,30,-1,-1,-1,-1,-1,-1,-1,-1,-1,-1,-1,-1,-1,-1,-1,-1],"split_conditions":[7E0,2E0,1.7E1,1.7E1,1E1,1.4E1,2.1E1,1.6E1,2.1E1,5E0,1.4E1,1.3E1,1.5E1,1.8E1,2.3E1,-2.2159351E-2,4.2909923E-1,-1.13660626E-1,-7.1266524E-2,1.0572246E-2,-4.3202605E-2,6.841489E-2,1.4572561E-2,-1.869928E-2,-2.4008726E-1,1.9763128E-1,2.4023851E-2,-1.1582792E-1,-2.3520198E-2,-8.170136E-2,-1.0253996E-1],"split_indices":[0,0,1,1,1,1,1,1,1,0,1,1,1,1,1,0,0,0,0,0,0,0,0,0,0,0,0,0,0,0,0],"split_type":[0,0,0,0,0,0,0,0,0,0,0,0,0,0,0,0,0,0,0,0,0,0,0,0,0,0,0,0,0,0,0],"sum_hessian":[4.894E3,3.945E3,9.49E2,7.59E2,3.186E3,6.18E2,3.31E2,5.09E2,2.5E2,9.08E2,2.278E3,4.73E2,1.45E2,1.74E2,1.57E2,4.87E2,2.2E1,1.37E2,1.13E2,5.32E2,3.76E2,5.51E2,1.727E3,4.3E2,4.3E1,4.9E1,9.6E1,4.3E1,1.31E2,1.12E2,4.5E1],"tree_param":{"num_deleted":"0","num_feature":"2","num_nodes":"31","size_leaf_vector":"1"}},{"base_weights":[-1.8960743E-3,6.2882215E-2,-2.7096263E-1,-2.928476E-1,1.4769293E-1,-9.327818E-2,-6.014316E-1,-1.5869271E-2,-8.544655E-1,-1.7076963E-1,2.314138E-1,-3.5415146E-1,7.543055E-1,-4.2256698E-1,-7.957347E-1,-1.994794E-2,3.8805488E-1,-1.05945386E-1,-6.733397E-2,3.6645213E-3,-4.8517335E-2,3.0001773E-2,-2.2244116E-2,-1.1698173E-2,-1.8185192E-1,1.7826335E-1,2.1646313E-2,-1.04508415E-1,-2.1186002E-2,-7.360354E-2,-9.2508875E-2],"categories":[],"categories_nodes":[],"categories_segments":[],"categories_sizes":[],"default_left":[0,0,0,0,0,0,0,0,0,0,0,0,0,0,0,0,0,0,0,0,0,0,0,0,0,0,0,0,0,0,0],"id":33,"left_children":[1,3,5,7,9,11,13,15,17,19,21,23,25,27,29,-1,-1,-1,-1,-1,-1,-1,-1,-1,-1,-1,-1,-1,-1,-1,-1],"loss_changes":[8.5335266E1,1.19092896E2,5.5727142E1,1.18208984E2,8.5011185E1,1.3713544E2,1.12020645E1,3.656392E2,8.6059265E0,4.3318546E1,7.865459E1,1.6440923E2,8.036356E1,2.2733114E1,5.3923035E-1,0E0,0E0,0E0,0E0,0E0,0E0,0E0,0E0,0E0,0E0,0E0,0E0,0E0,0E0,0E0,0E0],"parents":[2147483647,0,0,1,1,2,2,3,3,4,4,5,5,6,6,7,7,8,8,9,9,10,10,11,11,12,12,13,13,14,14],"right_children":[2,4,6,8,10,12,14,16,18,20,22,24,26,28,30,-1,-1,-1,-1,-1,-1,-1,-1,-1,-1,-1,-1,-1,-1,-1,-1],"split_conditions":[7E0,2E0,1.7E1,1.7E1,8E0,1.4E1,2.1E1,1.6E1,2E1,5E0,2.2E1,1.2E1,1.5E1,1.8E1,2.3E1,-1.994794E-2,3.8805488E-1,-1.05945386E-1,-6.733397E-2,3.6645213E-3,-4.8517335E-2,3.0001773E-2,-2.2244116E-2,-1.1698173E-2,-1.8185192E-1,1.7826335E-1,2.1646313E-2,-1.04508415E-1,-2.1186002E-2,-7.360354E-2,-9.2508875E-2],"split_indices":[0,0,1,1,1,1,1,1,1,0,1,1,1,1,1,0,0,0,0,0,0,0,0,0,0,0,0,0,0,0,0],"split_type":[0,0,0,0,0,0,0,0,0,0,0,0,0,0,0,0,0,0,0,0,0,0,0,0,0,0,0,0,0,0,0],"sum_hessian":[4.894E3,3.945E3,9.49E2,7.59E2,3.186E3,6.18E2,3.31E2,5.09E2,2.5E2,6.63E2,2.523E3,4.73E2,1.45E2,1.74E2,1.57E2,4.87E2,2.2E1,1.15E2,1.35E2,4E2,2.63E2,2.192E3,3.31E2,4.08E2,6.5E1,4.9E1,9.6E1,4.3E1,1.31E2,1.12E2,4.5E1],"tree_param":{"num_deleted":"0","num_feature":"2","num_nodes":"31","size_leaf_vector":"1"}},{"base_weights":[-1.7328345E-3,2.1770597E-2,-6.433801E-1,-2.64426E-1,8.402012E-2,-4.0474802E-1,-8.6405806E-2,-3.52361E-1,-1.67783E-1,1.7538355E-1,-7.9771474E-2,-7.198497E-2,-2.6897281E-2,-1.6541963E-2,-4.291239E-2,-5.69813E-3,-5.325867E-2,4.585536E-3,6.759508E-2,-5.7268985E-2,2.2746092E-2],"categories":[],"categories_nodes":[],"categories_segments":[],"categories_sizes":[],"default_left":[0,0,0,0,0,0,0,0,0,0,0,0,0,0,0,0,0,0,0,0,0],"id":34,"left_children":[1,3,5,7,9,11,-1,13,15,17,19,-1,-1,-1,-1,-1,-1,-1,-1,-1,-1],"loss_changes":[7.383507E1,8.41653E1,8.760605E0,7.113449E0,5.8076485E1,3.442935E0,0E0,6.257431E0,1.6299685E1,1.6147937E2,2.1063254E2,0E0,0E0,0E0,0E0,0E0,0E0,0E0,0E0,0E0,0E0],"parents":[2147483647,0,0,1,1,2,2,3,3,4,4,5,5,7,7,8,8,9,9,10,10],"right_children":[2,4,6,8,10,12,-1,14,16,18,20,-1,-1,-1,-1,-1,-1,-1,-1,-1,-1],"split_conditions":[2.3E1,6E0,6E0,3E0,1.8E1,2E0,-8.6405806E-2,1E0,7E0,1.6E1,4E0,-7.198497E-2,-2.6897281E-2,-1.6541963E-2,-4.291239E-2,-5.69813E-3,-5.325867E-2,4.585536E-3,6.759508E-2,-5.7268985E-2,2.2746092E-2],"split_indices":[1,1,0,1,1,0,0,1,0,1,0,0,0,0,0,0,0,0,0,0,0],"split_type":[0,0,0,0,0,0,0,0,0,0,0,0,0,0,0,0,0,0,0,0,0],"sum_hessian":[4.894E3,4.722E3,1.72E2,8.43E2,3.879E3,8.4E1,8.8E1,4.4E2,4.03E2,2.49E3,1.389E3,2.4E1,6E1,1.29E2,3.11E2,3.1E2,9.3E1,1.979E3,5.11E2,5.33E2,8.56E2],"tree_param":{"num_deleted":"0","num_feature":"2","num_nodes":"21","size_leaf_vector":"1"}},{"base_weights":[-1.6137477E-3,5.6778654E-2,-2.4415566E-1,-2.4886924E-1,1.2964833E-1,-7.657951E-2,-5.558589E-1,-9.304888E-3,-7.3464197E-1,-4.322991E-1,1.6661723E-1,-3.0188203E-1,6.554066E-1,-1.0090083E-1,-4.8494393E-1,-3.1602796E-2,1.9556357E-1,-9.482375E-2,-5.470558E-2,-2.259823E-3,-6.292785E-2,3.2594804E-2,3.5109895E-4,-1.2853815E-2,-1.9930033E-1,1.6034426E-1,1.5997155E-2,-7.176856E-3,-6.7144655E-2],"categories":[],"categories_nodes":[],"categories_segments":[],"categories_sizes":[],"default_left":[0,0,0,0,0,0,0,0,0,0,0,0,0,0,0,0,0,0,0,0,0,0,0,0,0,0,0,0,0],"id":35,"left_children":[1,3,5,7,9,11,13,15,17,19,21,23,25,-1,27,-1,-1,-1,-1,-1,-1,-1,-1,-1,-1,-1,-1,-1,-1],"loss_changes":[6.933981E1,8.7919395E1,4.9579765E1,8.843727E1,6.6280624E1,1.0228229E2,1.0179527E1,3.0799124E2,9.538223E0,1.5884197E1,7.772851E1,1.386948E2,6.831826E1,0E0,2.2221657E1,0E0,0E0,0E0,0E0,0E0,0E0,0E0,0E0,0E0,0E0,0E0,0E0,0E0,0E0],"parents":[2147483647,0,0,1,1,2,2,3,3,4,4,5,5,6,6,7,7,8,8,9,9,10,10,11,11,12,12,14,14],"right_children":[2,4,6,8,10,12,14,16,18,20,22,24,26,-1,28,-1,-1,-1,-1,-1,-1,-1,-1,-1,-1,-1,-1,-1,-1],"split_conditions":[7E0,2E0,1.7E1,1.7E1,2E0,1.4E1,1.8E1,1.4E1,2E1,1E0,5E0,1.3E1,1.5E1,-1.0090083E-1,2E1,-3.1602796E-2,1.9556357E-1,-9.482375E-2,-5.470558E-2,-2.259823E-3,-6.292785E-2,3.2594804E-2,3.5109895E-4,-1.2853815E-2,-1.9930033E-1,1.6034426E-1,1.5997155E-2,-7.176856E-3,-6.7144655E-2],"split_indices":[0,0,1,1,1,1,1,1,1,1,0,1,1,0,1,0,0,0,0,0,0,0,0,0,0,0,0,0,0],"split_type":[0,0,0,0,0,0,0,0,0,0,0,0,0,0,0,0,0,0,0,0,0,0,0,0,0,0,0,0,0],"sum_hessian":[4.894E3,3.945E3,9.49E2,7.59E2,3.186E3,6.18E2,3.31E2,5.09E2,2.5E2,1.96E2,2.99E3,4.73E2,1.45E2,4.3E1,2.88E2,4.41E2,6.8E1,1.15E2,1.35E2,6.4E1,1.32E2,1.512E3,1.478E3,4.3E2,4.3E1,4.9E1,9.6E1,9E1,1.98E2],"tree_param":{"num_deleted":"0","num_feature":"2","num_nodes":"29","size_leaf_vector":"1"}},{"base_weights":[-1.4990706E-3,5.109637E-2,-2.1996234E-1,-2.2396334E-1,1.1667349E-1,-6.8979554E-2,-5.0080085E-1,-8.052953E-3,-6.6177344E-1,-1.0024925E-1,2.0314391E-1,-2.7214155E-1,5.9107363E-1,-9.104008E-2,-4.3670672E-1,-1.6195267E-2,3.2576478E-1,-8.5423104E-2,-4.927524E-2,8.177522E-3,-3.5732828E-2,5.6451034E-2,8.758986E-3,-7.175527E-3,-1.5098059E-1,1.4463045E-1,1.4413952E-2,-6.4670565E-3,-6.046393E-2],"categories":[],"categories_nodes":[],"categories_segments":[],"categories_sizes":[],"default_left":[0,0,0,0,0,0,0,0,0,0,0,0,0,0,0,0,0,0,0,0,0,0,0,0,0,0,0,0,0],"id":36,"left_children":[1,3,5,7,9,11,13,15,17,19,21,23,25,-1,27,-1,-1,-1,-1,-1,-1,-1,-1,-1,-1,-1,-1,-1,-1],"loss_changes":[5.625563E1,7.120259E1,4.0247143E1,7.1835754E1,5.980021E1,8.316734E1,8.3183975E0,2.568487E2,7.74395E0,4.2565575E1,9.5115555E1,1.1744888E2,5.5597374E1,0E0,1.8016747E1,0E0,0E0,0E0,0E0,0E0,0E0,0E0,0E0,0E0,0E0,0E0,0E0,0E0,0E0],"parents":[2147483647,0,0,1,1,2,2,3,3,4,4,5,5,6,6,7,7,8,8,9,9,10,10,11,11,12,12,14,14],"right_children":[2,4,6,8,10,12,14,16,18,20,22,24,26,-1,28,-1,-1,-1,-1,-1,-1,-1,-1,-1,-1,-1,-1,-1,-1],"split_conditions":[7E0,2E0,1.7E1,1.7E1,1E1,1.4E1,1.8E1,1.6E1,2E1,5E0,1.4E1,1.2E1,1.5E1,-9.104008E-2,2E1,-1.6195267E-2,3.2576478E-1,-8.5423104E-2,-4.927524E-2,8.177522E-3,-3.5732828E-2,5.6451034E-2,8.758986E-3,-7.175527E-3,-1.5098059E-1,1.4463045E-1,1.4413952E-2,-6.4670565E-3,-6.046393E-2],"split_indices":[0,0,1,1,1,1,1,1,1,0,1,1,1,0,1,0,0,0,0,0,0,0,0,0,0,0,0,0,0],"split_type":[0,0,0,0,0,0,0,0,0,0,0,0,0,0,0,0,0,0,0,0,0,0,0,0,0,0,0,0,0],"sum_hessian":[4.894E3,3.945E3,9.49E2,7.59E2,3.186E3,6.18E2,3.31E2,5.09E2,2.5E2,9.08E2,2.278E3,4.73E2,1.45E2,4.3E1,2.88E2,4.87E2,2.2E1,1.15E2,1.35E2,5.32E2,3.76E2,5.51E2,1.727E3,4.08E2,6.5E1,4.9E1,9.6E1,9E1,1.98E2],"tree_param":{"num_deleted":"0","num_feature":"2","num_nodes":"29","size_leaf_vector":"1"}},{"base_weights":[-1.3377621E-3,1.846045E-2,-5.418327E-1,-1.344109E-1,9.6823744E-2,-3.5047346E-1,-7.185035E-1,-2.5897656E-2,-2.6681834E-1,5.010086E-1,3.418039E-2,-5.5092257E-2,-2.6257677E-2,-7.9968795E-2,-6.252291E-2,-4.394123E-2,9.074151E-3,-1.602084E-2,-4.4118114E-2,-1.4053605E-2,1.5403874E-1,-1.1187241E-1,8.255637E-3],"categories":[],"categories_nodes":[],"categories_segments":[],"categories_sizes":[],"default_left":[0,0,0,0,0,0,0,0,0,0,0,0,0,0,0,0,0,0,0,0,0,0,0],"id":37,"left_children":[1,3,5,7,9,11,13,15,17,19,21,-1,-1,-1,-1,-1,-1,-1,-1,-1,-1,-1,-1],"loss_changes":[5.2390587E1,5.659221E1,5.5968933E0,2.2996195E1,7.9055664E1,1.3529406E0,1.7395782E-1,4.253226E1,1.3331852E1,2.7960898E2,1.5095801E2,0E0,0E0,0E0,0E0,0E0,0E0,0E0,0E0,0E0,0E0,0E0,0E0],"parents":[2147483647,0,0,1,1,2,2,3,3,4,4,5,5,6,6,7,7,8,8,9,9,10,10],"right_children":[2,4,6,8,10,12,14,16,18,20,22,-1,-1,-1,-1,-1,-1,-1,-1,-1,-1,-1,-1],"split_conditions":[2.3E1,1E1,6E0,5E0,1.2E1,2E0,7E0,2E0,7E0,6E0,1.3E1,-5.5092257E-2,-2.6257677E-2,-7.9968795E-2,-6.252291E-2,-4.394123E-2,9.074151E-3,-1.602084E-2,-4.4118114E-2,-1.4053605E-2,1.5403874E-1,-1.1187241E-1,8.255637E-3],"split_indices":[1,1,0,0,1,0,0,1,1,0,1,0,0,0,0,0,0,0,0,0,0,0,0],"split_type":[0,0,0,0,0,0,0,0,0,0,0,0,0,0,0,0,0,0,0,0,0,0,0],"sum_hessian":[4.894E3,4.722E3,1.72E2,1.6E3,3.122E3,8.4E1,8.8E1,8.8E2,7.2E2,4.18E2,2.704E3,2.4E1,6E1,4.3E1,4.5E1,1.93E2,6.87E2,4.48E2,2.72E2,2.59E2,1.59E2,1.08E2,2.596E3],"tree_param":{"num_deleted":"0","num_feature":"2","num_nodes":"23","size_leaf_vector":"1"}},{"base_weights":[-1.2615273E-3,4.6243936E-2,-1.985829E-1,-1.982665E-1,1.0453753E-1,-6.350392E-2,-4.498338E-1,-9.993586E-4,-5.9829825E-1,-2.8698395E-3,2.3768544E-1,-2.4459511E-1,5.248572E-1,-8.294976E-2,-3.904738E-1,-2.6055876E-2,1.6616999E-1,-7.518319E-2,-4.071936E-2,1.4063331E-2,-6.8754874E-2,4.7581147E-2,-3.0425558E-2,-9.965905E-3,-1.6587508E-1,1.2964767E-1,1.2170438E-2,-6.643906E-3,-5.3668834E-2],"categories":[],"categories_nodes":[],"categories_segments":[],"categories_sizes":[],"default_left":[0,0,0,0,0,0,0,0,0,0,0,0,0,0,0,0,0,0,0,0,0,0,0,0,0,0,0,0,0],"id":38,"left_children":[1,3,5,7,9,11,13,15,17,19,21,23,25,-1,27,-1,-1,-1,-1,-1,-1,-1,-1,-1,-1,-1,-1,-1,-1],"loss_changes":[4.5894146E1,5.6264614E1,3.221321E1,5.9973377E1,4.5578182E1,6.6080986E1,7.158333E0,2.2053328E2,7.058449E0,1.7351427E2,1.8378333E2,9.698676E1,4.525998E1,0E0,1.3656754E1,0E0,0E0,0E0,0E0,0E0,0E0,0E0,0E0,0E0,0E0,0E0,0E0,0E0,0E0],"parents":[2147483647,0,0,1,1,2,2,3,3,4,4,5,5,6,6,7,7,8,8,9,9,10,10,11,11,12,12,14,14],"right_children":[2,4,6,8,10,12,14,16,18,20,22,24,26,-1,28,-1,-1,-1,-1,-1,-1,-1,-1,-1,-1,-1,-1,-1,-1],"split_conditions":[7E0,2E0,1.7E1,1.7E1,1.6E1,1.4E1,1.8E1,1.4E1,2.1E1,1.4E1,6E0,1.3E1,1.5E1,-8.294976E-2,2E1,-2.6055876E-2,1.6616999E-1,-7.518319E-2,-4.071936E-2,1.4063331E-2,-6.8754874E-2,4.7581147E-2,-3.0425558E-2,-9.965905E-3,-1.6587508E-1,1.2964767E-1,1.2170438E-2,-6.643906E-3,-5.3668834E-2],"split_indices":[0,0,1,1,1,1,1,1,1,1,0,1,1,0,1,0,0,0,0,0,0,0,0,0,0,0,0,0,0],"split_type":[0,0,0,0,0,0,0,0,0,0,0,0,0,0,0,0,0,0,0,0,0,0,0,0,0,0,0,0,0],"sum_hessian":[4.894E3,3.945E3,9.49E2,7.59E2,3.186E3,6.18E2,3.31E2,5.09E2,2.5E2,1.764E3,1.422E3,4.73E2,1.45E2,4.3E1,2.88E2,4.41E2,6.8E1,1.37E2,1.13E2,1.459E3,3.05E2,9.88E2,4.34E2,4.3E2,4.3E1,4.9E1,9.6E1,9E1,1.98E2],"tree_param":{"num_deleted":"0","num_feature":"2","num_nodes":"29","size_leaf_vector":"1"}},{"base_weights":[-1.1741172E-3,4.1935507E-2,-2.111383E-1,-6.1303582E-2,2.1775064E-1,6.0746193E-2,-5.94781E-1,-9.852392E-3,-7.141583E-1,4.2785892E-1,-1.3481121E-1,-2.4956854E-1,1.1979883E0,-7.470894E-1,-4.6128297E-1,-1.211997E-2,2.2047952E-2,-1.6574438E-1,8.503284E-2,7.187726E-2,-1.7041674E-2,-3.627394E-2,3.6301423E-2,1.4089833E-2,-5.338579E-2,2.060254E-1,-2.5470003E-2,-8.278357E-2,-6.1633956E-2,-3.2614842E-2,-6.0641825E-2],"categories":[],"categories_nodes":[],"categories_segments":[],"categories_sizes":[],"default_left":[0,0,0,0,0,0,0,0,0,0,0,0,0,0,0,0,0,0,0,0,0,0,0,0,0,0,0,0,0,0,0],"id":39,"left_children":[1,3,5,7,9,11,13,15,17,19,21,23,25,27,29,-1,-1,-1,-1,-1,-1,-1,-1,-1,-1,-1,-1,-1,-1,-1,-1],"loss_changes":[4.431583E1,7.374268E1,8.702775E1,8.598376E1,1.1139416E2,1.7286855E2,6.6905594E0,6.0912315E1,2.7737604E2,1.640744E2,6.3900955E1,4.281237E1,1.3204813E2,1.1789856E0,3.4698105E0,0E0,0E0,0E0,0E0,0E0,0E0,0E0,0E0,0E0,0E0,0E0,0E0,0E0,0E0,0E0,0E0],"parents":[2147483647,0,0,1,1,2,2,3,3,4,4,5,5,6,6,7,7,8,8,9,9,10,10,11,11,12,12,13,13,14,14],"right_children":[2,4,6,8,10,12,14,16,18,20,22,24,26,28,30,-1,-1,-1,-1,-1,-1,-1,-1,-1,-1,-1,-1,-1,-1,-1,-1],"split_conditions":[2.1E1,1.5E1,6E0,1.4E1,6E0,5E0,2.2E1,1E1,6E0,1.9E1,1.9E1,2.2E1,2.3E1,7E0,2.3E1,-1.211997E-2,2.2047952E-2,-1.6574438E-1,8.503284E-2,7.187726E-2,-1.7041674E-2,-3.627394E-2,3.6301423E-2,1.4089833E-2,-5.338579E-2,2.060254E-1,-2.5470003E-2,-8.278357E-2,-6.1633956E-2,-3.2614842E-2,-6.0641825E-2],"split_indices":[1,1,0,1,0,0,1,1,0,1,1,1,1,0,1,0,0,0,0,0,0,0,0,0,0,0,0,0,0,0,0],"split_type":[0,0,0,0,0,0,0,0,0,0,0,0,0,0,0,0,0,0,0,0,0,0,0,0,0,0,0,0,0,0,0],"sum_hessian":[4.894E3,4.061E3,8.33E2,2.559E3,1.502E3,4.88E2,3.45E2,2.373E3,1.86E2,9.41E2,5.61E2,3.84E2,1.04E2,1.59E2,1.86E2,1.6E3,7.73E2,1.16E2,7E1,6.33E2,3.08E2,3.85E2,1.76E2,1.62E2,2.22E2,6.5E1,3.9E1,9.5E1,6.4E1,9.8E1,8.8E1],"tree_param":{"num_deleted":"0","num_feature":"2","num_nodes":"31","size_leaf_vector":"1"}},{"base_weights":[-1.0795168E-3,2.7580008E-2,-2.57615E-1,-1.090875E-1,1.0560322E-1,-4.8071155E-1,-7.239966E-2,-9.440847E-3,-2.3069583E-1,4.228137E-1,4.9854353E-2,-3.0993944E-1,-5.520692E-1,6.926106E-1,-4.1565347E-1,-3.841889E-2,9.624311E-3,-1.326226E-2,-3.911507E-2,-1.5618131E-2,1.361038E-1,-1.029606E-1,1.0148356E-2,-2.4735354E-2,-4.0769305E-2,-7.8679785E-2,-4.586885E-2,1.4971994E-1,-2.2986699E-2,-2.9386315E-2,-5.4645784E-2],"categories":[],"categories_nodes":[],"categories_segments":[],"categories_sizes":[],"default_left":[0,0,0,0,0,0,0,0,0,0,0,0,0,0,0,0,0,0,0,0,0,0,0,0,0,0,0,0,0,0,0],"id":40,"left_children":[1,3,5,7,9,11,13,15,17,19,21,23,25,27,29,-1,-1,-1,-1,-1,-1,-1,-1,-1,-1,-1,-1,-1,-1,-1,-1],"loss_changes":[3.5996056E1,4.6972416E1,2.0295078E1,1.939852E1,4.956521E1,2.5463486E0,7.118792E1,3.4928852E1,1.1294018E1,2.2782475E2,1.3308026E2,3.1517935E-1,3.058487E0,6.2690228E1,2.8184586E0,0E0,0E0,0E0,0E0,0E0,0E0,0E0,0E0,0E0,0E0,0E0,0E0,0E0,0E0,0E0,0E0],"parents":[2147483647,0,0,1,1,2,2,3,3,4,4,5,5,6,6,7,7,8,8,9,9,10,10,11,11,12,12,13,13,14,14],"right_children":[2,4,6,8,10,12,14,16,18,20,22,24,26,28,30,-1,-1,-1,-1,-1,-1,-1,-1,-1,-1,-1,-1,-1,-1,-1,-1],"split_conditions":[2.2E1,1E1,5E0,5E0,1.2E1,2E0,6E0,2E0,7E0,6E0,1.3E1,2.3E1,3E0,2.3E1,2.3E1,-3.841889E-2,9.624311E-3,-1.326226E-2,-3.911507E-2,-1.5618131E-2,1.361038E-1,-1.029606E-1,1.0148356E-2,-2.4735354E-2,-4.0769305E-2,-7.8679785E-2,-4.586885E-2,1.4971994E-1,-2.2986699E-2,-2.9386315E-2,-5.4645784E-2],"split_indices":[1,1,0,0,1,0,0,1,1,0,1,1,0,1,1,0,0,0,0,0,0,0,0,0,0,0,0,0,0,0,0],"split_type":[0,0,0,0,0,0,0,0,0,0,0,0,0,0,0,0,0,0,0,0,0,0,0,0,0,0,0,0,0,0,0],"sum_hessian":[4.894E3,4.403E3,4.91E2,1.6E3,2.803E3,2.22E2,2.69E2,8.8E2,7.2E2,4.18E2,2.385E3,6.7E1,1.55E2,8.3E1,1.86E2,1.93E2,6.87E2,4.48E2,2.72E2,2.59E2,1.59E2,1.08E2,2.277E3,4.3E1,2.4E1,4.2E1,1.13E2,4.4E1,3.9E1,9.8E1,8.8E1],"tree_param":{"num_deleted":"0","num_feature":"2","num_nodes":"31","size_leaf_vector":"1"}},{"base_weights":[-1.0128048E-3,3.9544474E-2,-1.6947387E-1,-1.8046246E-1,9.199685E-2,-5.8497626E-2,-3.7587392E-1,-1.9903625E-3,-5.4237604E-1,-3.2069185E-1,1.1914753E-1,-2.1764153E-1,4.5857573E-1,-7.229011E-2,-3.2173875E-1,-1.2936932E-2,2.7007455E-1,-7.507843E-2,-3.6062803E-2,4.4267178E-3,-4.9664408E-2,2.3896558E-2,-3.505534E-4,-8.33533E-3,-1.5281095E-1,1.0761427E-1,1.3551468E-2,-6.9918977E-3,-4.3527573E-2],"categories":[],"categories_nodes":[],"categories_segments":[],"categories_sizes":[],"default_left":[0,0,0,0,0,0,0,0,0,0,0,0,0,0,0,0,0,0,0,0,0,0,0,0,0,0,0,0,0],"id":41,"left_children":[1,3,5,7,9,11,13,15,17,19,21,23,25,-1,27,-1,-1,-1,-1,-1,-1,-1,-1,-1,-1,-1,-1,-1,-1],"loss_changes":[3.345092E1,4.5552994E1,2.173824E1,4.9088444E1,3.574784E1,5.1036743E1,6.0044937E0,1.7592793E2,9.236565E0,1.2672409E1,4.395673E1,8.328735E1,2.8982893E1,0E0,8.2323265E0,0E0,0E0,0E0,0E0,0E0,0E0,0E0,0E0,0E0,0E0,0E0,0E0,0E0,0E0],"parents":[2147483647,0,0,1,1,2,2,3,3,4,4,5,5,6,6,7,7,8,8,9,9,10,10,11,11,12,12,14,14],"right_children":[2,4,6,8,10,12,14,16,18,20,22,24,26,-1,28,-1,-1,-1,-1,-1,-1,-1,-1,-1,-1,-1,-1,-1,-1],"split_conditions":[7E0,2E0,1.7E1,1.7E1,2E0,1.4E1,1.8E1,1.6E1,2E1,1E0,5E0,1.3E1,1.5E1,-7.229011E-2,2E1,-1.2936932E-2,2.7007455E-1,-7.507843E-2,-3.6062803E-2,4.4267178E-3,-4.9664408E-2,2.3896558E-2,-3.505534E-4,-8.33533E-3,-1.5281095E-1,1.0761427E-1,1.3551468E-2,-6.9918977E-3,-4.3527573E-2],"split_indices":[0,0,1,1,1,1,1,1,1,1,0,1,1,0,1,0,0,0,0,0,0,0,0,0,0,0,0,0,0],"split_type":[0,0,0,0,0,0,0,0,0,0,0,0,0,0,0,0,0,0,0,0,0,0,0,0,0,0,0,0,0],"sum_hessian":[4.894E3,3.945E3,9.49E2,7.59E2,3.186E3,6.18E2,3.31E2,5.09E2,2.5E2,1.96E2,2.99E3,4.73E2,1.45E2,4.3E1,2.88E2,4.87E2,2.2E1,1.15E2,1.35E2,6.4E1,1.32E2,1.512E3,1.478E3,4.3E2,4.3E1,4.9E1,9.6E1,9E1,1.98E2],"tree_param":{"num_deleted":"0","num_feature":"2","num_nodes":"29","size_leaf_vector":"1"}},{"base_weights":[-9.1934466E-4,3.4585048E-2,-1.7384252E-1,-5.2376524E-2,1.8268022E-1,5.622259E-2,-4.9848992E-1,-2.821238E-3,-6.812101E-1,3.6531392E-1,-1.237675E-1,-2.0786957E-1,1.0240251E0,-6.657482E-1,-3.527155E-1,-9.567139E-3,1.8924065E-2,-1.5028298E-1,6.823213E-2,5.730299E-3,8.767634E-2,-3.3100154E-2,3.2886583E-2,1.0998043E-2,-4.3926727E-2,1.7546539E-1,-2.0711303E-2,-7.556095E-2,-5.227877E-2,-2.4349194E-2,-4.7024827E-2],"categories":[],"categories_nodes":[],"categories_segments":[],"categories_sizes":[],"default_left":[0,0,0,0,0,0,0,0,0,0,0,0,0,0,0,0,0,0,0,0,0,0,0,0,0,0,0,0,0,0,0],"id":42,"left_children":[1,3,5,7,9,11,13,15,17,19,21,23,25,27,29,-1,-1,-1,-1,-1,-1,-1,-1,-1,-1,-1,-1,-1,-1,-1,-1],"loss_changes":[3.0059023E1,5.23224E1,6.231952E1,7.977287E1,8.4164635E1,1.2519592E2,8.20134E0,4.235359E1,2.1052231E2,1.4834494E2,5.282503E1,2.8364965E1,9.481143E1,1.6604309E0,2.2860851E0,0E0,0E0,0E0,0E0,0E0,0E0,0E0,0E0,0E0,0E0,0E0,0E0,0E0,0E0,0E0,0E0],"parents":[2147483647,0,0,1,1,2,2,3,3,4,4,5,5,6,6,7,7,8,8,9,9,10,10,11,11,12,12,13,13,14,14],"right_children":[2,4,6,8,10,12,14,16,18,20,22,24,26,28,30,-1,-1,-1,-1,-1,-1,-1,-1,-1,-1,-1,-1,-1,-1,-1,-1],"split_conditions":[2.1E1,1.5E1,6E0,1.4E1,6E0,5E0,2.2E1,1E1,6E0,4E0,1.9E1,2.2E1,2.3E1,7E0,2.3E1,-9.567139E-3,1.8924065E-2,-1.5028298E-1,6.823213E-2,5.730299E-3,8.767634E-2,-3.3100154E-2,3.2886583E-2,1.0998043E-2,-4.3926727E-2,1.7546539E-1,-2.0711303E-2,-7.556095E-2,-5.227877E-2,-2.4349194E-2,-4.7024827E-2],"split_indices":[1,1,0,1,0,0,1,1,0,0,1,1,1,0,1,0,0,0,0,0,0,0,0,0,0,0,0,0,0,0,0],"split_type":[0,0,0,0,0,0,0,0,0,0,0,0,0,0,0,0,0,0,0,0,0,0,0,0,0,0,0,0,0,0,0],"sum_hessian":[4.894E3,4.061E3,8.33E2,2.559E3,1.502E3,4.88E2,3.45E2,2.373E3,1.86E2,9.41E2,5.61E2,3.84E2,1.04E2,1.59E2,1.86E2,1.6E3,7.73E2,1.16E2,7E1,5.88E2,3.53E2,3.85E2,1.76E2,1.62E2,2.22E2,6.5E1,3.9E1,9.5E1,6.4E1,9.8E1,8.8E1],"tree_param":{"num_deleted":"0","num_feature":"2","num_nodes":"31","size_leaf_vector":"1"}},{"base_weights":[-8.3906593E-4,5.011035E-2,-1.0958716E-1,-3.5923846E-2,5.243768E-1,-4.955179E-1,1.0479985E-1,-1.1121842E-1,1.0847972E-1,1.0663451E0,1.3159983E-1,-8.1164306E-1,-3.477439E-1,7.0945656E-1,-2.879032E-1,4.9744314E-3,-6.127758E-2,-1.422541E-2,4.21209E-2,6.6007756E-2,2.544587E-1,6.0112905E-2,-4.3211244E-2,-1.2385563E-1,-7.488658E-3,-2.2415427E-2,-6.363217E-2,1.9443007E-1,4.610905E-2,-8.1587814E-2,-1.9733295E-2],"categories":[],"categories_nodes":[],"categories_segments":[],"categories_sizes":[],"default_left":[0,0,0,0,0,0,0,0,0,0,0,0,0,0,0,0,0,0,0,0,0,0,0,0,0,0,0,0,0,0,0],"id":43,"left_children":[1,3,5,7,9,11,13,15,17,19,21,23,25,27,29,-1,-1,-1,-1,-1,-1,-1,-1,-1,-1,-1,-1,-1,-1,-1,-1],"loss_changes":[2.7126986E1,1.360565E2,1.2928952E2,3.0705994E1,1.08850464E2,2.578476E1,2.3884203E2,1.4986917E2,7.596255E1,1.2744113E2,7.913421E1,5.557926E1,1.3481483E1,1.2055408E2,2.900848E1,0E0,0E0,0E0,0E0,0E0,0E0,0E0,0E0,0E0,0E0,0E0,0E0,0E0,0E0,0E0,0E0],"parents":[2147483647,0,0,1,1,2,2,3,3,4,4,5,5,6,6,7,7,8,8,9,9,10,10,11,11,12,12,13,13,14,14],"right_children":[2,4,6,8,10,12,14,16,18,20,22,24,26,28,30,-1,-1,-1,-1,-1,-1,-1,-1,-1,-1,-1,-1,-1,-1,-1,-1],"split_conditions":[1.8E1,1.6E1,4E0,6E0,5E0,2E1,6E0,5E0,1E1,4E0,1.7E1,3E0,3E0,1.9E1,1.9E1,4.9744314E-3,-6.127758E-2,-1.422541E-2,4.21209E-2,6.6007756E-2,2.544587E-1,6.0112905E-2,-4.3211244E-2,-1.2385563E-1,-7.488658E-3,-2.2415427E-2,-6.363217E-2,1.9443007E-1,4.610905E-2,-8.1587814E-2,-1.9733295E-2],"split_indices":[1,1,0,0,0,1,0,0,1,0,1,0,0,1,1,0,0,0,0,0,0,0,0,0,0,0,0,0,0,0,0],"split_type":[0,0,0,0,0,0,0,0,0,0,0,0,0,0,0,0,0,0,0,0,0,0,0,0,0,0,0,0,0,0,0],"sum_hessian":[4.894E3,3.333E3,1.561E3,2.822E3,5.11E2,5.57E2,1.004E3,1.855E3,9.67E2,2.14E2,2.97E2,1.76E2,3.81E2,3.95E2,6.09E2,1.405E3,4.5E2,5.37E2,4.3E2,1.69E2,4.5E1,1.62E2,1.35E2,1.11E2,6.5E1,2.68E2,1.13E2,6.5E1,3.3E2,8.8E1,5.21E2],"tree_param":{"num_deleted":"0","num_feature":"2","num_nodes":"31","size_leaf_vector":"1"}},{"base_weights":[-7.079282E-4,3.3291068E-2,-1.4192827E-1,-1.5261462E-1,7.7613324E-2,-6.3712426E-2,-2.8733096E-1,-6.5710736E-3,-4.4874847E-1,1.089197E-1,-1.9193074E-1,-1.9556373E-1,3.647892E-1,-5.7767686E-2,-2.4213181E-1,-2.1202289E-2,1.3096069E-1,-8.639352E-2,-3.4885775E-2,1.3457938E-3,2.6311485E-2,-4.741706E-2,5.790739E-3,-6.8228184E-3,-1.4384288E-1,8.625358E-2,1.0445803E-2,-1.2793982E-3,-3.4578815E-2],"categories":[],"categories_nodes":[],"categories_segments":[],"categories_sizes":[],"default_left":[0,0,0,0,0,0,0,0,0,0,0,0,0,0,0,0,0,0,0,0,0,0,0,0,0,0,0,0,0],"id":44,"left_children":[1,3,5,7,9,11,13,15,17,19,21,23,25,-1,27,-1,-1,-1,-1,-1,-1,-1,-1,-1,-1,-1,-1,-1,-1],"loss_changes":[2.3507334E1,3.2525936E1,1.0785849E1,3.2865864E1,2.6914242E1,3.504391E1,4.217087E0,1.3818733E2,1.010841E1,4.2036037E1,2.34382E1,7.491753E1,1.8828432E1,0E0,6.865776E0,0E0,0E0,0E0,0E0,0E0,0E0,0E0,0E0,0E0,0E0,0E0,0E0,0E0,0E0],"parents":[2147483647,0,0,1,1,2,2,3,3,4,4,5,5,6,6,7,7,8,8,9,9,10,10,11,11,12,12,14,14],"right_children":[2,4,6,8,10,12,14,16,18,20,22,24,26,-1,28,-1,-1,-1,-1,-1,-1,-1,-1,-1,-1,-1,-1,-1,-1],"split_conditions":[7E0,2E0,1.7E1,1.7E1,2.2E1,1.4E1,1.8E1,1.4E1,1.8E1,1.6E1,5E0,1.3E1,1.5E1,-5.7767686E-2,2E1,-2.1202289E-2,1.3096069E-1,-8.639352E-2,-3.4885775E-2,1.3457938E-3,2.6311485E-2,-4.741706E-2,5.790739E-3,-6.8228184E-3,-1.4384288E-1,8.625358E-2,1.0445803E-2,-1.2793982E-3,-3.4578815E-2],"split_indices":[0,0,1,1,1,1,1,1,1,1,0,1,1,0,1,0,0,0,0,0,0,0,0,0,0,0,0,0,0],"split_type":[0,0,0,0,0,0,0,0,0,0,0,0,0,0,0,0,0,0,0,0,0,0,0,0,0,0,0,0,0],"sum_hessian":[4.894E3,3.945E3,9.49E2,7.59E2,3.186E3,6.18E2,3.31E2,5.09E2,2.5E2,2.855E3,3.31E2,4.73E2,1.45E2,4.3E1,2.88E2,4.41E2,6.8E1,4.7E1,2.03E2,1.764E3,1.091E3,1.55E2,1.76E2,4.3E2,4.3E1,4.9E1,9.6E1,9E1,1.98E2],"tree_param":{"num_deleted":"0","num_feature":"2","num_nodes":"29","size_leaf_vector":"1"}},{"base_weights":[-6.728049E-4,4.496485E-2,-9.808335E-2,-3.0452754E-2,4.6070495E-1,-4.3899366E-1,9.12958E-2,-9.9327244E-2,1.01635575E-1,9.489413E-1,1.0690791E-1,-7.3387337E-1,-3.0121174E-1,6.300207E-1,-2.5858343E-1,4.625999E-3,-5.5297762E-2,-1.2417565E-2,3.8327087E-2,5.8591813E-2,2.2699194E-1,5.1981002E-2,-3.8875353E-2,-1.104728E-1,-9.342497E-3,-1.8581215E-2,-5.708721E-2,1.7269039E-1,4.094034E-2,-7.472719E-2,-1.7476762E-2],"categories":[],"categories_nodes":[],"categories_segments":[],"categories_sizes":[],"default_left":[0,0,0,0,0,0,0,0,0,0,0,0,0,0,0,0,0,0,0,0,0,0,0,0,0,0,0,0,0,0,0],"id":45,"left_children":[1,3,5,7,9,11,13,15,17,19,21,23,25,27,29,-1,-1,-1,-1,-1,-1,-1,-1,-1,-1,-1,-1,-1,-1,-1,-1],"loss_changes":[2.1765564E1,1.0454867E2,1.0088484E2,2.5692383E1,8.8339676E1,2.2449982E1,1.89594E2,1.226064E2,6.160891E1,1.0177231E2,6.1190655E1,4.1936638E1,1.1781269E1,9.512158E1,2.4854893E1,0E0,0E0,0E0,0E0,0E0,0E0,0E0,0E0,0E0,0E0,0E0,0E0,0E0,0E0,0E0,0E0],"parents":[2147483647,0,0,1,1,2,2,3,3,4,4,5,5,6,6,7,7,8,8,9,9,10,10,11,11,12,12,13,13,14,14],"right_children":[2,4,6,8,10,12,14,16,18,20,22,24,26,28,30,-1,-1,-1,-1,-1,-1,-1,-1,-1,-1,-1,-1,-1,-1,-1,-1],"split_conditions":[1.8E1,1.6E1,4E0,6E0,5E0,2E1,6E0,5E0,1E1,4E0,1.7E1,3E0,3E0,1.9E1,1.9E1,4.625999E-3,-5.5297762E-2,-1.2417565E-2,3.8327087E-2,5.8591813E-2,2.2699194E-1,5.1981002E-2,-3.8875353E-2,-1.104728E-1,-9.342497E-3,-1.8581215E-2,-5.708721E-2,1.7269039E-1,4.094034E-2,-7.472719E-2,-1.7476762E-2],"split_indices":[1,1,0,0,0,1,0,0,1,0,1,0,0,1,1,0,0,0,0,0,0,0,0,0,0,0,0,0,0,0,0],"split_type":[0,0,0,0,0,0,0,0,0,0,0,0,0,0,0,0,0,0,0,0,0,0,0,0,0,0,0,0,0,0,0],"sum_hessian":[4.894E3,3.333E3,1.561E3,2.822E3,5.11E2,5.57E2,1.004E3,1.855E3,9.67E2,2.14E2,2.97E2,1.76E2,3.81E2,3.95E2,6.09E2,1.405E3,4.5E2,5.37E2,4.3E2,1.69E2,4.5E1,1.62E2,1.35E2,1.11E2,6.5E1,2.68E2,1.13E2,6.5E1,3.3E2,8.8E1,5.21E2],"tree_param":{"num_deleted":"0","num_feature":"2","num_nodes":"31","size_leaf_vector":"1"}},{"base_weights":[-5.644487E-4,3.2917406E-2,-1.16650656E-1,-2.7415922E-2,2.0703608E-1,3.3113215E-2,-3.486875E-1,1.1822986E-2,-2.3436204E-1,7.001666E-1,3.398479E-2,-2.3183388E-1,9.478431E-1,-1.1452815E-1,-4.0520445E-1,-2.7325328E-3,3.4753527E-2,1.5282176E-1,-6.549941E-2,1.199282E-1,9.6052615E-3,-5.396991E-2,1.4302306E-2,-4.6701733E-2,-1.4937565E-2,1.3808471E-1,-2.7743906E-2,7.5794957E-3,-3.1118741E-2,-5.647857E-2,-2.6649747E-2],"categories":[],"categories_nodes":[],"categories_segments":[],"categories_sizes":[],"default_left":[0,0,0,0,0,0,0,0,0,0,0,0,0,0,0,0,0,0,0,0,0,0,0,0,0,0,0,0,0,0,0],"id":46,"left_children":[1,3,5,7,9,11,13,15,17,19,21,23,25,27,29,-1,-1,-1,-1,-1,-1,-1,-1,-1,-1,-1,-1,-1,-1,-1,-1],"loss_changes":[1.9029634E1,3.992528E1,3.809835E1,2.2926489E1,8.343565E1,1.6187053E2,5.6441956E0,3.1209955E1,3.3462985E2,7.647154E1,4.5428474E1,9.975718E0,7.996593E1,3.2050347E0,7.508209E0,0E0,0E0,0E0,0E0,0E0,0E0,0E0,0E0,0E0,0E0,0E0,0E0,0E0,0E0,0E0,0E0],"parents":[2147483647,0,0,1,1,2,2,3,3,4,4,5,5,6,6,7,7,8,8,9,9,10,10,11,11,12,12,13,13,14,14],"right_children":[2,4,6,8,10,12,14,16,18,20,22,24,26,28,30,-1,-1,-1,-1,-1,-1,-1,-1,-1,-1,-1,-1,-1,-1,-1,-1],"split_conditions":[2E1,1.6E1,6E0,1.4E1,1.7E1,5E0,2.1E1,1.3E1,3E0,6E0,2E0,2.1E1,2.3E1,7E0,2.2E1,-2.7325328E-3,3.4753527E-2,1.5282176E-1,-6.549941E-2,1.199282E-1,9.6052615E-3,-5.396991E-2,1.4302306E-2,-4.6701733E-2,-1.4937565E-2,1.3808471E-1,-2.7743906E-2,7.5794957E-3,-3.1118741E-2,-5.647857E-2,-2.6649747E-2],"split_indices":[1,1,0,1,1,0,1,1,0,0,0,1,1,0,1,0,0,0,0,0,0,0,0,0,0,0,0,0,0,0,0],"split_type":[0,0,0,0,0,0,0,0,0,0,0,0,0,0,0,0,0,0,0,0,0,0,0,0,0,0,0,0,0,0,0],"sum_hessian":[4.894E3,3.799E3,1.095E3,2.822E3,9.77E2,6.66E2,4.29E2,2.373E3,4.49E2,2.53E2,7.24E2,5.17E2,1.49E2,8.4E1,3.45E2,2.126E3,2.47E2,8.6E1,3.63E2,1.38E2,1.15E2,1.15E2,6.09E2,1.33E2,3.84E2,1.1E2,3.9E1,4.3E1,4.1E1,1.59E2,1.86E2],"tree_param":{"num_deleted":"0","num_feature":"2","num_nodes":"31","size_leaf_vector":"1"}},{"base_weights":[-4.77E-4,-1.2796773E-1,2.6078444E-2,-1.1503314E-1,-5.4710366E-2,9.350657E-2,-8.1469275E-2,-2.1106009E-1,-5.6854706E-2,2.5894758E-1,-4.6287436E-2,-3.7500414E-1,8.158936E-2,-1.4536162E-2,-3.770336E-2,2.293618E-2,-1.1679908E-2,-2.232045E-3,6.094692E-2,-4.2919647E-2,1.4799339E-2,-8.1775546E-2,-2.8697819E-2,5.3469516E-2,-2.1269178E-2],"categories":[],"categories_nodes":[],"categories_segments":[],"categories_sizes":[],"default_left":[0,0,0,0,0,0,0,0,0,0,0,0,0,0,0,0,0,0,0,0,0,0,0,0,0],"id":47,"left_children":[1,3,5,7,-1,9,11,13,15,17,19,21,23,-1,-1,-1,-1,-1,-1,-1,-1,-1,-1,-1,-1],"loss_changes":[1.6575718E1,4.5126867E0,2.9391672E1,4.569092E0,0E0,5.762299E1,7.479323E1,3.3145924E0,8.811209E0,1.1250539E2,1.00566956E2,2.1512589E1,1.3412093E2,0E0,0E0,0E0,0E0,0E0,0E0,0E0,0E0,0E0,0E0,0E0,0E0],"parents":[2147483647,0,0,1,1,2,2,3,3,5,5,6,6,7,7,8,8,9,9,10,10,11,11,12,12],"right_children":[2,4,6,8,-1,10,12,14,16,18,20,22,24,-1,-1,-1,-1,-1,-1,-1,-1,-1,-1,-1,-1],"split_conditions":[6E0,5E0,1.8E1,3E0,-5.4710366E-2,5E0,4E0,2E0,4E0,1.3E1,6E0,1.9E1,6E0,-1.4536162E-2,-3.770336E-2,2.293618E-2,-1.1679908E-2,-2.232045E-3,6.094692E-2,-4.2919647E-2,1.4799339E-2,-8.1775546E-2,-2.8697819E-2,5.3469516E-2,-2.1269178E-2],"split_indices":[1,1,1,0,0,0,0,0,0,1,0,1,0,0,0,0,0,0,0,0,0,0,0,0,0],"split_type":[0,0,0,0,0,0,0,0,0,0,0,0,0,0,0,0,0,0,0,0,0,0,0,0,0],"sum_hessian":[4.894E3,8.43E2,4.051E3,8.19E2,2.4E1,2.49E3,1.561E3,3.08E2,5.11E2,1.14E3,1.35E3,5.57E2,1.004E3,2.22E2,8.6E1,8.8E1,4.23E2,6.33E2,5.07E2,4.54E2,8.96E2,9.1E1,4.66E2,3.95E2,6.09E2],"tree_param":{"num_deleted":"0","num_feature":"2","num_nodes":"25","size_leaf_vector":"1"}},{"base_weights":[-4.587022E-4,1.0468295E-2,-2.9876938E-1,-1.2867126E-1,3.6144383E-2,-3.344127E-1,-1.9309308E-2,-3.5407677E-2,-3.3763933E-1,7.8243464E-2,-1.0735806E-1,-2.6790097E-1,-4.5530092E-2,-1.3218395E-2,2.019472E-1,-8.435445E-2,-2.008555E-2,-2.4499828E-2,1.0026576E-2,-1.8139845E-2,-2.58708E-3,-1.7702758E-2,-3.0075237E-2],"categories":[],"categories_nodes":[],"categories_segments":[],"categories_sizes":[],"default_left":[0,0,0,0,0,0,0,0,0,0,0,0,0,0,0,0,0,0,0,0,0,0,0],"id":48,"left_children":[1,3,5,7,9,11,-1,13,15,17,19,21,-1,-1,-1,-1,-1,-1,-1,-1,-1,-1,-1],"loss_changes":[1.5959065E1,1.687785E1,5.8705807E-1,1.4332032E1,2.4101189E1,9.0720654E-1,0E0,1.01687386E2,1.5538895E1,2.1978096E1,5.4554863E0,2.0050955E-1,0E0,0E0,0E0,0E0,0E0,0E0,0E0,0E0,0E0,0E0,0E0],"parents":[2147483647,0,0,1,1,2,2,3,3,4,4,5,5,7,7,8,8,9,9,10,10,11,11],"right_children":[2,4,6,8,10,12,-1,14,16,18,20,22,-1,-1,-1,-1,-1,-1,-1,-1,-1,-1,-1],"split_conditions":[2.3E1,2E0,7E0,1.7E1,7E0,6E0,-1.9309308E-2,1.6E1,1.8E1,2E0,1.4E1,2E0,-4.5530092E-2,-1.3218395E-2,2.019472E-1,-8.435445E-2,-2.008555E-2,-2.4499828E-2,1.0026576E-2,-1.8139845E-2,-2.58708E-3,-1.7702758E-2,-3.0075237E-2],"split_indices":[1,0,0,1,0,0,0,1,1,1,1,0,0,0,0,0,0,0,0,0,0,0,0],"split_type":[0,0,0,0,0,0,0,0,0,0,0,0,0,0,0,0,0,0,0,0,0,0,0],"sum_hessian":[4.894E3,4.722E3,1.72E2,7.35E2,3.987E3,1.27E2,4.5E1,5.09E2,2.26E2,3.083E3,9.04E2,8.4E1,4.3E1,4.87E2,2.2E1,4.7E1,1.79E2,1.96E2,2.887E3,4.73E2,4.31E2,2.4E1,6E1],"tree_param":{"num_deleted":"0","num_feature":"2","num_nodes":"23","size_leaf_vector":"1"}},{"base_weights":[-4.2603535E-4,1.7560918E-2,-1.6143033E-1,-1.2232365E-1,4.367149E-2,-3.145738E-1,-3.4347296E-2,-3.1497132E-2,-3.7340623E-1,1.6179131E-1,-3.5165388E-2,-6.4386174E-2,-4.2161343E-1,3.4760448E-1,-2.0573553E-1,-1.1899299E-2,1.8263061E-1,-7.6094754E-2,-2.3489974E-2,-3.5983738E-2,2.1122305E-2,6.7965286E-3,-1.391943E-2,-8.5781486E-4,-1.6003285E-2,-5.7119872E-2,-3.6149256E-2,8.917045E-2,-2.7319808E-2,-1.2508832E-2,-2.931326E-2],"categories":[],"categories_nodes":[],"categories_segments":[],"categories_sizes":[],"default_left":[0,0,0,0,0,0,0,0,0,0,0,0,0,0,0,0,0,0,0,0,0,0,0,0,0,0,0,0,0,0,0],"id":49,"left_children":[1,3,5,7,9,11,13,15,17,19,21,23,25,27,29,-1,-1,-1,-1,-1,-1,-1,-1,-1,-1,-1,-1,-1,-1,-1,-1],"loss_changes":[1.417864E1,1.6090801E1,9.564468E0,1.5792073E1,3.4572567E1,5.94479E0,1.7746267E1,8.311786E1,9.697819E0,3.8392548E1,2.3901989E1,3.6160114E-1,1.196455E0,2.8617018E1,1.2813702E0,0E0,0E0,0E0,0E0,0E0,0E0,0E0,0E0,0E0,0E0,0E0,0E0,0E0,0E0,0E0,0E0],"parents":[2147483647,0,0,1,1,2,2,3,3,4,4,5,5,6,6,7,7,8,8,9,9,10,10,11,11,12,12,13,13,14,14],"right_children":[2,4,6,8,10,12,14,16,18,20,22,24,26,28,30,-1,-1,-1,-1,-1,-1,-1,-1,-1,-1,-1,-1,-1,-1,-1,-1],"split_conditions":[2.2E1,2E0,5E0,1.7E1,5E0,2E0,6E0,1.6E1,1.8E1,2E0,1.4E1,2.3E1,3E0,2.3E1,2.3E1,-1.1899299E-2,1.8263061E-1,-7.6094754E-2,-2.3489974E-2,-3.5983738E-2,2.1122305E-2,6.7965286E-3,-1.391943E-2,-8.5781486E-4,-1.6003285E-2,-5.7119872E-2,-3.6149256E-2,8.917045E-2,-2.7319808E-2,-1.2508832E-2,-2.931326E-2],"split_indices":[1,0,0,1,0,0,0,1,1,1,1,1,0,1,1,0,0,0,0,0,0,0,0,0,0,0,0,0,0,0,0],"split_type":[0,0,0,0,0,0,0,0,0,0,0,0,0,0,0,0,0,0,0,0,0,0,0,0,0,0,0,0,0,0,0],"sum_hessian":[4.894E3,4.403E3,4.91E2,6.92E2,3.711E3,2.22E2,2.69E2,5.09E2,1.83E2,1.485E3,2.226E3,6.7E1,1.55E2,8.3E1,1.86E2,4.87E2,2.2E1,4.7E1,1.36E2,1.28E2,1.357E3,1.118E3,1.108E3,4.3E1,2.4E1,4.2E1,1.13E2,4.4E1,3.9E1,9.8E1,8.8E1],"tree_param":{"num_deleted":"0","num_feature":"2","num_nodes":"31","size_leaf_vector":"1"}}]},"name":"gbtree"},"learner_model_param":{"base_score":"[1.3714957E1]","boost_from_average":"1","num_class":"0","num_feature":"2","num_target":"1"},"objective":{"name":"reg:squarederror","reg_loss_param":{"scale_pos_weight":"1"}}},"version":[3,2,0]}