{"learner":{"attributes":{},"feature_names":["day_of_week","hour_of_day"],"feature_types":[],"gradient_booster":{"model":{"cats":{"enc":[],"feature_segments":[],"sorted_idx":[]},"gbtree_model_param":{"num_parallel_tree":"1","num_trees":"50"},"iteration_indptr":[0,1,2,3,4,5,6,7,8,9,10,11,12,13,14,15,16,17,18,19,20,21,22,23,24,25,26,27,28,29,30,31,32,33,34,35,36,37,38,39,40,41,42,43,44,45,46,47,48,49,50],"tree_info":[0,0,0,0,0,0,0,0,0,0,0,0,0,0,0,0,0,0,0,0,0,0,0,0,0,0,0,0,0,0,0,0,0,0,0,0,0,0,0,0,0,0,0,0,0,0,0,0,0,0],"trees":[{"base_weights":[-3.3235634E-7,-1.017521E1,1.7442013E0,-1.0823277E1,-5.544574E0,4.1676846E0,-4.879188E0,-1.1876653E0,-8.9123535E-1,-1.8399113E-1,-8.7865967E-1,-8.6993045E-1,4.9266696E0,-3.0394247E0,-8.380084E0,2.1647346E-1,-7.824585E-1,5.5525213E-1,2.511801E-1,-4.013846E-1,-2.9622009E-2,-1.0128164E0,-4.2465445E-1],"categories":[],"categories_nodes":[],"categories_segments":[],"categories_sizes":[],"default_left":[0,0,0,0,0,0,0,0,0,0,0,0,0,0,0,0,0,0,0,0,0,0,0],"id":0,"left_children":[1,3,5,7,9,11,13,-1,-1,-1,-1,15,17,19,21,-1,-1,-1,-1,-1,-1,-1,-1],"loss_changes":[5.0332242E4,1.1853867E3,3.8881434E4,6.2484375E2,6.203954E2,6.7833086E3,4.154623E3,0E0,0E0,0E0,0E0,4.934414E3,2.315043E3,1.1401982E3,1.568334E3,0E0,0E0,0E0,0E0,0E0,0E0,0E0,0E0],"parents":[2147483647,0,0,1,1,2,2,3,3,4,4,5,5,6,6,11,11,12,12,13,13,14,14],"right_children":[2,4,6,8,10,12,14,-1,-1,-1,-1,16,18,20,22,-1,-1,-1,-1,-1,-1,-1,-1],"split_conditions":[4E0,3E0,1.9E1,5E0,2E0,6E0,2.2E1,-1.1876653E0,-8.9123535E-1,-1.8399113E-1,-8.7865967E-1,5E0,5E0,4E0,4E0,2.1647346E-1,-7.824585E-1,5.5525213E-1,2.511801E-1,-4.013846E-1,-2.9622009E-2,-1.0128164E0,-4.2465445E-1],"split_indices":[1,1,1,0,0,1,1,0,0,0,0,0,0,0,0,0,0,0,0,0,0,0,0],"split_type":[0,0,0,0,0,0,0,0,0,0,0,0,0,0,0,0,0,0,0,0,0,0,0],"sum_hessian":[2.834E3,4.14E2,2.42E3,3.62E2,5.2E1,1.772E3,6.48E2,2.3E2,1.32E2,2.5E1,2.7E1,2.32E2,1.54E3,4.26E2,2.22E2,1.62E2,7E1,1.222E3,3.18E2,3.14E2,1.12E2,1.55E2,6.7E1],"tree_param":{"num_deleted":"0","num_feature":"2","num_nodes":"23","size_leaf_vector":"1"}},{"base_weights":[-1.6827239E-3,-9.165259E0,1.5691087E0,-9.746677E0,-5.010166E0,3.7510517E0,-4.3941483E0,-1.069413E0,-8.02782E-1,-1.6629964E-1,-7.9393184E-1,-7.853668E-1,4.434526E0,-1.6337062E0,-6.3192906E0,1.949589E-1,-7.0531476E-1,4.997723E-1,2.2614086E-1,-2.2357269E-1,2.0572463E-2,-7.8428143E-1,-2.6688766E-1],"categories":[],"categories_nodes":[],"categories_segments":[],"categories_sizes":[],"default_left":[0,0,0,0,0,0,0,0,0,0,0,0,0,0,0,0,0,0,0,0,0,0,0],"id":1,"left_children":[1,3,5,7,9,11,13,-1,-1,-1,-1,15,17,19,21,-1,-1,-1,-1,-1,-1,-1,-1],"loss_changes":[4.0821562E4,9.537461E2,3.151729E4,5.053047E2,5.064286E2,5.5007188E3,3.43862E3,0E0,0E0,0E0,0E0,4.0078606E3,1.8747168E3,2.972365E2,2.1035605E3,0E0,0E0,0E0,0E0,0E0,0E0,0E0,0E0],"parents":[2147483647,0,0,1,1,2,2,3,3,4,4,5,5,6,6,11,11,12,12,13,13,14,14],"right_children":[2,4,6,8,10,12,14,-1,-1,-1,-1,16,18,20,22,-1,-1,-1,-1,-1,-1,-1,-1],"split_conditions":[4E0,3E0,1.9E1,5E0,2E0,6E0,2.1E1,-1.069413E0,-8.02782E-1,-1.6629964E-1,-7.9393184E-1,5E0,5E0,4E0,4E0,1.949589E-1,-7.0531476E-1,4.997723E-1,2.2614086E-1,-2.2357269E-1,2.0572463E-2,-7.8428143E-1,-2.6688766E-1],"split_indices":[1,1,1,0,0,1,1,0,0,0,0,0,0,0,0,0,0,0,0,0,0,0,0],"split_type":[0,0,0,0,0,0,0,0,0,0,0,0,0,0,0,0,0,0,0,0,0,0,0],"sum_hessian":[2.834E3,4.14E2,2.42E3,3.62E2,5.2E1,1.772E3,6.48E2,2.3E2,1.32E2,2.5E1,2.7E1,2.32E2,1.54E3,2.67E2,3.81E2,1.62E2,7E1,1.222E3,3.18E2,2.01E2,6.6E1,2.68E2,1.13E2],"tree_param":{"num_deleted":"0","num_feature":"2","num_nodes":"23","size_leaf_vector":"1"}},{"base_weights":[-2.8797893E-3,-8.255558E0,1.4117689E0,-8.777166E0,-4.527267E0,3.376068E0,-3.956666E0,-9.629346E-1,-7.231073E-1,-1.503093E-1,-7.173741E-1,-7.0902026E-1,3.9915447E0,-2.3981287E0,-6.9232073E0,1.7558265E-1,-6.357767E-1,4.49836E-1,2.035977E-1,-3.1897295E-1,-1.7023142E-2,-8.342587E-1,-3.5651726E-1],"categories":[],"categories_nodes":[],"categories_segments":[],"categories_sizes":[],"default_left":[0,0,0,0,0,0,0,0,0,0,0,0,0,0,0,0,0,0,0,0,0,0,0],"id":2,"left_children":[1,3,5,7,9,11,13,-1,-1,-1,-1,15,17,19,21,-1,-1,-1,-1,-1,-1,-1,-1],"loss_changes":[3.310926E4,7.6731836E2,2.5543316E4,4.0863867E2,4.1339734E2,4.4606406E3,2.9840264E3,0E0,0E0,0E0,0E0,3.2552908E3,1.5181426E3,7.5251636E2,1.0331465E3,0E0,0E0,0E0,0E0,0E0,0E0,0E0,0E0],"parents":[2147483647,0,0,1,1,2,2,3,3,4,4,5,5,6,6,11,11,12,12,13,13,14,14],"right_children":[2,4,6,8,10,12,14,-1,-1,-1,-1,16,18,20,22,-1,-1,-1,-1,-1,-1,-1,-1],"split_conditions":[4E0,3E0,1.9E1,5E0,2E0,6E0,2.2E1,-9.629346E-1,-7.231073E-1,-1.503093E-1,-7.173741E-1,5E0,5E0,4E0,4E0,1.7558265E-1,-6.357767E-1,4.49836E-1,2.035977E-1,-3.1897295E-1,-1.7023142E-2,-8.342587E-1,-3.5651726E-1],"split_indices":[1,1,1,0,0,1,1,0,0,0,0,0,0,0,0,0,0,0,0,0,0,0,0],"split_type":[0,0,0,0,0,0,0,0,0,0,0,0,0,0,0,0,0,0,0,0,0,0,0],"sum_hessian":[2.834E3,4.14E2,2.42E3,3.62E2,5.2E1,1.772E3,6.48E2,2.3E2,1.32E2,2.5E1,2.7E1,2.32E2,1.54E3,4.26E2,2.22E2,1.62E2,7E1,1.222E3,3.18E2,3.14E2,1.12E2,1.55E2,6.7E1],"tree_param":{"num_deleted":"0","num_feature":"2","num_nodes":"23","size_leaf_vector":"1"}},{"base_weights":[-3.962905E-3,-7.4361563E0,1.2700412E0,-7.9040947E0,-4.090912E0,3.0385704E0,-3.5633519E0,-8.67058E-1,-6.513403E-1,-1.3585643E-1,-6.481988E-1,-6.4009356E-1,3.5928144E0,-1.2276714E0,-5.192669E0,1.5813208E-1,-5.730945E-1,4.048892E-1,1.833017E-1,-2.7671897E-1,-6.6942155E-2,-6.4467496E-1,-2.1879295E-1],"categories":[],"categories_nodes":[],"categories_segments":[],"categories_sizes":[],"default_left":[0,0,0,0,0,0,0,0,0,0,0,0,0,0,0,0,0,0,0,0,0,0,0],"id":3,"left_children":[1,3,5,7,9,11,13,-1,-1,-1,-1,15,17,19,21,-1,-1,-1,-1,-1,-1,-1,-1],"loss_changes":[2.685305E4,6.172949E2,2.0705527E4,3.304629E2,3.37456E2,3.6172305E3,2.4634375E3,0E0,0E0,0E0,0E0,2.644034E3,1.2293906E3,2.2847632E2,1.4253408E3,0E0,0E0,0E0,0E0,0E0,0E0,0E0,0E0],"parents":[2147483647,0,0,1,1,2,2,3,3,4,4,5,5,6,6,11,11,12,12,13,13,14,14],"right_children":[2,4,6,8,10,12,14,-1,-1,-1,-1,16,18,20,22,-1,-1,-1,-1,-1,-1,-1,-1],"split_conditions":[4E0,3E0,1.9E1,5E0,2E0,6E0,2.1E1,-8.67058E-1,-6.513403E-1,-1.3585643E-1,-6.481988E-1,5E0,5E0,2E0,4E0,1.5813208E-1,-5.730945E-1,4.048892E-1,1.833017E-1,-2.7671897E-1,-6.6942155E-2,-6.4467496E-1,-2.1879295E-1],"split_indices":[1,1,1,0,0,1,1,0,0,0,0,0,0,0,0,0,0,0,0,0,0,0,0],"split_type":[0,0,0,0,0,0,0,0,0,0,0,0,0,0,0,0,0,0,0,0,0,0,0],"sum_hessian":[2.834E3,4.14E2,2.42E3,3.62E2,5.2E1,1.772E3,6.48E2,2.3E2,1.32E2,2.5E1,2.7E1,2.32E2,1.54E3,2.67E2,3.81E2,1.62E2,7E1,1.222E3,3.18E2,7E1,1.97E2,2.68E2,1.13E2],"tree_param":{"num_deleted":"0","num_feature":"2","num_nodes":"23","size_leaf_vector":"1"}},{"base_weights":[-4.743544E-3,-6.6980886E0,1.14261E0,-7.1178684E0,-3.6966138E0,2.5097144E0,-3.959562E0,-7.8072757E-1,-5.8669597E-1,-1.2279331E-1,-5.8569384E-1,-5.778655E-1,2.936947E0,-2.5903485E0,-5.7223973E0,1.4241584E-1,-5.165922E-1,3.419205E-1,4.424731E-2,-4.757267E-1,-1.8922733E-1,-6.8731326E-1,-2.998323E-1],"categories":[],"categories_nodes":[],"categories_segments":[],"categories_sizes":[],"default_left":[0,0,0,0,0,0,0,0,0,0,0,0,0,0,0,0,0,0,0,0,0,0,0],"id":4,"left_children":[1,3,5,7,9,11,13,-1,-1,-1,-1,15,17,19,21,-1,-1,-1,-1,-1,-1,-1,-1],"loss_changes":[2.1779412E4,4.9656836E2,1.6896902E4,2.672422E2,2.7546515E2,2.521208E3,1.2209902E3,0E0,0E0,0E0,0E0,2.1475552E3,2.0170869E3,4.2967273E2,6.7842773E2,0E0,0E0,0E0,0E0,0E0,0E0,0E0,0E0],"parents":[2147483647,0,0,1,1,2,2,3,3,4,4,5,5,6,6,11,11,12,12,13,13,14,14],"right_children":[2,4,6,8,10,12,14,-1,-1,-1,-1,16,18,20,22,-1,-1,-1,-1,-1,-1,-1,-1],"split_conditions":[4E0,3E0,2E1,5E0,2E0,6E0,2.2E1,-7.8072757E-1,-5.8669597E-1,-1.2279331E-1,-5.8569384E-1,5E0,1.8E1,2E0,4E0,1.4241584E-1,-5.165922E-1,3.419205E-1,4.424731E-2,-4.757267E-1,-1.8922733E-1,-6.8731326E-1,-2.998323E-1],"split_indices":[1,1,1,0,0,1,1,0,0,0,0,0,1,0,0,0,0,0,0,0,0,0,0],"split_type":[0,0,0,0,0,0,0,0,0,0,0,0,0,0,0,0,0,0,0,0,0,0,0],"sum_hessian":[2.834E3,4.14E2,2.42E3,3.62E2,5.2E1,1.909E3,5.11E2,2.3E2,1.32E2,2.5E1,2.7E1,2.32E2,1.677E3,2.89E2,2.22E2,1.62E2,7E1,1.405E3,2.72E2,6.9E1,2.2E2,1.55E2,6.7E1],"tree_param":{"num_deleted":"0","num_feature":"2","num_nodes":"23","size_leaf_vector":"1"}},{"base_weights":[-5.5800774E-3,-6.0332823E0,1.0276715E0,-6.4098487E0,-3.3403206E0,2.4678726E0,-2.9083905E0,-7.029928E-1,-5.2846754E-1,-1.10986255E-1,-5.292163E-1,3.0963504E0,2.238883E-1,-1.7285084E0,-5.1545844E0,1.2826161E-1,3.335551E-1,-4.2407462E-1,2.0443931E-1,-2.3679784E-1,6.938188E-3,-6.1902255E-1,-2.7029002E-1],"categories":[],"categories_nodes":[],"categories_segments":[],"categories_sizes":[],"default_left":[0,0,0,0,0,0,0,0,0,0,0,0,0,0,0,0,0,0,0,0,0,0,0],"id":5,"left_children":[1,3,5,7,9,11,13,-1,-1,-1,-1,15,17,19,21,-1,-1,-1,-1,-1,-1,-1,-1],"loss_changes":[1.7662955E4,3.9943066E2,1.3731149E4,2.1611328E2,2.2486212E2,2.4997598E3,1.7110991E3,0E0,0E0,0E0,0E0,5.965996E2,3.170418E3,4.9108496E2,5.494795E2,0E0,0E0,0E0,0E0,0E0,0E0,0E0,0E0],"parents":[2147483647,0,0,1,1,2,2,3,3,4,4,5,5,6,6,11,11,12,12,13,13,14,14],"right_children":[2,4,6,8,10,12,14,-1,-1,-1,-1,16,18,20,22,-1,-1,-1,-1,-1,-1,-1,-1],"split_conditions":[4E0,3E0,1.9E1,5E0,2E0,5E0,2.2E1,-7.029928E-1,-5.2846754E-1,-1.10986255E-1,-5.292163E-1,5E0,9E0,4E0,4E0,1.2826161E-1,3.335551E-1,-4.2407462E-1,2.0443931E-1,-2.3679784E-1,6.938188E-3,-6.1902255E-1,-2.7029002E-1],"split_indices":[1,1,1,0,0,0,1,0,0,0,0,1,1,0,0,0,0,0,0,0,0,0,0],"split_type":[0,0,0,0,0,0,0,0,0,0,0,0,0,0,0,0,0,0,0,0,0,0,0],"sum_hessian":[2.834E3,4.14E2,2.42E3,3.62E2,5.2E1,1.772E3,6.48E2,2.3E2,1.32E2,2.5E1,2.7E1,1.384E3,3.88E2,4.26E2,2.22E2,1.62E2,1.222E3,1.12E2,2.76E2,3.14E2,1.12E2,1.55E2,6.7E1],"tree_param":{"num_deleted":"0","num_feature":"2","num_nodes":"23","size_leaf_vector":"1"}},{"base_weights":[-5.991362E-3,-5.434464E0,9.2454237E-1,-5.7722564E0,-3.0183673E0,2.041033E0,-3.242297E0,-6.329979E-1,-4.7601816E-1,-1.0031446E-1,-4.7818467E-1,-4.8345834E-1,2.390357E0,-2.1539364E0,-4.643114E0,1.1551414E-1,-4.238505E-1,2.7921876E-1,3.1209925E-2,-4.0549204E-1,-1.5420686E-1,-5.575171E-1,-2.4365847E-1],"categories":[],"categories_nodes":[],"categories_segments":[],"categories_sizes":[],"default_left":[0,0,0,0,0,0,0,0,0,0,0,0,0,0,0,0,0,0,0,0,0,0,0],"id":6,"left_children":[1,3,5,7,9,11,13,-1,-1,-1,-1,15,17,19,21,-1,-1,-1,-1,-1,-1,-1,-1],"loss_changes":[1.4325679E4,3.212744E2,1.1269685E4,1.7476562E2,1.8355466E2,1.6855181E3,7.705908E2,0E0,0E0,0E0,0E0,1.4385492E3,1.4004395E3,3.310608E2,4.4504053E2,0E0,0E0,0E0,0E0,0E0,0E0,0E0,0E0],"parents":[2147483647,0,0,1,1,2,2,3,3,4,4,5,5,6,6,11,11,12,12,13,13,14,14],"right_children":[2,4,6,8,10,12,14,-1,-1,-1,-1,16,18,20,22,-1,-1,-1,-1,-1,-1,-1,-1],"split_conditions":[4E0,3E0,2E1,5E0,2E0,6E0,2.2E1,-6.329979E-1,-4.7601816E-1,-1.0031446E-1,-4.7818467E-1,5E0,1.8E1,2E0,4E0,1.1551414E-1,-4.238505E-1,2.7921876E-1,3.1209925E-2,-4.0549204E-1,-1.5420686E-1,-5.575171E-1,-2.4365847E-1],"split_indices":[1,1,1,0,0,1,1,0,0,0,0,0,1,0,0,0,0,0,0,0,0,0,0],"split_type":[0,0,0,0,0,0,0,0,0,0,0,0,0,0,0,0,0,0,0,0,0,0,0],"sum_hessian":[2.834E3,4.14E2,2.42E3,3.62E2,5.2E1,1.909E3,5.11E2,2.3E2,1.32E2,2.5E1,2.7E1,2.32E2,1.677E3,2.89E2,2.22E2,1.62E2,7E1,1.405E3,2.72E2,6.9E1,2.2E2,1.55E2,6.7E1],"tree_param":{"num_deleted":"0","num_feature":"2","num_nodes":"23","size_leaf_vector":"1"}},{"base_weights":[-6.4666555E-3,-4.895084E0,8.31527E-1,-5.198086E0,-2.7274458E0,1.836931E0,-2.920725E0,-5.699721E-1,-4.2877427E-1,-9.066887E-2,-4.3207398E-1,2.2927046E0,4.8950143E-2,-1.9404726E0,-4.1823955E0,2.7302262E-1,2.8100356E-2,-3.661643E-1,1.5624812E-1,-2.502052E-1,-7.0286356E-3,-5.532756E-1,-2.8891084E-1],"categories":[],"categories_nodes":[],"categories_segments":[],"categories_sizes":[],"default_left":[0,0,0,0,0,0,0,0,0,0,0,0,0,0,0,0,0,0,0,0,0,0,0],"id":7,"left_children":[1,3,5,7,9,11,13,-1,-1,-1,-1,15,17,19,21,-1,-1,-1,-1,-1,-1,-1,-1],"loss_changes":[1.1618018E4,2.5839453E2,9.138657E3,1.413291E2,1.4983551E2,1.556375E3,6.25103E2,0E0,0E0,0E0,0E0,1.3388394E3,2.1903833E3,3.0439905E2,3.734629E2,0E0,0E0,0E0,0E0,0E0,0E0,0E0,0E0],"parents":[2147483647,0,0,1,1,2,2,3,3,4,4,5,5,6,6,11,11,12,12,13,13,14,14],"right_children":[2,4,6,8,10,12,14,-1,-1,-1,-1,16,18,20,22,-1,-1,-1,-1,-1,-1,-1,-1],"split_conditions":[4E0,3E0,2E1,5E0,2E0,5E0,2.2E1,-5.699721E-1,-4.2877427E-1,-9.066887E-2,-4.3207398E-1,1.8E1,9E0,4E0,3E0,2.7302262E-1,2.8100356E-2,-3.661643E-1,1.5624812E-1,-2.502052E-1,-7.0286356E-3,-5.532756E-1,-2.8891084E-1],"split_indices":[1,1,1,0,0,0,1,0,0,0,0,1,1,0,0,0,0,0,0,0,0,0,0],"split_type":[0,0,0,0,0,0,0,0,0,0,0,0,0,0,0,0,0,0,0,0,0,0,0],"sum_hessian":[2.834E3,4.14E2,2.42E3,3.62E2,5.2E1,1.909E3,5.11E2,2.3E2,1.32E2,2.5E1,2.7E1,1.521E3,3.88E2,2.89E2,2.22E2,1.249E3,2.72E2,1.12E2,2.76E2,2.22E2,6.7E1,1.07E2,1.15E2],"tree_param":{"num_deleted":"0","num_feature":"2","num_nodes":"23","size_leaf_vector":"1"}},{"base_weights":[-6.7119906E-3,-4.409242E0,7.4795824E-1,-4.681029E0,-2.4645646E0,1.8080969E0,-2.1493819E0,-5.132216E-1,-3.8621923E-1,-8.195073E-2,-3.9040977E-1,2.3024032E0,4.3515313E-2,-6.6817665E-1,-3.1829255E0,1.7056859E-1,3.002459E-1,-3.2987195E-1,1.406797E-1,-1.9629395E-1,-2.0051839E-2,-4.018066E-1,-1.1843672E-1],"categories":[],"categories_nodes":[],"categories_segments":[],"categories_sizes":[],"default_left":[0,0,0,0,0,0,0,0,0,0,0,0,0,0,0,0,0,0,0,0,0,0,0],"id":8,"left_children":[1,3,5,7,9,11,13,-1,-1,-1,-1,15,17,19,21,-1,-1,-1,-1,-1,-1,-1,-1],"loss_changes":[9.422468E3,2.0780566E2,7.4401865E3,1.14288086E2,1.2231061E2,1.5463882E3,9.914214E2,0E0,0E0,0E0,0E0,5.734429E2,1.7770829E3,1.6188219E2,6.328281E2,0E0,0E0,0E0,0E0,0E0,0E0,0E0,0E0],"parents":[2147483647,0,0,1,1,2,2,3,3,4,4,5,5,6,6,11,11,12,12,13,13,14,14],"right_children":[2,4,6,8,10,12,14,-1,-1,-1,-1,16,18,20,22,-1,-1,-1,-1,-1,-1,-1,-1],"split_conditions":[4E0,3E0,1.9E1,5E0,2E0,5E0,2.1E1,-5.132216E-1,-3.8621923E-1,-8.195073E-2,-3.9040977E-1,1.3E1,9E0,2E0,4E0,1.7056859E-1,3.002459E-1,-3.2987195E-1,1.406797E-1,-1.9629395E-1,-2.0051839E-2,-4.018066E-1,-1.1843672E-1],"split_indices":[1,1,1,0,0,0,1,0,0,0,0,1,1,0,0,0,0,0,0,0,0,0,0],"split_type":[0,0,0,0,0,0,0,0,0,0,0,0,0,0,0,0,0,0,0,0,0,0,0],"sum_hessian":[2.834E3,4.14E2,2.42E3,3.62E2,5.2E1,1.772E3,6.48E2,2.3E2,1.32E2,2.5E1,2.7E1,1.384E3,3.88E2,2.67E2,3.81E2,7.49E2,6.35E2,1.12E2,2.76E2,7E1,1.97E2,2.68E2,1.13E2],"tree_param":{"num_deleted":"0","num_feature":"2","num_nodes":"23","size_leaf_vector":"1"}},{"base_weights":[-6.6849776E-3,-3.9716234E0,6.729747E-1,-4.215404E0,-2.2270205E0,1.4913683E0,-2.3813314E0,-4.6212164E-1,-3.4788773E0,-7.407081E-2,-3.5276315E-1,-5.357457E-1,1.7719561E0,-1.5489932E0,-3.4530659E0,-2.7805826E-1,-3.5996065E-1,5.9946656E-2,-3.1343916E-1,2.0866103E-1,1.4493778E-2,-2.0213841E-1,2.2950396E-3,-4.5865175E-1,-2.3680155E-1],"categories":[],"categories_nodes":[],"categories_segments":[],"categories_sizes":[],"default_left":[0,0,0,0,0,0,0,0,0,0,0,0,0,0,0,0,0,0,0,0,0,0,0,0,0],"id":9,"left_children":[1,3,5,7,9,11,13,-1,15,-1,-1,17,19,21,23,-1,-1,-1,-1,-1,-1,-1,-1,-1,-1],"loss_changes":[7.6424556E3,1.6711182E2,6.0551426E3,9.242139E1,9.98421E1,1.0873257E3,4.5137842E2,0E0,1.2034912E0,0E0,0E0,6.8923236E2,8.587466E2,2.1539227E2,2.63396E2,0E0,0E0,0E0,0E0,0E0,0E0,0E0,0E0,0E0,0E0],"parents":[2147483647,0,0,1,1,2,2,3,3,4,4,5,5,6,6,8,8,11,11,12,12,13,13,14,14],"right_children":[2,4,6,8,10,12,14,-1,16,-1,-1,18,20,22,24,-1,-1,-1,-1,-1,-1,-1,-1,-1,-1],"split_conditions":[4E0,3E0,2E1,5E0,2E0,6E0,2.2E1,-4.6212164E-1,1E0,-7.407081E-2,-3.5276315E-1,5E0,1.8E1,4E0,3E0,-2.7805826E-1,-3.5996065E-1,5.9946656E-2,-3.1343916E-1,2.0866103E-1,1.4493778E-2,-2.0213841E-1,2.2950396E-3,-4.5865175E-1,-2.3680155E-1],"split_indices":[1,1,1,0,0,1,1,0,1,0,0,0,1,0,0,0,0,0,0,0,0,0,0,0,0],"split_type":[0,0,0,0,0,0,0,0,0,0,0,0,0,0,0,0,0,0,0,0,0,0,0,0,0],"sum_hessian":[2.834E3,4.14E2,2.42E3,3.62E2,5.2E1,1.909E3,5.11E2,2.3E2,1.32E2,2.5E1,2.7E1,2.32E2,1.677E3,2.89E2,2.22E2,2.3E1,1.09E2,1.62E2,7E1,1.405E3,2.72E2,2.22E2,6.7E1,1.07E2,1.15E2],"tree_param":{"num_deleted":"0","num_feature":"2","num_nodes":"25","size_leaf_vector":"1"}},{"base_weights":[-6.8813376E-3,-3.5781405E0,6.0529524E-1,-3.7968943E0,-2.0123718E0,1.4678891E0,-1.7521534E0,-4.1610953E-1,-3.1357868E0,-6.6948615E-2,-3.187467E-1,1.9003141E0,-7.5495556E-2,-5.275425E-1,-2.6067176E0,-2.5141105E-1,-3.2429183E-1,1.359085E-1,2.5355682E-1,-2.855156E-1,1.0587179E-1,-1.7135237E-1,-9.960206E-3,-3.3081478E-1,-9.287231E-2],"categories":[],"categories_nodes":[],"categories_segments":[],"categories_sizes":[],"default_left":[0,0,0,0,0,0,0,0,0,0,0,0,0,0,0,0,0,0,0,0,0,0,0,0,0],"id":10,"left_children":[1,3,5,7,9,11,13,-1,15,-1,-1,17,19,21,23,-1,-1,-1,-1,-1,-1,-1,-1,-1,-1],"loss_changes":[6.20016E3,1.3450342E2,4.925725E3,7.4353516E1,8.150101E1,1.1834407E3,6.778092E2,0E0,7.04834E-1,0E0,0E0,4.727417E2,1.229434E3,1.3584717E2,4.4654004E2,0E0,0E0,0E0,0E0,0E0,0E0,0E0,0E0,0E0,0E0],"parents":[2147483647,0,0,1,1,2,2,3,3,4,4,5,5,6,6,8,8,11,11,12,12,13,13,14,14],"right_children":[2,4,6,8,10,12,14,-1,16,-1,-1,18,20,22,24,-1,-1,-1,-1,-1,-1,-1,-1,-1,-1],"split_conditions":[4E0,3E0,1.9E1,5E0,2E0,5E0,2.1E1,-4.1610953E-1,1E0,-6.6948615E-2,-3.187467E-1,1.3E1,9E0,2E0,4E0,-2.5141105E-1,-3.2429183E-1,1.359085E-1,2.5355682E-1,-2.855156E-1,1.0587179E-1,-1.7135237E-1,-9.960206E-3,-3.3081478E-1,-9.287231E-2],"split_indices":[1,1,1,0,0,0,1,0,1,0,0,1,1,0,0,0,0,0,0,0,0,0,0,0,0],"split_type":[0,0,0,0,0,0,0,0,0,0,0,0,0,0,0,0,0,0,0,0,0,0,0,0,0],"sum_hessian":[2.834E3,4.14E2,2.42E3,3.62E2,5.2E1,1.772E3,6.48E2,2.3E2,1.32E2,2.5E1,2.7E1,1.384E3,3.88E2,2.67E2,3.81E2,2.3E1,1.09E2,7.49E2,6.35E2,1.12E2,2.76E2,7E1,1.97E2,2.68E2,1.13E2],"tree_param":{"num_deleted":"0","num_feature":"2","num_nodes":"25","size_leaf_vector":"1"}},{"base_weights":[-6.818511E-3,-3.2236457E0,5.4460245E-1,-3.4199371E0,-1.8184118E0,1.2107517E0,-1.9415102E0,-3.746787E-1,-2.826537E0,-6.0511213E-2,-2.8801042E-1,1.5368899E0,-6.8408094E-2,-1.2338834E0,-2.8530362E0,-2.2731748E-1,-2.9215747E-1,1.8630409E-1,3.7895315E-3,-2.5721666E-1,9.532278E-2,-2.6071057E-1,-7.933431E-2,-3.804361E-1,-1.9427249E-1],"categories":[],"categories_nodes":[],"categories_segments":[],"categories_sizes":[],"default_left":[0,0,0,0,0,0,0,0,0,0,0,0,0,0,0,0,0,0,0,0,0,0,0,0,0],"id":11,"left_children":[1,3,5,7,9,11,13,-1,15,-1,-1,17,19,21,23,-1,-1,-1,-1,-1,-1,-1,-1,-1,-1],"loss_changes":[5.0305522E3,1.0825293E2,4.0118223E3,5.9813965E1,6.6529205E1,7.9692456E2,3.2672998E2,0E0,3.5327148E-1,0E0,0E0,7.440327E2,9.9748663E2,1.7337E2,1.8572742E2,0E0,0E0,0E0,0E0,0E0,0E0,0E0,0E0,0E0,0E0],"parents":[2147483647,0,0,1,1,2,2,3,3,4,4,5,5,6,6,8,8,11,11,12,12,13,13,14,14],"right_children":[2,4,6,8,10,12,14,-1,16,-1,-1,18,20,22,24,-1,-1,-1,-1,-1,-1,-1,-1,-1,-1],"split_conditions":[4E0,3E0,2E1,5E0,2E0,5E0,2.2E1,-3.746787E-1,1E0,-6.0511213E-2,-2.8801042E-1,1.8E1,9E0,2E0,3E0,-2.2731748E-1,-2.9215747E-1,1.8630409E-1,3.7895315E-3,-2.5721666E-1,9.532278E-2,-2.6071057E-1,-7.933431E-2,-3.804361E-1,-1.9427249E-1],"split_indices":[1,1,1,0,0,0,1,0,1,0,0,1,1,0,0,0,0,0,0,0,0,0,0,0,0],"split_type":[0,0,0,0,0,0,0,0,0,0,0,0,0,0,0,0,0,0,0,0,0,0,0,0,0],"sum_hessian":[2.834E3,4.14E2,2.42E3,3.62E2,5.2E1,1.909E3,5.11E2,2.3E2,1.32E2,2.5E1,2.7E1,1.521E3,3.88E2,2.89E2,2.22E2,2.3E1,1.09E2,1.249E3,2.72E2,1.12E2,2.76E2,6.9E1,2.2E2,1.07E2,1.15E2],"tree_param":{"num_deleted":"0","num_feature":"2","num_nodes":"25","size_leaf_vector":"1"}},{"base_weights":[-6.88776E-3,-2.9042757E0,4.8977596E-1,-3.0804067E0,-1.6431463E0,1.1910964E0,-1.4269129E0,-3.3737302E-1,-2.5477889E0,-5.46928E-2,-2.6023796E-1,-5.442341E-1,1.4527065E0,-4.2335325E-1,-2.1272457E0,-2.0553291E-1,-2.632073E-1,3.1255156E-1,-9.416749E-2,1.7171893E-1,4.3416385E-2,-1.462638E-1,-4.8542335E-3,-2.7282292E-1,-6.9047555E-2],"categories":[],"categories_nodes":[],"categories_segments":[],"categories_sizes":[],"default_left":[0,0,0,0,0,0,0,0,0,0,0,0,0,0,0,0,0,0,0,0,0,0,0,0,0],"id":12,"left_children":[1,3,5,7,9,11,13,-1,15,-1,-1,17,19,21,23,-1,-1,-1,-1,-1,-1,-1,-1,-1,-1],"loss_changes":[4.0810647E3,8.711987E1,3.25604E3,4.8115967E1,5.4307724E1,8.0569653E2,4.5523315E2,0E0,1.105957E-1,0E0,0E0,3.4277563E2,4.1437964E2,1.0432443E2,3.2796375E2,0E0,0E0,0E0,0E0,0E0,0E0,0E0,0E0,0E0,0E0],"parents":[2147483647,0,0,1,1,2,2,3,3,4,4,5,5,6,6,8,8,11,11,12,12,13,13,14,14],"right_children":[2,4,6,8,10,12,14,-1,16,-1,-1,18,20,22,24,-1,-1,-1,-1,-1,-1,-1,-1,-1,-1],"split_conditions":[4E0,3E0,1.9E1,5E0,2E0,6E0,2.1E1,-3.3737302E-1,1E0,-5.46928E-2,-2.6023796E-1,2E0,5E0,2E0,4E0,-2.0553291E-1,-2.632073E-1,3.1255156E-1,-9.416749E-2,1.7171893E-1,4.3416385E-2,-1.462638E-1,-4.8542335E-3,-2.7282292E-1,-6.9047555E-2],"split_indices":[1,1,1,0,0,1,1,0,1,0,0,0,0,0,0,0,0,0,0,0,0,0,0,0,0],"split_type":[0,0,0,0,0,0,0,0,0,0,0,0,0,0,0,0,0,0,0,0,0,0,0,0,0],"sum_hessian":[2.834E3,4.14E2,2.42E3,3.62E2,5.2E1,1.772E3,6.48E2,2.3E2,1.32E2,2.5E1,2.7E1,2.32E2,1.54E3,2.67E2,3.81E2,2.3E1,1.09E2,2.2E1,2.1E2,1.222E3,3.18E2,7E1,1.97E2,2.68E2,1.13E2],"tree_param":{"num_deleted":"0","num_feature":"2","num_nodes":"25","size_leaf_vector":"1"}},{"base_weights":[-6.615113E-3,-2.616549E0,4.4077408E-1,-2.7745864E0,-1.4847734E0,9.831802E-1,-1.5835161E0,-3.0378175E0,-2.2965343E-1,-4.9433824E-2,-2.3514357E-1,-4.8887303E-1,1.1869974E0,-9.810169E-1,-2.3599343E0,-3.1737348E-1,-2.706564E-1,2.5834737E-2,-2.1974373E-1,1.4212929E-1,-2.40152E-3,-1.3407022E-1,2.1296587E-2,-3.1571507E-1,-1.5973541E-1],"categories":[],"categories_nodes":[],"categories_segments":[],"categories_sizes":[],"default_left":[0,0,0,0,0,0,0,0,0,0,0,0,0,0,0,0,0,0,0,0,0,0,0,0,0],"id":13,"left_children":[1,3,5,7,9,11,13,15,-1,-1,-1,17,19,21,23,-1,-1,-1,-1,-1,-1,-1,-1,-1,-1],"loss_changes":[3.3114587E3,7.010864E1,2.6597844E3,3.8702637E1,4.4331345E1,5.736372E2,2.3719397E2,1.8105469E0,0E0,0E0,0E0,2.9803275E2,4.761411E2,1.2482834E2,1.3052783E2,0E0,0E0,0E0,0E0,0E0,0E0,0E0,0E0,0E0,0E0],"parents":[2147483647,0,0,1,1,2,2,3,3,4,4,5,5,6,6,7,7,11,11,12,12,13,13,14,14],"right_children":[2,4,6,8,10,12,14,16,-1,-1,-1,18,20,22,24,-1,-1,-1,-1,-1,-1,-1,-1,-1,-1],"split_conditions":[4E0,3E0,2E1,5E0,2E0,6E0,2.2E1,2E0,-2.2965343E-1,-4.9433824E-2,-2.3514357E-1,5E0,1.8E1,4E0,3E0,-3.1737348E-1,-2.706564E-1,2.5834737E-2,-2.1974373E-1,1.4212929E-1,-2.40152E-3,-1.3407022E-1,2.1296587E-2,-3.1571507E-1,-1.5973541E-1],"split_indices":[1,1,1,0,0,1,1,1,0,0,0,0,1,0,0,0,0,0,0,0,0,0,0,0,0],"split_type":[0,0,0,0,0,0,0,0,0,0,0,0,0,0,0,0,0,0,0,0,0,0,0,0,0],"sum_hessian":[2.834E3,4.14E2,2.42E3,3.62E2,5.2E1,1.909E3,5.11E2,2.3E2,1.32E2,2.5E1,2.7E1,2.32E2,1.677E3,2.89E2,2.22E2,1.57E2,7.3E1,1.62E2,7E1,1.405E3,2.72E2,2.22E2,6.7E1,1.07E2,1.15E2],"tree_param":{"num_deleted":"0","num_feature":"2","num_nodes":"25","size_leaf_vector":"1"}},{"base_weights":[-6.569343E-3,-2.3575504E0,3.9643094E-1,-2.4993804E0,-1.3416655E0,8.8483334E-1,-1.4263133E0,-2.7365813E0,-2.0686076E0,-4.468059E-2,-2.1246898E-1,1.1505736E0,-1.571756E-1,-8.833039E-1,-2.126073E0,-2.4908231E-1,-2.895893E-1,-1.6382754E-1,-2.1436928E-1,1.4056608E-1,-2.1622672E-3,-2.1917318E-1,6.733733E-2,-1.990622E-1,-5.285728E-2,-2.8443593E-1,-1.4389956E-1],"categories":[],"categories_nodes":[],"categories_segments":[],"categories_sizes":[],"default_left":[0,0,0,0,0,0,0,0,0,0,0,0,0,0,0,0,0,0,0,0,0,0,0,0,0,0,0],"id":14,"left_children":[1,3,5,7,9,11,13,15,17,-1,-1,19,21,23,25,-1,-1,-1,-1,-1,-1,-1,-1,-1,-1,-1,-1],"loss_changes":[2.686944E3,5.6441162E1,2.1565154E3,3.143042E1,3.6187614E1,5.290669E2,1.9266968E2,1.8309326E0,7.8552246E-1,0E0,0E0,4.5512695E2,6.588074E2,1.1285985E2,1.0596161E2,0E0,0E0,0E0,0E0,0E0,0E0,0E0,0E0,0E0,0E0,0E0,0E0],"parents":[2147483647,0,0,1,1,2,2,3,3,4,4,5,5,6,6,7,7,8,8,11,11,12,12,13,13,14,14],"right_children":[2,4,6,8,10,12,14,16,18,-1,-1,20,22,24,26,-1,-1,-1,-1,-1,-1,-1,-1,-1,-1,-1,-1],"split_conditions":[4E0,3E0,2E1,5E0,2E0,5E0,2.2E1,2E0,1E0,-4.468059E-2,-2.1246898E-1,1.8E1,9E0,2E0,3E0,-2.4908231E-1,-2.895893E-1,-1.6382754E-1,-2.1436928E-1,1.4056608E-1,-2.1622672E-3,-2.1917318E-1,6.733733E-2,-1.990622E-1,-5.285728E-2,-2.8443593E-1,-1.4389956E-1],"split_indices":[1,1,1,0,0,0,1,0,1,0,0,1,1,0,0,0,0,0,0,0,0,0,0,0,0,0,0],"split_type":[0,0,0,0,0,0,0,0,0,0,0,0,0,0,0,0,0,0,0,0,0,0,0,0,0,0,0],"sum_hessian":[2.834E3,4.14E2,2.42E3,3.62E2,5.2E1,1.909E3,5.11E2,2.3E2,1.32E2,2.5E1,2.7E1,1.521E3,3.88E2,2.89E2,2.22E2,9.7E1,1.33E2,2.3E1,1.09E2,1.249E3,2.72E2,1.12E2,2.76E2,6.9E1,2.2E2,1.07E2,1.15E2],"tree_param":{"num_deleted":"0","num_feature":"2","num_nodes":"27","size_leaf_vector":"1"}},{"base_weights":[-6.571065E-3,-2.1246243E0,3.565015E-1,-2.2519681E0,-1.2123507E0,8.7060505E-1,-1.048525E0,-2.4652553E0,-1.8645904E0,-4.0384382E-2,-1.919809E-1,5.221541E-1,1.7717117E0,-2.8820193E-1,-1.5792005E0,-2.2442828E-1,-2.6084647E-1,-1.4812742E-1,-1.9312721E-1,-4.7270484E-2,7.428411E-2,1.1487334E-1,4.04121E-1,-1.2074969E-1,4.2899805E-3,-2.0599933E-1,-4.3084573E-2],"categories":[],"categories_nodes":[],"categories_segments":[],"categories_sizes":[],"default_left":[0,0,0,0,0,0,0,0,0,0,0,0,0,0,0,0,0,0,0,0,0,0,0,0,0,0,0],"id":15,"left_children":[1,3,5,7,9,11,13,15,17,-1,-1,19,21,23,25,-1,-1,-1,-1,-1,-1,-1,-1,-1,-1,-1,-1],"loss_changes":[2.1808923E3,4.5481445E1,1.7496716E3,2.5395386E1,2.9539894E1,5.5578186E2,2.6140656E2,1.4559326E0,5.387573E-1,0E0,0E0,2.8137827E2,6.9379895E2,8.162567E1,2.1002246E2,0E0,0E0,0E0,0E0,0E0,0E0,0E0,0E0,0E0,0E0,0E0,0E0],"parents":[2147483647,0,0,1,1,2,2,3,3,4,4,5,5,6,6,7,7,8,8,11,11,12,12,13,13,14,14],"right_children":[2,4,6,8,10,12,14,16,18,-1,-1,20,22,24,26,-1,-1,-1,-1,-1,-1,-1,-1,-1,-1,-1,-1],"split_conditions":[4E0,3E0,1.9E1,5E0,2E0,1.5E1,2.1E1,2E0,1E0,-4.0384382E-2,-1.919809E-1,6E0,4E0,2E0,4E0,-2.2442828E-1,-2.6084647E-1,-1.4812742E-1,-1.9312721E-1,-4.7270484E-2,7.428411E-2,1.1487334E-1,4.04121E-1,-1.2074969E-1,4.2899805E-3,-2.0599933E-1,-4.3084573E-2],"split_indices":[1,1,1,0,0,1,1,0,1,0,0,1,0,0,0,0,0,0,0,0,0,0,0,0,0,0,0],"split_type":[0,0,0,0,0,0,0,0,0,0,0,0,0,0,0,0,0,0,0,0,0,0,0,0,0,0,0],"sum_hessian":[2.834E3,4.14E2,2.42E3,3.62E2,5.2E1,1.772E3,6.48E2,2.3E2,1.32E2,2.5E1,2.7E1,1.279E3,4.93E2,2.67E2,3.81E2,9.7E1,1.33E2,2.3E1,1.09E2,2.32E2,1.047E3,3.88E2,1.05E2,7E1,1.97E2,2.68E2,1.13E2],"tree_param":{"num_deleted":"0","num_feature":"2","num_nodes":"27","size_leaf_vector":"1"}},{"base_weights":[-6.2237186E-3,-1.9147134E0,3.20926E-1,-2.0290484E0,-1.0955E0,8.5533726E-1,-7.960211E-1,-2.2208304E0,-1.6806972E0,-3.650127E-2,-1.7346846E-1,4.6996015E-1,2.2270012E0,-1.3695627E0,6.34998E-1,-2.3231032E-1,-1.9724534E-1,-1.3393186E-1,-1.7399007E-1,7.5901486E-2,-1.9406747E-2,8.6822085E-2,2.8396133E-1,-1.0709877E-1,-2.13593E-1,3.5485226E-1,-1.13097085E-2],"categories":[],"categories_nodes":[],"categories_segments":[],"categories_sizes":[],"default_left":[0,0,0,0,0,0,0,0,0,0,0,0,0,0,0,0,0,0,0,0,0,0,0,0,0,0,0],"id":16,"left_children":[1,3,5,7,9,11,13,15,17,-1,-1,19,21,23,25,-1,-1,-1,-1,-1,-1,-1,-1,-1,-1,-1,-1],"loss_changes":[1.7706803E3,3.664807E1,1.4457976E3,2.0518555E1,2.4113384E1,8.648131E2,6.443369E2,1.2856445E0,3.5775757E-1,0E0,0E0,2.4583087E2,2.9636792E2,1.25850586E2,4.9080984E2,0E0,0E0,0E0,0E0,0E0,0E0,0E0,0E0,0E0,0E0,0E0,0E0],"parents":[2147483647,0,0,1,1,2,2,3,3,4,4,5,5,6,6,7,7,8,8,11,11,12,12,13,13,14,14],"right_children":[2,4,6,8,10,12,14,16,18,-1,-1,20,22,24,26,-1,-1,-1,-1,-1,-1,-1,-1,-1,-1,-1,-1],"split_conditions":[4E0,3E0,1.8E1,5E0,2E0,1.5E1,4E0,2E0,1E0,-3.650127E-2,-1.7346846E-1,5E0,2E0,2.2E1,1.9E1,-2.3231032E-1,-1.9724534E-1,-1.3393186E-1,-1.7399007E-1,7.5901486E-2,-1.9406747E-2,8.6822085E-2,2.8396133E-1,-1.0709877E-1,-2.13593E-1,3.5485226E-1,-1.13097085E-2],"split_indices":[1,1,1,0,0,1,0,1,1,0,0,0,0,1,1,0,0,0,0,0,0,0,0,0,0,0,0],"split_type":[0,0,0,0,0,0,0,0,0,0,0,0,0,0,0,0,0,0,0,0,0,0,0,0,0,0,0],"sum_hessian":[2.834E3,4.14E2,2.42E3,3.62E2,5.2E1,1.637E3,7.83E2,2.3E2,1.32E2,2.5E1,2.7E1,1.279E3,3.58E2,5.59E2,2.24E2,1.57E2,7.3E1,2.3E1,1.09E2,8.91E2,3.88E2,1.12E2,2.46E2,4.04E2,1.55E2,4.5E1,1.79E2],"tree_param":{"num_deleted":"0","num_feature":"2","num_nodes":"27","size_leaf_vector":"1"}},{"base_weights":[-5.7766857E-3,-1.7255251E0,2.890194E-1,-1.8281752E0,-9.899118E-1,7.7006453E-1,-7.163899E-1,-2.000607E0,-1.5149425E0,-3.299157E-2,-1.5674113E-1,4.2300868E-1,2.005333E0,-1.2331791E0,5.7302487E-1,-1.8183246E-1,-2.1189883E-1,-1.21096745E-1,-1.5674923E-1,-4.7257926E-2,6.2171955E-2,7.8216664E-2,2.5568005E-1,-1.829059E-1,-8.8922195E-2,3.2013842E-1,-1.0185037E-2],"categories":[],"categories_nodes":[],"categories_segments":[],"categories_sizes":[],"default_left":[0,0,0,0,0,0,0,0,0,0,0,0,0,0,0,0,0,0,0,0,0,0,0,0,0,0,0],"id":17,"left_children":[1,3,5,7,9,11,13,15,17,-1,-1,19,21,23,25,-1,-1,-1,-1,-1,-1,-1,-1,-1,-1,-1,-1],"loss_changes":[1.4377733E3,2.95271E1,1.1714615E3,1.6575317E1,1.96837E1,7.013741E2,5.231294E2,1.1317139E0,2.2631836E-1,0E0,0E0,2.2808653E2,2.4015881E2,1.131496E2,3.994343E2,0E0,0E0,0E0,0E0,0E0,0E0,0E0,0E0,0E0,0E0,0E0,0E0],"parents":[2147483647,0,0,1,1,2,2,3,3,4,4,5,5,6,6,7,7,8,8,11,11,12,12,13,13,14,14],"right_children":[2,4,6,8,10,12,14,16,18,-1,-1,20,22,24,26,-1,-1,-1,-1,-1,-1,-1,-1,-1,-1,-1,-1],"split_conditions":[4E0,3E0,1.8E1,5E0,2E0,1.5E1,4E0,2E0,1E0,-3.299157E-2,-1.5674113E-1,6E0,2E0,2E0,1.9E1,-1.8183246E-1,-2.1189883E-1,-1.21096745E-1,-1.5674923E-1,-4.7257926E-2,6.2171955E-2,7.8216664E-2,2.5568005E-1,-1.829059E-1,-8.8922195E-2,3.2013842E-1,-1.0185037E-2],"split_indices":[1,1,1,0,0,1,0,0,1,0,0,1,0,0,1,0,0,0,0,0,0,0,0,0,0,0,0],"split_type":[0,0,0,0,0,0,0,0,0,0,0,0,0,0,0,0,0,0,0,0,0,0,0,0,0,0,0],"sum_hessian":[2.834E3,4.14E2,2.42E3,3.62E2,5.2E1,1.637E3,7.83E2,2.3E2,1.32E2,2.5E1,2.7E1,1.279E3,3.58E2,5.59E2,2.24E2,9.7E1,1.33E2,2.3E1,1.09E2,2.32E2,1.047E3,1.12E2,2.46E2,2.03E2,3.56E2,4.5E1,1.79E2],"tree_param":{"num_deleted":"0","num_feature":"2","num_nodes":"27","size_leaf_vector":"1"}},{"base_weights":[-5.366296E-3,-1.555048E0,2.6027736E-1,-1.6472077E0,-8.945005E-1,5.350502E-1,-1.2077773E0,-1.8022507E0,-1.3655374E0,-2.9819313E-2,-1.416268E-1,7.118204E-1,-2.1703063E-1,-1.5596726E0,-3.6683318E-1,-1.8862726E-1,-1.5984981E-1,-1.0949165E-1,-1.412168E-1,9.760024E-2,-1.0936878E-2,-1.9474244E-1,4.896536E-2,-2.0037444E-1,-1.23985104E-1,3.3724308E-2,-8.4807955E-2],"categories":[],"categories_nodes":[],"categories_segments":[],"categories_sizes":[],"default_left":[0,0,0,0,0,0,0,0,0,0,0,0,0,0,0,0,0,0,0,0,0,0,0,0,0,0,0],"id":18,"left_children":[1,3,5,7,9,11,13,15,17,-1,-1,19,21,23,25,-1,-1,-1,-1,-1,-1,-1,-1,-1,-1,-1,-1],"loss_changes":[1.1674696E3,2.37901E1,9.77233E2,1.3391541E1,1.6067768E1,2.7136322E2,1.1247089E2,9.394531E-1,1.3214111E-1,0E0,0E0,3.5849725E2,4.766391E2,3.5720093E1,3.89131E1,0E0,0E0,0E0,0E0,0E0,0E0,0E0,0E0,0E0,0E0,0E0,0E0],"parents":[2147483647,0,0,1,1,2,2,3,3,4,4,5,5,6,6,7,7,8,8,11,11,12,12,13,13,14,14],"right_children":[2,4,6,8,10,12,14,16,18,-1,-1,20,22,24,26,-1,-1,-1,-1,-1,-1,-1,-1,-1,-1,-1,-1],"split_conditions":[4E0,3E0,2.1E1,5E0,2E0,5E0,4E0,2E0,1E0,-2.9819313E-2,-1.416268E-1,1.8E1,9E0,2E0,2.2E1,-1.8862726E-1,-1.5984981E-1,-1.0949165E-1,-1.412168E-1,9.760024E-2,-1.0936878E-2,-1.9474244E-1,4.896536E-2,-2.0037444E-1,-1.23985104E-1,3.3724308E-2,-8.4807955E-2],"split_indices":[1,1,1,0,0,0,0,1,1,0,0,1,1,0,1,0,0,0,0,0,0,0,0,0,0,0,0],"split_type":[0,0,0,0,0,0,0,0,0,0,0,0,0,0,0,0,0,0,0,0,0,0,0,0,0,0,0],"sum_hessian":[2.834E3,4.14E2,2.42E3,3.62E2,5.2E1,2.039E3,3.81E2,2.3E2,1.32E2,2.5E1,2.7E1,1.651E3,3.88E2,2.68E2,1.13E2,1.57E2,7.3E1,2.3E1,1.09E2,1.249E3,4.02E2,1.12E2,2.76E2,1.1E2,1.58E2,4.6E1,6.7E1],"tree_param":{"num_deleted":"0","num_feature":"2","num_nodes":"27","size_leaf_vector":"1"}},{"base_weights":[-5.2550435E-3,-1.4014001E0,2.3406981E-1,-1.4841375E0,-8.082851E-1,4.815158E-1,-1.0879822E0,-1.6235342E0,-1.2308687E0,-2.6952056E-2,-1.2796992E-1,-4.3487683E-1,5.993465E-1,-1.404911E0,-3.3059788E-1,-1.2469735E-1,-1.6611694E-1,-9.899869E-2,-1.272235E-1,2.5918463E-1,-7.62743E-2,-2.5802253E-2,8.269189E-2,-1.805175E-1,-1.11664556E-1,3.04236E-2,-7.645184E-2],"categories":[],"categories_nodes":[],"categories_segments":[],"categories_sizes":[],"default_left":[0,0,0,0,0,0,0,0,0,0,0,0,0,0,0,0,0,0,0,0,0,0,0,0,0,0,0],"id":19,"left_children":[1,3,5,7,9,11,13,15,17,-1,-1,19,21,23,25,-1,-1,-1,-1,-1,-1,-1,-1,-1,-1,-1,-1],"loss_changes":[9.4759283E2,1.9165588E1,7.925213E2,1.0817322E1,1.31161E1,2.2053824E2,9.122958E1,1.2022705E0,6.578064E-2,0E0,0E0,2.3319681E2,3.5297852E2,2.9022095E1,3.1635883E1,0E0,0E0,0E0,0E0,0E0,0E0,0E0,0E0,0E0,0E0,0E0,0E0],"parents":[2147483647,0,0,1,1,2,2,3,3,4,4,5,5,6,6,7,7,8,8,11,11,12,12,13,13,14,14],"right_children":[2,4,6,8,10,12,14,16,18,-1,-1,20,22,24,26,-1,-1,-1,-1,-1,-1,-1,-1,-1,-1,-1,-1],"split_conditions":[4E0,3E0,2.1E1,5E0,2E0,6E0,4E0,1E0,1E0,-2.6952056E-2,-1.2796992E-1,2E0,2E0,2E0,2.2E1,-1.2469735E-1,-1.6611694E-1,-9.899869E-2,-1.272235E-1,2.5918463E-1,-7.62743E-2,-2.5802253E-2,8.269189E-2,-1.805175E-1,-1.11664556E-1,3.04236E-2,-7.645184E-2],"split_indices":[1,1,1,0,0,1,0,1,1,0,0,0,0,0,1,0,0,0,0,0,0,0,0,0,0,0,0],"split_type":[0,0,0,0,0,0,0,0,0,0,0,0,0,0,0,0,0,0,0,0,0,0,0,0,0,0,0],"sum_hessian":[2.834E3,4.14E2,2.42E3,3.62E2,5.2E1,2.039E3,3.81E2,2.3E2,1.32E2,2.5E1,2.7E1,2.32E2,1.807E3,2.68E2,1.13E2,2.4E1,2.06E2,2.3E1,1.09E2,2.2E1,2.1E2,3.79E2,1.428E3,1.1E2,1.58E2,4.6E1,6.7E1],"tree_param":{"num_deleted":"0","num_feature":"2","num_nodes":"27","size_leaf_vector":"1"}},{"base_weights":[-5.0009484E-3,-1.2628794E0,2.1062256E-1,-1.3371482E0,-7.3037994E-1,5.782264E-1,-5.576755E-1,-1.4624398E0,-1.1094828E0,-2.436054E-2,-1.15629986E-1,2.7443054E-1,1.6597875E0,-9.883106E-1,5.16606E-1,-1.3086593E-1,-1.5639924E-1,-8.951133E-2,-1.1461681E-1,5.026412E-2,-2.4957554E-2,6.334793E-2,2.1225934E-1,-1.7435454E-1,-8.399815E-2,2.8180102E-1,-7.440064E-3],"categories":[],"categories_nodes":[],"categories_segments":[],"categories_sizes":[],"default_left":[0,0,0,0,0,0,0,0,0,0,0,0,0,0,0,0,0,0,0,0,0,0,0,0,0,0,0],"id":20,"left_children":[1,3,5,7,9,11,13,15,17,-1,-1,19,21,23,25,-1,-1,-1,-1,-1,-1,-1,-1,-1,-1,-1,-1],"loss_changes":[7.6919775E2,1.5435913E1,6.840838E2,8.731812E0,1.070665E1,5.377483E2,3.6320724E2,1.5607605E0,2.0004272E-2,0E0,0E0,1.5319269E2,1.6917365E2,6.1268494E1,3.0624225E2,0E0,0E0,0E0,0E0,0E0,0E0,0E0,0E0,0E0,0E0,0E0,0E0],"parents":[2147483647,0,0,1,1,2,2,3,3,4,4,5,5,6,6,7,7,8,8,11,11,12,12,13,13,14,14],"right_children":[2,4,6,8,10,12,14,16,18,-1,-1,20,22,24,26,-1,-1,-1,-1,-1,-1,-1,-1,-1,-1,-1,-1],"split_conditions":[4E0,3E0,1.8E1,5E0,2E0,1.5E1,4E0,2E0,1E0,-2.436054E-2,-1.15629986E-1,5E0,2E0,1.9E1,1.9E1,-1.3086593E-1,-1.5639924E-1,-8.951133E-2,-1.1461681E-1,5.026412E-2,-2.4957554E-2,6.334793E-2,2.1225934E-1,-1.7435454E-1,-8.399815E-2,2.8180102E-1,-7.440064E-3],"split_indices":[1,1,1,0,0,1,0,0,1,0,0,0,0,1,1,0,0,0,0,0,0,0,0,0,0,0,0],"split_type":[0,0,0,0,0,0,0,0,0,0,0,0,0,0,0,0,0,0,0,0,0,0,0,0,0,0,0],"sum_hessian":[2.834E3,4.14E2,2.42E3,3.62E2,5.2E1,1.637E3,7.83E2,2.3E2,1.32E2,2.5E1,2.7E1,1.279E3,3.58E2,5.59E2,2.24E2,9.7E1,1.33E2,2.3E1,1.09E2,8.91E2,3.88E2,1.12E2,2.46E2,9E1,4.69E2,4.5E1,1.79E2],"tree_param":{"num_deleted":"0","num_feature":"2","num_nodes":"27","size_leaf_vector":"1"}},{"base_weights":[-4.6119154E-3,-8.8056165E-1,2.5429356E-1,-1.204787E0,-4.6451125E-1,6.757671E-1,-5.0188774E-1,-1.3174393E0,-1.0000693E-1,9.8083085E-1,-7.540571E-1,3.9463332E-1,1.4945762E0,-8.8994104E-1,4.6616438E-1,-9.771207E-2,-1.352176E-1,-2.201817E-2,2.2958525E-1,-5.612063E-2,-2.3049481E-1,2.7117392E-1,2.9279524E-2,5.706911E-2,1.9111936E-1,-1.3311444E-1,-6.353321E-2,2.5423348E-1,-6.7002303E-3],"categories":[],"categories_nodes":[],"categories_segments":[],"categories_sizes":[],"default_left":[0,0,0,0,0,0,0,0,0,0,0,0,0,0,0,0,0,0,0,0,0,0,0,0,0,0,0,0,0],"id":21,"left_children":[1,3,5,7,9,11,13,15,-1,17,19,21,23,25,27,-1,-1,-1,-1,-1,-1,-1,-1,-1,-1,-1,-1,-1,-1],"loss_changes":[6.4316846E2,8.67168E1,6.9799634E2,7.053955E0,1.20010056E2,3.2306433E2,2.9492902E2,1.4095154E0,0E0,7.631466E1,6.9890015E1,2.465022E2,1.3709064E2,6.2061493E1,2.4923296E2,0E0,0E0,0E0,0E0,0E0,0E0,0E0,0E0,0E0,0E0,0E0,0E0,0E0,0E0],"parents":[2147483647,0,0,1,1,2,2,3,3,4,4,5,5,6,6,7,7,9,9,10,10,11,11,12,12,13,13,14,14],"right_children":[2,4,6,8,10,12,14,16,-1,18,20,22,24,26,28,-1,-1,-1,-1,-1,-1,-1,-1,-1,-1,-1,-1,-1,-1],"split_conditions":[6E0,3E0,1.8E1,5E0,2E0,1.5E1,4E0,1E0,-1.0000693E-1,4E0,5E0,7E0,2E0,2E0,1.9E1,-9.771207E-2,-1.352176E-1,-2.201817E-2,2.2958525E-1,-5.612063E-2,-2.3049481E-1,2.7117392E-1,2.9279524E-2,5.706911E-2,1.9111936E-1,-1.3311444E-1,-6.353321E-2,2.5423348E-1,-6.7002303E-3],"split_indices":[1,1,1,0,0,1,0,1,0,1,1,1,0,0,1,0,0,0,0,0,0,0,0,0,0,0,0,0,0],"split_type":[0,0,0,0,0,0,0,0,0,0,0,0,0,0,0,0,0,0,0,0,0,0,0,0,0,0,0,0,0],"sum_hessian":[2.834E3,6.46E2,2.188E3,3.62E2,2.84E2,1.405E3,7.83E2,2.3E2,1.32E2,4.7E1,2.37E2,1.047E3,3.58E2,5.59E2,2.24E2,2.4E1,2.06E2,2.5E1,2.2E1,2.12E2,2.5E1,4.3E1,1.004E3,1.12E2,2.46E2,2.03E2,3.56E2,4.5E1,1.79E2],"tree_param":{"num_deleted":"0","num_feature":"2","num_nodes":"29","size_leaf_vector":"1"}},{"base_weights":[-4.084715E-3,-7.9314214E-1,2.2913787E-1,-1.0852255E0,-4.1833737E-1,6.085803E-1,-4.5163408E-1,-1.1867037E0,-9.008141E-1,8.8707197E-1,-6.7985547E-1,3.554565E-1,1.3458092E0,-8.0129814E-1,4.2064816E-1,-1.04529075E-1,-1.281269E-1,-7.134914E-2,-9.334954E-2,-1.9901013E-2,2.0762487E-1,-5.05349E-2,-2.0833185E-1,2.4467285E-1,2.6354466E-2,1.7370306E-1,5.2177E-2,-5.9646543E-2,-1.3279389E-1,2.2936273E-1,-6.0339E-3],"categories":[],"categories_nodes":[],"categories_segments":[],"categories_sizes":[],"default_left":[0,0,0,0,0,0,0,0,0,0,0,0,0,0,0,0,0,0,0,0,0,0,0,0,0,0,0,0,0,0,0],"id":22,"left_children":[1,3,5,7,9,11,13,15,17,19,21,23,25,27,29,-1,-1,-1,-1,-1,-1,-1,-1,-1,-1,-1,-1,-1,-1,-1,-1],"loss_changes":[5.218955E2,7.0375824E1,5.657237E2,5.7240906E0,9.789871E1,2.6189557E2,2.3946156E2,1.7497864E0,1.481781E-1,6.2407276E1,5.723658E1,2.0079411E2,1.14828674E2,5.9616943E1,2.0283618E2,0E0,0E0,0E0,0E0,0E0,0E0,0E0,0E0,0E0,0E0,0E0,0E0,0E0,0E0,0E0,0E0],"parents":[2147483647,0,0,1,1,2,2,3,3,4,4,5,5,6,6,7,7,8,8,9,9,10,10,11,11,12,12,13,13,14,14],"right_children":[2,4,6,8,10,12,14,16,18,20,22,24,26,28,30,-1,-1,-1,-1,-1,-1,-1,-1,-1,-1,-1,-1,-1,-1,-1,-1],"split_conditions":[6E0,3E0,1.8E1,5E0,2E0,1.5E1,4E0,2E0,1E0,4E0,5E0,7E0,1.7E1,2.2E1,1.9E1,-1.04529075E-1,-1.281269E-1,-7.134914E-2,-9.334954E-2,-1.9901013E-2,2.0762487E-1,-5.05349E-2,-2.0833185E-1,2.4467285E-1,2.6354466E-2,1.7370306E-1,5.2177E-2,-5.9646543E-2,-1.3279389E-1,2.2936273E-1,-6.0339E-3],"split_indices":[1,1,1,0,0,1,0,0,1,1,1,1,1,1,1,0,0,0,0,0,0,0,0,0,0,0,0,0,0,0,0],"split_type":[0,0,0,0,0,0,0,0,0,0,0,0,0,0,0,0,0,0,0,0,0,0,0,0,0,0,0,0,0,0,0],"sum_hessian":[2.834E3,6.46E2,2.188E3,3.62E2,2.84E2,1.405E3,7.83E2,2.3E2,1.32E2,4.7E1,2.37E2,1.047E3,3.58E2,5.59E2,2.24E2,9.7E1,1.33E2,2.3E1,1.09E2,2.5E1,2.2E1,2.12E2,2.5E1,4.3E1,1.004E3,2.42E2,1.16E2,4.04E2,1.55E2,4.5E1,1.79E2],"tree_param":{"num_deleted":"0","num_feature":"2","num_nodes":"31","size_leaf_vector":"1"}},{"base_weights":[-3.6550353E-3,-7.1455204E-1,2.0646557E-1,-9.777975E-1,-3.7675318E-1,5.480763E-1,-4.064312E-1,-1.0690404E0,-8.1197107E-1,8.022761E-1,-6.129576E-1,3.2017004E-1,1.2118579E0,-7.215119E-1,3.7957603E-1,-7.6031536E-2,-1.1011616E-1,-6.451151E-2,-8.409945E-2,-1.7987428E-2,1.8776514E-1,-4.5505133E-2,-1.8829991E-1,2.2076166E-1,2.37217E-2,3.9143164E-2,1.5822883E-1,-1.4316937E-1,-5.8247354E-2,2.0692511E-1,-5.433857E-3],"categories":[],"categories_nodes":[],"categories_segments":[],"categories_sizes":[],"default_left":[0,0,0,0,0,0,0,0,0,0,0,0,0,0,0,0,0,0,0,0,0,0,0,0,0,0,0,0,0,0,0],"id":23,"left_children":[1,3,5,7,9,11,13,15,17,19,21,23,25,27,29,-1,-1,-1,-1,-1,-1,-1,-1,-1,-1,-1,-1,-1,-1,-1,-1],"loss_changes":[4.2362308E2,5.7165466E1,4.585382E2,4.6243286E0,7.986195E1,2.1231158E2,1.9443597E2,1.4534912E0,1.0155487E-1,5.1034393E1,4.6873444E1,1.635611E2,1.0848462E2,5.4461884E1,1.6507672E2,0E0,0E0,0E0,0E0,0E0,0E0,0E0,0E0,0E0,0E0,0E0,0E0,0E0,0E0,0E0,0E0],"parents":[2147483647,0,0,1,1,2,2,3,3,4,4,5,5,6,6,7,7,8,8,9,9,10,10,11,11,12,12,13,13,14,14],"right_children":[2,4,6,8,10,12,14,16,18,20,22,24,26,28,30,-1,-1,-1,-1,-1,-1,-1,-1,-1,-1,-1,-1,-1,-1,-1,-1],"split_conditions":[6E0,3E0,1.8E1,5E0,2E0,1.5E1,4E0,1E0,1E0,4E0,5E0,7E0,2E0,1.9E1,1.9E1,-7.6031536E-2,-1.1011616E-1,-6.451151E-2,-8.409945E-2,-1.7987428E-2,1.8776514E-1,-4.5505133E-2,-1.8829991E-1,2.2076166E-1,2.37217E-2,3.9143164E-2,1.5822883E-1,-1.4316937E-1,-5.8247354E-2,2.0692511E-1,-5.433857E-3],"split_indices":[1,1,1,0,0,1,0,1,1,1,1,1,0,1,1,0,0,0,0,0,0,0,0,0,0,0,0,0,0,0,0],"split_type":[0,0,0,0,0,0,0,0,0,0,0,0,0,0,0,0,0,0,0,0,0,0,0,0,0,0,0,0,0,0,0],"sum_hessian":[2.834E3,6.46E2,2.188E3,3.62E2,2.84E2,1.405E3,7.83E2,2.3E2,1.32E2,4.7E1,2.37E2,1.047E3,3.58E2,5.59E2,2.24E2,2.4E1,2.06E2,2.3E1,1.09E2,2.5E1,2.2E1,2.12E2,2.5E1,4.3E1,1.004E3,1.12E2,2.46E2,9E1,4.69E2,4.5E1,1.79E2],"tree_param":{"num_deleted":"0","num_feature":"2","num_nodes":"31","size_leaf_vector":"1"}},{"base_weights":[-3.2741604E-3,-6.437131E-1,1.8602107E-1,-8.8093996E-1,-3.3930236E-1,3.8084462E-1,-7.3656267E-1,-9.629422E-1,-7.318915E-1,1.3402817E-2,-1.0124582E0,-3.2233775E-1,5.6756854E-1,-1.25212E-1,-5.234619E-1,-8.3283566E-2,-1.0509086E-1,-5.8329184E-2,-7.576597E-2,7.2558545E-2,-2.2913737E-2,-7.530196E-2,-1.7019413E-1,3.2190938E-2,-1.4290608E-1,7.444569E-2,-5.026989E-3,-1.569394E-3,-8.842297E-2],"categories":[],"categories_nodes":[],"categories_segments":[],"categories_sizes":[],"default_left":[0,0,0,0,0,0,0,0,0,0,0,0,0,0,0,0,0,0,0,0,0,0,0,0,0,0,0,0,0],"id":24,"left_children":[1,3,5,7,9,11,13,15,17,19,21,23,25,-1,27,-1,-1,-1,-1,-1,-1,-1,-1,-1,-1,-1,-1,-1,-1],"loss_changes":[3.438126E2,4.6423798E1,3.9373364E2,3.7319336E0,6.767984E1,2.3757507E2,4.1313248E1,1.76857E0,6.7344666E-2,3.2640045E1,1.6248505E1,2.7140118E2,1.5621051E2,0E0,4.9812805E1,0E0,0E0,0E0,0E0,0E0,0E0,0E0,0E0,0E0,0E0,0E0,0E0,0E0,0E0],"parents":[2147483647,0,0,1,1,2,2,3,3,4,4,5,5,6,6,7,7,8,8,9,9,10,10,11,11,12,12,14,14],"right_children":[2,4,6,8,10,12,14,16,18,20,22,24,26,-1,28,-1,-1,-1,-1,-1,-1,-1,-1,-1,-1,-1,-1,-1,-1],"split_conditions":[6E0,3E0,2.1E1,5E0,5E0,2E0,2E0,2E0,1E0,2E0,5E0,1.7E1,5E0,-1.25212E-1,2.2E1,-8.3283566E-2,-1.0509086E-1,-5.8329184E-2,-7.576597E-2,7.2558545E-2,-2.2913737E-2,-7.530196E-2,-1.7019413E-1,3.2190938E-2,-1.4290608E-1,7.444569E-2,-5.026989E-3,-1.569394E-3,-8.842297E-2],"split_indices":[1,1,1,0,0,0,0,0,1,0,1,1,0,0,1,0,0,0,0,0,0,0,0,0,0,0,0,0,0],"split_type":[0,0,0,0,0,0,0,0,0,0,0,0,0,0,0,0,0,0,0,0,0,0,0,0,0,0,0,0,0],"sum_hessian":[2.834E3,6.46E2,2.188E3,3.62E2,2.84E2,1.807E3,3.81E2,2.3E2,1.32E2,1.87E2,9.7E1,3.79E2,1.428E3,1.1E2,2.71E2,9.7E1,1.33E2,2.3E1,1.09E2,4.7E1,1.4E2,7.2E1,2.5E1,2.4E2,1.39E2,1.11E3,3.18E2,1.13E2,1.58E2],"tree_param":{"num_deleted":"0","num_feature":"2","num_nodes":"29","size_leaf_vector":"1"}},{"base_weights":[-3.2198972E-3,-7.645288E-1,1.2728254E-1,-8.796698E-1,-6.5120417E-1,2.752924E-1,-6.634697E-1,-5.6913298E-2,-9.6958065E-1,-6.804508E-2,-5.500738E-1,-1.02512166E-1,4.6343777E-1,-1.1280359E-1,-4.7144642E-1,-1.3657975E-1,-8.0672115E-2,-2.3234654E-2,-8.254608E-2,1.008409E-2,-7.7927105E-2,-1.9013545E-2,6.388747E-2,-1.413783E-3,-7.96363E-2],"categories":[],"categories_nodes":[],"categories_segments":[],"categories_sizes":[],"default_left":[0,0,0,0,0,0,0,0,0,0,0,0,0,0,0,0,0,0,0,0,0,0,0,0,0],"id":25,"left_children":[1,3,5,7,9,11,13,-1,15,-1,17,19,21,-1,23,-1,-1,-1,-1,-1,-1,-1,-1,-1,-1],"loss_changes":[2.8176215E2,4.842209E0,2.8353433E2,5.1160583E0,2.5569916E-1,1.4505516E2,3.354544E1,0E0,8.964508E0,0E0,4.4456005E0,9.352323E1,1.5628952E2,0E0,4.040445E1,0E0,0E0,0E0,0E0,0E0,0E0,0E0,0E0,0E0,0E0],"parents":[2147483647,0,0,1,1,2,2,3,3,4,4,5,5,6,6,8,8,10,10,11,11,12,12,14,14],"right_children":[2,4,6,8,10,12,14,-1,16,-1,18,20,22,-1,24,-1,-1,-1,-1,-1,-1,-1,-1,-1,-1],"split_conditions":[4E0,2E0,2.1E1,1E0,3E0,1E1,2E0,-5.6913298E-2,3E0,-6.804508E-2,2E0,5E0,2E0,-1.1280359E-1,2.2E1,-1.3657975E-1,-8.0672115E-2,-2.3234654E-2,-8.254608E-2,1.008409E-2,-7.7927105E-2,-1.9013545E-2,6.388747E-2,-1.413783E-3,-7.96363E-2],"split_indices":[1,1,1,1,1,1,0,0,0,0,0,0,0,0,1,0,0,0,0,0,0,0,0,0,0],"split_type":[0,0,0,0,0,0,0,0,0,0,0,0,0,0,0,0,0,0,0,0,0,0,0,0,0],"sum_hessian":[2.834E3,4.14E2,2.42E3,2.02E2,2.12E2,2.039E3,3.81E2,4.7E1,1.55E2,1.6E2,5.2E1,6.78E2,1.361E3,1.1E2,2.71E2,4.3E1,1.12E2,2.5E1,2.7E1,5.22E2,1.56E2,2.88E2,1.073E3,1.13E2,1.58E2],"tree_param":{"num_deleted":"0","num_feature":"2","num_nodes":"25","size_leaf_vector":"1"}},{"base_weights":[-3.1321612E-3,-5.258905E-1,1.5138032E-1,-6.891554E-1,-2.3283985E-1,4.2159557E-1,-3.3340797E-1,-7.930533E-1,-5.868998E-1,1.6189997E-1,-4.3359563E-1,2.1800138E-1,1.0147574E0,-5.9732103E-1,3.249241E-1,-5.1340528E-2,-8.740153E-2,-6.1282832E-2,-4.9706236E-2,-2.8731847E-2,-1.4633632E-1,1.9313508E-1,1.4277215E-2,7.933411E-2,2.0834251E-1,-1.351022E-1,-4.5012083E-2,1.7314999E-1,-3.6339262E-3],"categories":[],"categories_nodes":[],"categories_segments":[],"categories_sizes":[],"default_left":[0,0,0,0,0,0,0,0,0,0,0,0,0,0,0,0,0,0,0,0,0,0,0,0,0,0,0,0,0],"id":26,"left_children":[1,3,5,7,9,11,13,15,17,-1,19,21,23,25,27,-1,-1,-1,-1,-1,-1,-1,-1,-1,-1,-1,-1,-1,-1],"loss_changes":[2.2907018E2,3.0795181E1,2.868934E2,3.9435883E0,8.7323814E1,1.695734E2,1.3640817E2,4.1473694E0,1.9153595E-1,0E0,3.1362785E1,1.3480513E2,8.3293884E1,6.1521027E1,1.143954E2,0E0,0E0,0E0,0E0,0E0,0E0,0E0,0E0,0E0,0E0,0E0,0E0,0E0,0E0],"parents":[2147483647,0,0,1,1,2,2,3,3,4,4,5,5,6,6,7,7,8,8,10,10,11,11,12,12,13,13,14,14],"right_children":[2,4,6,8,10,12,14,16,18,-1,20,22,24,26,28,-1,-1,-1,-1,-1,-1,-1,-1,-1,-1,-1,-1,-1,-1],"split_conditions":[6E0,4E0,1.8E1,2E0,2E0,1.5E1,4E0,1E0,3E0,1.6189997E-1,5E0,7E0,4E0,1.9E1,1.9E1,-5.1340528E-2,-8.740153E-2,-6.1282832E-2,-4.9706236E-2,-2.8731847E-2,-1.4633632E-1,1.9313508E-1,1.4277215E-2,7.933411E-2,2.0834251E-1,-1.351022E-1,-4.5012083E-2,1.7314999E-1,-3.6339262E-3],"split_indices":[1,1,1,1,0,1,0,1,1,0,1,1,0,1,1,0,0,0,0,0,0,0,0,0,0,0,0,0,0],"split_type":[0,0,0,0,0,0,0,0,0,0,0,0,0,0,0,0,0,0,0,0,0,0,0,0,0,0,0,0,0],"sum_hessian":[2.834E3,6.46E2,2.188E3,4.14E2,2.32E2,1.405E3,7.83E2,2.02E2,2.12E2,2.2E1,2.1E2,1.047E3,3.58E2,5.59E2,2.24E2,4.7E1,1.55E2,1.6E2,5.2E1,1.85E2,2.5E1,4.3E1,1.004E3,2.98E2,6E1,9E1,4.69E2,4.5E1,1.79E2],"tree_param":{"num_deleted":"0","num_feature":"2","num_nodes":"29","size_leaf_vector":"1"}},{"base_weights":[-2.7404947E-3,-4.7370768E-1,1.3646394E-1,-6.208416E-1,-2.0961206E-1,3.7978864E-1,-3.000807E-1,-7.144314E-1,-5.287309E-1,1.4641392E-1,-3.9106545E-1,1.9639984E-1,9.14083E-1,-5.379105E-1,2.93185E-1,-9.1951095E-2,-6.066385E-2,-5.519262E-2,-4.4829376E-2,-2.5874078E-2,-1.322655E-1,-5.6511898E-2,3.4865316E-2,1.22417904E-1,2.6222477E-2,-1.2174051E-1,-4.0520433E-2,1.5621148E-1,-3.2725886E-3],"categories":[],"categories_nodes":[],"categories_segments":[],"categories_sizes":[],"default_left":[0,0,0,0,0,0,0,0,0,0,0,0,0,0,0,0,0,0,0,0,0,0,0,0,0,0,0,0,0],"id":27,"left_children":[1,3,5,7,9,11,13,15,17,-1,19,21,23,25,27,-1,-1,-1,-1,-1,-1,-1,-1,-1,-1,-1,-1,-1,-1],"loss_changes":[1.859293E2,2.5010605E1,2.3263411E2,3.1998138E0,7.1336494E1,1.3758546E2,1.1077719E2,3.9297256E0,1.4998245E-1,0E0,2.5668228E1,1.2170607E2,7.2246765E1,5.0003662E1,9.3101685E1,0E0,0E0,0E0,0E0,0E0,0E0,0E0,0E0,0E0,0E0,0E0,0E0,0E0,0E0],"parents":[2147483647,0,0,1,1,2,2,3,3,4,4,5,5,6,6,7,7,8,8,10,10,11,11,12,12,13,13,14,14],"right_children":[2,4,6,8,10,12,14,16,18,-1,20,22,24,26,28,-1,-1,-1,-1,-1,-1,-1,-1,-1,-1,-1,-1,-1,-1],"split_conditions":[6E0,4E0,1.8E1,2E0,2E0,1.5E1,4E0,3E0,3E0,1.4641392E-1,5E0,2E0,1.7E1,1.9E1,1.9E1,-9.1951095E-2,-6.066385E-2,-5.519262E-2,-4.4829376E-2,-2.5874078E-2,-1.322655E-1,-5.6511898E-2,3.4865316E-2,1.22417904E-1,2.6222477E-2,-1.2174051E-1,-4.0520433E-2,1.5621148E-1,-3.2725886E-3],"split_indices":[1,1,1,1,0,1,0,0,1,0,1,0,1,1,1,0,0,0,0,0,0,0,0,0,0,0,0,0,0],"split_type":[0,0,0,0,0,0,0,0,0,0,0,0,0,0,0,0,0,0,0,0,0,0,0,0,0,0,0,0,0],"sum_hessian":[2.834E3,6.46E2,2.188E3,4.14E2,2.32E2,1.405E3,7.83E2,2.02E2,2.12E2,2.2E1,2.1E2,1.047E3,3.58E2,5.59E2,2.24E2,6.7E1,1.35E2,1.6E2,5.2E1,1.85E2,2.5E1,1.74E2,8.73E2,2.42E2,1.16E2,9E1,4.69E2,4.5E1,1.79E2],"tree_param":{"num_deleted":"0","num_feature":"2","num_nodes":"29","size_leaf_vector":"1"}},{"base_weights":[-2.5177791E-3,-4.267455E-1,1.2287183E-1,-5.593662E-1,-1.8870118E-1,2.6192367E-1,-5.3558004E-1,-6.4374006E-1,-4.7632745E-1,1.3240911E-1,-3.527084E-1,-2.8640208E-1,4.075513E-1,-2.3376215E-1,-7.497293E-1,-3.8809072E-2,-7.1827486E-2,-4.9707644E-2,-4.0431023E-2,-2.3300583E-2,-1.1954764E-1,2.5597407E-2,-1.21801816E-1,5.5857338E-2,-1.1969972E-2,-8.935821E-2,4.0319418E-3,-1.0141492E-1,-4.9708214E-2],"categories":[],"categories_nodes":[],"categories_segments":[],"categories_sizes":[],"default_left":[0,0,0,0,0,0,0,0,0,0,0,0,0,0,0,0,0,0,0,0,0,0,0,0,0,0,0,0,0],"id":28,"left_children":[1,3,5,7,9,11,13,15,17,-1,19,21,23,25,27,-1,-1,-1,-1,-1,-1,-1,-1,-1,-1,-1,-1,-1,-1],"loss_changes":[1.508567E2,2.0319984E1,2.0056282E2,2.6009827E0,5.827638E1,1.44488E2,2.4514961E1,3.589363E0,1.17313385E-1,0E0,2.1007446E1,1.9232057E2,1.13853195E2,2.8971148E1,1.4393379E1,0E0,0E0,0E0,0E0,0E0,0E0,0E0,0E0,0E0,0E0,0E0,0E0,0E0,0E0],"parents":[2147483647,0,0,1,1,2,2,3,3,4,4,5,5,6,6,7,7,8,8,10,10,11,11,12,12,13,13,14,14],"right_children":[2,4,6,8,10,12,14,16,18,-1,20,22,24,26,28,-1,-1,-1,-1,-1,-1,-1,-1,-1,-1,-1,-1,-1,-1],"split_conditions":[6E0,4E0,2.1E1,2E0,2E0,2E0,2.2E1,1E0,3E0,1.3240911E-1,5E0,1.7E1,5E0,2E0,3E0,-3.8809072E-2,-7.1827486E-2,-4.9707644E-2,-4.0431023E-2,-2.3300583E-2,-1.1954764E-1,2.5597407E-2,-1.21801816E-1,5.5857338E-2,-1.1969972E-2,-8.935821E-2,4.0319418E-3,-1.0141492E-1,-4.9708214E-2],"split_indices":[1,1,1,1,0,0,1,1,1,0,1,1,0,0,0,0,0,0,0,0,0,0,0,0,0,0,0,0,0],"split_type":[0,0,0,0,0,0,0,0,0,0,0,0,0,0,0,0,0,0,0,0,0,0,0,0,0,0,0,0,0],"sum_hessian":[2.834E3,6.46E2,2.188E3,4.14E2,2.32E2,1.807E3,3.81E2,2.02E2,2.12E2,2.2E1,2.1E2,3.79E2,1.428E3,1.59E2,2.22E2,4.7E1,1.55E2,1.6E2,5.2E1,1.85E2,2.5E1,2.4E2,1.39E2,1.11E3,3.18E2,4.6E1,1.13E2,1.07E2,1.15E2],"tree_param":{"num_deleted":"0","num_feature":"2","num_nodes":"29","size_leaf_vector":"1"}},{"base_weights":[-2.4421152E-3,-2.6970214E-1,1.6515264E-1,-5.039134E-1,-1.2615666E-1,5.055384E-1,-2.518569E-1,-5.7991105E-1,-4.2911798E-1,2.7276909E-2,-6.364725E-1,-1.2395343E-2,6.375769E-1,-4.5343497E-1,2.5096795E-1,-7.697944E-2,-4.8070535E-2,-3.86946E-2,-4.616911E-2,2.9477915E-2,-4.7554202E-2,-1.2912686E-1,1.0219369E-1,7.630977E-2,-2.4871095E-1,4.913968E-2,2.0595148E-1,-1.10734284E-1,-3.2586254E-2,1.3546565E-1,-3.2480042E-3],"categories":[],"categories_nodes":[],"categories_segments":[],"categories_sizes":[],"default_left":[0,0,0,0,0,0,0,0,0,0,0,0,0,0,0,0,0,0,0,0,0,0,0,0,0,0,0,0,0,0,0],"id":29,"left_children":[1,3,5,7,9,11,13,15,17,19,21,23,25,27,29,-1,-1,-1,-1,-1,-1,-1,-1,-1,-1,-1,-1,-1,-1,-1,-1],"loss_changes":[1.2702811E2,3.668306E1,2.4753586E2,2.1101227E0,5.3182774E1,6.565964E1,7.957883E1,3.4539642E0,1.1394501E-1,7.048639E1,1.7180902E2,3.7804608E2,1.5800009E2,4.635472E1,7.043261E1,0E0,0E0,0E0,0E0,0E0,0E0,0E0,0E0,0E0,0E0,0E0,0E0,0E0,0E0,0E0,0E0],"parents":[2147483647,0,0,1,1,2,2,3,3,4,4,5,5,6,6,7,7,8,8,9,9,10,10,11,11,12,12,13,13,14,14],"right_children":[2,4,6,8,10,12,14,16,18,20,22,24,26,28,30,-1,-1,-1,-1,-1,-1,-1,-1,-1,-1,-1,-1,-1,-1,-1,-1],"split_conditions":[1E1,4E0,1.8E1,2E0,5E0,2E0,4E0,3E0,2E0,9E0,9E0,1.7E1,1.7E1,1.9E1,1.9E1,-7.697944E-2,-4.8070535E-2,-3.86946E-2,-4.616911E-2,2.9477915E-2,-4.7554202E-2,-1.2912686E-1,1.0219369E-1,7.630977E-2,-2.4871095E-1,4.913968E-2,2.0595148E-1,-1.10734284E-1,-3.2586254E-2,1.3546565E-1,-3.2480042E-3],"split_indices":[1,1,1,1,0,0,0,0,0,1,1,1,1,1,1,0,0,0,0,0,0,0,0,0,0,0,0,0,0,0,0],"split_type":[0,0,0,0,0,0,0,0,0,0,0,0,0,0,0,0,0,0,0,0,0,0,0,0,0,0,0,0,0,0,0],"sum_hessian":[2.834E3,1.092E3,1.742E3,4.14E2,6.78E2,9.59E2,7.83E2,2.02E2,2.12E2,5.22E2,1.56E2,1.95E2,7.64E2,5.59E2,2.24E2,6.7E1,1.35E2,9.8E1,1.14E2,3.41E2,1.81E2,1.12E2,4.4E1,1.49E2,4.6E1,6.94E2,7E1,9E1,4.69E2,4.5E1,1.79E2],"tree_param":{"num_deleted":"0","num_feature":"2","num_nodes":"31","size_leaf_vector":"1"}},{"base_weights":[-2.2624119E-3,-2.4296522E-1,1.4867873E-1,-4.5402792E-1,-1.1360736E-1,4.550712E-1,-2.2668535E-1,-5.2253604E-1,-3.8660452E-1,2.451455E-2,-5.7299685E-1,5.909849E-1,2.8460786E-2,-4.0834743E-1,2.2645886E-1,-2.885666E-2,-5.9117712E-2,-4.051843E-2,-3.228698E-2,2.6538735E-2,-4.2824928E-2,-1.1632844E-1,9.2201404E-2,-1.2035049E-3,8.116245E-2,1.0493517E-1,-5.6495197E-2,-9.9782504E-2,-2.933457E-2,1.2221358E-1,-2.9250002E-3],"categories":[],"categories_nodes":[],"categories_segments":[],"categories_sizes":[],"default_left":[0,0,0,0,0,0,0,0,0,0,0,0,0,0,0,0,0,0,0,0,0,0,0,0,0,0,0,0,0,0,0],"id":30,"left_children":[1,3,5,7,9,11,13,15,17,19,21,23,25,27,29,-1,-1,-1,-1,-1,-1,-1,-1,-1,-1,-1,-1,-1,-1,-1,-1],"loss_changes":[1.0303723E2,2.9790176E1,2.0056337E2,1.7148972E0,4.3097794E1,5.5646088E1,6.463066E1,3.089573E0,1.21406555E-1,5.715124E1,1.3962292E2,9.6870224E1,1.4174649E2,3.767021E1,5.7321507E1,0E0,0E0,0E0,0E0,0E0,0E0,0E0,0E0,0E0,0E0,0E0,0E0,0E0,0E0,0E0,0E0],"parents":[2147483647,0,0,1,1,2,2,3,3,4,4,5,5,6,6,7,7,8,8,9,9,10,10,11,11,12,12,13,13,14,14],"right_children":[2,4,6,8,10,12,14,16,18,20,22,24,26,28,30,-1,-1,-1,-1,-1,-1,-1,-1,-1,-1,-1,-1,-1,-1,-1,-1],"split_conditions":[1E1,4E0,1.8E1,2E0,5E0,5E0,4E0,1E0,3E0,9E0,9E0,2E0,1.2E1,1.9E1,1.9E1,-2.885666E-2,-5.9117712E-2,-4.051843E-2,-3.228698E-2,2.6538735E-2,-4.2824928E-2,-1.1632844E-1,9.2201404E-2,-1.2035049E-3,8.116245E-2,1.0493517E-1,-5.6495197E-2,-9.9782504E-2,-2.933457E-2,1.2221358E-1,-2.9250002E-3],"split_indices":[1,1,1,1,0,0,0,1,1,1,1,0,1,1,1,0,0,0,0,0,0,0,0,0,0,0,0,0,0,0,0],"split_type":[0,0,0,0,0,0,0,0,0,0,0,0,0,0,0,0,0,0,0,0,0,0,0,0,0,0,0,0,0,0,0],"sum_hessian":[2.834E3,1.092E3,1.742E3,4.14E2,6.78E2,9.59E2,7.83E2,2.02E2,2.12E2,5.22E2,1.56E2,7.27E2,2.32E2,5.59E2,2.24E2,4.7E1,1.55E2,1.6E2,5.2E1,3.41E2,1.81E2,1.12E2,4.4E1,1.95E2,5.32E2,8.5E1,1.47E2,9E1,4.69E2,4.5E1,1.79E2],"tree_param":{"num_deleted":"0","num_feature":"2","num_nodes":"31","size_leaf_vector":"1"}},{"base_weights":[-2.0651266E-3,5.1571306E-2,-6.3054013E-1,-2.1885268E-1,2.4586575E-1,-8.523258E-2,-4.186144E-1,-4.0901256E-1,-1.02306016E-1,-1.9309059E-1,3.695427E-1,-2.607E-1,-1.1205747E-1,-3.1217093E-2,-4.4827025E-2,2.2032154E-3,-5.1585097E-2,6.884927E-2,-9.030067E-2,5.169077E-2,1.0215785E-2,-3.8524147E-2,-1.28132645E-2],"categories":[],"categories_nodes":[],"categories_segments":[],"categories_sizes":[],"default_left":[0,0,0,0,0,0,0,0,0,0,0,0,0,0,0,0,0,0,0,0,0,0,0],"id":31,"left_children":[1,3,5,7,9,-1,11,13,15,17,19,21,-1,-1,-1,-1,-1,-1,-1,-1,-1,-1,-1],"loss_changes":[9.5597984E1,1.3734575E2,1.0124664E1,2.4181763E1,8.264457E1,0E0,1.2566423E1,1.4377975E0,3.492515E1,2.1028154E2,4.6718765E1,1.5356107E0,0E0,0E0,0E0,0E0,0E0,0E0,0E0,0E0,0E0,0E0,0E0],"parents":[2147483647,0,0,1,1,2,2,3,3,4,4,6,6,7,7,8,8,9,9,10,10,11,11],"right_children":[2,4,6,8,10,-1,12,14,16,18,20,22,-1,-1,-1,-1,-1,-1,-1,-1,-1,-1,-1],"split_conditions":[2.2E1,1E1,3E0,4E0,2E0,-8.523258E-2,2.3E1,2E0,5E0,1.7E1,1.8E1,4E0,-1.1205747E-1,-3.1217093E-2,-4.4827025E-2,2.2032154E-3,-5.1585097E-2,6.884927E-2,-9.030067E-2,5.169077E-2,1.0215785E-2,-3.8524147E-2,-1.28132645E-2],"split_indices":[1,1,0,1,0,0,1,0,0,1,1,0,0,0,0,0,0,0,0,0,0,0,0],"split_type":[0,0,0,0,0,0,0,0,0,0,0,0,0,0,0,0,0,0,0,0,0,0,0],"sum_hessian":[2.834E3,2.612E3,2.22E2,1.092E3,1.52E3,1.07E2,1.15E2,4.14E2,6.78E2,3.34E2,1.186E3,9.5E1,2E1,1.22E2,2.92E2,5.22E2,1.56E2,1.49E2,1.85E2,7.64E2,4.22E2,4.8E1,4.7E1],"tree_param":{"num_deleted":"0","num_feature":"2","num_nodes":"23","size_leaf_vector":"1"}},{"base_weights":[-1.976346E-3,4.6381585E-2,-5.68601E-1,-1.9708215E-1,2.2130562E-1,-7.6788247E-1,-3.7816134E-1,-3.6829457E-1,-9.214806E-2,-1.738456E-1,3.3264038E-1,-6.998197E-1,-8.509779E-2,-2.3516457E-1,-1.0138532E-1,-4.2771865E-2,-3.0993132E-2,1.6249247E-2,-2.6588231E-2,6.2010217E-2,-8.1319146E-2,4.1933388E-2,-4.819778E-3,-6.1174344E-2,-8.674042E-2,-3.4750346E-2,-1.1558603E-2],"categories":[],"categories_nodes":[],"categories_segments":[],"categories_sizes":[],"default_left":[0,0,0,0,0,0,0,0,0,0,0,0,0,0,0,0,0,0,0,0,0,0,0,0,0,0,0],"id":32,"left_children":[1,3,5,7,9,11,13,15,17,19,21,23,-1,25,-1,-1,-1,-1,-1,-1,-1,-1,-1,-1,-1,-1,-1],"loss_changes":[7.7707634E1,1.1132517E2,8.172714E0,1.9602924E1,6.69728E1,1.5285492E-2,1.0306194E1,1.3067284E0,3.0082016E1,1.7055267E2,3.921042E1,4.2878532E-1,0E0,1.2494321E0,0E0,0E0,0E0,0E0,0E0,0E0,0E0,0E0,0E0,0E0,0E0,0E0,0E0],"parents":[2147483647,0,0,1,1,2,2,3,3,4,4,5,5,6,6,7,7,8,8,9,9,10,10,11,11,13,13],"right_children":[2,4,6,8,10,12,14,16,18,20,22,24,-1,26,-1,-1,-1,-1,-1,-1,-1,-1,-1,-1,-1,-1,-1],"split_conditions":[2.2E1,1E1,3E0,4E0,2E0,2E0,2.3E1,2E0,7E0,1.7E1,2E1,2.3E1,-8.509779E-2,4E0,-1.0138532E-1,-4.2771865E-2,-3.0993132E-2,1.6249247E-2,-2.6588231E-2,6.2010217E-2,-8.1319146E-2,4.1933388E-2,-4.819778E-3,-6.1174344E-2,-8.674042E-2,-3.4750346E-2,-1.1558603E-2],"split_indices":[1,1,0,1,0,0,1,1,1,1,1,1,0,0,0,0,0,0,0,0,0,0,0,0,0,0,0],"split_type":[0,0,0,0,0,0,0,0,0,0,0,0,0,0,0,0,0,0,0,0,0,0,0,0,0,0,0],"sum_hessian":[2.834E3,2.612E3,2.22E2,1.092E3,1.52E3,1.07E2,1.15E2,4.14E2,6.78E2,3.34E2,1.186E3,6.4E1,4.3E1,9.5E1,2E1,2.02E2,2.12E2,2.75E2,4.03E2,1.49E2,1.85E2,9.66E2,2.2E2,4.5E1,1.9E1,4.8E1,4.7E1],"tree_param":{"num_deleted":"0","num_feature":"2","num_nodes":"27","size_leaf_vector":"1"}},{"base_weights":[-1.9362187E-3,4.1718237E-2,-5.134481E-1,-1.774508E-1,1.9918704E-1,-6.932517E-1,-3.4161848E-1,-9.68136E-2,-3.754201E-1,-1.5651847E-1,2.994079E-1,-6.321133E-1,-7.6781414E-2,-2.121305E-1,-9.1729596E-2,-3.9842006E-2,3.0500095E-3,-5.864196E-2,9.082972E-2,5.5850577E-2,-7.3230945E-2,3.8858764E-2,-6.739922E-3,-5.518989E-2,-7.850007E-2,-3.1346224E-2,-1.042683E-2],"categories":[],"categories_nodes":[],"categories_segments":[],"categories_sizes":[],"default_left":[0,0,0,0,0,0,0,0,0,0,0,0,0,0,0,0,0,0,0,0,0,0,0,0,0,0,0],"id":33,"left_children":[1,3,5,7,9,11,13,15,17,19,21,23,-1,25,-1,-1,-1,-1,-1,-1,-1,-1,-1,-1,-1,-1,-1],"loss_changes":[6.332633E1,9.021595E1,6.652893E0,1.7411964E1,5.426917E1,6.9847107E-3,8.4524355E0,2.9886288E1,8.612557E1,1.3832999E2,3.8855057E1,3.6390495E-1,0E0,1.016583E0,0E0,0E0,0E0,0E0,0E0,0E0,0E0,0E0,0E0,0E0,0E0,0E0,0E0],"parents":[2147483647,0,0,1,1,2,2,3,3,4,4,5,5,6,6,7,7,8,8,9,9,10,10,11,11,13,13],"right_children":[2,4,6,8,10,12,14,16,18,20,22,24,-1,26,-1,-1,-1,-1,-1,-1,-1,-1,-1,-1,-1,-1,-1],"split_conditions":[2.2E1,1E1,3E0,5E0,2E0,2E0,2.3E1,3E0,9E0,1.7E1,5E0,2.3E1,-7.6781414E-2,4E0,-9.1729596E-2,-3.9842006E-2,3.0500095E-3,-5.864196E-2,9.082972E-2,5.5850577E-2,-7.3230945E-2,3.8858764E-2,-6.739922E-3,-5.518989E-2,-7.850007E-2,-3.1346224E-2,-1.042683E-2],"split_indices":[1,1,0,0,0,0,1,1,1,1,0,1,0,0,0,0,0,0,0,0,0,0,0,0,0,0,0],"split_type":[0,0,0,0,0,0,0,0,0,0,0,0,0,0,0,0,0,0,0,0,0,0,0,0,0,0,0],"sum_hessian":[2.834E3,2.612E3,2.22E2,1.092E3,1.52E3,1.07E2,1.15E2,7.77E2,3.15E2,3.34E2,1.186E3,6.4E1,4.3E1,9.5E1,2E1,2.3E2,5.47E2,2.71E2,4.4E1,1.49E2,1.85E2,9.54E2,2.32E2,4.5E1,1.9E1,4.8E1,4.7E1],"tree_param":{"num_deleted":"0","num_feature":"2","num_nodes":"27","size_leaf_vector":"1"}},{"base_weights":[-1.8601904E-3,3.755047E-2,-4.6364585E-1,-1.5970987E-1,1.7927828E-1,-6.2587535E-1,-3.0860764E-1,-8.717943E-2,-3.377762E-1,-1.409188E-1,2.694946E-1,-5.709588E-1,-6.927777E-2,-1.9135267E-1,-8.299348E-2,-3.587506E-2,2.745581E-3,-5.279932E-2,8.194858E-2,5.030271E-2,-6.594724E-2,3.9842706E-2,3.5681722E-3,-4.9790885E-2,-7.104257E-2,-2.8275564E-2,-9.405895E-3],"categories":[],"categories_nodes":[],"categories_segments":[],"categories_sizes":[],"default_left":[0,0,0,0,0,0,0,0,0,0,0,0,0,0,0,0,0,0,0,0,0,0,0,0,0,0,0],"id":34,"left_children":[1,3,5,7,9,11,13,15,17,19,21,23,-1,25,-1,-1,-1,-1,-1,-1,-1,-1,-1,-1,-1,-1,-1],"loss_changes":[5.1612362E1,7.308099E1,5.415699E0,1.4086899E1,4.3975098E1,1.2512207E-3,6.932061E0,2.4230253E1,6.999405E1,1.1219508E2,3.5769173E1,3.0849457E-1,0E0,8.271258E-1,0E0,0E0,0E0,0E0,0E0,0E0,0E0,0E0,0E0,0E0,0E0,0E0,0E0],"parents":[2147483647,0,0,1,1,2,2,3,3,4,4,5,5,6,6,7,7,8,8,9,9,10,10,11,11,13,13],"right_children":[2,4,6,8,10,12,14,16,18,20,22,24,-1,26,-1,-1,-1,-1,-1,-1,-1,-1,-1,-1,-1,-1,-1],"split_conditions":[2.2E1,1E1,3E0,5E0,2E0,2E0,2.3E1,3E0,9E0,1.7E1,1.8E1,2.3E1,-6.927777E-2,4E0,-8.299348E-2,-3.587506E-2,2.745581E-3,-5.279932E-2,8.194858E-2,5.030271E-2,-6.594724E-2,3.9842706E-2,3.5681722E-3,-4.9790885E-2,-7.104257E-2,-2.8275564E-2,-9.405895E-3],"split_indices":[1,1,0,0,0,0,1,1,1,1,1,1,0,0,0,0,0,0,0,0,0,0,0,0,0,0,0],"split_type":[0,0,0,0,0,0,0,0,0,0,0,0,0,0,0,0,0,0,0,0,0,0,0,0,0,0,0],"sum_hessian":[2.834E3,2.612E3,2.22E2,1.092E3,1.52E3,1.07E2,1.15E2,7.77E2,3.15E2,3.34E2,1.186E3,6.4E1,4.3E1,9.5E1,2E1,2.3E2,5.47E2,2.71E2,4.4E1,1.49E2,1.85E2,7.64E2,4.22E2,4.5E1,1.9E1,4.8E1,4.7E1],"tree_param":{"num_deleted":"0","num_feature":"2","num_nodes":"27","size_leaf_vector":"1"}},{"base_weights":[-1.7752389E-3,3.3804707E-2,-4.1867492E-1,-1.4374226E-1,1.6136883E-1,-5.6504816E-2,-2.7878714E-1,-7.8503646E-2,-3.0390653E-1,1.09906904E-1,1.346494E-1,-1.7260988E-1,-7.5089335E-2,9.6300215E-4,-3.671701E-2,-4.753881E-2,7.393577E-2,2.0855367E-2,-3.622114E-2,-2.550572E-2,-8.484886E-3],"categories":[],"categories_nodes":[],"categories_segments":[],"categories_sizes":[],"default_left":[0,0,0,0,0,0,0,0,0,0,0,0,0,0,0,0,0,0,0,0,0],"id":35,"left_children":[1,3,5,7,9,-1,11,13,15,-1,17,19,-1,-1,-1,-1,-1,-1,-1,-1,-1],"loss_changes":[4.206647E1,5.9204052E1,4.408581E0,1.1396788E1,3.7960403E1,0E0,5.685113E0,1.9796816E1,5.6884064E1,0E0,5.442134E1,6.72982E-1,0E0,0E0,0E0,0E0,0E0,0E0,0E0,0E0,0E0],"parents":[2147483647,0,0,1,1,2,2,3,3,4,4,6,6,7,7,8,8,10,10,11,11],"right_children":[2,4,6,8,10,-1,12,14,16,-1,18,20,-1,-1,-1,-1,-1,-1,-1,-1,-1],"split_conditions":[2.2E1,1E1,3E0,5E0,1.1E1,-5.6504816E-2,2.3E1,9E0,9E0,1.09906904E-1,5E0,4E0,-7.5089335E-2,9.6300215E-4,-3.671701E-2,-4.753881E-2,7.393577E-2,2.0855367E-2,-3.622114E-2,-2.550572E-2,-8.484886E-3],"split_indices":[1,1,0,0,1,0,1,1,1,0,0,0,0,0,0,0,0,0,0,0,0],"split_type":[0,0,0,0,0,0,0,0,0,0,0,0,0,0,0,0,0,0,0,0,0],"sum_hessian":[2.834E3,2.612E3,2.22E2,1.092E3,1.52E3,1.07E2,1.15E2,7.77E2,3.15E2,4.1E1,1.479E3,9.5E1,2E1,5.96E2,1.81E2,2.71E2,4.4E1,1.288E3,1.91E2,4.8E1,4.7E1],"tree_param":{"num_deleted":"0","num_feature":"2","num_nodes":"21","size_leaf_vector":"1"}},{"base_weights":[-1.6260067E-3,-2.0789817E-1,5.7764627E-2,3.225457E-2,-5.769018E-1,-1.9455831E-1,1.7038566E-1,-3.5946298E-1,1.8968164E0,-1.9587378E-1,-2.5570965E-1,-3.8819313E-2,-4.2802408E-1,2.945839E-1,-2.0528023E-1,1.1138748E-2,-1.0360376E-1,1.6572206E-1,2.3770057E-1,-5.925189E-4,-4.6493515E-2,-2.9672062E-2,4.810614E-2,-1.6650315E-2,-1.8169032E-1,3.7773583E-2,3.265752E-3,-1.0639443E-2,-3.4143418E-2],"categories":[],"categories_nodes":[],"categories_segments":[],"categories_sizes":[],"default_left":[0,0,0,0,0,0,0,0,0,0,0,0,0,0,0,0,0,0,0,0,0,0,0,0,0,0,0,0,0],"id":36,"left_children":[1,3,5,7,9,11,13,15,17,-1,19,21,23,25,27,-1,-1,-1,-1,-1,-1,-1,-1,-1,-1,-1,-1,-1,-1],"loss_changes":[3.4742558E1,5.620192E1,6.26071E1,2.8187875E2,1.1045785E2,2.4707998E1,7.111914E1,1.0173779E2,3.769226E0,0E0,1.0658545E1,5.498061E1,9.849358E1,2.49254E1,5.066412E0,0E0,0E0,0E0,0E0,0E0,0E0,0E0,0E0,0E0,0E0,0E0,0E0,0E0,0E0],"parents":[2147483647,0,0,1,1,2,2,3,3,4,4,5,5,6,6,7,7,8,8,10,10,11,11,12,12,13,13,14,14],"right_children":[2,4,6,8,10,12,14,16,18,-1,20,22,24,26,28,-1,-1,-1,-1,-1,-1,-1,-1,-1,-1,-1,-1,-1,-1],"split_conditions":[2E0,1.7E1,9E0,1.4E1,1.8E1,5E0,2E1,9E0,1.6E1,-1.9587378E-1,2.1E1,5E0,6E0,5E0,2.2E1,1.1138748E-2,-1.0360376E-1,1.6572206E-1,2.3770057E-1,-5.925189E-4,-4.6493515E-2,-2.9672062E-2,4.810614E-2,-1.6650315E-2,-1.8169032E-1,3.7773583E-2,3.265752E-3,-1.0639443E-2,-3.4143418E-2],"split_indices":[0,1,1,1,1,0,1,1,1,0,1,1,1,0,1,0,0,0,0,0,0,0,0,0,0,0,0,0,0],"split_type":[0,0,0,0,0,0,0,0,0,0,0,0,0,0,0,0,0,0,0,0,0,0,0,0,0,0,0,0,0],"sum_hessian":[2.834E3,6.33E2,2.201E3,3.84E2,2.49E2,6.79E2,1.522E3,3.18E2,6.6E1,4.6E1,2.03E2,4.08E2,2.71E2,1.144E3,3.78E2,1.88E2,1.3E2,4.7E1,1.9E1,9.3E1,1.1E2,2.73E2,1.35E2,2.29E2,4.2E1,8.68E2,2.76E2,2.2E2,1.58E2],"tree_param":{"num_deleted":"0","num_feature":"2","num_nodes":"29","size_leaf_vector":"1"}},{"base_weights":[-1.5040839E-3,-1.8700129E-1,5.1904965E-2,2.983661E-2,-5.201836E-1,-1.7536704E-1,1.5334493E-1,-3.2380673E-1,1.7131559E0,-1.767032E-1,-2.3036961E-1,-3.48922E-2,-3.85951E-1,2.6516178E-1,-1.848705E-1,1.0030761E-2,-9.332251E-2,1.4949512E-1,2.1511893E-1,-8.360144E-2,-1.4879036E-2,-2.6715714E-2,4.333099E-2,-1.4992537E-2,-1.6394381E-1,3.4000617E-2,2.9403928E-3,-1.5733097E-2,-6.46862E-2],"categories":[],"categories_nodes":[],"categories_segments":[],"categories_sizes":[],"default_left":[0,0,0,0,0,0,0,0,0,0,0,0,0,0,0,0,0,0,0,0,0,0,0,0,0,0,0,0,0],"id":37,"left_children":[1,3,5,7,9,11,13,15,17,-1,19,21,23,25,27,-1,-1,-1,-1,-1,-1,-1,-1,-1,-1,-1,-1,-1,-1],"loss_changes":[2.80967E1,4.5819836E1,5.0792816E1,2.2974316E2,8.993147E1,2.0102125E1,5.764612E1,8.2543335E1,3.1880035E0,0E0,9.954849E0,4.4593254E1,8.022679E1,2.0193695E1,4.720257E0,0E0,0E0,0E0,0E0,0E0,0E0,0E0,0E0,0E0,0E0,0E0,0E0,0E0,0E0],"parents":[2147483647,0,0,1,1,2,2,3,3,4,4,5,5,6,6,7,7,8,8,10,10,11,11,12,12,13,13,14,14],"right_children":[2,4,6,8,10,12,14,16,18,-1,20,22,24,26,28,-1,-1,-1,-1,-1,-1,-1,-1,-1,-1,-1,-1,-1,-1],"split_conditions":[2E0,1.7E1,9E0,1.4E1,1.8E1,5E0,2E1,9E0,1.6E1,-1.767032E-1,1.9E1,5E0,6E0,5E0,2.3E1,1.0030761E-2,-9.332251E-2,1.4949512E-1,2.1511893E-1,-8.360144E-2,-1.4879036E-2,-2.6715714E-2,4.333099E-2,-1.4992537E-2,-1.6394381E-1,3.4000617E-2,2.9403928E-3,-1.5733097E-2,-6.46862E-2],"split_indices":[0,1,1,1,1,0,1,1,1,0,1,1,1,0,1,0,0,0,0,0,0,0,0,0,0,0,0,0,0],"split_type":[0,0,0,0,0,0,0,0,0,0,0,0,0,0,0,0,0,0,0,0,0,0,0,0,0,0,0,0,0],"sum_hessian":[2.834E3,6.33E2,2.201E3,3.84E2,2.49E2,6.79E2,1.522E3,3.18E2,6.6E1,4.6E1,2.03E2,4.08E2,2.71E2,1.144E3,3.78E2,1.88E2,1.3E2,4.7E1,1.9E1,2.3E1,1.8E2,2.73E2,1.35E2,2.29E2,4.2E1,8.68E2,2.76E2,3.58E2,2E1],"tree_param":{"num_deleted":"0","num_feature":"2","num_nodes":"29","size_leaf_vector":"1"}},{"base_weights":[-1.4241574E-3,2.5782162E-2,-3.2020754E-1,-1.1089773E-1,1.23984225E-1,-4.5283943E-1,-1.9396222E-1,-4.0479865E-2,-2.3089136E-1,9.857199E-2,9.944579E-2,-3.996581E-1,-5.2111097E-2,-1.0634616E-1,-5.8525648E-2,-1.5099545E-2,1.5855215E-1,-8.080852E-2,4.9037123E-3,1.6368633E-2,-3.3235367E-2,-3.3388566E-2,-5.3095188E-2,-1.8121338E-2,-2.7703664E-3],"categories":[],"categories_nodes":[],"categories_segments":[],"categories_sizes":[],"default_left":[0,0,0,0,0,0,0,0,0,0,0,0,0,0,0,0,0,0,0,0,0,0,0,0,0],"id":38,"left_children":[1,3,5,7,9,11,13,15,17,-1,19,21,-1,23,-1,-1,-1,-1,-1,-1,-1,-1,-1,-1,-1],"loss_changes":[2.459599E1,3.5086086E1,3.6461143E0,9.22617E0,3.20645E1,1.8385887E-1,3.9146652E0,1.2423138E2,6.531511E1,0E0,4.1108166E1,3.8403034E-1,0E0,5.602033E-1,0E0,0E0,0E0,0E0,0E0,0E0,0E0,0E0,0E0,0E0,0E0],"parents":[2147483647,0,0,1,1,2,2,3,3,4,4,5,5,6,6,7,7,8,8,10,10,11,11,13,13],"right_children":[2,4,6,8,10,12,14,16,18,-1,20,22,-1,24,-1,-1,-1,-1,-1,-1,-1,-1,-1,-1,-1],"split_conditions":[2.2E1,1E1,3E0,7E0,1.1E1,2E0,2.3E1,6E0,3E0,9.857199E-2,5E0,2.3E1,-5.2111097E-2,4E0,-5.8525648E-2,-1.5099545E-2,1.5855215E-1,-8.080852E-2,4.9037123E-3,1.6368633E-2,-3.3235367E-2,-3.3388566E-2,-5.3095188E-2,-1.8121338E-2,-2.7703664E-3],"split_indices":[1,1,0,1,1,0,1,1,0,0,0,1,0,0,0,0,0,0,0,0,0,0,0,0,0],"split_type":[0,0,0,0,0,0,0,0,0,0,0,0,0,0,0,0,0,0,0,0,0,0,0,0,0],"sum_hessian":[2.834E3,2.612E3,2.22E2,1.092E3,1.52E3,1.07E2,1.15E2,6.89E2,4.03E2,4.1E1,1.479E3,6.4E1,4.3E1,9.5E1,2E1,6.46E2,4.3E1,1.31E2,2.72E2,1.288E3,1.91E2,4.5E1,1.9E1,4.8E1,4.7E1],"tree_param":{"num_deleted":"0","num_feature":"2","num_nodes":"25","size_leaf_vector":"1"}},{"base_weights":[-1.3060807E-3,-1.6660897E-1,4.628853E-2,3.1697106E-2,-4.713339E-1,-1.5007056E-1,1.3392997E-1,-2.8333586E-1,1.5311571E0,-1.6101098E-1,-2.066584E-1,-2.6014982E-2,-3.360583E-1,2.7127218E-1,-8.921575E-2,9.151851E-3,-8.219935E-2,1.3325419E-1,1.9312762E-1,-7.715836E-2,-1.3060942E-2,-2.254947E-2,3.760693E-2,-1.1996396E-2,-1.4840965E-1,1.7110495E-2,1.4990853E-1,-2.6028538E-2,1.8261123E-2],"categories":[],"categories_nodes":[],"categories_segments":[],"categories_sizes":[],"default_left":[0,0,0,0,0,0,0,0,0,0,0,0,0,0,0,0,0,0,0,0,0,0,0,0,0,0,0,0,0],"id":39,"left_children":[1,3,5,7,9,11,13,15,17,-1,19,21,23,25,27,-1,-1,-1,-1,-1,-1,-1,-1,-1,-1,-1,-1,-1,-1],"loss_changes":[2.2312151E1,3.83268E1,3.791474E1,1.822999E2,7.501878E1,1.5680772E1,4.6700092E1,6.4487114E1,2.7509613E0,0E0,8.663468E0,3.2889732E1,6.730096E1,1.1571991E2,2.7064808E1,0E0,0E0,0E0,0E0,0E0,0E0,0E0,0E0,0E0,0E0,0E0,0E0,0E0,0E0],"parents":[2147483647,0,0,1,1,2,2,3,3,4,4,5,5,6,6,7,7,8,8,10,10,11,11,12,12,13,13,14,14],"right_children":[2,4,6,8,10,12,14,16,18,-1,20,22,24,26,28,-1,-1,-1,-1,-1,-1,-1,-1,-1,-1,-1,-1,-1,-1],"split_conditions":[2E0,1.7E1,9E0,1.4E1,1.8E1,5E0,1.8E1,9E0,1.6E1,-1.6101098E-1,1.9E1,5E0,6E0,1.7E1,4E0,9.151851E-3,-8.219935E-2,1.3325419E-1,1.9312762E-1,-7.715836E-2,-1.3060942E-2,-2.254947E-2,3.760693E-2,-1.1996396E-2,-1.4840965E-1,1.7110495E-2,1.4990853E-1,-2.6028538E-2,1.8261123E-2],"split_indices":[0,1,1,1,1,0,1,1,1,0,1,1,1,1,0,0,0,0,0,0,0,0,0,0,0,0,0,0,0],"split_type":[0,0,0,0,0,0,0,0,0,0,0,0,0,0,0,0,0,0,0,0,0,0,0,0,0,0,0,0,0],"sum_hessian":[2.834E3,6.33E2,2.201E3,3.84E2,2.49E2,6.79E2,1.522E3,3.18E2,6.6E1,4.6E1,2.03E2,4.08E2,2.71E2,9.42E2,5.8E2,1.88E2,1.3E2,4.7E1,1.9E1,2.3E1,1.8E2,2.73E2,1.35E2,2.29E2,4.2E1,8.72E2,7E1,3.56E2,2.24E2],"tree_param":{"num_deleted":"0","num_feature":"2","num_nodes":"29","size_leaf_vector":"1"}},{"base_weights":[-1.169938E-3,2.2650536E-2,-2.8028083E-1,-9.13687E-2,1.0457057E-1,-2.2638842E-1,-5.2117884E-2,-2.6625806E-2,-2.0171827E-1,8.727916E-2,8.2699046E-2,-3.6895928E-1,-9.185514E-2,-1.2419534E-2,1.408695E-1,-7.1150415E-2,4.55105E-3,1.4206879E-2,-3.1631295E-2,-2.8844578E-2,-4.447471E-2,-1.3796458E-2,-4.2871437E-3],"categories":[],"categories_nodes":[],"categories_segments":[],"categories_sizes":[],"default_left":[0,0,0,0,0,0,0,0,0,0,0,0,0,0,0,0,0,0,0,0,0,0,0],"id":40,"left_children":[1,3,5,7,9,11,-1,13,15,-1,17,19,21,-1,-1,-1,-1,-1,-1,-1,-1,-1,-1],"loss_changes":[1.8855E1,2.4416176E1,2.7771244E0,7.803403E0,2.5483917E1,3.495327E0,0E0,9.6805016E1,5.0950005E1,0E0,3.510501E1,4.1478634E-1,2.1091193E-1,0E0,0E0,0E0,0E0,0E0,0E0,0E0,0E0,0E0,0E0],"parents":[2147483647,0,0,1,1,2,2,3,3,4,4,5,5,7,7,8,8,10,10,11,11,12,12],"right_children":[2,4,6,8,10,12,-1,14,16,-1,18,20,22,-1,-1,-1,-1,-1,-1,-1,-1,-1,-1],"split_conditions":[2.2E1,1E1,2.3E1,7E0,1.1E1,3E0,-5.2117884E-2,6E0,3E0,8.727916E-2,5E0,2E0,4E0,-1.2419534E-2,1.408695E-1,-7.1150415E-2,4.55105E-3,1.4206879E-2,-3.1631295E-2,-2.8844578E-2,-4.447471E-2,-1.3796458E-2,-4.2871437E-3],"split_indices":[1,1,1,1,1,0,0,1,0,0,0,0,0,0,0,0,0,0,0,0,0,0,0],"split_type":[0,0,0,0,0,0,0,0,0,0,0,0,0,0,0,0,0,0,0,0,0,0,0],"sum_hessian":[2.834E3,2.612E3,2.22E2,1.092E3,1.52E3,1.83E2,3.9E1,6.89E2,4.03E2,4.1E1,1.479E3,8.8E1,9.5E1,6.46E2,4.3E1,1.31E2,2.72E2,1.288E3,1.91E2,4.5E1,4.3E1,4.8E1,4.7E1],"tree_param":{"num_deleted":"0","num_feature":"2","num_nodes":"23","size_leaf_vector":"1"}},{"base_weights":[-1.0568153E-3,-1.4847809E-1,4.138921E-2,3.2483805E-2,-4.265655E-1,-1.2896478E-1,1.1742291E-1,-2.4831124E-1,1.3689187E0,-1.4664285E-1,-1.8489821E-1,-1.9368043E-2,-2.932887E-1,2.4143212E-1,-8.405403E-2,8.264034E-3,-7.238955E-2,1.18815295E-1,1.7343104E-1,-7.112555E-2,-1.1408345E-2,-1.9065311E-2,3.2586344E-2,-9.565416E-3,-1.343583E-1,1.520314E-2,1.3372828E-1,-2.3766352E-2,1.6004657E-2],"categories":[],"categories_nodes":[],"categories_segments":[],"categories_sizes":[],"default_left":[0,0,0,0,0,0,0,0,0,0,0,0,0,0,0,0,0,0,0,0,0,0,0,0,0,0,0,0,0],"id":41,"left_children":[1,3,5,7,9,11,13,15,17,-1,19,21,23,25,27,-1,-1,-1,-1,-1,-1,-1,-1,-1,-1,-1,-1,-1,-1],"loss_changes":[1.7746008E1,3.1918781E1,2.8536867E1,1.4481665E2,6.2554077E1,1.2240689E1,3.807244E1,5.0268944E1,2.364746E0,0E0,7.522725E0,2.4247522E1,5.6331734E1,9.218225E1,2.182331E1,0E0,0E0,0E0,0E0,0E0,0E0,0E0,0E0,0E0,0E0,0E0,0E0,0E0,0E0],"parents":[2147483647,0,0,1,1,2,2,3,3,4,4,5,5,6,6,7,7,8,8,10,10,11,11,12,12,13,13,14,14],"right_children":[2,4,6,8,10,12,14,16,18,-1,20,22,24,26,28,-1,-1,-1,-1,-1,-1,-1,-1,-1,-1,-1,-1,-1,-1],"split_conditions":[2E0,1.7E1,9E0,1.4E1,1.8E1,5E0,1.8E1,9E0,1.6E1,-1.4664285E-1,1.9E1,5E0,6E0,1.7E1,4E0,8.264034E-3,-7.238955E-2,1.18815295E-1,1.7343104E-1,-7.112555E-2,-1.1408345E-2,-1.9065311E-2,3.2586344E-2,-9.565416E-3,-1.343583E-1,1.520314E-2,1.3372828E-1,-2.3766352E-2,1.6004657E-2],"split_indices":[0,1,1,1,1,0,1,1,1,0,1,1,1,1,0,0,0,0,0,0,0,0,0,0,0,0,0,0,0],"split_type":[0,0,0,0,0,0,0,0,0,0,0,0,0,0,0,0,0,0,0,0,0,0,0,0,0,0,0,0,0],"sum_hessian":[2.834E3,6.33E2,2.201E3,3.84E2,2.49E2,6.79E2,1.522E3,3.18E2,6.6E1,4.6E1,2.03E2,4.08E2,2.71E2,9.42E2,5.8E2,1.88E2,1.3E2,4.7E1,1.9E1,2.3E1,1.8E2,2.73E2,1.35E2,2.29E2,4.2E1,8.72E2,7E1,3.56E2,2.24E2],"tree_param":{"num_deleted":"0","num_feature":"2","num_nodes":"29","size_leaf_vector":"1"}},{"base_weights":[-9.478571E-4,2.8097024E-2,-1.8753213E-1,-5.1389724E-2,1.3803928E-1,-8.267512E-2,-2.975821E-1,-1.0665674E-2,-7.947347E-1,2.2695653E-1,-4.9032267E-2,-3.4929842E-1,2.5844973E-1,-7.079612E-1,-3.218512E-2,-7.5055896E-3,2.6006192E-2,3.5776857E-2,-2.3185754E-1,7.045983E-3,7.1541905E-2,-4.0765803E-2,-3.017261E-2,8.890828E-2,-3.7805717E-2,-1.868957E-1,-1.0116826E-2,7.5464956E-3,-5.125148E-2],"categories":[],"categories_nodes":[],"categories_segments":[],"categories_sizes":[],"default_left":[0,0,0,0,0,0,0,0,0,0,0,0,0,0,0,0,0,0,0,0,0,0,0,0,0,0,0,0,0],"id":42,"left_children":[1,3,5,7,9,11,13,15,17,19,-1,21,23,25,27,-1,-1,-1,-1,-1,-1,-1,-1,-1,-1,-1,-1,-1,-1],"loss_changes":[1.5369034E1,2.1452482E1,4.3834906E0,4.312915E1,5.7659668E1,1.8007788E1,2.0235102E1,2.358787E1,1.3079065E2,6.897741E1,0E0,1.8516827E-1,3.5258118E1,5.1238255E1,5.9333344E0,0E0,0E0,0E0,0E0,0E0,0E0,0E0,0E0,0E0,0E0,0E0,0E0,0E0,0E0],"parents":[2147483647,0,0,1,1,2,2,3,3,4,4,5,5,6,6,7,7,8,8,9,9,11,11,12,12,13,13,14,14],"right_children":[2,4,6,8,10,12,14,16,18,20,-1,22,24,26,28,-1,-1,-1,-1,-1,-1,-1,-1,-1,-1,-1,-1,-1,-1],"split_conditions":[2.1E1,1.3E1,3E0,1.2E1,5E0,2E0,4E0,1E1,4E0,4E0,-4.9032267E-2,2.2E1,2.2E1,2.2E1,2.3E1,-7.5055896E-3,2.6006192E-2,3.5776857E-2,-2.3185754E-1,7.045983E-3,7.1541905E-2,-4.0765803E-2,-3.017261E-2,8.890828E-2,-3.7805717E-2,-1.868957E-1,-1.0116826E-2,7.5464956E-3,-5.125148E-2],"split_indices":[1,1,0,1,0,0,0,1,0,0,0,1,1,1,1,0,0,0,0,0,0,0,0,0,0,0,0,0,0],"split_type":[0,0,0,0,0,0,0,0,0,0,0,0,0,0,0,0,0,0,0,0,0,0,0,0,0,0,0,0,0],"sum_hessian":[2.834E3,2.453E3,3.81E2,1.424E3,1.029E3,1.96E2,1.85E2,1.351E3,7.3E1,9.02E2,1.27E2,1.1E2,8.6E1,7.2E1,1.13E2,1.092E3,2.59E2,4.2E1,3.1E1,6.84E2,2.18E2,4.6E1,6.4E1,4.3E1,4.3E1,2.4E1,4.8E1,9.3E1,2E1],"tree_param":{"num_deleted":"0","num_feature":"2","num_nodes":"29","size_leaf_vector":"1"}},{"base_weights":[-9.972467E-4,-1.3011956E-1,3.6180113E-2,2.8269267E-2,-3.7351787E-1,-1.0876589E-1,1.0087289E-1,-2.2410464E-1,1.2294484E0,-1.1156709E0,-8.443373E-2,-9.911423E-3,-2.5701118E-1,2.1614882E-1,-8.640091E-2,8.188575E-3,-6.6386096E-2,1.06491484E-1,1.5628569E-1,-1.3298017E-1,-6.498452E-2,2.7723033E-2,-3.150077E-2,-1.6417949E-2,3.009662E-2,-1.5597878E-3,-9.810217E-2,1.36008505E-2,1.1984918E-1,-2.1010201E-2,1.102555E-2],"categories":[],"categories_nodes":[],"categories_segments":[],"categories_sizes":[],"default_left":[0,0,0,0,0,0,0,0,0,0,0,0,0,0,0,0,0,0,0,0,0,0,0,0,0,0,0,0,0,0,0],"id":43,"left_children":[1,3,5,7,9,11,13,15,17,19,21,23,25,27,29,-1,-1,-1,-1,-1,-1,-1,-1,-1,-1,-1,-1,-1,-1,-1,-1],"loss_changes":[1.3613916E1,2.445226E1,2.0659039E1,1.16986855E2,5.3541965E1,9.962653E0,3.289745E1,4.2979385E1,2.0111008E0,6.1181717E0,1.5180978E1,1.9664434E1,4.752642E1,7.407493E1,1.4156926E1,0E0,0E0,0E0,0E0,0E0,0E0,0E0,0E0,0E0,0E0,0E0,0E0,0E0,0E0,0E0,0E0],"parents":[2147483647,0,0,1,1,2,2,3,3,4,4,5,5,6,6,7,7,8,8,9,9,10,10,11,11,12,12,13,13,14,14],"right_children":[2,4,6,8,10,12,14,16,18,20,22,24,26,28,30,-1,-1,-1,-1,-1,-1,-1,-1,-1,-1,-1,-1,-1,-1,-1,-1],"split_conditions":[2E0,1.7E1,9E0,1.4E1,1.9E1,5E0,1.8E1,9E0,1.6E1,1.8E1,2.1E1,5E0,5E0,1.7E1,4E0,8.188575E-3,-6.6386096E-2,1.06491484E-1,1.5628569E-1,-1.3298017E-1,-6.498452E-2,2.7723033E-2,-3.150077E-2,-1.6417949E-2,3.009662E-2,-1.5597878E-3,-9.810217E-2,1.36008505E-2,1.1984918E-1,-2.1010201E-2,1.102555E-2],"split_indices":[0,1,1,1,1,0,1,1,1,1,1,1,1,1,0,0,0,0,0,0,0,0,0,0,0,0,0,0,0,0,0],"split_type":[0,0,0,0,0,0,0,0,0,0,0,0,0,0,0,0,0,0,0,0,0,0,0,0,0,0,0,0,0,0,0],"sum_hessian":[2.834E3,6.33E2,2.201E3,3.84E2,2.49E2,6.79E2,1.522E3,3.18E2,6.6E1,6.9E1,1.8E2,4.08E2,2.71E2,9.42E2,5.8E2,1.88E2,1.3E2,4.7E1,1.9E1,4.6E1,2.3E1,7E1,1.1E2,2.73E2,1.35E2,2.04E2,6.7E1,8.72E2,7E1,3.56E2,2.24E2],"tree_param":{"num_deleted":"0","num_feature":"2","num_nodes":"31","size_leaf_vector":"1"}},{"base_weights":[-8.8344543E-4,-1.1710325E-1,3.257897E-2,2.597354E-2,-3.369731E-1,-9.801575E-2,9.086645E-2,-2.0187686E-1,1.1104258E0,-1.0069319E0,-7.60113E-2,-3.7888583E-2,-2.964239E-1,1.9467512E-1,-7.777803E-2,1.1445025E-2,-5.501734E-2,9.606423E-2,1.4143851E-1,-1.1996507E-1,-5.8756858E-2,2.498975E-2,-2.8379072E-2,-1.1098144E-2,1.7146635E-1,7.418123E-4,-1.1091973E-1,1.2242279E-2,1.0803316E-1,-1.8915066E-2,9.927889E-3],"categories":[],"categories_nodes":[],"categories_segments":[],"categories_sizes":[],"default_left":[0,0,0,0,0,0,0,0,0,0,0,0,0,0,0,0,0,0,0,0,0,0,0,0,0,0,0,0,0,0,0],"id":44,"left_children":[1,3,5,7,9,11,13,15,17,19,21,23,25,27,29,-1,-1,-1,-1,-1,-1,-1,-1,-1,-1,-1,-1,-1,-1,-1,-1],"loss_changes":[1.1029118E1,1.9953297E1,1.677061E1,9.5354935E1,4.3631874E1,8.100978E0,2.6677937E1,3.5209E1,1.6916656E0,4.9524612E0,1.232772E1,6.71861E1,3.902707E1,6.0211002E1,1.1475688E1,0E0,0E0,0E0,0E0,0E0,0E0,0E0,0E0,0E0,0E0,0E0,0E0,0E0,0E0,0E0,0E0],"parents":[2147483647,0,0,1,1,2,2,3,3,4,4,5,5,6,6,7,7,8,8,9,9,10,10,11,11,12,12,13,13,14,14],"right_children":[2,4,6,8,10,12,14,16,18,20,22,24,26,28,30,-1,-1,-1,-1,-1,-1,-1,-1,-1,-1,-1,-1,-1,-1,-1,-1],"split_conditions":[2E0,1.7E1,9E0,1.4E1,1.9E1,7E0,1.8E1,7E0,1.6E1,1.8E1,2.1E1,6E0,5E0,1.7E1,4E0,1.1445025E-2,-5.501734E-2,9.606423E-2,1.4143851E-1,-1.1996507E-1,-5.8756858E-2,2.498975E-2,-2.8379072E-2,-1.1098144E-2,1.7146635E-1,7.418123E-4,-1.1091973E-1,1.2242279E-2,1.0803316E-1,-1.8915066E-2,9.927889E-3],"split_indices":[0,1,1,1,1,1,1,1,1,1,1,1,0,1,0,0,0,0,0,0,0,0,0,0,0,0,0,0,0,0,0],"split_type":[0,0,0,0,0,0,0,0,0,0,0,0,0,0,0,0,0,0,0,0,0,0,0,0,0,0,0,0,0,0,0],"sum_hessian":[2.834E3,6.33E2,2.201E3,3.84E2,2.49E2,6.79E2,1.522E3,3.18E2,6.6E1,6.9E1,1.8E2,5.22E2,1.57E2,9.42E2,5.8E2,1.67E2,1.51E2,4.7E1,1.9E1,4.6E1,2.3E1,7E1,1.1E2,5.02E2,2E1,1.15E2,4.2E1,8.72E2,7E1,3.56E2,2.24E2],"tree_param":{"num_deleted":"0","num_feature":"2","num_nodes":"31","size_leaf_vector":"1"}},{"base_weights":[-7.3367526E-4,-1.4642397E-1,2.4240386E-2,-2.9334325E-1,-4.8283868E-2,7.60079E-2,-8.3947666E-2,5.459866E-3,-3.5253483E-1,-2.6963154E-2,-2.1636369E-2,1.7228931E-2,2.8537023E-1,-1.5344445E-1,8.939522E-2,-2.1359509E-2,-1.1893876E-1,-7.1969307E-3,4.033261E-4,5.832797E-3,-4.4806715E-2,6.989079E-2,-2.6340773E-2,-8.448063E-2,-1.9258562E-3,7.655277E-2,-8.389084E-3],"categories":[],"categories_nodes":[],"categories_segments":[],"categories_sizes":[],"default_left":[0,0,0,0,0,0,0,0,0,0,0,0,0,0,0,0,0,0,0,0,0,0,0,0,0,0,0],"id":45,"left_children":[1,3,5,7,9,11,13,-1,15,17,-1,19,21,23,25,-1,-1,-1,-1,-1,-1,-1,-1,-1,-1,-1,-1],"loss_changes":[1.0318636E1,5.9695854E0,1.3565498E1,3.438056E0,8.900615E-1,2.015248E1,9.458389E0,0E0,1.6256592E1,3.1138182E-1,0E0,2.4503859E1,8.165568E1,5.193549E1,2.6426193E1,0E0,0E0,0E0,0E0,0E0,0E0,0E0,0E0,0E0,0E0,0E0,0E0],"parents":[2147483647,0,0,1,1,2,2,3,3,4,4,5,5,6,6,8,8,9,9,11,11,12,12,13,13,14,14],"right_children":[2,4,6,8,10,12,14,-1,16,18,-1,20,22,24,26,-1,-1,-1,-1,-1,-1,-1,-1,-1,-1,-1,-1],"split_conditions":[4E0,3E0,1.8E1,1E0,3E0,1.5E1,4E0,5.459866E-3,2E0,5E0,-2.1636369E-2,1.4E1,3E0,1.9E1,1.9E1,-2.1359509E-2,-1.1893876E-1,-7.1969307E-3,4.033261E-4,5.832797E-3,-4.4806715E-2,6.989079E-2,-2.6340773E-2,-8.448063E-2,-1.9258562E-3,7.655277E-2,-8.389084E-3],"split_indices":[1,0,1,1,1,1,0,0,0,0,0,1,0,1,1,0,0,0,0,0,0,0,0,0,0,0,0],"split_type":[0,0,0,0,0,0,0,0,0,0,0,0,0,0,0,0,0,0,0,0,0,0,0,0,0,0,0],"sum_hessian":[2.834E3,4.14E2,2.42E3,1.65E2,2.49E2,1.637E3,7.83E2,2.4E1,1.41E2,2.22E2,2.7E1,1.279E3,3.58E2,5.59E2,2.24E2,1.22E2,1.9E1,9E1,1.32E2,1.176E3,1.03E2,2.04E2,1.54E2,9E1,4.69E2,4.5E1,1.79E2],"tree_param":{"num_deleted":"0","num_feature":"2","num_nodes":"27","size_leaf_vector":"1"}},{"base_weights":[-7.2269124E-4,-1.1180242E-1,3.125972E-2,1.5697876E-2,-3.0770567E-1,-8.659605E-2,8.3860286E-2,-1.7724046E-1,9.340804E-1,-1.15064256E-1,-1.1199128E-1,-3.003426E-2,-2.7327466E-1,1.504635E-1,-1.175765E-1,8.149192E-3,-5.4917313E-2,7.9814516E-2,1.2136211E-1,5.6606447E-3,-2.5375878E-2,-9.576513E-3,1.545807E-1,9.001699E-5,-1.0065538E-1,3.0724442E-2,1.0290193E-2,-9.630206E-3,-4.756693E-2],"categories":[],"categories_nodes":[],"categories_segments":[],"categories_sizes":[],"default_left":[0,0,0,0,0,0,0,0,0,0,0,0,0,0,0,0,0,0,0,0,0,0,0,0,0,0,0,0,0],"id":46,"left_children":[1,3,5,7,9,11,13,15,17,-1,19,21,23,25,27,-1,-1,-1,-1,-1,-1,-1,-1,-1,-1,-1,-1,-1,-1],"loss_changes":[1.00751095E1,1.5840708E1,1.3658076E1,6.838417E1,4.1114857E1,7.1718287E0,2.0450775E1,3.0742447E1,1.5773163E0,0E0,4.890307E0,5.4321117E1,3.1766283E1,8.506357E0,2.8414993E0,0E0,0E0,0E0,0E0,0E0,0E0,0E0,0E0,0E0,0E0,0E0,0E0,0E0,0E0],"parents":[2147483647,0,0,1,1,2,2,3,3,4,4,5,5,6,6,7,7,8,8,10,10,11,11,12,12,13,13,14,14],"right_children":[2,4,6,8,10,12,14,16,18,-1,20,22,24,26,28,-1,-1,-1,-1,-1,-1,-1,-1,-1,-1,-1,-1,-1,-1],"split_conditions":[2E0,1.7E1,9E0,1.4E1,1.8E1,7E0,2E1,9E0,1.6E1,-1.15064256E-1,2.1E1,6E0,5E0,3E0,2.3E1,8.149192E-3,-5.4917313E-2,7.9814516E-2,1.2136211E-1,5.6606447E-3,-2.5375878E-2,-9.576513E-3,1.545807E-1,9.001699E-5,-1.0065538E-1,3.0724442E-2,1.0290193E-2,-9.630206E-3,-4.756693E-2],"split_indices":[0,1,1,1,1,1,1,1,1,0,1,1,0,0,1,0,0,0,0,0,0,0,0,0,0,0,0,0,0],"split_type":[0,0,0,0,0,0,0,0,0,0,0,0,0,0,0,0,0,0,0,0,0,0,0,0,0,0,0,0,0],"sum_hessian":[2.834E3,6.33E2,2.201E3,3.84E2,2.49E2,6.79E2,1.522E3,3.18E2,6.6E1,4.6E1,2.03E2,5.22E2,1.57E2,1.144E3,3.78E2,1.88E2,1.3E2,4.7E1,1.9E1,9.3E1,1.1E2,5.02E2,2E1,1.15E2,4.2E1,2.65E2,8.79E2,3.58E2,2E1],"tree_param":{"num_deleted":"0","num_feature":"2","num_nodes":"29","size_leaf_vector":"1"}},{"base_weights":[-6.3351396E-4,-1.0059157E-1,2.8146705E-2,1.4528639E-2,-2.774743E-1,-7.7871084E-2,7.546381E-2,-2.0169257E-1,7.1530586E-1,-1.03802614E-1,-1.00889005E-1,-2.6753658E-2,-2.4658337E-1,1.5893403E-1,-6.014357E-2,-6.9127562E-3,-1.9280584E-1,3.4266543E-2,8.436746E-2,5.100566E-3,-2.2861162E-2,-8.6207725E-3,1.398587E-1,8.1129736E-5,-9.082391E-2,9.720494E-3,9.157026E-2,-1.5192504E-2,8.575032E-3],"categories":[],"categories_nodes":[],"categories_segments":[],"categories_sizes":[],"default_left":[0,0,0,0,0,0,0,0,0,0,0,0,0,0,0,0,0,0,0,0,0,0,0,0,0,0,0,0,0],"id":47,"left_children":[1,3,5,7,9,11,13,15,17,-1,19,21,23,25,27,-1,-1,-1,-1,-1,-1,-1,-1,-1,-1,-1,-1,-1,-1],"loss_changes":[8.158601E0,1.2914033E1,1.105211E1,5.8480587E1,3.347084E1,5.8578167E0,1.7248669E1,6.737915E1,4.063923E0,0E0,3.9693384E0,4.444079E1,2.5863777E1,4.396289E1,7.792824E0,0E0,0E0,0E0,0E0,0E0,0E0,0E0,0E0,0E0,0E0,0E0,0E0,0E0,0E0],"parents":[2147483647,0,0,1,1,2,2,3,3,4,4,5,5,6,6,7,7,8,8,10,10,11,11,12,12,13,13,14,14],"right_children":[2,4,6,8,10,12,14,16,18,-1,20,22,24,26,28,-1,-1,-1,-1,-1,-1,-1,-1,-1,-1,-1,-1,-1,-1],"split_conditions":[2E0,1.7E1,9E0,1.3E1,1.8E1,7E0,1.8E1,1.2E1,1.4E1,-1.03802614E-1,2.1E1,6E0,5E0,1.7E1,4E0,-6.9127562E-3,-1.9280584E-1,3.4266543E-2,8.436746E-2,5.100566E-3,-2.2861162E-2,-8.6207725E-3,1.398587E-1,8.1129736E-5,-9.082391E-2,9.720494E-3,9.157026E-2,-1.5192504E-2,8.575032E-3],"split_indices":[0,1,1,1,1,1,1,1,1,0,1,1,0,1,0,0,0,0,0,0,0,0,0,0,0,0,0,0,0],"split_type":[0,0,0,0,0,0,0,0,0,0,0,0,0,0,0,0,0,0,0,0,0,0,0,0,0,0,0,0,0],"sum_hessian":[2.834E3,6.33E2,2.201E3,3.84E2,2.49E2,6.79E2,1.522E3,2.94E2,9E1,4.6E1,2.03E2,5.22E2,1.57E2,9.42E2,5.8E2,2.74E2,2E1,2.4E1,6.6E1,9.3E1,1.1E2,5.02E2,2E1,1.15E2,4.2E1,8.72E2,7E1,3.56E2,2.24E2],"tree_param":{"num_deleted":"0","num_feature":"2","num_nodes":"29","size_leaf_vector":"1"}},{"base_weights":[-5.9388264E-4,-1.19734675E-1,1.9829093E-2,-2.610161E-1,-2.5444862E-2,2.0536758E-1,-4.0425076E-3,6.6826576E-3,-3.1689677E-1,-6.181777E-3,-1.7795285E-2,5.118541E-2,1.0171648E0,-1.6499685E-1,4.0701374E-2,-1.9363558E-2,-1.0591083E-1,9.544051E-3,-1.8345542E-3,1.0907954E-1,-6.2379586E-3,7.5758725E-2,1.2653886E-1,-5.7189357E-2,-1.1326929E-3,-2.2249995E-2,6.7979842E-3],"categories":[],"categories_nodes":[],"categories_segments":[],"categories_sizes":[],"default_left":[0,0,0,0,0,0,0,0,0,0,0,0,0,0,0,0,0,0,0,0,0,0,0,0,0,0,0],"id":48,"left_children":[1,3,5,7,9,11,13,-1,15,17,-1,19,21,23,25,-1,-1,-1,-1,-1,-1,-1,-1,-1,-1,-1,-1],"loss_changes":[6.900523E0,5.521739E0,1.0723682E1,3.0623074E0,7.333435E-1,3.4493385E1,1.5461612E1,0E0,1.27859125E1,2.7740335E-1,0E0,2.757679E1,1.8764229E0,2.9193996E1,1.2077069E1,0E0,0E0,0E0,0E0,0E0,0E0,0E0,0E0,0E0,0E0,0E0,0E0],"parents":[2147483647,0,0,1,1,2,2,3,3,4,4,5,5,6,6,8,8,9,9,11,11,12,12,13,13,14,14],"right_children":[2,4,6,8,10,12,14,-1,16,18,-1,20,22,24,26,-1,-1,-1,-1,-1,-1,-1,-1,-1,-1,-1,-1],"split_conditions":[4E0,3E0,7E0,1E0,3E0,6E0,2E0,6.6826576E-3,2E0,1E0,-1.7795285E-2,2E0,2E0,1.3E1,9E0,-1.9363558E-2,-1.0591083E-1,9.544051E-3,-1.8345542E-3,1.0907954E-1,-6.2379586E-3,7.5758725E-2,1.2653886E-1,-5.7189357E-2,-1.1326929E-3,-2.2249995E-2,6.7979842E-3],"split_indices":[1,0,1,1,1,1,0,0,0,1,0,0,0,1,1,0,0,0,0,0,0,0,0,0,0,0,0],"split_type":[0,0,0,0,0,0,0,0,0,0,0,0,0,0,0,0,0,0,0,0,0,0,0,0,0,0,0],"sum_hessian":[2.834E3,4.14E2,2.42E3,1.65E2,2.49E2,2.75E2,2.145E3,2.4E1,1.41E2,2.22E2,2.7E1,2.32E2,4.3E1,4.66E2,1.679E3,1.22E2,1.9E1,2.3E1,1.99E2,2.2E1,2.1E2,2.3E1,2E1,1.27E2,3.39E2,1.57E2,1.522E3],"tree_param":{"num_deleted":"0","num_feature":"2","num_nodes":"27","size_leaf_vector":"1"}},{"base_weights":[-4.981493E-4,1.3912842E-2,-1.6935654E-1,-1.0807134E-1,3.6927633E-2,-1.2473846E-1,-3.703658E-1,-2.356289E-1,-2.2940837E-2,4.4292014E-2,-6.323151E-2,-1.969737E-1,-5.647102E-2,-2.7347296E-2,-4.4500824E-2,-2.8791893E-2,5.7006544E-3,-5.5291434E-4,-1.6079322E-2,2.6282234E-2,1.553294E-3,-1.1079262E-2,-2.8259544E-2,-3.260315E-3,-7.965966E-3],"categories":[],"categories_nodes":[],"categories_segments":[],"categories_sizes":[],"default_left":[0,0,0,0,0,0,0,0,0,0,0,0,0,0,0,0,0,0,0,0,0,0,0,0,0],"id":49,"left_children":[1,3,5,7,9,11,13,15,17,19,-1,21,23,-1,-1,-1,-1,-1,-1,-1,-1,-1,-1,-1,-1],"loss_changes":[6.9010935E0,7.3398323E0,1.9538097E0,4.5010967E0,1.086591E1,8.9623857E-1,1.6759491E-1,2.556531E0,5.9917176E-1,1.367149E1,0E0,6.2541866E-1,5.053532E-2,0E0,0E0,0E0,0E0,0E0,0E0,0E0,0E0,0E0,0E0,0E0,0E0],"parents":[2147483647,0,0,1,1,2,2,3,3,4,4,5,5,6,6,7,7,8,8,9,9,11,11,12,12],"right_children":[2,4,6,8,10,12,14,16,18,20,-1,22,24,-1,-1,-1,-1,-1,-1,-1,-1,-1,-1,-1,-1],"split_conditions":[2.2E1,4E0,2.3E1,3E0,7E0,3E0,2E0,3E0,3E0,7E0,-6.323151E-2,2E0,4E0,-2.7347296E-2,-4.4500824E-2,-2.8791893E-2,5.7006544E-3,-5.5291434E-4,-1.6079322E-2,2.6282234E-2,1.553294E-3,-1.1079262E-2,-2.8259544E-2,-3.260315E-3,-7.965966E-3],"split_indices":[1,1,1,0,0,0,0,1,1,1,0,0,0,0,0,0,0,0,0,0,0,0,0,0,0],"split_type":[0,0,0,0,0,0,0,0,0,0,0,0,0,0,0,0,0,0,0,0,0,0,0,0,0],"sum_hessian":[2.834E3,2.612E3,2.22E2,4.14E2,2.198E3,1.83E2,3.9E1,1.65E2,2.49E2,2.175E3,2.3E1,8.8E1,9.5E1,1.9E1,2E1,1.4E2,2.5E1,2.22E2,2.7E1,2.52E2,1.923E3,4.5E1,4.3E1,4.8E1,4.7E1],"tree_param":{"num_deleted":"0","num_feature":"2","num_nodes":"25","size_leaf_vector":"1"}}]},"name":"gbtree"},"learner_model_param":{"base_score":"[1.3593508E1]","boost_from_average":"1","num_class":"0","num_feature":"2","num_target":"1"},"objective":{"name":"reg:squarederror","reg_loss_param":{"scale_pos_weight":"1"}}},"version":[3,2,0]}