{"learner":{"attributes":{},"feature_names":["day_of_week","hour_of_day"],"feature_types":[],"gradient_booster":{"model":{"cats":{"enc":[],"feature_segments":[],"sorted_idx":[]},"gbtree_model_param":{"num_parallel_tree":"1","num_trees":"50"},"iteration_indptr":[0,1,2,3,4,5,6,7,8,9,10,11,12,13,14,15,16,17,18,19,20,21,22,23,24,25,26,27,28,29,30,31,32,33,34,35,36,37,38,39,40,41,42,43,44,45,46,47,48,49,50],"tree_info":[0,0,0,0,0,0,0,0,0,0,0,0,0,0,0,0,0,0,0,0,0,0,0,0,0,0,0,0,0,0,0,0,0,0,0,0,0,0,0,0,0,0,0,0,0,0,0,0,0,0],"trees":[{"base_weights":[-3.763977E-7,-1.0468613E1,1.707857E0,-1.1054595E1,-5.706039E0,3.922758E0,-4.6166615E0,-1.208515E0,-9.339043E-1,-2.690731E-1,-8.604359E-1,-1.0946414E0,4.630784E0,-2.350351E0,-8.794796E0,2.0849915E-1,-8.2104653E-1,5.3030056E-1,2.332846E-1,-3.4691885E-1,7.8341834E-2,-1.0508441E0,-4.6223995E-1],"categories":[],"categories_nodes":[],"categories_segments":[],"categories_sizes":[],"default_left":[0,0,0,0,0,0,0,0,0,0,0,0,0,0,0,0,0,0,0,0,0,0,0],"id":0,"left_children":[1,3,5,7,9,11,13,-1,-1,-1,-1,15,17,19,21,-1,-1,-1,-1,-1,-1,-1,-1],"loss_changes":[5.111577E4,1.0560234E3,3.4450227E4,5.1653125E2,3.7885693E2,6.474078E3,6.0205186E3,0E0,0E0,0E0,0E0,5.130529E3,2.4530078E3,1.4577822E3,1.5530273E3,0E0,0E0,0E0,0E0,0E0,0E0,0E0,0E0],"parents":[2147483647,0,0,1,1,2,2,3,3,4,4,5,5,6,6,11,11,12,12,13,13,14,14],"right_children":[2,4,6,8,10,12,14,-1,-1,-1,-1,16,18,20,22,-1,-1,-1,-1,-1,-1,-1,-1],"split_conditions":[4E0,3E0,1.9E1,5E0,2E0,6E0,2.2E1,-1.208515E0,-9.339043E-1,-2.690731E-1,-8.604359E-1,5E0,5E0,4E0,4E0,2.0849915E-1,-8.2104653E-1,5.3030056E-1,2.332846E-1,-3.4691885E-1,7.8341834E-2,-1.0508441E0,-4.6223995E-1],"split_indices":[1,1,1,0,0,1,1,0,0,0,0,0,0,0,0,0,0,0,0,0,0,0,0],"split_type":[0,0,0,0,0,0,0,0,0,0,0,0,0,0,0,0,0,0,0,0,0,0,0],"sum_hessian":[2.857E3,4E2,2.457E3,3.55E2,4.5E1,1.82E3,6.37E2,2.18E2,1.37E2,2.3E1,2.2E1,2.25E2,1.595E3,4.14E2,2.23E2,1.56E2,6.9E1,1.233E3,3.62E2,3.05E2,1.09E2,1.57E2,6.6E1],"tree_param":{"num_deleted":"0","num_feature":"2","num_nodes":"23","size_leaf_vector":"1"}},{"base_weights":[-1.7154919E-3,-9.429911E0,1.5364082E0,-9.955153E0,-5.1599894E0,3.5305655E0,-4.157788E0,-1.0882154E0,-8.4119064E-1,-2.4328688E-1,-7.7813333E-1,-9.878875E-1,4.1681843E0,-2.1159627E0,-7.9220715E0,1.8778203E-1,-7.4011487E-1,4.773135E-1,2.1002041E-1,-3.1234032E-1,7.0578896E-2,-9.464248E-1,-4.1670585E-1],"categories":[],"categories_nodes":[],"categories_segments":[],"categories_sizes":[],"default_left":[0,0,0,0,0,0,0,0,0,0,0,0,0,0,0,0,0,0,0,0,0,0,0],"id":1,"left_children":[1,3,5,7,9,11,13,-1,-1,-1,-1,15,17,19,21,-1,-1,-1,-1,-1,-1,-1,-1],"loss_changes":[4.1460438E4,8.4797266E2,2.7925572E4,4.1775E2,3.0991016E2,5.2505117E3,4.886911E3,0E0,0E0,0E0,0E0,4.1674463E3,1.9866133E3,1.1819441E3,1.2577217E3,0E0,0E0,0E0,0E0,0E0,0E0,0E0,0E0],"parents":[2147483647,0,0,1,1,2,2,3,3,4,4,5,5,6,6,11,11,12,12,13,13,14,14],"right_children":[2,4,6,8,10,12,14,-1,-1,-1,-1,16,18,20,22,-1,-1,-1,-1,-1,-1,-1,-1],"split_conditions":[4E0,3E0,1.9E1,5E0,2E0,6E0,2.2E1,-1.0882154E0,-8.4119064E-1,-2.4328688E-1,-7.7813333E-1,5E0,5E0,4E0,4E0,1.8778203E-1,-7.4011487E-1,4.773135E-1,2.1002041E-1,-3.1234032E-1,7.0578896E-2,-9.464248E-1,-4.1670585E-1],"split_indices":[1,1,1,0,0,1,1,0,0,0,0,0,0,0,0,0,0,0,0,0,0,0,0],"split_type":[0,0,0,0,0,0,0,0,0,0,0,0,0,0,0,0,0,0,0,0,0,0,0],"sum_hessian":[2.857E3,4E2,2.457E3,3.55E2,4.5E1,1.82E3,6.37E2,2.18E2,1.37E2,2.3E1,2.2E1,2.25E2,1.595E3,4.14E2,2.23E2,1.56E2,6.9E1,1.233E3,3.62E2,3.05E2,1.09E2,1.57E2,6.6E1],"tree_param":{"num_deleted":"0","num_feature":"2","num_nodes":"23","size_leaf_vector":"1"}},{"base_weights":[-3.0906072E-3,-8.494279E0,1.3821696E0,-8.965058E0,-4.6661954E0,3.1775832E0,-3.7445242E0,-9.798908E-1,-7.576811E-1,-2.1997185E-1,-7.037032E-1,-8.915428E-1,3.751797E0,-1.9049487E0,-7.1359496E0,1.6912343E-1,-6.6716063E-1,4.2962083E-1,1.8907622E-1,-2.8120834E-1,6.3585214E-2,-8.5238135E-1,-3.7565717E-1],"categories":[],"categories_nodes":[],"categories_segments":[],"categories_sizes":[],"default_left":[0,0,0,0,0,0,0,0,0,0,0,0,0,0,0,0,0,0,0,0,0,0,0],"id":2,"left_children":[1,3,5,7,9,11,13,-1,-1,-1,-1,15,17,19,21,-1,-1,-1,-1,-1,-1,-1,-1],"loss_changes":[3.3628977E4,6.8084375E2,2.2636648E4,3.3785938E2,2.5351068E2,4.258201E3,3.966751E3,0E0,0E0,0E0,0E0,3.38515E3,1.6088945E3,9.5830005E2,1.0185664E3,0E0,0E0,0E0,0E0,0E0,0E0,0E0,0E0],"parents":[2147483647,0,0,1,1,2,2,3,3,4,4,5,5,6,6,11,11,12,12,13,13,14,14],"right_children":[2,4,6,8,10,12,14,-1,-1,-1,-1,16,18,20,22,-1,-1,-1,-1,-1,-1,-1,-1],"split_conditions":[4E0,3E0,1.9E1,5E0,2E0,6E0,2.2E1,-9.798908E-1,-7.576811E-1,-2.1997185E-1,-7.037032E-1,5E0,5E0,4E0,4E0,1.6912343E-1,-6.6716063E-1,4.2962083E-1,1.8907622E-1,-2.8120834E-1,6.3585214E-2,-8.5238135E-1,-3.7565717E-1],"split_indices":[1,1,1,0,0,1,1,0,0,0,0,0,0,0,0,0,0,0,0,0,0,0,0],"split_type":[0,0,0,0,0,0,0,0,0,0,0,0,0,0,0,0,0,0,0,0,0,0,0],"sum_hessian":[2.857E3,4E2,2.457E3,3.55E2,4.5E1,1.82E3,6.37E2,2.18E2,1.37E2,2.3E1,2.2E1,2.25E2,1.595E3,4.14E2,2.23E2,1.56E2,6.9E1,1.233E3,3.62E2,3.05E2,1.09E2,1.57E2,6.6E1],"tree_param":{"num_deleted":"0","num_feature":"2","num_nodes":"23","size_leaf_vector":"1"}},{"base_weights":[-4.176164E-3,-7.6514874E0,1.2434137E0,-8.073433E0,-4.219656E0,2.8598914E0,-3.3723378E0,-8.8234913E-1,-6.824621E-1,-1.9889124E-1,-6.3639253E-1,-8.045922E-1,3.377005E0,-1.7149785E0,-6.427837E0,1.5231879E-1,-6.0139763E-1,3.8669363E-1,1.7022067E-1,-2.99692E-1,-2.1044796E-2,-7.676826E-1,-3.3865213E-1],"categories":[],"categories_nodes":[],"categories_segments":[],"categories_sizes":[],"default_left":[0,0,0,0,0,0,0,0,0,0,0,0,0,0,0,0,0,0,0,0,0,0,0],"id":3,"left_children":[1,3,5,7,9,11,13,-1,-1,-1,-1,15,17,19,21,-1,-1,-1,-1,-1,-1,-1,-1],"loss_changes":[2.7276857E4,5.465996E2,1.834942E4,2.732422E2,2.0737518E2,3.4534297E3,3.2198467E3,0E0,0E0,0E0,0E0,2.749704E3,1.3029902E3,7.997881E2,8.248828E2,0E0,0E0,0E0,0E0,0E0,0E0,0E0,0E0],"parents":[2147483647,0,0,1,1,2,2,3,3,4,4,5,5,6,6,11,11,12,12,13,13,14,14],"right_children":[2,4,6,8,10,12,14,-1,-1,-1,-1,16,18,20,22,-1,-1,-1,-1,-1,-1,-1,-1],"split_conditions":[4E0,3E0,1.9E1,5E0,2E0,6E0,2.2E1,-8.8234913E-1,-6.824621E-1,-1.9889124E-1,-6.3639253E-1,5E0,5E0,3E0,4E0,1.5231879E-1,-6.0139763E-1,3.8669363E-1,1.7022067E-1,-2.99692E-1,-2.1044796E-2,-7.676826E-1,-3.3865213E-1],"split_indices":[1,1,1,0,0,1,1,0,0,0,0,0,0,0,0,0,0,0,0,0,0,0,0],"split_type":[0,0,0,0,0,0,0,0,0,0,0,0,0,0,0,0,0,0,0,0,0,0,0],"sum_hessian":[2.857E3,4E2,2.457E3,3.55E2,4.5E1,1.82E3,6.37E2,2.18E2,1.37E2,2.3E1,2.2E1,2.25E2,1.595E3,4.14E2,2.23E2,1.56E2,6.9E1,1.233E3,3.62E2,2.23E2,1.91E2,1.57E2,6.6E1],"tree_param":{"num_deleted":"0","num_feature":"2","num_nodes":"23","size_leaf_vector":"1"}},{"base_weights":[-5.060126E-3,-6.892324E0,1.1185354E0,-7.270486E0,-3.8158484E0,2.1712394E0,-4.661788E0,-7.9451716E-1,-6.1471045E-1,-1.7983077E-1,-5.755202E-1,2.7194247E0,-1.379382E-1,-5.961961E0,-1.3441148E0,3.515643E-1,4.0925786E-2,-2.1138878E-1,4.3432355E-2,-4.602096E-1,-6.9140023E-1,1.4138445E-1,-3.0529234E-1],"categories":[],"categories_nodes":[],"categories_segments":[],"categories_sizes":[],"default_left":[0,0,0,0,0,0,0,0,0,0,0,0,0,0,0,0,0,0,0,0,0,0,0],"id":4,"left_children":[1,3,5,7,9,11,13,-1,-1,-1,-1,15,17,19,21,-1,-1,-1,-1,-1,-1,-1,-1],"loss_changes":[2.212434E4,4.387832E2,1.4966978E4,2.2098242E2,1.6963574E2,2.6333584E3,1.6268203E3,0E0,0E0,0E0,0E0,3.090587E3,4.532223E2,3.203252E2,5.1330145E2,0E0,0E0,0E0,0E0,0E0,0E0,0E0,0E0],"parents":[2147483647,0,0,1,1,2,2,3,3,4,4,5,5,6,6,11,11,12,12,13,13,14,14],"right_children":[2,4,6,8,10,12,14,-1,-1,-1,-1,16,18,20,22,-1,-1,-1,-1,-1,-1,-1,-1],"split_conditions":[4E0,3E0,2.1E1,5E0,2E0,1.8E1,4E0,-7.9451716E-1,-6.1471045E-1,-1.7983077E-1,-5.755202E-1,5E0,2E0,2.2E1,2.2E1,3.515643E-1,4.0925786E-2,-2.1138878E-1,4.3432355E-2,-4.602096E-1,-6.9140023E-1,1.4138445E-1,-3.0529234E-1],"split_indices":[1,1,1,0,0,1,0,0,0,0,0,0,0,1,1,0,0,0,0,0,0,0,0],"split_type":[0,0,0,0,0,0,0,0,0,0,0,0,0,0,0,0,0,0,0,0,0,0,0],"sum_hessian":[2.857E3,4E2,2.457E3,3.55E2,4.5E1,2.079E3,3.78E2,2.18E2,1.37E2,2.3E1,2.2E1,1.68E3,3.99E2,2.71E2,1.07E2,1.249E3,4.31E2,8.9E1,3.1E2,1.14E2,1.57E2,4.1E1,6.6E1],"tree_param":{"num_deleted":"0","num_feature":"2","num_nodes":"23","size_leaf_vector":"1"}},{"base_weights":[-5.693123E-3,-6.2084894E0,1.0062381E0,-6.547395E0,-3.450684E0,2.322741E0,-2.7529438E0,-7.1542816E0,-5.5368483E-1,-1.6259703E-1,-5.204704E-1,-9.812881E-1,2.7891495E0,-1.4171546E0,-5.2154417E0,-7.46585E-1,-6.318891E-1,1.022514E-1,-5.461511E-1,3.168571E-1,1.4916418E-1,-3.306853E-1,-6.904686E-2,-6.226978E-1,-2.7521878E-1],"categories":[],"categories_nodes":[],"categories_segments":[],"categories_sizes":[],"default_left":[0,0,0,0,0,0,0,0,0,0,0,0,0,0,0,0,0,0,0,0,0,0,0,0,0],"id":5,"left_children":[1,3,5,7,9,11,13,15,-1,-1,-1,17,19,21,23,-1,-1,-1,-1,-1,-1,-1,-1,-1,-1],"loss_changes":[1.7945352E4,3.521963E2,1.2170971E4,1.7871875E2,1.3876416E2,2.8089473E3,2.0912324E3,9.825195E0,0E0,0E0,0E0,2.0344951E3,7.809883E2,5.6760187E2,5.409961E2,0E0,0E0,0E0,0E0,0E0,0E0,0E0,0E0,0E0,0E0],"parents":[2147483647,0,0,1,1,2,2,3,3,4,4,5,5,6,6,7,7,11,11,12,12,13,13,14,14],"right_children":[2,4,6,8,10,12,14,16,-1,-1,-1,18,20,22,24,-1,-1,-1,-1,-1,-1,-1,-1,-1,-1],"split_conditions":[4E0,3E0,1.9E1,5E0,2E0,6E0,2.2E1,2E0,-5.5368483E-1,-1.6259703E-1,-5.204704E-1,5E0,5E0,2E0,4E0,-7.46585E-1,-6.318891E-1,1.022514E-1,-5.461511E-1,3.168571E-1,1.4916418E-1,-3.306853E-1,-6.904686E-2,-6.226978E-1,-2.7521878E-1],"split_indices":[1,1,1,0,0,1,1,1,0,0,0,0,0,0,0,0,0,0,0,0,0,0,0,0,0],"split_type":[0,0,0,0,0,0,0,0,0,0,0,0,0,0,0,0,0,0,0,0,0,0,0,0,0],"sum_hessian":[2.857E3,4E2,2.457E3,3.55E2,4.5E1,1.82E3,6.37E2,2.18E2,1.37E2,2.3E1,2.2E1,2.25E2,1.595E3,4.14E2,2.23E2,1.53E2,6.5E1,1.56E2,6.9E1,1.233E3,3.62E2,1.14E2,3E2,1.57E2,6.6E1],"tree_param":{"num_deleted":"0","num_feature":"2","num_nodes":"25","size_leaf_vector":"1"}},{"base_weights":[-6.485227E-3,-5.594162E0,9.050953E-1,-5.898083E0,-3.120465E0,1.7680336E0,-3.8332078E0,-6.445148E0,-4.9871752E-1,-1.4701484E-1,-4.7068626E-1,2.2224991E0,-1.4627782E-1,-4.937387E0,-1.0168194E0,-6.724113E-1,-5.6965756E-1,-8.851232E-2,2.7033374E-1,-7.415007E-2,1.2654796E-1,-3.9727864E-1,-5.6082207E-1,1.3432296E-1,-2.4810766E-1],"categories":[],"categories_nodes":[],"categories_segments":[],"categories_sizes":[],"default_left":[0,0,0,0,0,0,0,0,0,0,0,0,0,0,0,0,0,0,0,0,0,0,0,0,0],"id":6,"left_children":[1,3,5,7,9,11,13,15,-1,-1,-1,17,19,21,23,-1,-1,-1,-1,-1,-1,-1,-1,-1,-1],"loss_changes":[1.456262E4,2.830713E2,1.0057204E4,1.4526074E2,1.13510864E2,1.8099014E3,1.1735928E3,7.428711E0,0E0,0E0,0E0,2.514249E3,3.3706247E2,1.5372705E2,3.7655023E2,0E0,0E0,0E0,0E0,0E0,0E0,0E0,0E0,0E0,0E0],"parents":[2147483647,0,0,1,1,2,2,3,3,4,4,5,5,6,6,7,7,11,11,12,12,13,13,14,14],"right_children":[2,4,6,8,10,12,14,16,-1,-1,-1,18,20,22,24,-1,-1,-1,-1,-1,-1,-1,-1,-1,-1],"split_conditions":[4E0,3E0,2.1E1,5E0,2E0,1.8E1,4E0,2E0,-4.9871752E-1,-1.4701484E-1,-4.7068626E-1,6E0,4E0,2.2E1,2.2E1,-6.724113E-1,-5.6965756E-1,-8.851232E-2,2.7033374E-1,-7.415007E-2,1.2654796E-1,-3.9727864E-1,-5.6082207E-1,1.3432296E-1,-2.4810766E-1],"split_indices":[1,1,1,0,0,1,0,1,0,0,0,1,0,1,1,0,0,0,0,0,0,0,0,0,0],"split_type":[0,0,0,0,0,0,0,0,0,0,0,0,0,0,0,0,0,0,0,0,0,0,0,0,0],"sum_hessian":[2.857E3,4E2,2.457E3,3.55E2,4.5E1,2.079E3,3.78E2,2.18E2,1.37E2,2.3E1,2.2E1,1.68E3,3.99E2,2.71E2,1.07E2,1.53E2,6.5E1,2.25E2,1.455E3,2.81E2,1.18E2,1.14E2,1.57E2,4.1E1,6.6E1],"tree_param":{"num_deleted":"0","num_feature":"2","num_nodes":"25","size_leaf_vector":"1"}},{"base_weights":[-6.9551514E-3,-5.0406275E0,8.142448E-1,-5.3131647E0,-2.8218472E0,1.5913427E0,-3.452715E0,-5.806305E0,-4.4920716E-1,-1.3292594E-1,-4.256641E-1,2.0003572E0,-1.3151895E-1,-4.4471703E0,-9.161909E-1,-6.056068E-1,-5.13555E-1,2.649205E-1,1.1827304E-2,-1.0774262E-1,6.1650384E-2,-3.5789618E-1,-5.0509477E-1,1.21210456E-1,-2.2366717E-1],"categories":[],"categories_nodes":[],"categories_segments":[],"categories_sizes":[],"default_left":[0,0,0,0,0,0,0,0,0,0,0,0,0,0,0,0,0,0,0,0,0,0,0,0,0],"id":7,"left_children":[1,3,5,7,9,11,13,15,-1,-1,-1,17,19,21,23,-1,-1,-1,-1,-1,-1,-1,-1,-1,-1],"loss_changes":[1.1818079E4,2.2749219E2,8.155842E3,1.1806738E2,9.285333E1,1.4659878E3,9.51938E2,5.5874023E0,0E0,0E0,0E0,2.052501E3,2.8368832E2,1.2450635E2,3.062314E2,0E0,0E0,0E0,0E0,0E0,0E0,0E0,0E0,0E0,0E0],"parents":[2147483647,0,0,1,1,2,2,3,3,4,4,5,5,6,6,7,7,11,11,12,12,13,13,14,14],"right_children":[2,4,6,8,10,12,14,16,-1,-1,-1,18,20,22,24,-1,-1,-1,-1,-1,-1,-1,-1,-1,-1],"split_conditions":[4E0,3E0,2.1E1,5E0,2E0,1.8E1,4E0,2E0,-4.4920716E-1,-1.3292594E-1,-4.256641E-1,5E0,3E0,2.2E1,2.2E1,-6.056068E-1,-5.13555E-1,2.649205E-1,1.1827304E-2,-1.0774262E-1,6.1650384E-2,-3.5789618E-1,-5.0509477E-1,1.21210456E-1,-2.2366717E-1],"split_indices":[1,1,1,0,0,1,0,1,0,0,0,0,0,1,1,0,0,0,0,0,0,0,0,0,0],"split_type":[0,0,0,0,0,0,0,0,0,0,0,0,0,0,0,0,0,0,0,0,0,0,0,0,0],"sum_hessian":[2.857E3,4E2,2.457E3,3.55E2,4.5E1,2.079E3,3.78E2,2.18E2,1.37E2,2.3E1,2.2E1,1.68E3,3.99E2,2.71E2,1.07E2,1.53E2,6.5E1,1.249E3,4.31E2,1.76E2,2.23E2,1.14E2,1.57E2,4.1E1,6.6E1],"tree_param":{"num_deleted":"0","num_feature":"2","num_nodes":"25","size_leaf_vector":"1"}},{"base_weights":[-7.2612492E-3,-4.5418687E0,7.3252106E-1,-4.786254E0,-2.5518057E0,1.5716207E0,-2.491526E0,-5.230785E0,-4.0461192E-1,-1.201872E-1,-3.849484E-1,-9.8347867E-1,1.9052712E0,-3.2248995E0,-3.780915E-1,-5.454394E-1,-4.6297756E-1,7.456301E-2,-4.8475727E-1,2.2313753E-1,1.4618329E-2,-1.19110145E-1,-4.005626E-1,1.2907106E-1,-2.0163429E-1],"categories":[],"categories_nodes":[],"categories_segments":[],"categories_sizes":[],"default_left":[0,0,0,0,0,0,0,0,0,0,0,0,0,0,0,0,0,0,0,0,0,0,0,0,0],"id":8,"left_children":[1,3,5,7,9,11,13,15,-1,-1,-1,17,19,21,23,-1,-1,-1,-1,-1,-1,-1,-1,-1,-1],"loss_changes":[9.590838E3,1.8280957E2,6.6535347E3,9.596387E1,7.595529E1,1.6651221E3,7.8614844E2,4.179199E0,0E0,0E0,0E0,1.5136198E3,9.8978613E2,5.938452E2,3.634796E2,0E0,0E0,0E0,0E0,0E0,0E0,0E0,0E0,0E0,0E0],"parents":[2147483647,0,0,1,1,2,2,3,3,4,4,5,5,6,6,7,7,11,11,12,12,13,13,14,14],"right_children":[2,4,6,8,10,12,14,16,-1,-1,-1,18,20,22,24,-1,-1,-1,-1,-1,-1,-1,-1,-1,-1],"split_conditions":[4E0,3E0,2E1,5E0,2E0,6E0,4E0,2E0,-4.0461192E-1,-1.201872E-1,-3.849484E-1,5E0,1.8E1,2.1E1,2.2E1,-5.454394E-1,-4.6297756E-1,7.456301E-2,-4.8475727E-1,2.2313753E-1,1.4618329E-2,-1.19110145E-1,-4.005626E-1,1.2907106E-1,-2.0163429E-1],"split_indices":[1,1,1,0,0,1,0,1,0,0,0,0,1,1,1,0,0,0,0,0,0,0,0,0,0],"split_type":[0,0,0,0,0,0,0,0,0,0,0,0,0,0,0,0,0,0,0,0,0,0,0,0,0],"sum_hessian":[2.857E3,4E2,2.457E3,3.55E2,4.5E1,1.95E3,5.07E2,2.18E2,1.37E2,2.3E1,2.2E1,2.25E2,1.725E3,3.76E2,1.31E2,1.53E2,6.5E1,1.56E2,6.9E1,1.455E3,2.7E2,1.05E2,2.71E2,6.5E1,6.6E1],"tree_param":{"num_deleted":"0","num_feature":"2","num_nodes":"25","size_leaf_vector":"1"}},{"base_weights":[-7.473606E-3,-4.0924654E0,6.5895814E-1,-4.3115973E0,-2.3076065E0,1.4143705E0,-2.2435393E0,-4.7123113E0,-3.6444393E-1,-1.08669296E-1,-3.4812722E-1,-8.8694584E-1,1.7148823E0,-2.903788E0,-3.4083217E-1,-4.269753E-1,-4.9770084E-1,6.715419E-2,-4.3697405E-1,2.0083915E-1,1.316193E-2,-1.073115E-1,-3.6065364E-1,1.1635949E-1,-1.817718E-1],"categories":[],"categories_nodes":[],"categories_segments":[],"categories_sizes":[],"default_left":[0,0,0,0,0,0,0,0,0,0,0,0,0,0,0,0,0,0,0,0,0,0,0,0,0],"id":9,"left_children":[1,3,5,7,9,11,13,15,-1,-1,-1,17,19,21,23,-1,-1,-1,-1,-1,-1,-1,-1,-1,-1],"loss_changes":[7.7832246E3,1.4689014E2,5.392541E3,7.799902E1,6.213237E1,1.350779E3,6.371904E2,4.4038086E0,0E0,0E0,0E0,1.2296382E3,8.01812E2,4.811411E2,2.9540155E2,0E0,0E0,0E0,0E0,0E0,0E0,0E0,0E0,0E0,0E0],"parents":[2147483647,0,0,1,1,2,2,3,3,4,4,5,5,6,6,7,7,11,11,12,12,13,13,14,14],"right_children":[2,4,6,8,10,12,14,16,-1,-1,-1,18,20,22,24,-1,-1,-1,-1,-1,-1,-1,-1,-1,-1],"split_conditions":[4E0,3E0,2E1,5E0,2E0,6E0,4E0,2E0,-3.6444393E-1,-1.08669296E-1,-3.4812722E-1,5E0,1.8E1,2.1E1,2.2E1,-4.269753E-1,-4.9770084E-1,6.715419E-2,-4.3697405E-1,2.0083915E-1,1.316193E-2,-1.073115E-1,-3.6065364E-1,1.1635949E-1,-1.817718E-1],"split_indices":[1,1,1,0,0,1,0,0,0,0,0,0,1,1,1,0,0,0,0,0,0,0,0,0,0],"split_type":[0,0,0,0,0,0,0,0,0,0,0,0,0,0,0,0,0,0,0,0,0,0,0,0,0],"sum_hessian":[2.857E3,4E2,2.457E3,3.55E2,4.5E1,1.95E3,5.07E2,2.18E2,1.37E2,2.3E1,2.2E1,2.25E2,1.725E3,3.76E2,1.31E2,8.8E1,1.3E2,1.56E2,6.9E1,1.455E3,2.7E2,1.05E2,2.71E2,6.5E1,6.6E1],"tree_param":{"num_deleted":"0","num_feature":"2","num_nodes":"25","size_leaf_vector":"1"}},{"base_weights":[-7.578605E-3,-3.687573E0,5.9278154E-1,-3.884059E0,-2.086776E0,1.3823403E0,-1.6617312E0,-4.245302E0,-3.2826364E-1,-9.825516E-2,-3.148281E-1,-1.373214E-1,1.876828E0,-8.4615785E-1,-3.1653082E0,-3.8475752E-1,-4.483107E-1,1.2385541E-1,-4.325687E-1,2.0362572E-1,4.6822812E-2,-2.2305189E-1,-3.14438E-2,-3.7926516E-1,-1.6386588E-1],"categories":[],"categories_nodes":[],"categories_segments":[],"categories_sizes":[],"default_left":[0,0,0,0,0,0,0,0,0,0,0,0,0,0,0,0,0,0,0,0,0,0,0,0,0],"id":10,"left_children":[1,3,5,7,9,11,13,15,-1,-1,-1,17,19,21,23,-1,-1,-1,-1,-1,-1,-1,-1,-1,-1],"loss_changes":[6.3164287E3,1.1802246E2,4.37771E3,6.340869E1,5.0825058E1,1.3686558E3,7.7968677E2,3.4641113E0,0E0,0E0,0E0,2.5870334E3,3.076084E2,3.0477686E2,2.0831714E2,0E0,0E0,0E0,0E0,0E0,0E0,0E0,0E0,0E0,0E0],"parents":[2147483647,0,0,1,1,2,2,3,3,4,4,5,5,6,6,7,7,11,11,12,12,13,13,14,14],"right_children":[2,4,6,8,10,12,14,16,-1,-1,-1,18,20,22,24,-1,-1,-1,-1,-1,-1,-1,-1,-1,-1],"split_conditions":[4E0,3E0,1.9E1,5E0,2E0,9E0,2.2E1,2E0,-3.2826364E-1,-9.825516E-2,-3.148281E-1,5E0,1.8E1,2E0,4E0,-3.8475752E-1,-4.483107E-1,1.2385541E-1,-4.325687E-1,2.0362572E-1,4.6822812E-2,-2.2305189E-1,-3.14438E-2,-3.7926516E-1,-1.6386588E-1],"split_indices":[1,1,1,0,0,1,1,0,0,0,0,0,1,0,0,0,0,0,0,0,0,0,0,0,0],"split_type":[0,0,0,0,0,0,0,0,0,0,0,0,0,0,0,0,0,0,0,0,0,0,0,0,0],"sum_hessian":[2.857E3,4E2,2.457E3,3.55E2,4.5E1,1.82E3,6.37E2,2.18E2,1.37E2,2.3E1,2.2E1,4.47E2,1.373E3,4.14E2,2.23E2,8.8E1,1.3E2,3.37E2,1.1E2,1.233E3,1.4E2,1.14E2,3E2,1.57E2,6.6E1],"tree_param":{"num_deleted":"0","num_feature":"2","num_nodes":"25","size_leaf_vector":"1"}},{"base_weights":[-7.671381E-3,-3.3227417E0,5.3315485E-1,-3.4989152E0,-1.8870785E0,1.0498086E0,-2.303713E0,-3.824576E0,-2.9567513E-1,-8.883904E-2,-2.847141E-1,1.1193942E0,-4.714899E-1,-2.9827116E0,-5.7231194E-1,-3.9926824E-1,-3.3743793E-1,1.4024538E-1,-5.59788E-3,-2.3617677E-1,-3.4157866E-1,8.84888E-2,-1.4772385E-1],"categories":[],"categories_nodes":[],"categories_segments":[],"categories_sizes":[],"default_left":[0,0,0,0,0,0,0,0,0,0,0,0,0,0,0,0,0,0,0,0,0,0,0],"id":11,"left_children":[1,3,5,7,9,11,13,15,-1,-1,-1,17,-1,19,21,-1,-1,-1,-1,-1,-1,-1,-1],"loss_changes":[5.1258145E3,9.482031E1,3.605056E3,5.154785E1,4.157556E1,8.3964966E2,4.4385266E2,3.1013184E0,0E0,0E0,0E0,6.8411084E2,0E0,6.507764E1,1.4372238E2,0E0,0E0,0E0,0E0,0E0,0E0,0E0,0E0],"parents":[2147483647,0,0,1,1,2,2,3,3,4,4,5,5,6,6,7,7,11,11,13,13,14,14],"right_children":[2,4,6,8,10,12,14,16,-1,-1,-1,18,-1,20,22,-1,-1,-1,-1,-1,-1,-1,-1],"split_conditions":[4E0,3E0,2.1E1,5E0,2E0,7E0,4E0,2E0,-2.9567513E-1,-8.883904E-2,-2.847141E-1,1.8E1,-4.714899E-1,2.2E1,2.2E1,-3.9926824E-1,-3.3743793E-1,1.4024538E-1,-5.59788E-3,-2.3617677E-1,-3.4157866E-1,8.84888E-2,-1.4772385E-1],"split_indices":[1,1,1,0,0,0,0,1,0,0,0,1,0,1,1,0,0,0,0,0,0,0,0],"split_type":[0,0,0,0,0,0,0,0,0,0,0,0,0,0,0,0,0,0,0,0,0,0,0],"sum_hessian":[2.857E3,4E2,2.457E3,3.55E2,4.5E1,2.079E3,3.78E2,2.18E2,1.37E2,2.3E1,2.2E1,2.055E3,2.4E1,2.71E2,1.07E2,1.53E2,6.5E1,1.656E3,3.99E2,1.14E2,1.57E2,4.1E1,6.6E1],"tree_param":{"num_deleted":"0","num_feature":"2","num_nodes":"23","size_leaf_vector":"1"}},{"base_weights":[-7.7369683E-3,-2.9939735E0,4.794431E-1,-3.1519237E0,-1.7064916E0,1.0378493E0,-1.6660885E0,-3.4454823E0,-2.6632187E-1,-8.032534E-2,-2.574806E-1,-2.3143937E-1,1.4152453E0,-2.188148E0,-1.6243295E-1,-3.1175157E-1,-3.6419982E-1,9.752344E-2,-3.9037305E-1,1.692664E-1,1.46795055E-2,-8.885485E-2,-2.6865646E-1,1.02703094E-1,-1.3317193E-1],"categories":[],"categories_nodes":[],"categories_segments":[],"categories_sizes":[],"default_left":[0,0,0,0,0,0,0,0,0,0,0,0,0,0,0,0,0,0,0,0,0,0,0,0,0],"id":12,"left_children":[1,3,5,7,9,11,13,15,-1,-1,-1,17,19,21,23,-1,-1,-1,-1,-1,-1,-1,-1,-1,-1],"loss_changes":[4.159354E3,7.6167725E1,2.9466055E3,4.1897217E1,3.4009323E1,9.349043E2,3.9842346E2,2.760498E0,0E0,0E0,0E0,1.9890104E3,5.289968E2,2.4181177E2,1.8495647E2,0E0,0E0,0E0,0E0,0E0,0E0,0E0,0E0,0E0,0E0],"parents":[2147483647,0,0,1,1,2,2,3,3,4,4,5,5,6,6,7,7,11,11,12,12,13,13,14,14],"right_children":[2,4,6,8,10,12,14,16,-1,-1,-1,18,20,22,24,-1,-1,-1,-1,-1,-1,-1,-1,-1,-1],"split_conditions":[4E0,3E0,2E1,5E0,2E0,9E0,4E0,2E0,-2.6632187E-1,-8.032534E-2,-2.574806E-1,5E0,1.8E1,2.1E1,2.2E1,-3.1175157E-1,-3.6419982E-1,9.752344E-2,-3.9037305E-1,1.692664E-1,1.46795055E-2,-8.885485E-2,-2.6865646E-1,1.02703094E-1,-1.3317193E-1],"split_indices":[1,1,1,0,0,1,0,0,0,0,0,0,1,1,1,0,0,0,0,0,0,0,0,0,0],"split_type":[0,0,0,0,0,0,0,0,0,0,0,0,0,0,0,0,0,0,0,0,0,0,0,0,0],"sum_hessian":[2.857E3,4E2,2.457E3,3.55E2,4.5E1,1.95E3,5.07E2,2.18E2,1.37E2,2.3E1,2.2E1,4.47E2,1.503E3,3.76E2,1.31E2,8.8E1,1.3E2,3.37E2,1.1E2,1.233E3,2.7E2,1.05E2,2.71E2,6.5E1,6.6E1],"tree_param":{"num_deleted":"0","num_feature":"2","num_nodes":"25","size_leaf_vector":"1"}},{"base_weights":[-7.58483E-3,-2.6977687E0,4.3129689E-1,-2.8393784E0,-1.5431862E0,9.340089E-1,-1.5002433E0,-3.1040208E0,-2.398827E-1,-7.262752E-2,-2.3285201E-1,1.2770225E0,-2.7505282E-1,-1.9702815E0,-1.4642042E-1,-3.2420057E-1,-2.735026E-1,1.524205E-1,1.3216949E-2,-3.516874E-1,8.433236E-2,-8.00532E-2,-2.418896E-1,9.258839E-2,-1.20053485E-1],"categories":[],"categories_nodes":[],"categories_segments":[],"categories_sizes":[],"default_left":[0,0,0,0,0,0,0,0,0,0,0,0,0,0,0,0,0,0,0,0,0,0,0,0,0],"id":13,"left_children":[1,3,5,7,9,11,13,15,-1,-1,-1,17,19,21,23,-1,-1,-1,-1,-1,-1,-1,-1,-1,-1],"loss_changes":[3.3755256E3,6.1181885E1,2.3881401E3,3.4059326E1,2.7820053E1,8.09479E2,3.2297656E2,2.2836914E0,0E0,0E0,0E0,4.2993994E2,1.569215E3,1.9590063E2,1.503153E2,0E0,0E0,0E0,0E0,0E0,0E0,0E0,0E0,0E0,0E0],"parents":[2147483647,0,0,1,1,2,2,3,3,4,4,5,5,6,6,7,7,11,11,12,12,13,13,14,14],"right_children":[2,4,6,8,10,12,14,16,-1,-1,-1,18,20,22,24,-1,-1,-1,-1,-1,-1,-1,-1,-1,-1],"split_conditions":[4E0,3E0,2E1,5E0,2E0,5E0,4E0,2E0,-2.398827E-1,-7.262752E-2,-2.3285201E-1,1.8E1,9E0,2.1E1,2.2E1,-3.2420057E-1,-2.735026E-1,1.524205E-1,1.3216949E-2,-3.516874E-1,8.433236E-2,-8.00532E-2,-2.418896E-1,9.258839E-2,-1.20053485E-1],"split_indices":[1,1,1,0,0,0,0,1,0,0,0,1,1,1,1,0,0,0,0,0,0,0,0,0,0],"split_type":[0,0,0,0,0,0,0,0,0,0,0,0,0,0,0,0,0,0,0,0,0,0,0,0,0],"sum_hessian":[2.857E3,4E2,2.457E3,3.55E2,4.5E1,1.95E3,5.07E2,2.18E2,1.37E2,2.3E1,2.2E1,1.519E3,4.31E2,3.76E2,1.31E2,1.53E2,6.5E1,1.249E3,2.7E2,1.1E2,3.21E2,1.05E2,2.71E2,6.5E1,6.6E1],"tree_param":{"num_deleted":"0","num_feature":"2","num_nodes":"25","size_leaf_vector":"1"}},{"base_weights":[-7.3839254E-3,-2.4308424E0,3.8798395E-1,-2.5577931E0,-1.3955086E0,9.1379404E-1,-1.1134082E0,-2.7963479E0,-2.1606827E-1,-6.566742E-2,-2.1057919E-1,-2.3725227E-1,1.2884338E0,-5.5887073E-1,-2.1358173E0,-2.5257358E-1,-2.958853E-1,7.260307E-2,-3.168355E-1,8.997201E-2,1.9411124E-1,-1.6845416E-1,-1.2694051E-2,-2.5690556E-1,-1.08227335E-1],"categories":[],"categories_nodes":[],"categories_segments":[],"categories_sizes":[],"default_left":[0,0,0,0,0,0,0,0,0,0,0,0,0,0,0,0,0,0,0,0,0,0,0,0,0],"id":14,"left_children":[1,3,5,7,9,11,13,15,-1,-1,-1,17,19,21,23,-1,-1,-1,-1,-1,-1,-1,-1,-1,-1],"loss_changes":[2.7393577E3,4.913672E1,1.9414786E3,2.7682617E1,2.2757133E1,7.8557117E2,3.6052948E2,2.1574707E0,0E0,0E0,0E0,1.26722E3,3.4684448E2,2.0156381E2,9.946118E1,0E0,0E0,0E0,0E0,0E0,0E0,0E0,0E0,0E0,0E0],"parents":[2147483647,0,0,1,1,2,2,3,3,4,4,5,5,6,6,7,7,11,11,12,12,13,13,14,14],"right_children":[2,4,6,8,10,12,14,16,-1,-1,-1,18,20,22,24,-1,-1,-1,-1,-1,-1,-1,-1,-1,-1],"split_conditions":[4E0,3E0,1.9E1,5E0,2E0,9E0,2.2E1,2E0,-2.1606827E-1,-6.566742E-2,-2.1057919E-1,5E0,1.5E1,2E0,4E0,-2.5257358E-1,-2.958853E-1,7.260307E-2,-3.168355E-1,8.997201E-2,1.9411124E-1,-1.6845416E-1,-1.2694051E-2,-2.5690556E-1,-1.08227335E-1],"split_indices":[1,1,1,0,0,1,1,0,0,0,0,0,1,0,0,0,0,0,0,0,0,0,0,0,0],"split_type":[0,0,0,0,0,0,0,0,0,0,0,0,0,0,0,0,0,0,0,0,0,0,0,0,0],"sum_hessian":[2.857E3,4E2,2.457E3,3.55E2,4.5E1,1.82E3,6.37E2,2.18E2,1.37E2,2.3E1,2.2E1,4.47E2,1.373E3,4.14E2,2.23E2,8.8E1,1.3E2,3.37E2,1.1E2,8.62E2,5.11E2,1.14E2,3E2,1.57E2,6.6E1],"tree_param":{"num_deleted":"0","num_feature":"2","num_nodes":"25","size_leaf_vector":"1"}},{"base_weights":[-7.1868044E-3,-2.1903536E0,3.4897962E-1,-2.3041615E0,-1.2619631E0,6.9257295E-1,-1.537625E0,-2.5192175E0,-1.9461802E-1,-5.937433E-2,-1.9043683E-1,-7.273268E-1,8.651901E-1,-1.9979461E0,-3.6406025E-1,-2.2760001E-1,-2.6652262E-1,2.19042E-3,-2.3973547E-1,1.12147346E-1,-6.984416E-3,-2.4859379E-1,-1.6301171E-1,6.2025666E-2,-9.75661E-2],"categories":[],"categories_nodes":[],"categories_segments":[],"categories_sizes":[],"default_left":[0,0,0,0,0,0,0,0,0,0,0,0,0,0,0,0,0,0,0,0,0,0,0,0,0],"id":15,"left_children":[1,3,5,7,9,11,13,15,-1,-1,-1,17,19,21,23,-1,-1,-1,-1,-1,-1,-1,-1,-1,-1],"loss_changes":[2.2230613E3,3.946118E1,1.5944012E3,2.2504272E1,1.8615623E1,5.1043518E2,2.040149E2,1.7109375E0,0E0,0E0,0E0,2.82832E2,4.4459888E2,4.4770874E1,6.562212E1,0E0,0E0,0E0,0E0,0E0,0E0,0E0,0E0,0E0,0E0],"parents":[2147483647,0,0,1,1,2,2,3,3,4,4,5,5,6,6,7,7,11,11,12,12,13,13,14,14],"right_children":[2,4,6,8,10,12,14,16,-1,-1,-1,18,20,22,24,-1,-1,-1,-1,-1,-1,-1,-1,-1,-1],"split_conditions":[4E0,3E0,2.1E1,5E0,2E0,6E0,4E0,2E0,-1.9461802E-1,-5.937433E-2,-1.9043683E-1,5E0,1.8E1,2E0,2.2E1,-2.2760001E-1,-2.6652262E-1,2.19042E-3,-2.3973547E-1,1.12147346E-1,-6.984416E-3,-2.4859379E-1,-1.6301171E-1,6.2025666E-2,-9.75661E-2],"split_indices":[1,1,1,0,0,1,0,0,0,0,0,0,1,0,1,0,0,0,0,0,0,0,0,0,0],"split_type":[0,0,0,0,0,0,0,0,0,0,0,0,0,0,0,0,0,0,0,0,0,0,0,0,0],"sum_hessian":[2.857E3,4E2,2.457E3,3.55E2,4.5E1,2.079E3,3.78E2,2.18E2,1.37E2,2.3E1,2.2E1,2.25E2,1.854E3,2.71E2,1.07E2,8.8E1,1.3E2,1.56E2,6.9E1,1.455E3,3.99E2,1.14E2,1.57E2,4.1E1,6.6E1],"tree_param":{"num_deleted":"0","num_feature":"2","num_nodes":"25","size_leaf_vector":"1"}},{"base_weights":[-6.999742E-3,-1.9736587E0,3.1384534E-1,-2.0756798E0,-1.1411977E0,6.853577E-1,-1.1135846E0,-2.269552E0,-1.7529722E-1,-5.3684324E-2,-1.7222111E-1,9.635611E-1,-2.950926E-1,-1.4862357E0,-4.0834513E-2,-2.373436E-1,-1.9927688E-1,1.1907453E-2,1.252909E-1,-2.746773E-1,5.509683E-2,-1.0279395E-1,-2.1149634E-1,8.112091E-2,-8.795516E-2],"categories":[],"categories_nodes":[],"categories_segments":[],"categories_sizes":[],"default_left":[0,0,0,0,0,0,0,0,0,0,0,0,0,0,0,0,0,0,0,0,0,0,0,0,0],"id":16,"left_children":[1,3,5,7,9,11,13,15,-1,-1,-1,17,19,21,23,-1,-1,-1,-1,-1,-1,-1,-1,-1,-1],"loss_changes":[1.803997E3,3.1687622E1,1.30426E3,1.8294434E1,1.5227798E1,5.3244806E2,2.0301813E2,1.5671387E0,0E0,0E0,0E0,3.712633E2,8.9759845E2,1.06456055E2,9.50438E1,0E0,0E0,0E0,0E0,0E0,0E0,0E0,0E0,0E0,0E0],"parents":[2147483647,0,0,1,1,2,2,3,3,4,4,5,5,6,6,7,7,11,11,12,12,13,13,14,14],"right_children":[2,4,6,8,10,12,14,16,-1,-1,-1,18,20,22,24,-1,-1,-1,-1,-1,-1,-1,-1,-1,-1],"split_conditions":[4E0,3E0,2E1,5E0,2E0,5E0,4E0,2E0,-1.7529722E-1,-5.3684324E-2,-1.7222111E-1,2E0,9E0,2.2E1,2.2E1,-2.373436E-1,-1.9927688E-1,1.1907453E-2,1.252909E-1,-2.746773E-1,5.509683E-2,-1.0279395E-1,-2.1149634E-1,8.112091E-2,-8.795516E-2],"split_indices":[1,1,1,0,0,0,0,1,0,0,0,0,1,1,1,0,0,0,0,0,0,0,0,0,0],"split_type":[0,0,0,0,0,0,0,0,0,0,0,0,0,0,0,0,0,0,0,0,0,0,0,0,0],"sum_hessian":[2.857E3,4E2,2.457E3,3.55E2,4.5E1,1.95E3,5.07E2,2.18E2,1.37E2,2.3E1,2.2E1,1.519E3,4.31E2,3.76E2,1.31E2,1.53E2,6.5E1,3.88E2,1.131E3,1.1E2,3.21E2,2.19E2,1.57E2,6.5E1,6.6E1],"tree_param":{"num_deleted":"0","num_feature":"2","num_nodes":"25","size_leaf_vector":"1"}},{"base_weights":[-6.734494E-3,-1.3728518E0,3.7624633E-1,-1.8698307E0,-7.149281E-1,8.617306E-1,-8.38815E-1,-2.0445905E0,-1.578945E-1,-1.4223991E-1,-1.827634E0,5.243094E-1,1.5750905E0,-1.7214974E0,-4.827411E-1,-1.8440819E-1,-2.1652062E-1,-3.7379242E-2,5.6072403E-2,-1.3809356E-1,-2.2259425E-1,-6.8330914E-2,7.798041E-2,2.1275823E-1,1.0628175E-2,-1.1101612E-1,-2.0733297E-1,-8.315115E-3,-1.2506503E-1],"categories":[],"categories_nodes":[],"categories_segments":[],"categories_sizes":[],"default_left":[0,0,0,0,0,0,0,0,0,0,0,0,0,0,0,0,0,0,0,0,0,0,0,0,0,0,0,0,0],"id":17,"left_children":[1,3,5,7,9,11,13,15,-1,17,19,21,23,25,27,-1,-1,-1,-1,-1,-1,-1,-1,-1,-1,-1,-1,-1,-1],"loss_changes":[1.4958127E3,2.0334912E2,1.3179541E3,1.4869019E1,1.7243031E2,3.8333582E2,1.9969244E2,1.3036499E0,0E0,2.9508745E1,1.3295105E1,3.3529883E2,4.1526416E2,3.7059326E1,1.3981906E2,0E0,0E0,0E0,0E0,0E0,0E0,0E0,0E0,0E0,0E0,0E0,0E0,0E0,0E0],"parents":[2147483647,0,0,1,1,2,2,3,3,4,4,5,5,6,6,7,7,9,9,10,10,11,11,12,12,13,13,14,14],"right_children":[2,4,6,8,10,12,14,16,-1,18,20,22,24,26,28,-1,-1,-1,-1,-1,-1,-1,-1,-1,-1,-1,-1,-1,-1],"split_conditions":[6E0,3E0,1.9E1,5E0,5E0,1.5E1,2E0,2E0,-1.578945E-1,4E0,7E0,2E0,1.8E1,2.1E1,2.2E1,-1.8440819E-1,-2.1652062E-1,-3.7379242E-2,5.6072403E-2,-1.3809356E-1,-2.2259425E-1,-6.8330914E-2,7.798041E-2,2.1275823E-1,1.0628175E-2,-1.1101612E-1,-2.0733297E-1,-8.315115E-3,-1.2506503E-1],"split_indices":[1,1,1,0,0,1,0,0,0,0,0,0,1,1,1,0,0,0,0,0,0,0,0,0,0,0,0,0,0],"split_type":[0,0,0,0,0,0,0,0,0,0,0,0,0,0,0,0,0,0,0,0,0,0,0,0,0,0,0,0,0],"sum_hessian":[2.857E3,6.25E2,2.232E3,3.55E2,2.7E2,1.595E3,6.37E2,2.18E2,1.37E2,1.79E2,9.1E1,1.084E3,5.11E2,1.82E2,4.55E2,8.8E1,1.3E2,1.35E2,4.4E1,4.5E1,4.6E1,1.89E2,8.95E2,3.71E2,1.4E2,6.8E1,1.14E2,3E2,1.55E2],"tree_param":{"num_deleted":"0","num_feature":"2","num_nodes":"29","size_leaf_vector":"1"}},{"base_weights":[-6.45275E-3,-1.2370056E0,3.3852378E-1,-1.6844174E0,-6.4469725E-1,7.7570355E-1,-7.556416E-1,-1.8419622E0,-1.4221947E-1,-1.2791207E-1,-1.6487912E0,4.7188762E-1,1.4180173E0,-1.5510873E0,-4.347596E-1,-1.927315E-1,-1.6148971E-1,5.2485406E-2,-3.493886E-2,-1.24584414E-1,-2.0080844E-1,-6.1533805E-2,7.019111E-2,1.9153951E-1,9.572937E-3,-1.2083905E-1,-2.0997691E-1,-7.486371E-3,-1.1263871E-1],"categories":[],"categories_nodes":[],"categories_segments":[],"categories_sizes":[],"default_left":[0,0,0,0,0,0,0,0,0,0,0,0,0,0,0,0,0,0,0,0,0,0,0,0,0,0,0,0,0],"id":18,"left_children":[1,3,5,7,9,11,13,15,-1,17,19,21,23,25,27,-1,-1,-1,-1,-1,-1,-1,-1,-1,-1,-1,-1,-1,-1],"loss_changes":[1.2136737E3,1.6480756E2,1.068735E3,1.2087341E1,1.4041124E2,3.1078253E2,1.6217145E2,1.131897E0,0E0,2.6206404E1,1.0817642E1,2.7177667E2,3.3654724E2,3.1872437E1,1.1342042E2,0E0,0E0,0E0,0E0,0E0,0E0,0E0,0E0,0E0,0E0,0E0,0E0,0E0,0E0],"parents":[2147483647,0,0,1,1,2,2,3,3,4,4,5,5,6,6,7,7,9,9,10,10,11,11,12,12,13,13,14,14],"right_children":[2,4,6,8,10,12,14,16,-1,18,20,22,24,26,28,-1,-1,-1,-1,-1,-1,-1,-1,-1,-1,-1,-1,-1,-1],"split_conditions":[6E0,3E0,1.9E1,5E0,5E0,1.5E1,2E0,2E0,-1.4221947E-1,2E0,7E0,2E0,1.8E1,2.2E1,2.2E1,-1.927315E-1,-1.6148971E-1,5.2485406E-2,-3.493886E-2,-1.24584414E-1,-2.0080844E-1,-6.1533805E-2,7.019111E-2,1.9153951E-1,9.572937E-3,-1.2083905E-1,-2.0997691E-1,-7.486371E-3,-1.1263871E-1],"split_indices":[1,1,1,0,0,1,0,1,0,0,0,0,1,1,1,0,0,0,0,0,0,0,0,0,0,0,0,0,0],"split_type":[0,0,0,0,0,0,0,0,0,0,0,0,0,0,0,0,0,0,0,0,0,0,0,0,0,0,0,0,0],"sum_hessian":[2.857E3,6.25E2,2.232E3,3.55E2,2.7E2,1.595E3,6.37E2,2.18E2,1.37E2,1.79E2,9.1E1,1.084E3,5.11E2,1.82E2,4.55E2,1.53E2,6.5E1,4.5E1,1.34E2,4.5E1,4.6E1,1.89E2,8.95E2,3.71E2,1.4E2,1.14E2,6.8E1,3E2,1.55E2],"tree_param":{"num_deleted":"0","num_feature":"2","num_nodes":"29","size_leaf_vector":"1"}},{"base_weights":[-6.173167E-3,-1.1145899E0,3.0456352E-1,-1.5173701E0,-5.8136356E-1,6.9826484E-1,-6.807842E-1,-1.7034872E0,-1.3321148E-1,-1.1502344E-1,-1.4874489E0,9.3685466E-1,-1.1473262E-1,-1.3977864E0,-3.9154702E-1,-1.4939968E-1,-1.9004774E-1,-3.3093333E-2,5.400603E-2,-1.1239683E-1,-1.8115483E-1,6.459796E-2,1.8092714E-1,-3.534095E-1,3.3162747E-2,-8.81666E-2,-1.6953039E-1,-6.7402185E-3,-1.0144704E-1],"categories":[],"categories_nodes":[],"categories_segments":[],"categories_sizes":[],"default_left":[0,0,0,0,0,0,0,0,0,0,0,0,0,0,0,0,0,0,0,0,0,0,0,0,0,0,0,0,0],"id":19,"left_children":[1,3,5,7,9,11,13,15,-1,17,19,21,23,25,27,-1,-1,-1,-1,-1,-1,-1,-1,-1,-1,-1,-1,-1,-1],"loss_changes":[9.847084E2,1.3356573E2,8.667291E2,1.0005371E1,1.1433833E2,3.096881E2,1.3176352E2,4.341278E0,0E0,2.5637753E1,8.801834E0,3.1197656E2,5.552069E2,2.6605804E1,9.200595E1,0E0,0E0,0E0,0E0,0E0,0E0,0E0,0E0,0E0,0E0,0E0,0E0,0E0,0E0],"parents":[2147483647,0,0,1,1,2,2,3,3,4,4,5,5,6,6,7,7,9,9,10,10,11,11,12,12,13,13,14,14],"right_children":[2,4,6,8,10,12,14,16,-1,18,20,22,24,26,28,-1,-1,-1,-1,-1,-1,-1,-1,-1,-1,-1,-1,-1,-1],"split_conditions":[6E0,3E0,1.9E1,4E0,5E0,5E0,2E0,2E0,-1.3321148E-1,4E0,7E0,4E0,9E0,2.1E1,2.2E1,-1.4939968E-1,-1.9004774E-1,-3.3093333E-2,5.400603E-2,-1.1239683E-1,-1.8115483E-1,6.459796E-2,1.8092714E-1,-3.534095E-1,3.3162747E-2,-8.81666E-2,-1.6953039E-1,-6.7402185E-3,-1.0144704E-1],"split_indices":[1,1,1,0,0,0,0,0,0,0,0,0,1,1,1,0,0,0,0,0,0,0,0,0,0,0,0,0,0],"split_type":[0,0,0,0,0,0,0,0,0,0,0,0,0,0,0,0,0,0,0,0,0,0,0,0,0,0,0,0,0],"sum_hessian":[2.857E3,6.25E2,2.232E3,3.55E2,2.7E2,1.595E3,6.37E2,1.73E2,1.82E2,1.79E2,9.1E1,1.233E3,3.62E2,1.82E2,4.55E2,8.8E1,8.5E1,1.35E2,4.4E1,4.5E1,4.6E1,9.26E2,3.07E2,4.1E1,3.21E2,6.8E1,1.14E2,3E2,1.55E2],"tree_param":{"num_deleted":"0","num_feature":"2","num_nodes":"29","size_leaf_vector":"1"}},{"base_weights":[-5.9708217E-3,-1.0043215E0,2.739098E-1,-1.3669608E0,-5.242331E-1,6.906698E-1,-5.0639415E-1,-1.4982157E0,-1.14875935E-1,-1.0340467E-1,-1.3418949E0,3.6439225E-1,1.640456E0,-8.446747E-1,3.2358608E-1,-1.8849723E-1,-1.4520489E-1,5.058837E-2,-3.1024808E-2,-1.01401486E-1,-1.6342479E-1,-6.1838698E-2,5.7238746E-2,1.8218522E-1,-1.3282035E-1,-4.1502267E-2,-1.2870173E-1,2.0194641E-1,-1.6967164E-2],"categories":[],"categories_nodes":[],"categories_segments":[],"categories_sizes":[],"default_left":[0,0,0,0,0,0,0,0,0,0,0,0,0,0,0,0,0,0,0,0,0,0,0,0,0,0,0,0,0],"id":20,"left_children":[1,3,5,7,9,11,13,15,-1,17,19,21,23,25,27,-1,-1,-1,-1,-1,-1,-1,-1,-1,-1,-1,-1,-1,-1],"loss_changes":[7.9885455E2,1.0826935E2,7.265202E2,8.474731E0,9.311107E1,4.5060767E2,2.1870941E2,1.1732483E0,0E0,2.284186E1,7.161667E0,2.2214243E2,2.0274304E2,1.045654E2,1.8939276E2,0E0,0E0,0E0,0E0,0E0,0E0,0E0,0E0,0E0,0E0,0E0,0E0,0E0,0E0],"parents":[2147483647,0,0,1,1,2,2,3,3,4,4,5,5,6,6,7,7,9,9,10,10,11,11,12,12,13,13,14,14],"right_children":[2,4,6,8,10,12,14,16,-1,18,20,22,24,26,28,-1,-1,-1,-1,-1,-1,-1,-1,-1,-1,-1,-1,-1,-1],"split_conditions":[6E0,3E0,1.8E1,5E0,5E0,1.5E1,4E0,1E0,-1.14875935E-1,2E0,7E0,2E0,5E0,2.1E1,1.9E1,-1.8849723E-1,-1.4520489E-1,5.058837E-2,-3.1024808E-2,-1.01401486E-1,-1.6342479E-1,-6.1838698E-2,5.7238746E-2,1.8218522E-1,-1.3282035E-1,-4.1502267E-2,-1.2870173E-1,2.0194641E-1,-1.6967164E-2],"split_indices":[1,1,1,0,0,1,0,1,0,0,0,0,0,1,1,0,0,0,0,0,0,0,0,0,0,0,0,0,0],"split_type":[0,0,0,0,0,0,0,0,0,0,0,0,0,0,0,0,0,0,0,0,0,0,0,0,0,0,0,0,0],"sum_hessian":[2.857E3,6.25E2,2.232E3,3.55E2,2.7E2,1.455E3,7.77E2,2.18E2,1.37E2,1.79E2,9.1E1,1.084E3,3.71E2,5.52E2,2.25E2,1.9E1,1.99E2,4.5E1,1.34E2,4.5E1,4.6E1,1.89E2,8.95E2,3.5E2,2.1E1,2.81E2,2.71E2,5E1,1.75E2],"tree_param":{"num_deleted":"0","num_feature":"2","num_nodes":"29","size_leaf_vector":"1"}},{"base_weights":[-5.596114E-3,-9.049977E-1,2.4654494E-1,-1.2315248E0,-4.727148E-1,6.216328E-1,-4.5573586E-1,-1.3859917E0,-1.0779251E-1,-9.295551E-2,-1.210584E0,4.185789E-1,1.8947185E0,-7.605151E-1,2.9204568E-1,-1.20270245E-1,-1.5595587E-1,-2.9429078E-2,5.1759016E-2,-1.0190546E-1,-1.7408656E-1,6.488118E-2,-1.50228385E-2,1.10674836E-1,4.584244E-1,-3.7366785E-2,-1.1587887E-1,1.8214776E-1,-1.52801275E-2],"categories":[],"categories_nodes":[],"categories_segments":[],"categories_sizes":[],"default_left":[0,0,0,0,0,0,0,0,0,0,0,0,0,0,0,0,0,0,0,0,0,0,0,0,0,0,0,0,0],"id":21,"left_children":[1,3,5,7,9,11,13,15,-1,17,19,21,23,25,27,-1,-1,-1,-1,-1,-1,-1,-1,-1,-1,-1,-1,-1,-1],"loss_changes":[6.483491E2,8.777911E1,5.884935E2,6.9524536E0,7.582512E1,3.7559027E2,1.7753473E2,3.65979E0,0E0,2.2278711E1,7.5699005E0,1.6471187E2,4.1877954E2,8.476828E1,1.5404037E2,0E0,0E0,0E0,0E0,0E0,0E0,0E0,0E0,0E0,0E0,0E0,0E0,0E0,0E0],"parents":[2147483647,0,0,1,1,2,2,3,3,4,4,5,5,6,6,7,7,9,9,10,10,11,11,12,12,13,13,14,14],"right_children":[2,4,6,8,10,12,14,16,-1,18,20,22,24,26,28,-1,-1,-1,-1,-1,-1,-1,-1,-1,-1,-1,-1,-1,-1],"split_conditions":[6E0,3E0,1.8E1,4E0,5E0,1.6E1,4E0,2E0,-1.0779251E-1,4E0,5E0,5E0,4E0,2.1E1,1.9E1,-1.20270245E-1,-1.5595587E-1,-2.9429078E-2,5.1759016E-2,-1.0190546E-1,-1.7408656E-1,6.488118E-2,-1.50228385E-2,1.10674836E-1,4.584244E-1,-3.7366785E-2,-1.1587887E-1,1.8214776E-1,-1.52801275E-2],"split_indices":[1,1,1,0,0,1,0,0,0,0,1,0,0,1,1,0,0,0,0,0,0,0,0,0,0,0,0,0,0],"split_type":[0,0,0,0,0,0,0,0,0,0,0,0,0,0,0,0,0,0,0,0,0,0,0,0,0,0,0,0,0],"sum_hessian":[2.857E3,6.25E2,2.232E3,3.55E2,2.7E2,1.455E3,7.77E2,1.73E2,1.82E2,1.79E2,9.1E1,1.256E3,1.99E2,5.52E2,2.25E2,8.8E1,8.5E1,1.35E2,4.4E1,6.9E1,2.2E1,8.94E2,3.62E2,1.55E2,4.4E1,2.81E2,2.71E2,5E1,1.75E2],"tree_param":{"num_deleted":"0","num_feature":"2","num_nodes":"29","size_leaf_vector":"1"}},{"base_weights":[-5.038016E-3,-8.1551653E-1,2.2217408E-1,-1.109451E0,-4.263792E-1,5.5989516E-1,-4.1014475E-1,-1.2189102E0,-9.277048E-2,-8.353564E-2,-1.0925256E0,2.882398E-1,1.3507181E0,-6.8474054E-1,2.635792E-1,-1.5577419E-1,-1.1789324E-1,4.8518445E-2,-2.7670294E-2,-7.806065E-2,-1.3745628E-1,-6.2141318E-2,4.8081327E-2,1.5059343E-1,-1.18708126E-1,-3.3643346E-2,-1.0433356E-1,1.6429012E-1,-1.37608275E-2],"categories":[],"categories_nodes":[],"categories_segments":[],"categories_sizes":[],"default_left":[0,0,0,0,0,0,0,0,0,0,0,0,0,0,0,0,0,0,0,0,0,0,0,0,0,0,0,0,0],"id":22,"left_children":[1,3,5,7,9,11,13,15,-1,17,19,21,23,25,27,-1,-1,-1,-1,-1,-1,-1,-1,-1,-1,-1,-1,-1,-1],"loss_changes":[5.2648334E2,7.1129395E1,4.77081E2,5.9513855E0,6.180079E1,3.12405E2,1.4411183E2,1.1300354E0,0E0,1.9908714E1,7.020508E0,1.9036371E2,1.4832123E2,6.871933E1,1.2528695E2,0E0,0E0,0E0,0E0,0E0,0E0,0E0,0E0,0E0,0E0,0E0,0E0,0E0,0E0],"parents":[2147483647,0,0,1,1,2,2,3,3,4,4,5,5,6,6,7,7,9,9,10,10,11,11,12,12,13,13,14,14],"right_children":[2,4,6,8,10,12,14,16,-1,18,20,22,24,26,28,-1,-1,-1,-1,-1,-1,-1,-1,-1,-1,-1,-1,-1,-1],"split_conditions":[6E0,3E0,1.8E1,5E0,5E0,1.5E1,4E0,1E0,-9.277048E-2,2E0,7E0,2E0,5E0,2.1E1,1.9E1,-1.5577419E-1,-1.1789324E-1,4.8518445E-2,-2.7670294E-2,-7.806065E-2,-1.3745628E-1,-6.2141318E-2,4.8081327E-2,1.5059343E-1,-1.18708126E-1,-3.3643346E-2,-1.0433356E-1,1.6429012E-1,-1.37608275E-2],"split_indices":[1,1,1,0,0,1,0,1,0,0,0,0,0,1,1,0,0,0,0,0,0,0,0,0,0,0,0,0,0],"split_type":[0,0,0,0,0,0,0,0,0,0,0,0,0,0,0,0,0,0,0,0,0,0,0,0,0,0,0,0,0],"sum_hessian":[2.857E3,6.25E2,2.232E3,3.55E2,2.7E2,1.455E3,7.77E2,2.18E2,1.37E2,1.79E2,9.1E1,1.084E3,3.71E2,5.52E2,2.25E2,1.9E1,1.99E2,4.5E1,1.34E2,4.5E1,4.6E1,1.89E2,8.95E2,3.5E2,2.1E1,2.81E2,2.71E2,5E1,1.75E2],"tree_param":{"num_deleted":"0","num_feature":"2","num_nodes":"29","size_leaf_vector":"1"}},{"base_weights":[-4.719547E-3,-7.3486125E-1,1.9997075E-1,-9.9953526E-1,-3.8445973E-1,5.039185E-1,-3.6911404E-1,-1.0982689E0,-8.356064E-2,-7.506645E-2,-9.856155E-1,3.3576354E-1,1.5582533E0,-1.0568589E0,-1.244722E-1,-1.162756E-1,-9.311584E-2,-2.628207E-2,4.940367E-2,-8.02628E-2,-1.4996812E-1,5.4195773E-2,-1.7354658E-2,8.471565E-2,3.988761E-1,-8.841749E-2,-1.3819048E-1,8.778985E-3,-6.951491E-2],"categories":[],"categories_nodes":[],"categories_segments":[],"categories_sizes":[],"default_left":[0,0,0,0,0,0,0,0,0,0,0,0,0,0,0,0,0,0,0,0,0,0,0,0,0,0,0,0,0],"id":23,"left_children":[1,3,5,7,9,11,13,15,-1,17,19,21,23,25,27,-1,-1,-1,-1,-1,-1,-1,-1,-1,-1,-1,-1,-1,-1],"loss_changes":[4.2728342E2,5.7672302E1,3.8643262E2,4.8442383E0,5.0330265E1,2.5761343E2,1.3076785E2,1.2773132E0,0E0,1.9363115E1,7.450531E0,1.3210016E2,3.4228613E2,1.0228729E1,6.9712524E1,0E0,0E0,0E0,0E0,0E0,0E0,0E0,0E0,0E0,0E0,0E0,0E0,0E0,0E0],"parents":[2147483647,0,0,1,1,2,2,3,3,4,4,5,5,6,6,7,7,9,9,10,10,11,11,12,12,13,13,14,14],"right_children":[2,4,6,8,10,12,14,16,-1,18,20,22,24,26,28,-1,-1,-1,-1,-1,-1,-1,-1,-1,-1,-1,-1,-1,-1],"split_conditions":[6E0,3E0,1.8E1,5E0,5E0,1.6E1,2E0,2E0,-8.356064E-2,4E0,5E0,5E0,4E0,2.2E1,2.2E1,-1.162756E-1,-9.311584E-2,-2.628207E-2,4.940367E-2,-8.02628E-2,-1.4996812E-1,5.4195773E-2,-1.7354658E-2,8.471565E-2,3.988761E-1,-8.841749E-2,-1.3819048E-1,8.778985E-3,-6.951491E-2],"split_indices":[1,1,1,0,0,1,0,1,0,0,1,0,0,1,1,0,0,0,0,0,0,0,0,0,0,0,0,0,0],"split_type":[0,0,0,0,0,0,0,0,0,0,0,0,0,0,0,0,0,0,0,0,0,0,0,0,0,0,0,0,0],"sum_hessian":[2.857E3,6.25E2,2.232E3,3.55E2,2.7E2,1.455E3,7.77E2,2.18E2,1.37E2,1.79E2,9.1E1,1.256E3,1.99E2,2.03E2,5.74E2,1.53E2,6.5E1,1.35E2,4.4E1,6.9E1,2.2E1,8.94E2,3.62E2,1.55E2,4.4E1,1.35E2,6.8E1,4.19E2,1.55E2],"tree_param":{"num_deleted":"0","num_feature":"2","num_nodes":"29","size_leaf_vector":"1"}},{"base_weights":[-4.340806E-3,-6.62174E-1,1.8007833E-1,-9.0040475E-1,-3.4677795E-1,4.538845E-1,-3.3257192E-1,-1.0206722E0,-7.811318E-2,-6.743122E-2,-8.895566E-1,2.2774538E-1,1.1122369E0,-5.708782E-1,2.5201187E-1,-8.691602E-2,-1.1656014E-1,4.6343192E-2,-2.4781844E-2,-5.9238758E-2,-1.16147615E-1,-6.13509E-2,4.0588222E-2,1.6586082E-1,4.8097167E-2,-2.8098151E-2,-8.6933404E-2,1.4732257E-1,-1.0329444E-2],"categories":[],"categories_nodes":[],"categories_segments":[],"categories_sizes":[],"default_left":[0,0,0,0,0,0,0,0,0,0,0,0,0,0,0,0,0,0,0,0,0,0,0,0,0,0,0,0,0],"id":24,"left_children":[1,3,5,7,9,11,13,15,-1,17,19,21,23,25,27,-1,-1,-1,-1,-1,-1,-1,-1,-1,-1,-1,-1,-1,-1],"loss_changes":[3.468433E2,4.672351E1,3.1359003E2,4.3094177E0,4.1029964E1,2.1651483E2,1.0852703E2,2.8076935E0,0E0,1.7351812E1,6.746109E0,1.6284537E2,1.2750702E2,4.7602036E1,9.821468E1,0E0,0E0,0E0,0E0,0E0,0E0,0E0,0E0,0E0,0E0,0E0,0E0,0E0,0E0],"parents":[2147483647,0,0,1,1,2,2,3,3,4,4,5,5,6,6,7,7,9,9,10,10,11,11,12,12,13,13,14,14],"right_children":[2,4,6,8,10,12,14,16,-1,18,20,22,24,26,28,-1,-1,-1,-1,-1,-1,-1,-1,-1,-1,-1,-1,-1,-1],"split_conditions":[6E0,3E0,1.8E1,4E0,5E0,1.5E1,4E0,2E0,-7.811318E-2,2E0,7E0,2E0,3E0,2.1E1,1.9E1,-8.691602E-2,-1.1656014E-1,4.6343192E-2,-2.4781844E-2,-5.9238758E-2,-1.16147615E-1,-6.13509E-2,4.0588222E-2,1.6586082E-1,4.8097167E-2,-2.8098151E-2,-8.6933404E-2,1.4732257E-1,-1.0329444E-2],"split_indices":[1,1,1,0,0,1,0,0,0,0,0,0,0,1,1,0,0,0,0,0,0,0,0,0,0,0,0,0,0],"split_type":[0,0,0,0,0,0,0,0,0,0,0,0,0,0,0,0,0,0,0,0,0,0,0,0,0,0,0,0,0],"sum_hessian":[2.857E3,6.25E2,2.232E3,3.55E2,2.7E2,1.455E3,7.77E2,1.73E2,1.82E2,1.79E2,9.1E1,1.084E3,3.71E2,5.52E2,2.25E2,8.8E1,8.5E1,4.5E1,1.34E2,4.5E1,4.6E1,1.89E2,8.95E2,1.98E2,1.73E2,2.81E2,2.71E2,5E1,1.75E2],"tree_param":{"num_deleted":"0","num_feature":"2","num_nodes":"29","size_leaf_vector":"1"}},{"base_weights":[-3.983802E-3,-5.9665215E-1,1.6216682E-1,-8.111553E-1,-3.1266764E-1,4.0862867E-1,-2.9928643E-1,-9.197744E-1,-7.034456E-2,-6.056813E-2,-8.025073E-1,2.6781005E-1,1.2916306E0,-8.9144504E-1,-8.867834E-2,-7.832208E-2,-1.0503965E-1,-2.3566574E-2,4.6996173E-2,-6.277223E-2,-1.29957E-1,4.5609258E-2,-1.971504E-2,6.3140206E-2,3.55172E-1,-7.486161E-2,-1.1600435E-1,9.109421E-3,-5.7211287E-2],"categories":[],"categories_nodes":[],"categories_segments":[],"categories_sizes":[],"default_left":[0,0,0,0,0,0,0,0,0,0,0,0,0,0,0,0,0,0,0,0,0,0,0,0,0,0,0,0,0],"id":25,"left_children":[1,3,5,7,9,11,13,15,-1,17,19,21,23,25,27,-1,-1,-1,-1,-1,-1,-1,-1,-1,-1,-1,-1,-1,-1],"loss_changes":[2.8153033E2,3.7879547E1,2.5408278E2,3.5179443E0,3.3416733E1,1.8069768E2,9.6947975E1,2.2809448E0,0E0,1.6831766E1,7.1771164E0,1.1013264E2,2.961925E2,6.9577637E0,5.0024364E1,0E0,0E0,0E0,0E0,0E0,0E0,0E0,0E0,0E0,0E0,0E0,0E0,0E0,0E0],"parents":[2147483647,0,0,1,1,2,2,3,3,4,4,5,5,6,6,7,7,9,9,10,10,11,11,12,12,13,13,14,14],"right_children":[2,4,6,8,10,12,14,16,-1,18,20,22,24,26,28,-1,-1,-1,-1,-1,-1,-1,-1,-1,-1,-1,-1,-1,-1],"split_conditions":[6E0,3E0,1.8E1,4E0,5E0,1.6E1,2E0,2E0,-7.034456E-2,4E0,5E0,5E0,4E0,2.2E1,2.2E1,-7.832208E-2,-1.0503965E-1,-2.3566574E-2,4.6996173E-2,-6.277223E-2,-1.29957E-1,4.5609258E-2,-1.971504E-2,6.3140206E-2,3.55172E-1,-7.486161E-2,-1.1600435E-1,9.109421E-3,-5.7211287E-2],"split_indices":[1,1,1,0,0,1,0,0,0,0,1,0,0,1,1,0,0,0,0,0,0,0,0,0,0,0,0,0,0],"split_type":[0,0,0,0,0,0,0,0,0,0,0,0,0,0,0,0,0,0,0,0,0,0,0,0,0,0,0,0,0],"sum_hessian":[2.857E3,6.25E2,2.232E3,3.55E2,2.7E2,1.455E3,7.77E2,1.73E2,1.82E2,1.79E2,9.1E1,1.256E3,1.99E2,2.03E2,5.74E2,8.8E1,8.5E1,1.35E2,4.4E1,6.9E1,2.2E1,8.94E2,3.62E2,1.55E2,4.4E1,1.35E2,6.8E1,4.19E2,1.55E2],"tree_param":{"num_deleted":"0","num_feature":"2","num_nodes":"29","size_leaf_vector":"1"}},{"base_weights":[-3.661516E-3,-5.376627E-1,1.460422E-1,-7.3075247E-1,-2.820257E-1,3.6807117E-1,-2.69665E-1,-8.06487E-1,-6.0526974E-2,4.4115046E-1,-4.279729E-1,1.7991534E-1,9.1586953E-1,-4.7653365E-1,2.377156E-1,-1.088775E-1,-7.742258E-2,-5.315726E-2,1.4369854E-1,-2.7979342E-2,-9.8636314E-2,-5.978486E-2,3.4464218E-2,1.4384219E-1,3.129742E-2,-8.032362E-2,-2.847512E-2,1.3198617E-1,-7.7211456E-3],"categories":[],"categories_nodes":[],"categories_segments":[],"categories_sizes":[],"default_left":[0,0,0,0,0,0,0,0,0,0,0,0,0,0,0,0,0,0,0,0,0,0,0,0,0,0,0,0,0],"id":26,"left_children":[1,3,5,7,9,11,13,15,-1,17,19,21,23,25,27,-1,-1,-1,-1,-1,-1,-1,-1,-1,-1,-1,-1,-1,-1],"loss_changes":[2.2855264E2,3.0693832E1,2.06203E2,2.8950653E0,2.8791647E1,1.4990726E2,8.177304E1,1.1514587E0,0E0,4.532275E1,1.8423706E1,1.3921469E2,1.1674634E2,3.4419945E1,7.712205E1,0E0,0E0,0E0,0E0,0E0,0E0,0E0,0E0,0E0,0E0,0E0,0E0,0E0,0E0],"parents":[2147483647,0,0,1,1,2,2,3,3,4,4,5,5,6,6,7,7,9,9,10,10,11,11,12,12,13,13,14,14],"right_children":[2,4,6,8,10,12,14,16,-1,18,20,22,24,26,28,-1,-1,-1,-1,-1,-1,-1,-1,-1,-1,-1,-1,-1,-1],"split_conditions":[6E0,3E0,1.8E1,5E0,2E0,1.5E1,4E0,1E0,-6.0526974E-2,4E0,7E0,2E0,3E0,2E0,1.9E1,-1.088775E-1,-7.742258E-2,-5.315726E-2,1.4369854E-1,-2.7979342E-2,-9.8636314E-2,-5.978486E-2,3.4464218E-2,1.4384219E-1,3.129742E-2,-8.032362E-2,-2.847512E-2,1.3198617E-1,-7.7211456E-3],"split_indices":[1,1,1,0,0,1,0,1,0,1,0,0,0,0,1,0,0,0,0,0,0,0,0,0,0,0,0,0,0],"split_type":[0,0,0,0,0,0,0,0,0,0,0,0,0,0,0,0,0,0,0,0,0,0,0,0,0,0,0,0,0],"sum_hessian":[2.857E3,6.25E2,2.232E3,3.55E2,2.7E2,1.455E3,7.77E2,2.18E2,1.37E2,4.5E1,2.25E2,1.084E3,3.71E2,5.52E2,2.25E2,1.9E1,1.99E2,2.3E1,2.2E1,1.79E2,4.6E1,1.89E2,8.95E2,1.98E2,1.73E2,2.03E2,3.49E2,5E1,1.75E2],"tree_param":{"num_deleted":"0","num_feature":"2","num_nodes":"29","size_leaf_vector":"1"}},{"base_weights":[-3.3366072E-3,-3.9724147E-1,1.6276716E-1,-1.0635602E-1,-1.019558E0,4.182568E-1,-2.4267882E-1,-7.0528936E-1,3.2278076E-1,-5.9423155E-1,-3.3143243E-1,2.917274E-1,1.070955E0,-4.2907718E-1,2.1449363E-1,-7.760643E-2,-5.7490017E-2,1.2556721E-2,8.409716E-2,-5.2977543E-2,-1.1485004E-1,6.296509E-2,1.6740756E-2,4.574888E-2,3.1738392E-1,-1.9082118E-2,-6.7451514E-2,1.1904629E-1,-6.953438E-3],"categories":[],"categories_nodes":[],"categories_segments":[],"categories_sizes":[],"default_left":[0,0,0,0,0,0,0,0,0,0,0,0,0,0,0,0,0,0,0,0,0,0,0,0,0,0,0,0,0],"id":27,"left_children":[1,3,5,7,9,11,13,15,17,19,-1,21,23,25,27,-1,-1,-1,-1,-1,-1,-1,-1,-1,-1,-1,-1,-1,-1],"loss_changes":[1.8706096E2,1.533989E2,2.0841544E2,1.4904472E2,2.6155713E2,1.0159808E2,6.639024E1,1.7870865E0,3.443606E1,7.5727997E0,0E0,4.337555E1,2.565577E2,3.22091E1,6.2730576E1,0E0,0E0,0E0,0E0,0E0,0E0,0E0,0E0,0E0,0E0,0E0,0E0,0E0,0E0],"parents":[2147483647,0,0,1,1,2,2,3,3,4,4,5,5,6,6,7,7,8,8,9,9,11,11,12,12,13,13,14,14],"right_children":[2,4,6,8,10,12,14,16,18,20,-1,22,24,26,28,-1,-1,-1,-1,-1,-1,-1,-1,-1,-1,-1,-1,-1,-1],"split_conditions":[9E0,5E0,1.8E1,4E0,6E0,1.6E1,4E0,2E0,4E0,5E0,-3.3143243E-1,1.1E1,4E0,2.1E1,1.9E1,-7.760643E-2,-5.7490017E-2,1.2556721E-2,8.409716E-2,-5.2977543E-2,-1.1485004E-1,6.296509E-2,1.6740756E-2,4.574888E-2,3.1738392E-1,-1.9082118E-2,-6.7451514E-2,1.1904629E-1,-6.953438E-3],"split_indices":[1,0,1,1,1,1,0,1,0,1,0,1,0,1,1,0,0,0,0,0,0,0,0,0,0,0,0,0,0],"split_type":[0,0,0,0,0,0,0,0,0,0,0,0,0,0,0,0,0,0,0,0,0,0,0,0,0,0,0,0,0],"sum_hessian":[2.857E3,8.47E2,2.01E3,5.78E2,2.69E2,1.233E3,7.77E2,2.41E2,3.37E2,2.28E2,4.1E1,1.034E3,1.99E2,5.52E2,2.25E2,1.53E2,8.8E1,2.45E2,9.2E1,2.06E2,2.2E1,2.77E2,7.57E2,1.55E2,4.4E1,2.81E2,2.71E2,5E1,1.75E2],"tree_param":{"num_deleted":"0","num_feature":"2","num_nodes":"29","size_leaf_vector":"1"}},{"base_weights":[-3.0272745E-3,-4.4398686E-1,1.2059285E-1,-5.94133E-1,-2.4510857E-1,-3.571784E-1,2.5971198E-1,-6.7879266E-1,-5.103904E-2,4.2174315E-1,-3.797549E-1,1.8215024E-1,-9.058649E-1,3.8154003E-1,-2.00124E-1,-5.671832E-2,-7.864025E-2,-4.255357E-2,1.2875235E-1,-2.5799874E-2,-8.379753E-2,-5.664265E-2,2.3343842E-1,-1.687445E-1,-6.104916E-2,6.973278E-2,-5.5185123E-3,-2.9907832E-1,1.644965E-2],"categories":[],"categories_nodes":[],"categories_segments":[],"categories_sizes":[],"default_left":[0,0,0,0,0,0,0,0,0,0,0,0,0,0,0,0,0,0,0,0,0,0,0,0,0,0,0,0,0],"id":28,"left_children":[1,3,5,7,9,11,13,15,-1,17,19,21,23,25,27,-1,-1,-1,-1,-1,-1,-1,-1,-1,-1,-1,-1,-1,-1],"loss_changes":[1.5584734E2,1.8547249E1,1.4851385E2,2.177452E0,2.4493011E1,1.4930988E2,9.699252E1,1.643753E0,0E0,3.4291527E1,1.2392609E1,4.1215588E2,5.668431E1,1.8870268E2,3.698559E2,0E0,0E0,0E0,0E0,0E0,0E0,0E0,0E0,0E0,0E0,0E0,0E0,0E0,0E0],"parents":[2147483647,0,0,1,1,2,2,3,3,4,4,5,5,6,6,7,7,9,9,10,10,11,11,12,12,13,13,14,14],"right_children":[2,4,6,8,10,12,14,16,-1,18,20,22,24,26,28,-1,-1,-1,-1,-1,-1,-1,-1,-1,-1,-1,-1,-1,-1],"split_conditions":[6E0,3E0,2E0,4E0,2E0,1.7E1,5E0,2E0,-5.103904E-2,4E0,7E0,1.4E1,1.9E1,1.8E1,9E0,-5.671832E-2,-7.864025E-2,-4.255357E-2,1.2875235E-1,-2.5799874E-2,-8.379753E-2,-5.664265E-2,2.3343842E-1,-1.687445E-1,-6.104916E-2,6.973278E-2,-5.5185123E-3,-2.9907832E-1,1.644965E-2],"split_indices":[1,1,0,0,0,1,0,0,0,1,0,1,1,1,1,0,0,0,0,0,0,0,0,0,0,0,0,0,0],"split_type":[0,0,0,0,0,0,0,0,0,0,0,0,0,0,0,0,0,0,0,0,0,0,0,0,0,0,0,0,0],"sum_hessian":[2.857E3,6.25E2,2.232E3,3.55E2,2.7E2,5.03E2,1.729E3,1.73E2,1.82E2,4.5E1,2.25E2,2.54E2,2.49E2,1.367E3,3.62E2,8.8E1,8.5E1,2.3E1,2.2E1,1.79E2,4.6E1,1.89E2,6.5E1,6.7E1,1.82E2,7.93E2,5.74E2,4.1E1,3.21E2],"tree_param":{"num_deleted":"0","num_feature":"2","num_nodes":"29","size_leaf_vector":"1"}},{"base_weights":[-2.892776E-3,-3.999233E-1,1.0841219E-1,-5.352433E-1,-2.2068405E-1,-3.2156572E-1,2.3361477E-1,-6.359499E-1,-4.7232878E-1,3.8144264E-1,-3.4226432E-1,1.6462842E-1,-8.1619745E-1,3.2604864E-1,-2.7861804E-1,-5.1110215E-2,-8.6367816E-2,-3.6660846E-2,-4.8323672E-2,-3.847549E-2,1.1643686E-1,-2.6485553E-2,-1.01396576E-1,-5.1008213E-2,2.1044827E-1,-1.7135578E-1,-6.0545173E-2,4.9243685E-2,-1.8088963E-2,-5.064429E-2,5.726114E-3],"categories":[],"categories_nodes":[],"categories_segments":[],"categories_sizes":[],"default_left":[0,0,0,0,0,0,0,0,0,0,0,0,0,0,0,0,0,0,0,0,0,0,0,0,0,0,0,0,0,0,0],"id":29,"left_children":[1,3,5,7,9,11,13,15,17,19,21,23,25,27,29,-1,-1,-1,-1,-1,-1,-1,-1,-1,-1,-1,-1,-1,-1,-1,-1],"loss_changes":[1.26342575E2,1.5065285E1,1.202872E2,1.9552078E0,1.9969578E1,1.2133984E2,8.200231E1,3.3683739E0,8.0005646E-2,2.8042295E1,1.14824505E1,3.348277E2,4.624124E1,1.2374403E2,2.0307232E1,0E0,0E0,0E0,0E0,0E0,0E0,0E0,0E0,0E0,0E0,0E0,0E0,0E0,0E0,0E0,0E0],"parents":[2147483647,0,0,1,1,2,2,3,3,4,4,5,5,6,6,7,7,8,8,9,9,10,10,11,11,12,12,13,13,14,14],"right_children":[2,4,6,8,10,12,14,16,18,20,22,24,26,28,30,-1,-1,-1,-1,-1,-1,-1,-1,-1,-1,-1,-1,-1,-1,-1,-1],"split_conditions":[6E0,3E0,2E0,3E0,2E0,1.7E1,2.1E1,2E0,1E0,4E0,5E0,1.4E1,1.8E1,5E0,4E0,-5.1110215E-2,-8.6367816E-2,-3.6660846E-2,-4.8323672E-2,-3.847549E-2,1.1643686E-1,-2.6485553E-2,-1.01396576E-1,-5.1008213E-2,2.1044827E-1,-1.7135578E-1,-6.0545173E-2,4.9243685E-2,-1.8088963E-2,-5.064429E-2,5.726114E-3],"split_indices":[1,1,0,0,0,1,1,0,1,1,1,1,1,0,0,0,0,0,0,0,0,0,0,0,0,0,0,0,0,0,0],"split_type":[0,0,0,0,0,0,0,0,0,0,0,0,0,0,0,0,0,0,0,0,0,0,0,0,0,0,0,0,0,0,0],"sum_hessian":[2.857E3,6.25E2,2.232E3,3.55E2,2.7E2,5.03E2,1.729E3,1.33E2,2.22E2,4.5E1,2.25E2,2.54E2,2.49E2,1.465E3,2.64E2,8.8E1,4.5E1,2.4E1,1.98E2,2.3E1,2.2E1,2.03E2,2.2E1,1.89E2,6.5E1,4.6E1,2.03E2,1.103E3,3.62E2,1.57E2,1.07E2],"tree_param":{"num_deleted":"0","num_feature":"2","num_nodes":"31","size_leaf_vector":"1"}},{"base_weights":[-2.7290098E-3,-3.603661E-1,9.753232E-2,-4.8234385E-1,-1.9879991E-1,1.6791955E-1,-5.345028E-1,-5.7338077E-1,-4.2547703E-1,3.4499338E-1,-3.0860385E-1,-2.1123184E-1,2.7277166E-1,-4.1581863E-1,-1.0244101E-1,-4.6056613E-2,-7.791879E-2,-4.6787284E-2,-3.959733E-2,-3.47883E-2,1.0529951E-1,-1.9684805E-2,-7.300388E-2,1.4879094E-2,-7.1449876E-2,4.0291015E-2,-1.6285015E-2,-5.836449E-2,1.08089E-2],"categories":[],"categories_nodes":[],"categories_segments":[],"categories_sizes":[],"default_left":[0,0,0,0,0,0,0,0,0,0,0,0,0,0,0,0,0,0,0,0,0,0,0,0,0,0,0,0,0],"id":30,"left_children":[1,3,5,7,9,11,13,15,17,19,21,23,25,27,-1,-1,-1,-1,-1,-1,-1,-1,-1,-1,-1,-1,-1,-1,-1],"loss_changes":[1.0251494E2,1.224099E1,9.942967E1,1.5990448E0,1.6288052E1,7.996483E1,1.2598347E1,2.7523499E0,9.366989E-2,2.2931969E1,1.0500401E1,7.910408E1,8.935417E1,1.6065521E1,0E0,0E0,0E0,0E0,0E0,0E0,0E0,0E0,0E0,0E0,0E0,0E0,0E0,0E0,0E0],"parents":[2147483647,0,0,1,1,2,2,3,3,4,4,5,5,6,6,7,7,8,8,9,9,10,10,11,11,12,12,13,13],"right_children":[2,4,6,8,10,12,14,16,18,20,22,24,26,28,-1,-1,-1,-1,-1,-1,-1,-1,-1,-1,-1,-1,-1,-1,-1],"split_conditions":[6E0,3E0,2.2E1,3E0,2E0,2E0,2.3E1,2E0,5E0,4E0,7E0,1.7E1,5E0,4E0,-1.0244101E-1,-4.6056613E-2,-7.791879E-2,-4.6787284E-2,-3.959733E-2,-3.47883E-2,1.0529951E-1,-1.9684805E-2,-7.300388E-2,1.4879094E-2,-7.1449876E-2,4.0291015E-2,-1.6285015E-2,-5.836449E-2,1.08089E-2],"split_indices":[1,1,1,0,0,0,1,0,0,1,0,1,0,0,0,0,0,0,0,0,0,0,0,0,0,0,0,0,0],"split_type":[0,0,0,0,0,0,0,0,0,0,0,0,0,0,0,0,0,0,0,0,0,0,0,0,0,0,0,0,0],"sum_hessian":[2.857E3,6.25E2,2.232E3,3.55E2,2.7E2,2.009E3,2.23E2,1.33E2,2.22E2,4.5E1,2.25E2,4.35E2,1.574E3,1.81E2,4.2E1,8.8E1,4.5E1,8.5E1,1.37E2,2.3E1,2.2E1,1.79E2,4.6E1,2.54E2,1.81E2,1.212E3,3.62E2,1.37E2,4.4E1],"tree_param":{"num_deleted":"0","num_feature":"2","num_nodes":"29","size_leaf_vector":"1"}},{"base_weights":[-2.601286E-3,-2.7429405E-1,1.11967616E-1,-5.198028E-2,-7.5001764E-1,2.984542E-1,-1.8396607E-1,-4.672848E-1,2.4552171E-1,-3.9547345E-1,-2.6652703E-1,1.8056393E-1,9.07044E-1,-3.201731E-1,1.5013333E-1,-5.171576E-2,-3.7573766E-2,6.9068978E-3,7.0962764E-2,-3.3771016E-2,-8.981489E-2,5.0990712E-2,5.9537576E-3,3.817868E-2,2.707779E-1,-9.336075E-2,-1.9891458E-2,9.9138066E-2,-9.449024E-3],"categories":[],"categories_nodes":[],"categories_segments":[],"categories_sizes":[],"default_left":[0,0,0,0,0,0,0,0,0,0,0,0,0,0,0,0,0,0,0,0,0,0,0,0,0,0,0,0,0],"id":31,"left_children":[1,3,5,7,9,11,13,15,17,19,-1,21,23,25,27,-1,-1,-1,-1,-1,-1,-1,-1,-1,-1,-1,-1,-1,-1],"loss_changes":[8.899322E1,8.96454E1,1.1103729E2,7.165244E1,1.8228723E2,8.837177E1,3.5452274E1,9.105873E-1,2.763074E1,6.345974E0,0E0,4.122392E1,1.8813606E2,4.094874E1,4.6601974E1,0E0,0E0,0E0,0E0,0E0,0E0,0E0,0E0,0E0,0E0,0E0,0E0,0E0,0E0],"parents":[2147483647,0,0,1,1,2,2,3,3,4,4,5,5,6,6,7,7,8,8,9,9,11,11,12,12,13,13,14,14],"right_children":[2,4,6,8,10,12,14,16,18,20,-1,22,24,26,28,-1,-1,-1,-1,-1,-1,-1,-1,-1,-1,-1,-1,-1,-1],"split_conditions":[9E0,5E0,1.8E1,4E0,6E0,1.6E1,4E0,2E0,4E0,5E0,-2.6652703E-1,1.1E1,4E0,1.9E1,1.9E1,-5.171576E-2,-3.7573766E-2,6.9068978E-3,7.0962764E-2,-3.3771016E-2,-8.981489E-2,5.0990712E-2,5.9537576E-3,3.817868E-2,2.707779E-1,-9.336075E-2,-1.9891458E-2,9.9138066E-2,-9.449024E-3],"split_indices":[1,0,1,1,1,1,0,1,0,1,0,1,0,1,1,0,0,0,0,0,0,0,0,0,0,0,0,0,0],"split_type":[0,0,0,0,0,0,0,0,0,0,0,0,0,0,0,0,0,0,0,0,0,0,0,0,0,0,0,0,0],"sum_hessian":[2.857E3,8.47E2,2.01E3,5.78E2,2.69E2,1.233E3,7.77E2,2.41E2,3.37E2,2.28E2,4.1E1,1.034E3,1.99E2,5.52E2,2.25E2,1.53E2,8.8E1,2.45E2,9.2E1,2.06E2,2.2E1,2.77E2,7.57E2,1.55E2,4.4E1,9E1,4.62E2,5E1,1.75E2],"tree_param":{"num_deleted":"0","num_feature":"2","num_nodes":"29","size_leaf_vector":"1"}},{"base_weights":[-2.361649E-3,-2.4733801E-1,1.0094134E-1,-4.6801798E-2,-6.764607E-1,-3.0587408E-1,2.2077437E-1,-2.6476437E-1,4.3009874E-1,-3.5646576E-1,-2.405089E-1,-1.4823256E-1,-1.5481424E-1,9.0180874E-1,1.0419636E-1,-4.209253E-2,-2.2371316E-3,1.0197256E-1,2.4036003E-2,-3.041022E-2,-8.122391E-2,6.282254E-2,-6.49076E-2,1.3691895E-1,5.731554E-2,1.6615288E-2,-3.623369E-2],"categories":[],"categories_nodes":[],"categories_segments":[],"categories_sizes":[],"default_left":[0,0,0,0,0,0,0,0,0,0,0,0,0,0,0,0,0,0,0,0,0,0,0,0,0,0,0],"id":32,"left_children":[1,3,5,7,9,11,13,15,17,19,-1,-1,21,23,25,-1,-1,-1,-1,-1,-1,-1,-1,-1,-1,-1,-1],"loss_changes":[7.2351776E1,7.294267E1,9.810362E1,6.0298878E1,1.4849377E2,8.116378E1,1.2328373E2,1.5055807E1,2.0116154E1,5.2182865E0,0E0,0E0,1.579276E2,3.4083847E1,3.8445747E1,0E0,0E0,0E0,0E0,0E0,0E0,0E0,0E0,0E0,0E0,0E0,0E0],"parents":[2147483647,0,0,1,1,2,2,3,3,4,4,5,5,6,6,7,7,8,8,9,9,12,12,13,13,14,14],"right_children":[2,4,6,8,10,12,14,16,18,20,-1,-1,22,24,26,-1,-1,-1,-1,-1,-1,-1,-1,-1,-1,-1,-1],"split_conditions":[9E0,5E0,2E0,5E0,6E0,1E1,1.1E1,4E0,7E0,5E0,-2.405089E-1,-1.4823256E-1,1.7E1,4E0,2.2E1,-4.209253E-2,-2.2371316E-3,1.0197256E-1,2.4036003E-2,-3.041022E-2,-8.122391E-2,6.282254E-2,-6.49076E-2,1.3691895E-1,5.731554E-2,1.6615288E-2,-3.623369E-2],"split_indices":[1,0,0,1,1,1,1,1,1,1,0,0,1,0,1,0,0,0,0,0,0,0,0,0,0,0,0],"split_type":[0,0,0,0,0,0,0,0,0,0,0,0,0,0,0,0,0,0,0,0,0,0,0,0,0,0,0],"sum_hessian":[2.857E3,8.47E2,2.01E3,5.78E2,2.69E2,4.57E2,1.553E3,3.97E2,1.81E2,2.28E2,4.1E1,5.1E1,4.06E2,2.26E2,1.327E3,2.41E2,1.56E2,4.3E1,1.38E2,2.06E2,2.2E1,1.57E2,2.49E2,9.2E1,1.34E2,1.172E3,1.55E2],"tree_param":{"num_deleted":"0","num_feature":"2","num_nodes":"27","size_leaf_vector":"1"}},{"base_weights":[-2.2114434E-3,-2.2292317E-1,9.085954E-2,-4.1980624E-2,-6.1011875E-1,-2.7561468E-1,1.9880956E-1,-2.3839927E-1,3.8778093E-1,-3.213066E-1,-2.1703063E-1,-1.0191224E0,-7.301256E-2,8.124834E-1,9.376231E-2,-3.7900668E-2,-2.0148393E-3,9.200706E-2,2.1649657E-2,-2.7383883E-2,-7.345466E-2,-1.3369428E-1,-6.458078E-2,1.0691917E-1,-5.84428E-2,1.2337426E-1,5.1626414E-2,-2.671562E-2,1.7402774E-2],"categories":[],"categories_nodes":[],"categories_segments":[],"categories_sizes":[],"default_left":[0,0,0,0,0,0,0,0,0,0,0,0,0,0,0,0,0,0,0,0,0,0,0,0,0,0,0,0,0],"id":33,"left_children":[1,3,5,7,9,11,13,15,17,19,-1,21,23,25,27,-1,-1,-1,-1,-1,-1,-1,-1,-1,-1,-1,-1,-1,-1],"loss_changes":[5.872888E1,5.93854E1,7.961176E1,4.8967678E1,1.2096498E2,6.8916985E1,1.00102036E2,1.2206064E1,1.6394276E1,4.290821E0,0E0,1.0764E1,2.1149973E2,2.7689285E1,3.8517685E1,0E0,0E0,0E0,0E0,0E0,0E0,0E0,0E0,0E0,0E0,0E0,0E0,0E0,0E0],"parents":[2147483647,0,0,1,1,2,2,3,3,4,4,5,5,6,6,7,7,8,8,9,9,11,11,12,12,13,13,14,14],"right_children":[2,4,6,8,10,12,14,16,18,20,-1,22,24,26,28,-1,-1,-1,-1,-1,-1,-1,-1,-1,-1,-1,-1,-1,-1],"split_conditions":[9E0,5E0,2E0,5E0,6E0,1.2E1,1.1E1,4E0,7E0,5E0,-2.1703063E-1,1E1,1.7E1,4E0,1.3E1,-3.7900668E-2,-2.0148393E-3,9.200706E-2,2.1649657E-2,-2.7383883E-2,-7.345466E-2,-1.3369428E-1,-6.458078E-2,1.0691917E-1,-5.84428E-2,1.2337426E-1,5.1626414E-2,-2.671562E-2,1.7402774E-2],"split_indices":[1,0,0,1,1,1,1,1,1,1,0,1,1,0,1,0,0,0,0,0,0,0,0,0,0,0,0,0,0],"split_type":[0,0,0,0,0,0,0,0,0,0,0,0,0,0,0,0,0,0,0,0,0,0,0,0,0,0,0,0,0],"sum_hessian":[2.857E3,8.47E2,2.01E3,5.78E2,2.69E2,4.57E2,1.553E3,3.97E2,1.81E2,2.28E2,4.1E1,9.7E1,3.6E2,2.26E2,1.327E3,2.41E2,1.56E2,4.3E1,1.38E2,2.06E2,2.2E1,5.1E1,4.6E1,1.11E2,2.49E2,9.2E1,1.34E2,2.41E2,1.086E3],"tree_param":{"num_deleted":"0","num_feature":"2","num_nodes":"29","size_leaf_vector":"1"}},{"base_weights":[-2.070082E-3,-2.0091885E-1,8.178165E-2,-3.7655346E-2,-5.5028427E-1,2.265752E-1,-1.4798316E-1,-2.1465965E-1,3.4962687E-1,-2.8961632E-1,-1.9584431E-1,1.1439404E-1,8.0597985E-1,-4.014118E-2,-4.145203E-1,-3.412626E-2,-1.8146454E-3,1.7174574E-2,8.289421E-2,-2.465873E-2,-6.642855E-2,3.7216786E-2,1.9703384E-3,3.3818547E-2,2.4097562E-1,-1.5858239E-2,2.532517E-2,-3.1094745E-2,-8.432584E-2],"categories":[],"categories_nodes":[],"categories_segments":[],"categories_sizes":[],"default_left":[0,0,0,0,0,0,0,0,0,0,0,0,0,0,0,0,0,0,0,0,0,0,0,0,0,0,0,0,0],"id":34,"left_children":[1,3,5,7,9,11,13,15,17,19,-1,21,23,25,27,-1,-1,-1,-1,-1,-1,-1,-1,-1,-1,-1,-1,-1,-1],"loss_changes":[4.767019E1,4.8348022E1,6.693641E1,3.9765854E1,9.853951E1,8.0115685E1,2.234611E1,9.895708E0,1.5375162E1,3.5280533E0,0E0,2.5255749E1,1.4923256E2,1.9326305E1,9.684654E0,0E0,0E0,0E0,0E0,0E0,0E0,0E0,0E0,0E0,0E0,0E0,0E0,0E0,0E0],"parents":[2147483647,0,0,1,1,2,2,3,3,4,4,5,5,6,6,7,7,8,8,9,9,11,11,12,12,13,13,14,14],"right_children":[2,4,6,8,10,12,14,16,18,20,-1,22,24,26,28,-1,-1,-1,-1,-1,-1,-1,-1,-1,-1,-1,-1,-1,-1],"split_conditions":[9E0,5E0,1.8E1,5E0,6E0,1.6E1,2.2E1,4E0,4E0,5E0,-1.9584431E-1,1.1E1,4E0,4E0,2.3E1,-3.412626E-2,-1.8146454E-3,1.7174574E-2,8.289421E-2,-2.465873E-2,-6.642855E-2,3.7216786E-2,1.9703384E-3,3.3818547E-2,2.4097562E-1,-1.5858239E-2,2.532517E-2,-3.1094745E-2,-8.432584E-2],"split_indices":[1,0,1,1,1,1,1,1,0,1,0,1,0,0,1,0,0,0,0,0,0,0,0,0,0,0,0,0,0],"split_type":[0,0,0,0,0,0,0,0,0,0,0,0,0,0,0,0,0,0,0,0,0,0,0,0,0,0,0,0,0],"sum_hessian":[2.857E3,8.47E2,2.01E3,5.78E2,2.69E2,1.233E3,7.77E2,3.97E2,1.81E2,2.28E2,4.1E1,1.034E3,1.99E2,5.54E2,2.23E2,2.41E2,1.56E2,1.33E2,4.8E1,2.06E2,2.2E1,2.77E2,7.57E2,1.55E2,4.4E1,3.95E2,1.59E2,1.81E2,4.2E1],"tree_param":{"num_deleted":"0","num_feature":"2","num_nodes":"29","size_leaf_vector":"1"}},{"base_weights":[-1.8681538E-3,-1.8108958E-1,7.3707E-2,-3.377886E-2,-4.9631852E-1,-2.46441E-1,1.6801465E-1,-1.9328406E-1,3.1521484E-1,-2.610525E-1,-1.7672615E-1,-9.39526E-1,-5.760785E-2,6.9495356E-1,7.7816494E-2,-3.0727733E-2,-1.6343633E-3,8.133715E-2,1.5525723E-2,-2.2204777E-2,-6.0074504E-2,-1.24232054E-1,-5.845293E-2,9.553037E-2,-5.111618E-2,1.0748782E-1,4.2807985E-2,-2.425125E-2,1.4906011E-2],"categories":[],"categories_nodes":[],"categories_segments":[],"categories_sizes":[],"default_left":[0,0,0,0,0,0,0,0,0,0,0,0,0,0,0,0,0,0,0,0,0,0,0,0,0,0,0,0,0],"id":35,"left_children":[1,3,5,7,9,11,13,15,17,19,-1,21,23,25,27,-1,-1,-1,-1,-1,-1,-1,-1,-1,-1,-1,-1,-1,-1],"loss_changes":[3.8724064E1,3.936147E1,6.075833E1,3.229172E1,8.0271255E1,5.9887737E1,7.380585E1,8.022643E0,1.4376196E1,2.9007683E0,0E0,9.807953E0,1.6633531E2,2.2555824E1,3.0342957E1,0E0,0E0,0E0,0E0,0E0,0E0,0E0,0E0,0E0,0E0,0E0,0E0,0E0,0E0],"parents":[2147483647,0,0,1,1,2,2,3,3,4,4,5,5,6,6,7,7,8,8,9,9,11,11,12,12,13,13,14,14],"right_children":[2,4,6,8,10,12,14,16,18,20,-1,22,24,26,28,-1,-1,-1,-1,-1,-1,-1,-1,-1,-1,-1,-1,-1,-1],"split_conditions":[9E0,5E0,2E0,5E0,6E0,1.2E1,1.1E1,4E0,7E0,5E0,-1.7672615E-1,1E1,1.7E1,4E0,1.3E1,-3.0727733E-2,-1.6343633E-3,8.133715E-2,1.5525723E-2,-2.2204777E-2,-6.0074504E-2,-1.24232054E-1,-5.845293E-2,9.553037E-2,-5.111618E-2,1.0748782E-1,4.2807985E-2,-2.425125E-2,1.4906011E-2],"split_indices":[1,0,0,1,1,1,1,1,1,1,0,1,1,0,1,0,0,0,0,0,0,0,0,0,0,0,0,0,0],"split_type":[0,0,0,0,0,0,0,0,0,0,0,0,0,0,0,0,0,0,0,0,0,0,0,0,0,0,0,0,0],"sum_hessian":[2.857E3,8.47E2,2.01E3,5.78E2,2.69E2,4.57E2,1.553E3,3.97E2,1.81E2,2.28E2,4.1E1,9.7E1,3.6E2,2.26E2,1.327E3,2.41E2,1.56E2,4.3E1,1.38E2,2.06E2,2.2E1,5.1E1,4.6E1,1.11E2,2.49E2,9.2E1,1.34E2,2.41E2,1.086E3],"tree_param":{"num_deleted":"0","num_feature":"2","num_nodes":"29","size_leaf_vector":"1"}},{"base_weights":[-1.7483797E-3,2.9419495E-2,-3.6838055E-1,-1.632099E-1,1.2076195E-1,-2.7743518E-1,-7.4474506E-2,-3.0289507E-2,-4.4764584E-1,-1.772548E-1,2.0375393E-1,-4.1187134E-2,1.4100089E-2,-1.7403686E-2,2.8422553E-2,-2.3530645E-2,-1.5947428E-1,-8.4743805E-2,4.750702E-3,6.261196E-2,1.2184364E-2],"categories":[],"categories_nodes":[],"categories_segments":[],"categories_sizes":[],"default_left":[0,0,0,0,0,0,0,0,0,0,0,0,0,0,0,0,0,0,0,0,0],"id":36,"left_children":[1,3,5,7,9,11,-1,13,15,17,19,-1,-1,-1,-1,-1,-1,-1,-1,-1,-1],"loss_changes":[3.266962E1,4.6383175E1,7.4605846E0,3.2047062E1,4.4258717E1,1.0296107E1,0E0,2.6226463E1,6.538968E1,5.8786587E1,4.8323647E1,0E0,0E0,0E0,0E0,0E0,0E0,0E0,0E0,0E0,0E0],"parents":[2147483647,0,0,1,1,2,2,3,3,4,4,5,5,7,7,8,8,9,9,10,10],"right_children":[2,4,6,8,10,12,-1,14,16,18,20,-1,-1,-1,-1,-1,-1,-1,-1,-1,-1],"split_conditions":[2.2E1,9E0,2.3E1,5E0,2E0,4E0,-7.4474506E-2,5E0,6E0,1.2E1,1.1E1,-4.1187134E-2,1.4100089E-2,-1.7403686E-2,2.8422553E-2,-2.3530645E-2,-1.5947428E-1,-8.4743805E-2,4.750702E-3,6.261196E-2,1.2184364E-2],"split_indices":[1,1,1,0,0,0,0,1,1,1,1,0,0,0,0,0,0,0,0,0,0],"split_type":[0,0,0,0,0,0,0,0,0,0,0,0,0,0,0,0,0,0,0,0,0],"sum_hessian":[2.857E3,2.634E3,2.23E2,8.47E2,1.787E3,1.81E2,4.2E1,5.78E2,2.69E2,3.89E2,1.398E3,1.37E2,4.4E1,3.97E2,1.81E2,2.28E2,4.1E1,9.7E1,2.92E2,2.26E2,1.172E3],"tree_param":{"num_deleted":"0","num_feature":"2","num_nodes":"21","size_leaf_vector":"1"}},{"base_weights":[-1.671097E-3,2.6410282E-2,-3.3199593E-1,-8.839795E-2,1.6356549E-1,-2.4984054E-1,-6.720025E-2,-2.0873755E-1,-1.8323382E-2,3.4246448E-1,-4.528354E-2,-3.709827E-2,1.2721407E-2,-4.271431E-4,-4.1318752E-2,-1.8590262E-2,2.2363462E-2,6.541007E-2,1.2317489E-2,-1.4474398E-2,2.0116407E-2],"categories":[],"categories_nodes":[],"categories_segments":[],"categories_sizes":[],"default_left":[0,0,0,0,0,0,0,0,0,0,0,0,0,0,0,0,0,0,0,0,0],"id":37,"left_children":[1,3,5,7,9,11,-1,13,15,17,19,-1,-1,-1,-1,-1,-1,-1,-1,-1,-1],"loss_changes":[2.651951E1,4.1506607E1,6.089178E0,1.2097164E1,4.488833E1,8.360448E0,0E0,2.2070263E1,3.6858376E1,4.413449E1,1.363316E1,0E0,0E0,0E0,0E0,0E0,0E0,0E0,0E0,0E0,0E0],"parents":[2147483647,0,0,1,1,2,2,3,3,4,4,5,5,7,7,8,8,9,9,10,10],"right_children":[2,4,6,8,10,12,-1,14,16,18,20,-1,-1,-1,-1,-1,-1,-1,-1,-1,-1],"split_conditions":[2.2E1,1.3E1,2.3E1,3E0,1.8E1,4E0,-6.720025E-2,7E0,9E0,3E0,4E0,-3.709827E-2,1.2721407E-2,-4.271431E-4,-4.1318752E-2,-1.8590262E-2,2.2363462E-2,6.541007E-2,1.2317489E-2,-1.4474398E-2,2.0116407E-2],"split_indices":[1,1,1,0,1,0,0,1,1,0,0,0,0,0,0,0,0,0,0,0,0],"split_type":[0,0,0,0,0,0,0,0,0,0,0,0,0,0,0,0,0,0,0,0,0],"sum_hessian":[2.857E3,2.634E3,2.23E2,1.434E3,1.2E3,1.81E2,4.2E1,5.27E2,9.07E2,6.46E2,5.54E2,1.37E2,4.4E1,2.64E2,2.63E2,5.36E2,3.71E2,2.66E2,3.8E2,3.95E2,1.59E2],"tree_param":{"num_deleted":"0","num_feature":"2","num_nodes":"21","size_leaf_vector":"1"}},{"base_weights":[-1.5201595E-3,-2.3217843E-1,3.128682E-2,-3.11034E-1,-1.8375324E-1,6.374248E-2,-2.9920512E-1,-2.1337058E-1,-4.9322985E-2,-1.2007294E-2,-1.9082989E-1,1.1407339E-1,-1.3894102E-1,-2.2499044E-1,-6.0636487E-2,-2.547819E-2,-1.9507904E-2,-2.088805E-2,-1.6711181E-2,2.476514E-3,3.7865106E-2,-5.97564E-2,5.0921696E-3,-3.341534E-2,1.1477577E-2],"categories":[],"categories_nodes":[],"categories_segments":[],"categories_sizes":[],"default_left":[0,0,0,0,0,0,0,0,0,0,0,0,0,0,0,0,0,0,0,0,0,0,0,0,0],"id":38,"left_children":[1,3,5,7,9,11,13,15,-1,-1,17,19,21,23,-1,-1,-1,-1,-1,-1,-1,-1,-1,-1,-1],"loss_changes":[2.1634325E1,1.3022671E0,2.6867088E1,2.2791376E0,7.758045E-2,2.3274685E1,4.9698257E0,1.7712593E-2,0E0,0E0,5.0290108E-2,4.316075E1,3.956266E1,6.7887125E0,0E0,0E0,0E0,0E0,0E0,0E0,0E0,0E0,0E0,0E0,0E0],"parents":[2147483647,0,0,1,1,2,2,3,3,4,4,5,5,6,6,7,7,10,10,11,11,12,12,13,13],"right_children":[2,4,6,8,10,12,14,16,-1,-1,18,20,22,24,-1,-1,-1,-1,-1,-1,-1,-1,-1,-1,-1],"split_conditions":[3E0,3E0,2.2E1,2E0,1E0,5E0,2.3E1,2E0,-4.9322985E-2,-1.2007294E-2,7E0,4E0,9E0,4E0,-6.0636487E-2,-2.547819E-2,-1.9507904E-2,-2.088805E-2,-1.6711181E-2,2.476514E-3,3.7865106E-2,-5.97564E-2,5.0921696E-3,-3.341534E-2,1.1477577E-2],"split_indices":[1,0,1,0,1,0,1,1,0,0,0,0,1,0,0,0,0,0,0,0,0,0,0,0,0],"split_type":[0,0,0,0,0,0,0,0,0,0,0,0,0,0,0,0,0,0,0,0,0,0,0,0,0],"sum_hessian":[2.857E3,3.55E2,2.502E3,1.33E2,2.22E2,2.279E3,2.23E2,8.8E1,4.5E1,2.4E1,1.98E2,1.826E3,4.53E2,1.81E2,4.2E1,2.3E1,6.5E1,1.08E2,9E1,1.366E3,4.6E2,1.32E2,3.21E2,1.37E2,4.4E1],"tree_param":{"num_deleted":"0","num_feature":"2","num_nodes":"25","size_leaf_vector":"1"}},{"base_weights":[-1.4521574E-3,-2.0936485E-1,2.8119704E-2,-2.8063443E-1,-1.6560033E-1,9.2930496E-2,-1.1569977E-1,-1.9253902E-1,-4.4497915E-2,-1.0854599E-2,-1.719358E-1,1.8985122E-2,6.570388E-1,-1.8793395E-1,6.1562177E-2,-2.3036523E-2,-1.7586678E-2,-1.8818408E-2,-1.5058415E-2,7.990355E-3,-1.2516767E-2,-4.754607E-2,1.231121E-1,-8.208908E-2,-6.3124E-3,7.5260304E-2,-1.3903241E-2],"categories":[],"categories_nodes":[],"categories_segments":[],"categories_sizes":[],"default_left":[0,0,0,0,0,0,0,0,0,0,0,0,0,0,0,0,0,0,0,0,0,0,0,0,0,0,0],"id":39,"left_children":[1,3,5,7,9,11,13,15,-1,-1,17,19,21,23,25,-1,-1,-1,-1,-1,-1,-1,-1,-1,-1,-1,-1],"loss_changes":[1.7577915E1,1.0639172E0,2.3341352E1,1.8543777E0,6.194353E-2,7.198451E1,9.97337E0,1.561451E-2,0E0,0E0,4.070139E-2,1.3419443E1,1.3061488E2,4.3634796E1,3.1432545E1,0E0,0E0,0E0,0E0,0E0,0E0,0E0,0E0,0E0,0E0,0E0,0E0],"parents":[2147483647,0,0,1,1,2,2,3,3,4,4,5,5,6,6,7,7,10,10,11,11,12,12,13,13,14,14],"right_children":[2,4,6,8,10,12,14,16,-1,-1,18,20,22,24,26,-1,-1,-1,-1,-1,-1,-1,-1,-1,-1,-1,-1],"split_conditions":[3E0,3E0,1.8E1,2E0,1E0,1.6E1,4E0,2E0,-4.4497915E-2,-1.0854599E-2,7E0,5E0,2E0,1.9E1,1.9E1,-2.3036523E-2,-1.7586678E-2,-1.8818408E-2,-1.5058415E-2,7.990355E-3,-1.2516767E-2,-4.754607E-2,1.231121E-1,-8.208908E-2,-6.3124E-3,7.5260304E-2,-1.3903241E-2],"split_indices":[1,0,1,0,1,1,0,1,0,0,0,0,0,1,1,0,0,0,0,0,0,0,0,0,0,0,0],"split_type":[0,0,0,0,0,0,0,0,0,0,0,0,0,0,0,0,0,0,0,0,0,0,0,0,0,0,0],"sum_hessian":[2.857E3,3.55E2,2.502E3,1.33E2,2.22E2,1.725E3,7.77E2,8.8E1,4.5E1,2.4E1,1.98E2,1.526E3,1.99E2,5.52E2,2.25E2,2.3E1,6.5E1,1.08E2,9E1,1.073E3,4.53E2,6.7E1,1.32E2,9E1,4.62E2,5E1,1.75E2],"tree_param":{"num_deleted":"0","num_feature":"2","num_nodes":"27","size_leaf_vector":"1"}},{"base_weights":[-1.3368358E-3,2.0748753E-2,-2.6113233E-1,-7.195658E-2,1.3149929E-1,-1.9449896E-1,-5.3708907E-2,-2.104614E-2,-2.5588676E-1,2.7894434E-1,-4.062401E-2,-2.9471356E-1,1.17148E-2,-1.1173693E-2,2.5566911E-2,-1.2701968E-2,-7.0601456E-2,5.7347335E-2,7.181E-3,-2.3186743E-2,2.4450559E-3,-3.107947E-2,-2.5329491E-2],"categories":[],"categories_nodes":[],"categories_segments":[],"categories_sizes":[],"default_left":[0,0,0,0,0,0,0,0,0,0,0,0,0,0,0,0,0,0,0,0,0,0,0],"id":40,"left_children":[1,3,5,7,9,11,-1,13,15,17,19,21,-1,-1,-1,-1,-1,-1,-1,-1,-1,-1,-1],"loss_changes":[1.6403868E1,2.7063446E1,4.014433E0,1.3431908E1,3.0491186E1,5.718672E0,0E0,2.8261034E1,1.7950394E1,3.943038E1,6.9126906E0,1.3192177E-2,0E0,0E0,0E0,0E0,0E0,0E0,0E0,0E0,0E0,0E0,0E0],"parents":[2147483647,0,0,1,1,2,2,3,3,4,4,5,5,7,7,8,8,9,9,10,10,11,11],"right_children":[2,4,6,8,10,12,-1,14,16,18,20,22,-1,-1,-1,-1,-1,-1,-1,-1,-1,-1,-1],"split_conditions":[2.2E1,1.3E1,2.3E1,1.1E1,1.8E1,4E0,-5.3708907E-2,9E0,5E0,3E0,1.9E1,3E0,1.17148E-2,-1.1173693E-2,2.5566911E-2,-1.2701968E-2,-7.0601456E-2,5.7347335E-2,7.181E-3,-2.3186743E-2,2.4450559E-3,-3.107947E-2,-2.5329491E-2],"split_indices":[1,1,1,1,1,0,0,1,0,0,1,0,0,0,0,0,0,0,0,0,0,0,0],"split_type":[0,0,0,0,0,0,0,0,0,0,0,0,0,0,0,0,0,0,0,0,0,0,0],"sum_hessian":[2.857E3,2.634E3,2.23E2,1.434E3,1.2E3,1.81E2,4.2E1,1.124E3,3.1E2,6.46E2,5.54E2,1.37E2,4.4E1,8.47E2,2.77E2,2.42E2,6.8E1,2.66E2,3.8E2,1.4E2,4.14E2,9.4E1,4.3E1],"tree_param":{"num_deleted":"0","num_feature":"2","num_nodes":"23","size_leaf_vector":"1"}},{"base_weights":[-1.2465557E-3,-1.3388549E-1,3.6778755E-2,4.5197155E-2,-4.112862E-1,-1.3314503E-1,1.0990761E-1,-2.470829E-1,1.4749132E-1,-1.4563155E-1,-1.6850355E-1,-4.9521346E-3,-3.225673E-1,5.1835907E-1,4.0006716E-2,1.55342175E-2,-6.1929263E-2,-5.3685576E-2,-1.2329999E-2,-1.954063E-2,3.6618985E-2,-1.3465469E-2,-1.3394584E-1,8.810223E-2,2.646847E-2,-2.2453848E-2,9.88659E-3],"categories":[],"categories_nodes":[],"categories_segments":[],"categories_sizes":[],"default_left":[0,0,0,0,0,0,0,0,0,0,0,0,0,0,0,0,0,0,0,0,0,0,0,0,0,0,0],"id":41,"left_children":[1,3,5,7,9,11,13,15,-1,-1,17,19,21,23,25,-1,-1,-1,-1,-1,-1,-1,-1,-1,-1,-1,-1],"loss_changes":[1.4419639E1,3.1663254E1,2.7625944E1,1.6250092E2,6.3183357E1,1.6243458E1,4.4347713E1,4.847725E1,0E0,0E0,3.330576E0,2.834577E1,5.1413033E1,2.0650436E1,2.0700373E1,0E0,0E0,0E0,0E0,0E0,0E0,0E0,0E0,0E0,0E0,0E0,0E0],"parents":[2147483647,0,0,1,1,2,2,3,3,4,4,5,5,6,6,7,7,10,10,11,11,12,12,13,13,14,14],"right_children":[2,4,6,8,10,12,14,16,-1,-1,18,20,22,24,26,-1,-1,-1,-1,-1,-1,-1,-1,-1,-1,-1,-1],"split_conditions":[2E0,1.7E1,9E0,1.4E1,1.8E1,5E0,1.1E1,7E0,1.4749132E-1,-1.4563155E-1,1.9E1,5E0,6E0,4E0,1.3E1,1.55342175E-2,-6.1929263E-2,-5.3685576E-2,-1.2329999E-2,-1.954063E-2,3.6618985E-2,-1.3465469E-2,-1.3394584E-1,8.810223E-2,2.646847E-2,-2.2453848E-2,9.88659E-3],"split_indices":[0,1,1,1,1,0,1,1,0,0,1,1,1,0,1,0,0,0,0,0,0,0,0,0,0,0,0],"split_type":[0,0,0,0,0,0,0,0,0,0,0,0,0,0,0,0,0,0,0,0,0,0,0,0,0,0,0],"sum_hessian":[2.857E3,6.36E2,2.221E3,3.87E2,2.49E2,6.68E2,1.553E3,3.22E2,6.5E1,4.6E1,2.03E2,3.99E2,2.69E2,2.26E2,1.327E3,1.55E2,1.67E2,2.1E1,1.82E2,2.64E2,1.35E2,2.28E2,4.1E1,9.2E1,1.34E2,2.41E2,1.086E3],"tree_param":{"num_deleted":"0","num_feature":"2","num_nodes":"27","size_leaf_vector":"1"}},{"base_weights":[-1.1703493E-3,2.5985733E-2,-1.7886405E-1,-5.8505103E-2,1.4187327E-1,-2.7875394E-1,7.436666E-2,-1.6962561E-1,6.1756615E-3,2.410641E-1,-1.8922593E-2,-8.003798E-2,-8.855709E-1,2.3808922E-1,-5.4104667E-2,2.5854118E-3,-3.652033E-2,4.5748632E-3,-5.7456184E-2,5.059712E-2,5.478784E-3,-2.0919237E-2,8.433495E-3,1.9940238E-2,-3.0289426E-2,-2.0355137E-1,-2.3820283E-2,3.8463056E-2,9.602643E-3],"categories":[],"categories_nodes":[],"categories_segments":[],"categories_sizes":[],"default_left":[0,0,0,0,0,0,0,0,0,0,0,0,0,0,0,0,0,0,0,0,0,0,0,0,0,0,0,0,0],"id":42,"left_children":[1,3,5,7,9,11,13,15,17,19,21,23,25,27,-1,-1,-1,-1,-1,-1,-1,-1,-1,-1,-1,-1,-1,-1,-1],"loss_changes":[1.3795826E1,2.4291058E1,9.607604E0,1.0314907E1,1.6687714E1,3.272803E1,1.1010578E1,2.019566E1,2.0893494E1,3.1899082E1,7.876358E0,1.2889057E1,4.9392357E1,1.7534199E0,0E0,0E0,0E0,0E0,0E0,0E0,0E0,0E0,0E0,0E0,0E0,0E0,0E0,0E0,0E0],"parents":[2147483647,0,0,1,1,2,2,3,3,4,4,5,5,6,6,7,7,8,8,9,9,10,10,11,11,12,12,13,13],"right_children":[2,4,6,8,10,12,14,16,18,20,22,24,26,28,-1,-1,-1,-1,-1,-1,-1,-1,-1,-1,-1,-1,-1,-1,-1],"split_conditions":[2.1E1,1.3E1,4E0,3E0,1.8E1,3E0,2.3E1,7E0,1.2E1,3E0,1.9E1,2.2E1,2.2E1,2.2E1,-5.4104667E-2,2.5854118E-3,-3.652033E-2,4.5748632E-3,-5.7456184E-2,5.059712E-2,5.478784E-3,-2.0919237E-2,8.433495E-3,1.9940238E-2,-3.0289426E-2,-2.0355137E-1,-2.3820283E-2,3.8463056E-2,9.602643E-3],"split_indices":[1,1,0,0,1,0,1,1,1,0,1,1,1,1,0,0,0,0,0,0,0,0,0,0,0,0,0,0,0],"split_type":[0,0,0,0,0,0,0,0,0,0,0,0,0,0,0,0,0,0,0,0,0,0,0,0,0,0,0,0,0],"sum_hessian":[2.857E3,2.479E3,3.78E2,1.434E3,1.045E3,2.71E2,1.07E2,5.27E2,9.07E2,6.46E2,3.99E2,2.05E2,6.6E1,8.5E1,2.2E1,2.64E2,2.63E2,8.5E2,5.7E1,2.66E2,3.8E2,1.4E2,2.59E2,9.1E1,1.14E2,2.3E1,4.3E1,4.1E1,4.4E1],"tree_param":{"num_deleted":"0","num_feature":"2","num_nodes":"29","size_leaf_vector":"1"}},{"base_weights":[-1.1536721E-3,-1.7299184E-1,2.3287216E-2,-2.4832132E-1,-1.2695085E-1,5.625515E-2,-1.6162083E-1,-1.8060933E-1,-3.7393104E-2,-7.886368E-3,-1.32354E-1,9.828621E-2,-9.866156E-2,-2.5175261E-1,6.687423E-2,-2.14945E-2,-1.6538715E-2,-1.4492057E-2,-1.1584731E-2,2.8955867E-3,3.0488772E-2,-4.221612E-3,-1.2051257E-1,-7.2084526E-3,-8.0040745E-2,2.1483937E-2,-4.892943E-2],"categories":[],"categories_nodes":[],"categories_segments":[],"categories_sizes":[],"default_left":[0,0,0,0,0,0,0,0,0,0,0,0,0,0,0,0,0,0,0,0,0,0,0,0,0,0,0],"id":43,"left_children":[1,3,5,7,9,11,13,15,-1,-1,17,19,21,23,25,-1,-1,-1,-1,-1,-1,-1,-1,-1,-1,-1,-1],"loss_changes":[1.2007278E1,1.2031708E0,1.5267469E1,1.0721712E0,4.7502756E-2,1.3846238E1,7.822214E0,1.0968208E-2,0E0,0E0,2.4490356E-2,2.3940485E1,2.8303625E1,2.675491E1,8.992824E0,0E0,0E0,0E0,0E0,0E0,0E0,0E0,0E0,0E0,0E0,0E0,0E0],"parents":[2147483647,0,0,1,1,2,2,3,3,4,4,5,5,6,6,7,7,10,10,11,11,12,12,13,13,14,14],"right_children":[2,4,6,8,10,12,14,16,-1,-1,18,20,22,24,26,-1,-1,-1,-1,-1,-1,-1,-1,-1,-1,-1,-1],"split_conditions":[3E0,3E0,2.1E1,2E0,1E0,5E0,4E0,2E0,-3.7393104E-2,-7.886368E-3,7E0,4E0,1.5E1,3E0,2.3E1,-2.14945E-2,-1.6538715E-2,-1.4492057E-2,-1.1584731E-2,2.8955867E-3,3.0488772E-2,-4.221612E-3,-1.2051257E-1,-7.2084526E-3,-8.0040745E-2,2.1483937E-2,-4.892943E-2],"split_indices":[1,0,1,0,1,0,0,1,0,0,0,0,1,0,1,0,0,0,0,0,0,0,0,0,0,0,0],"split_type":[0,0,0,0,0,0,0,0,0,0,0,0,0,0,0,0,0,0,0,0,0,0,0,0,0,0,0],"sum_hessian":[2.857E3,3.55E2,2.502E3,1.33E2,2.22E2,2.124E3,3.78E2,8.8E1,4.5E1,2.4E1,1.98E2,1.671E3,4.53E2,2.71E2,1.07E2,2.3E1,6.5E1,1.08E2,9E1,1.252E3,4.19E2,4.32E2,2.1E1,2.05E2,6.6E1,8.5E1,2.2E1],"tree_param":{"num_deleted":"0","num_feature":"2","num_nodes":"27","size_leaf_vector":"1"}},{"base_weights":[-1.1486848E-3,-1.2032337E-1,3.301667E-2,4.379729E-2,-3.7455732E-1,-1.2028632E-1,9.899266E-2,-2.0831898E-1,1.2769754E-1,-1.3661358E-1,-1.4426939E-1,-7.0802583E-3,-2.8755352E-1,4.6511278E-1,3.6335837E-2,1.4615528E-2,-5.3623367E-2,-4.6840657E-2,-1.0451372E-2,-1.7488385E-2,3.1994205E-2,-1.17290355E-2,-1.2090466E-1,8.072454E-2,2.2597618E-2,-8.588598E-3,1.4381199E-2],"categories":[],"categories_nodes":[],"categories_segments":[],"categories_sizes":[],"default_left":[0,0,0,0,0,0,0,0,0,0,0,0,0,0,0,0,0,0,0,0,0,0,0,0,0,0,0],"id":44,"left_children":[1,3,5,7,9,11,13,15,-1,-1,17,19,21,23,25,-1,-1,-1,-1,-1,-1,-1,-1,-1,-1,-1,-1],"loss_changes":[1.1640736E1,2.6595257E1,2.248592E1,1.20896866E2,5.6890053E1,1.2665919E1,3.563174E1,3.7623024E1,0E0,0E0,2.5798483E0,2.2006159E1,4.22202E1,1.8389908E1,1.7456867E1,0E0,0E0,0E0,0E0,0E0,0E0,0E0,0E0,0E0,0E0,0E0,0E0],"parents":[2147483647,0,0,1,1,2,2,3,3,4,4,5,5,6,6,7,7,10,10,11,11,12,12,13,13,14,14],"right_children":[2,4,6,8,10,12,14,16,-1,-1,18,20,22,24,26,-1,-1,-1,-1,-1,-1,-1,-1,-1,-1,-1,-1],"split_conditions":[2E0,1.7E1,9E0,1.4E1,1.8E1,5E0,1.1E1,7E0,1.2769754E-1,-1.3661358E-1,1.9E1,5E0,6E0,4E0,1.6E1,1.4615528E-2,-5.3623367E-2,-4.6840657E-2,-1.0451372E-2,-1.7488385E-2,3.1994205E-2,-1.17290355E-2,-1.2090466E-1,8.072454E-2,2.2597618E-2,-8.588598E-3,1.4381199E-2],"split_indices":[0,1,1,1,1,0,1,1,0,0,1,1,1,0,1,0,0,0,0,0,0,0,0,0,0,0,0],"split_type":[0,0,0,0,0,0,0,0,0,0,0,0,0,0,0,0,0,0,0,0,0,0,0,0,0,0,0],"sum_hessian":[2.857E3,6.36E2,2.221E3,3.87E2,2.49E2,6.68E2,1.553E3,3.22E2,6.5E1,4.6E1,2.03E2,3.99E2,2.69E2,2.26E2,1.327E3,1.55E2,1.67E2,2.1E1,1.82E2,2.64E2,1.35E2,2.28E2,4.1E1,9.2E1,1.34E2,6.21E2,7.06E2],"tree_param":{"num_deleted":"0","num_feature":"2","num_nodes":"27","size_leaf_vector":"1"}},{"base_weights":[-1.0737872E-3,2.208868E-2,-1.526354E-1,-4.9518734E-2,1.2030527E-1,-2.308187E-1,4.5684047E-2,-1.4453508E-1,5.787598E-3,2.1613453E-1,-3.4999326E-2,-6.5480195E-2,-7.357279E-1,1.7939062E-1,-4.562486E-2,2.8842227E-3,-3.1802163E-2,4.1236677E-3,-5.1443573E-2,7.2280094E-3,5.3728778E-2,-2.0624226E-2,5.800164E-3,1.8500024E-2,-2.6529515E-2,-1.7775199E-1,-1.5075663E-2,3.1207178E-2,5.1568435E-3],"categories":[],"categories_nodes":[],"categories_segments":[],"categories_sizes":[],"default_left":[0,0,0,0,0,0,0,0,0,0,0,0,0,0,0,0,0,0,0,0,0,0,0,0,0,0,0,0,0],"id":45,"left_children":[1,3,5,7,9,11,13,15,17,19,21,23,25,27,-1,-1,-1,-1,-1,-1,-1,-1,-1,-1,-1,-1,-1,-1,-1],"loss_changes":[1.0036497E1,1.7447887E1,5.887042E0,7.5417695E0,1.5574893E1,2.265864E1,7.32991E0,1.5890691E1,1.6766039E1,2.9852127E1,6.382265E0,1.0359326E1,4.0563057E1,1.4424322E0,0E0,0E0,0E0,0E0,0E0,0E0,0E0,0E0,0E0,0E0,0E0,0E0,0E0,0E0,0E0],"parents":[2147483647,0,0,1,1,2,2,3,3,4,4,5,5,6,6,7,7,8,8,9,9,10,10,11,11,12,12,13,13],"right_children":[2,4,6,8,10,12,14,16,18,20,22,24,26,28,-1,-1,-1,-1,-1,-1,-1,-1,-1,-1,-1,-1,-1,-1,-1],"split_conditions":[2.1E1,1.3E1,4E0,3E0,1.8E1,3E0,2.3E1,7E0,1.2E1,1.6E1,1.9E1,2.2E1,2.2E1,2.2E1,-4.562486E-2,2.8842227E-3,-3.1802163E-2,4.1236677E-3,-5.1443573E-2,7.2280094E-3,5.3728778E-2,-2.0624226E-2,5.800164E-3,1.8500024E-2,-2.6529515E-2,-1.7775199E-1,-1.5075663E-2,3.1207178E-2,5.1568435E-3],"split_indices":[1,1,0,0,1,0,1,1,1,1,1,1,1,1,0,0,0,0,0,0,0,0,0,0,0,0,0,0,0],"split_type":[0,0,0,0,0,0,0,0,0,0,0,0,0,0,0,0,0,0,0,0,0,0,0,0,0,0,0,0,0],"sum_hessian":[2.857E3,2.479E3,3.78E2,1.434E3,1.045E3,2.71E2,1.07E2,5.27E2,9.07E2,6.46E2,3.99E2,2.05E2,6.6E1,8.5E1,2.2E1,2.64E2,2.63E2,8.5E2,5.7E1,4.47E2,1.99E2,1.4E2,2.59E2,9.1E1,1.14E2,2.3E1,4.3E1,4.1E1,4.4E1],"tree_param":{"num_deleted":"0","num_feature":"2","num_nodes":"29","size_leaf_vector":"1"}},{"base_weights":[-1.050642E-3,-1.5236183E-1,2.0470666E-2,-2.3064013E-1,-1.04641415E-1,6.728084E-2,-8.340443E-2,-1.8027891E-1,-3.230642E-2,-6.3991398E-3,-1.0922236E-1,1.2679147E-2,4.8382834E-1,-6.592712E-2,-3.806113E-2,-2.1111678E-2,-1.6633365E-2,-1.1853467E-2,-9.686782E-3,2.513022E-3,-3.799318E-2,8.382565E-3,1.8597525E-1,-1.1659343E-2,6.67742E-3],"categories":[],"categories_nodes":[],"categories_segments":[],"categories_sizes":[],"default_left":[0,0,0,0,0,0,0,0,0,0,0,0,0,0,0,0,0,0,0,0,0,0,0,0,0],"id":46,"left_children":[1,3,5,7,9,11,13,15,-1,-1,17,19,21,23,-1,-1,-1,-1,-1,-1,-1,-1,-1,-1,-1],"loss_changes":[9.309953E0,1.3056936E0,1.2176226E1,5.654731E-1,3.45366E-2,3.9250355E1,4.0161324E0,3.1580925E-3,0E0,0E0,1.1412621E-2,7.474176E0,1.0991878E2,4.9562707E0,0E0,0E0,0E0,0E0,0E0,0E0,0E0,0E0,0E0,0E0,0E0],"parents":[2147483647,0,0,1,1,2,2,3,3,4,4,5,5,6,6,7,7,10,10,11,11,12,12,13,13],"right_children":[2,4,6,8,10,12,14,16,-1,-1,18,20,22,24,-1,-1,-1,-1,-1,-1,-1,-1,-1,-1,-1],"split_conditions":[3E0,3E0,1.8E1,2E0,1E0,1.6E1,2.3E1,2E0,-3.230642E-2,-6.3991398E-3,7E0,7E0,4E0,4E0,-3.806113E-2,-2.1111678E-2,-1.6633365E-2,-1.1853467E-2,-9.686782E-3,2.513022E-3,-3.799318E-2,8.382565E-3,1.8597525E-1,-1.1659343E-2,6.67742E-3],"split_indices":[1,0,1,0,1,1,1,1,0,0,0,0,0,0,0,0,0,0,0,0,0,0,0,0,0],"split_type":[0,0,0,0,0,0,0,0,0,0,0,0,0,0,0,0,0,0,0,0,0,0,0,0,0],"sum_hessian":[2.857E3,3.55E2,2.502E3,1.33E2,2.22E2,1.725E3,7.77E2,8.8E1,4.5E1,2.4E1,1.98E2,1.526E3,1.99E2,7.35E2,4.2E1,2.3E1,6.5E1,1.08E2,9E1,1.48E3,4.6E1,1.55E2,4.4E1,5.32E2,2.03E2],"tree_param":{"num_deleted":"0","num_feature":"2","num_nodes":"25","size_leaf_vector":"1"}},{"base_weights":[-9.3971397E-4,-1.01798296E-1,2.7974714E-2,4.7923405E-2,-3.337592E-1,-1.0421652E-1,8.4865294E-2,-1.7229964E-1,1.1249556E-1,-1.293218E-1,-1.1107133E-1,-3.5827684E-3,-2.529176E-1,4.1988608E-1,2.7535036E-2,1.3773143E-2,-4.5916002E-2,-3.9287865E-2,-7.658591E-3,-1.6391456E-2,3.0200306E-2,-9.691177E-3,-1.0974989E-1,7.38978E-2,1.969569E-2,-7.791271E-3,1.2026625E-2],"categories":[],"categories_nodes":[],"categories_segments":[],"categories_sizes":[],"default_left":[0,0,0,0,0,0,0,0,0,0,0,0,0,0,0,0,0,0,0,0,0,0,0,0,0,0,0],"id":47,"left_children":[1,3,5,7,9,11,13,15,-1,-1,17,19,21,23,25,-1,-1,-1,-1,-1,-1,-1,-1,-1,-1,-1,-1],"loss_changes":[8.337543E0,2.2138737E1,1.6719255E1,9.2222496E1,5.3271313E1,1.0010242E1,2.9835846E1,2.8789452E1,0E0,0E0,1.9524329E0,1.9647552E1,3.5468735E1,1.6002083E1,1.2994947E1,0E0,0E0,0E0,0E0,0E0,0E0,0E0,0E0,0E0,0E0,0E0,0E0],"parents":[2147483647,0,0,1,1,2,2,3,3,4,4,5,5,6,6,7,7,10,10,11,11,12,12,13,13,14,14],"right_children":[2,4,6,8,10,12,14,16,-1,-1,18,20,22,24,26,-1,-1,-1,-1,-1,-1,-1,-1,-1,-1,-1,-1],"split_conditions":[2E0,1.7E1,9E0,1.4E1,1.8E1,5E0,1.1E1,7E0,1.1249556E-1,-1.293218E-1,1.9E1,4E0,6E0,4E0,1.6E1,1.3773143E-2,-4.5916002E-2,-3.9287865E-2,-7.658591E-3,-1.6391456E-2,3.0200306E-2,-9.691177E-3,-1.0974989E-1,7.38978E-2,1.969569E-2,-7.791271E-3,1.2026625E-2],"split_indices":[0,1,1,1,1,0,1,1,0,0,1,0,1,0,1,0,0,0,0,0,0,0,0,0,0,0,0],"split_type":[0,0,0,0,0,0,0,0,0,0,0,0,0,0,0,0,0,0,0,0,0,0,0,0,0,0,0],"sum_hessian":[2.857E3,6.36E2,2.221E3,3.87E2,2.49E2,6.68E2,1.553E3,3.22E2,6.5E1,4.6E1,2.03E2,3.99E2,2.69E2,2.26E2,1.327E3,1.55E2,1.67E2,2.1E1,1.82E2,2.62E2,1.37E2,2.28E2,4.1E1,9.2E1,1.34E2,6.21E2,7.06E2],"tree_param":{"num_deleted":"0","num_feature":"2","num_nodes":"27","size_leaf_vector":"1"}},{"base_weights":[-8.8194833E-4,1.9394333E-2,-1.3355818E-1,-3.8863678E-2,9.929954E-2,-1.9864956E-1,3.1612262E-2,-1.19569674E-1,8.109483E-3,3.993598E-1,4.822864E-2,-4.5879688E-2,-6.6539496E-1,1.4338769E-1,-3.8770508E-2,3.4811075E-3,-2.7408227E-2,-9.61364E-3,1.5857166E-2,4.4461084E-3,2.4944675E-1,3.5139956E-2,-1.7007716E-2,1.7618045E-2,-2.2312885E-2,-1.6075265E-1,-1.3638238E-2,2.6334865E-2,2.8237745E-3],"categories":[],"categories_nodes":[],"categories_segments":[],"categories_sizes":[],"default_left":[0,0,0,0,0,0,0,0,0,0,0,0,0,0,0,0,0,0,0,0,0,0,0,0,0,0,0,0,0],"id":48,"left_children":[1,3,5,7,9,11,13,15,17,19,21,23,25,27,-1,-1,-1,-1,-1,-1,-1,-1,-1,-1,-1,-1,-1,-1,-1],"loss_changes":[7.6911263E0,1.15485525E1,4.0809736E0,5.441077E0,1.6010006E1,1.936433E1,5.117485E0,1.2604332E1,1.4257281E1,1.1290885E2,5.929441E1,8.147465E0,3.317352E1,1.1805246E0,0E0,0E0,0E0,0E0,0E0,0E0,0E0,0E0,0E0,0E0,0E0,0E0,0E0,0E0,0E0],"parents":[2147483647,0,0,1,1,2,2,3,3,4,4,5,5,6,6,7,7,8,8,9,9,10,10,11,11,12,12,13,13],"right_children":[2,4,6,8,10,12,14,16,18,20,22,24,26,28,-1,-1,-1,-1,-1,-1,-1,-1,-1,-1,-1,-1,-1,-1,-1],"split_conditions":[2.1E1,1.3E1,4E0,3E0,1.4E1,3E0,2.3E1,7E0,9E0,5E0,3E0,2.2E1,2.2E1,2.2E1,-3.8770508E-2,3.4811075E-3,-2.7408227E-2,-9.61364E-3,1.5857166E-2,4.4461084E-3,2.4944675E-1,3.5139956E-2,-1.7007716E-2,1.7618045E-2,-2.2312885E-2,-1.6075265E-1,-1.3638238E-2,2.6334865E-2,2.8237745E-3],"split_indices":[1,1,0,0,1,0,1,1,1,0,0,1,1,1,0,0,0,0,0,0,0,0,0,0,0,0,0,0,0],"split_type":[0,0,0,0,0,0,0,0,0,0,0,0,0,0,0,0,0,0,0,0,0,0,0,0,0,0,0,0,0],"sum_hessian":[2.857E3,2.479E3,3.78E2,1.434E3,1.045E3,2.71E2,1.07E2,5.27E2,9.07E2,1.51E2,8.94E2,2.05E2,6.6E1,8.5E1,2.2E1,2.64E2,2.63E2,5.36E2,3.71E2,1.3E2,2.1E1,3.74E2,5.2E2,9.1E1,1.14E2,2.3E1,4.3E1,4.1E1,4.4E1],"tree_param":{"num_deleted":"0","num_feature":"2","num_nodes":"29","size_leaf_vector":"1"}},{"base_weights":[-7.7076454E-4,-9.650386E-2,2.6674218E-2,4.59694E-2,-3.1723633E-1,-1.1522771E-1,6.709675E-2,-1.4493713E-1,9.7955786E-2,-1.2010389E-1,-1.120601E-1,-2.8635147E-1,-2.0155357E-2,1.3309948E-1,-6.571412E-2,1.2058787E-2,-3.906333E-2,-3.8891967E-2,-7.816409E-3,-1.8225625E-2,-3.8158044E-2,8.251327E-3,-1.5640013E-2,5.666449E-3,1.3746075E-1,-1.1528371E-2,1.1343694E-3],"categories":[],"categories_nodes":[],"categories_segments":[],"categories_sizes":[],"default_left":[0,0,0,0,0,0,0,0,0,0,0,0,0,0,0,0,0,0,0,0,0,0,0,0,0,0,0],"id":49,"left_children":[1,3,5,7,9,11,13,15,-1,-1,17,19,21,23,25,-1,-1,-1,-1,-1,-1,-1,-1,-1,-1,-1,-1],"loss_changes":[7.511664E0,2.0047264E1,1.2753201E1,6.929448E1,4.519923E1,8.014914E0,1.5173719E1,2.1119135E1,0E0,0E0,1.8840253E0,1.6751204E0,4.461109E0,1.0962033E2,2.1976485E0,0E0,0E0,0E0,0E0,0E0,0E0,0E0,0E0,0E0,0E0,0E0,0E0],"parents":[2147483647,0,0,1,1,2,2,3,3,4,4,5,5,6,6,7,7,10,10,11,11,12,12,13,13,14,14],"right_children":[2,4,6,8,10,12,14,16,-1,-1,18,20,22,24,26,-1,-1,-1,-1,-1,-1,-1,-1,-1,-1,-1,-1],"split_conditions":[2E0,1.7E1,6E0,1.4E1,1.8E1,4E0,1.8E1,7E0,9.7955786E-2,-1.2010389E-1,1.9E1,2E0,7E0,1.7E1,4E0,1.2058787E-2,-3.906333E-2,-3.8891967E-2,-7.816409E-3,-1.8225625E-2,-3.8158044E-2,8.251327E-3,-1.5640013E-2,5.666449E-3,1.3746075E-1,-1.1528371E-2,1.1343694E-3],"split_indices":[0,1,1,1,1,0,1,1,0,0,1,1,0,1,0,0,0,0,0,0,0,0,0,0,0,0,0],"split_type":[0,0,0,0,0,0,0,0,0,0,0,0,0,0,0,0,0,0,0,0,0,0,0,0,0,0,0],"sum_hessian":[2.857E3,6.36E2,2.221E3,3.87E2,2.49E2,4.92E2,1.729E3,3.22E2,6.5E1,4.6E1,2.03E2,1.75E2,3.17E2,1.155E3,5.74E2,1.55E2,1.67E2,2.1E1,1.82E2,8.5E1,9E1,1.81E2,1.36E2,1.089E3,6.6E1,3.49E2,2.25E2],"tree_param":{"num_deleted":"0","num_feature":"2","num_nodes":"27","size_leaf_vector":"1"}}]},"name":"gbtree"},"learner_model_param":{"base_score":"[1.3677284E1]","boost_from_average":"1","num_class":"0","num_feature":"2","num_target":"1"},"objective":{"name":"reg:squarederror","reg_loss_param":{"scale_pos_weight":"1"}}},"version":[3,2,0]}