{"learner":{"attributes":{},"feature_names":["day_of_week","hour_of_day"],"feature_types":[],"gradient_booster":{"model":{"cats":{"enc":[],"feature_segments":[],"sorted_idx":[]},"gbtree_model_param":{"num_parallel_tree":"1","num_trees":"50"},"iteration_indptr":[0,1,2,3,4,5,6,7,8,9,10,11,12,13,14,15,16,17,18,19,20,21,22,23,24,25,26,27,28,29,30,31,32,33,34,35,36,37,38,39,40,41,42,43,44,45,46,47,48,49,50],"tree_info":[0,0,0,0,0,0,0,0,0,0,0,0,0,0,0,0,0,0,0,0,0,0,0,0,0,0,0,0,0,0,0,0,0,0,0,0,0,0,0,0,0,0,0,0,0,0,0,0,0,0],"trees":[{"base_weights":[5.8868785E-8,-1.054601E1,1.8128679E0,-1.0980885E1,-6.619771E0,3.8888736E0,-5.9310927E0,-1.1976393E0,-9.198851E-1,-3.8907367E-1,-9.1719544E-1,-9.8257035E-1,4.520725E0,-3.6046546E0,-8.679576E0,2.2674076E-1,-7.834882E-1,4.905974E-1,-1.7911507E-2,-4.6575212E-1,-4.546005E-2,-1.0404531E0,-4.4038945E-1],"categories":[],"categories_nodes":[],"categories_segments":[],"categories_sizes":[],"default_left":[0,0,0,0,0,0,0,0,0,0,0,0,0,0,0,0,0,0,0,0,0,0,0],"id":0,"left_children":[1,3,5,7,9,11,13,-1,-1,-1,-1,15,17,19,21,-1,-1,-1,-1,-1,-1,-1,-1],"loss_changes":[5.4220125E4,6.3759766E2,3.892821E4,5.5154297E2,2.7077405E2,5.8804004E3,3.2425312E3,0E0,0E0,0E0,0E0,4.9171343E3,3.0608008E3,9.232107E2,1.6800117E3,0E0,0E0,0E0,0E0,0E0,0E0,0E0,0E0],"parents":[2147483647,0,0,1,1,2,2,3,3,4,4,5,5,6,6,11,11,12,12,13,13,14,14],"right_children":[2,4,6,8,10,12,14,-1,-1,-1,-1,16,18,20,22,-1,-1,-1,-1,-1,-1,-1,-1],"split_conditions":[4E0,3E0,2E1,5E0,2E0,6E0,2.2E1,-1.1976393E0,-9.198851E-1,-3.8907367E-1,-9.1719544E-1,5E0,1.9E1,4E0,4E0,2.2674076E-1,-7.834882E-1,4.905974E-1,-1.7911507E-2,-4.6575212E-1,-4.546005E-2,-1.0404531E0,-4.4038945E-1],"split_indices":[1,1,1,0,0,1,1,0,0,0,0,0,1,0,0,0,0,0,0,0,0,0,0],"split_type":[0,0,0,0,0,0,0,0,0,0,0,0,0,0,0,0,0,0,0,0,0,0,0],"sum_hessian":[2.834E3,4.15E2,2.419E3,3.72E2,4.3E1,1.908E3,5.11E2,2.35E2,1.37E2,2.2E1,2.1E1,2.19E2,1.689E3,2.78E2,2.33E2,1.49E2,7E1,1.561E3,1.28E2,2.08E2,7E1,1.65E2,6.8E1],"tree_param":{"num_deleted":"0","num_feature":"2","num_nodes":"23","size_leaf_vector":"1"}},{"base_weights":[-1.9399936E-3,-9.499639E0,1.6307231E0,-9.8884735E0,-5.987482E0,3.499942E0,-5.341874E0,-1.0783828E0,-8.285632E-1,-3.5185796E-1,-8.29645E-1,-8.868439E-1,4.068932E0,-3.246021E0,-7.817947E0,2.0421787E-1,-7.062429E-1,4.4156906E-1,-1.6134188E-2,-4.1939974E-1,-4.09781E-2,-9.3703455E-1,-3.9698872E-1],"categories":[],"categories_nodes":[],"categories_segments":[],"categories_sizes":[],"default_left":[0,0,0,0,0,0,0,0,0,0,0,0,0,0,0,0,0,0,0,0,0,0,0],"id":1,"left_children":[1,3,5,7,9,11,13,-1,-1,-1,-1,15,17,19,21,-1,-1,-1,-1,-1,-1,-1,-1],"loss_changes":[4.3976543E4,5.0890234E2,3.1559307E4,4.459453E2,2.2163538E2,4.768541E3,2.6316396E3,0E0,0E0,0E0,0E0,3.993877E3,2.4797441E3,7.484253E2,1.3606523E3,0E0,0E0,0E0,0E0,0E0,0E0,0E0,0E0],"parents":[2147483647,0,0,1,1,2,2,3,3,4,4,5,5,6,6,11,11,12,12,13,13,14,14],"right_children":[2,4,6,8,10,12,14,-1,-1,-1,-1,16,18,20,22,-1,-1,-1,-1,-1,-1,-1,-1],"split_conditions":[4E0,3E0,2E1,5E0,2E0,6E0,2.2E1,-1.0783828E0,-8.285632E-1,-3.5185796E-1,-8.29645E-1,5E0,1.9E1,4E0,4E0,2.0421787E-1,-7.062429E-1,4.4156906E-1,-1.6134188E-2,-4.1939974E-1,-4.09781E-2,-9.3703455E-1,-3.9698872E-1],"split_indices":[1,1,1,0,0,1,1,0,0,0,0,0,1,0,0,0,0,0,0,0,0,0,0],"split_type":[0,0,0,0,0,0,0,0,0,0,0,0,0,0,0,0,0,0,0,0,0,0,0],"sum_hessian":[2.834E3,4.15E2,2.419E3,3.72E2,4.3E1,1.908E3,5.11E2,2.35E2,1.37E2,2.2E1,2.1E1,2.19E2,1.689E3,2.78E2,2.33E2,1.49E2,7E1,1.561E3,1.28E2,2.08E2,7E1,1.65E2,6.8E1],"tree_param":{"num_deleted":"0","num_feature":"2","num_nodes":"23","size_leaf_vector":"1"}},{"base_weights":[-3.4956452E-3,-8.557099E0,1.4668773E0,-8.904738E0,-5.415586E0,3.1499074E0,-4.811191E0,-9.7100157E-1,-7.4630725E-1,-3.1820196E-1,-7.504515E-1,-8.0044156E-1,3.66229E0,-2.9230692E0,-7.041853E0,1.8393223E-1,-6.366133E-1,3.9744034E-1,-1.4533281E-2,-3.7766048E-1,-3.6937967E-2,-8.4389555E-1,-3.5786518E-1],"categories":[],"categories_nodes":[],"categories_segments":[],"categories_sizes":[],"default_left":[0,0,0,0,0,0,0,0,0,0,0,0,0,0,0,0,0,0,0,0,0,0,0],"id":2,"left_children":[1,3,5,7,9,11,13,-1,-1,-1,-1,15,17,19,21,-1,-1,-1,-1,-1,-1,-1,-1],"loss_changes":[3.566831E4,4.060957E2,2.5585309E4,3.605664E2,1.8141406E2,3.866918E3,2.135838E3,0E0,0E0,0E0,0E0,3.2439736E3,2.0089902E3,6.067312E2,1.1019961E3,0E0,0E0,0E0,0E0,0E0,0E0,0E0,0E0],"parents":[2147483647,0,0,1,1,2,2,3,3,4,4,5,5,6,6,11,11,12,12,13,13,14,14],"right_children":[2,4,6,8,10,12,14,-1,-1,-1,-1,16,18,20,22,-1,-1,-1,-1,-1,-1,-1,-1],"split_conditions":[4E0,3E0,2E1,5E0,2E0,6E0,2.2E1,-9.7100157E-1,-7.4630725E-1,-3.1820196E-1,-7.504515E-1,5E0,1.9E1,4E0,4E0,1.8393223E-1,-6.366133E-1,3.9744034E-1,-1.4533281E-2,-3.7766048E-1,-3.6937967E-2,-8.4389555E-1,-3.5786518E-1],"split_indices":[1,1,1,0,0,1,1,0,0,0,0,0,1,0,0,0,0,0,0,0,0,0,0],"split_type":[0,0,0,0,0,0,0,0,0,0,0,0,0,0,0,0,0,0,0,0,0,0,0],"sum_hessian":[2.834E3,4.15E2,2.419E3,3.72E2,4.3E1,1.908E3,5.11E2,2.35E2,1.37E2,2.2E1,2.1E1,2.19E2,1.689E3,2.78E2,2.33E2,1.49E2,7E1,1.561E3,1.28E2,2.08E2,7E1,1.65E2,6.8E1],"tree_param":{"num_deleted":"0","num_feature":"2","num_nodes":"23","size_leaf_vector":"1"}},{"base_weights":[-4.723127E-3,-7.708086E0,1.3194933E0,-8.018868E0,-4.898315E0,2.8348806E0,-4.333229E0,-8.743128E-1,-6.722173E-1,-2.8776523E-1,-6.788176E-1,3.5290217E0,2.156934E-1,-2.6322484E0,-6.342803E0,4.055864E-1,1.139585E-1,-4.598088E-1,2.1911204E-1,-3.400751E-1,-3.329622E-2,-7.6001436E-1,-3.2259732E-1],"categories":[],"categories_nodes":[],"categories_segments":[],"categories_sizes":[],"default_left":[0,0,0,0,0,0,0,0,0,0,0,0,0,0,0,0,0,0,0,0,0,0,0],"id":3,"left_children":[1,3,5,7,9,11,13,-1,-1,-1,-1,15,17,19,21,-1,-1,-1,-1,-1,-1,-1,-1],"loss_changes":[2.892978E4,3.2398242E2,2.0742156E4,2.915293E2,1.4849182E2,3.4699648E3,1.7334473E3,0E0,0E0,0E0,0E0,1.8949922E3,3.8232937E3,4.9186267E2,8.925078E2,0E0,0E0,0E0,0E0,0E0,0E0,0E0,0E0],"parents":[2147483647,0,0,1,1,2,2,3,3,4,4,5,5,6,6,11,11,12,12,13,13,14,14],"right_children":[2,4,6,8,10,12,14,-1,-1,-1,-1,16,18,20,22,-1,-1,-1,-1,-1,-1,-1,-1],"split_conditions":[4E0,3E0,2E1,5E0,2E0,5E0,2.2E1,-8.743128E-1,-6.722173E-1,-2.8776523E-1,-6.788176E-1,1.8E1,9E0,4E0,4E0,4.055864E-1,1.139585E-1,-4.598088E-1,2.1911204E-1,-3.400751E-1,-3.329622E-2,-7.6001436E-1,-3.2259732E-1],"split_indices":[1,1,1,0,0,0,1,0,0,0,0,1,1,0,0,0,0,0,0,0,0,0,0],"split_type":[0,0,0,0,0,0,0,0,0,0,0,0,0,0,0,0,0,0,0,0,0,0,0],"sum_hessian":[2.834E3,4.15E2,2.419E3,3.72E2,4.3E1,1.908E3,5.11E2,2.35E2,1.37E2,2.2E1,2.1E1,1.508E3,4E2,2.78E2,2.33E2,1.235E3,2.73E2,1.16E2,2.84E2,2.08E2,7E1,1.65E2,6.8E1],"tree_param":{"num_deleted":"0","num_feature":"2","num_nodes":"23","size_leaf_vector":"1"}},{"base_weights":[-5.5524465E-3,-6.943319E0,1.1870576E0,-7.221128E0,-4.4304514E0,2.5515387E0,-3.9027493E0,-7.87252E-1,-6.054827E-1,-2.6023984E-1,-6.1402136E-1,-8.508452E-1,2.9929426E0,-2.3703613E0,-5.713149E0,1.2537336E-1,-5.285155E-1,3.2583532E-1,-2.4398735E-2,-3.481057E-1,-9.741359E-2,-6.844707E-1,-2.908051E-1],"categories":[],"categories_nodes":[],"categories_segments":[],"categories_sizes":[],"default_left":[0,0,0,0,0,0,0,0,0,0,0,0,0,0,0,0,0,0,0,0,0,0,0],"id":4,"left_children":[1,3,5,7,9,11,13,-1,-1,-1,-1,15,17,19,21,-1,-1,-1,-1,-1,-1,-1,-1],"loss_changes":[2.3465174E4,2.5841602E2,1.6816727E4,2.3570898E2,1.2154431E2,2.8695332E3,1.4068662E3,0E0,0E0,0E0,0E0,2.059744E3,1.4526992E3,4.2927673E2,7.228418E2,0E0,0E0,0E0,0E0,0E0,0E0,0E0,0E0],"parents":[2147483647,0,0,1,1,2,2,3,3,4,4,5,5,6,6,11,11,12,12,13,13,14,14],"right_children":[2,4,6,8,10,12,14,-1,-1,-1,-1,16,18,20,22,-1,-1,-1,-1,-1,-1,-1,-1],"split_conditions":[4E0,3E0,2E1,5E0,2E0,6E0,2.2E1,-7.87252E-1,-6.054827E-1,-2.6023984E-1,-6.1402136E-1,5E0,1.9E1,3E0,4E0,1.2537336E-1,-5.285155E-1,3.2583532E-1,-2.4398735E-2,-3.481057E-1,-9.741359E-2,-6.844707E-1,-2.908051E-1],"split_indices":[1,1,1,0,0,1,1,0,0,0,0,0,1,0,0,0,0,0,0,0,0,0,0],"split_type":[0,0,0,0,0,0,0,0,0,0,0,0,0,0,0,0,0,0,0,0,0,0,0],"sum_hessian":[2.834E3,4.15E2,2.419E3,3.72E2,4.3E1,1.908E3,5.11E2,2.35E2,1.37E2,2.2E1,2.1E1,2.19E2,1.689E3,2.78E2,2.33E2,1.49E2,7E1,1.561E3,1.28E2,1.54E2,1.24E2,1.65E2,6.8E1],"tree_param":{"num_deleted":"0","num_feature":"2","num_nodes":"23","size_leaf_vector":"1"}},{"base_weights":[-6.3337954E-3,-6.254436E0,1.0677228E0,-6.502749E0,-4.0072756E0,2.2963314E0,-3.5152493E0,-7.0886034E-1,-5.4537314E-1,-2.3534735E-1,-5.554102E-1,2.900347E0,1.7639263E-2,-2.134922E0,-5.146002E0,3.3492E-1,8.650094E-2,-3.9541098E-1,1.6480848E-1,-3.1351972E-1,-8.775013E-2,-6.1643595E-1,-2.621461E-1],"categories":[],"categories_nodes":[],"categories_segments":[],"categories_sizes":[],"default_left":[0,0,0,0,0,0,0,0,0,0,0,0,0,0,0,0,0,0,0,0,0,0,0],"id":5,"left_children":[1,3,5,7,9,11,13,-1,-1,-1,-1,15,17,19,21,-1,-1,-1,-1,-1,-1,-1,-1],"loss_changes":[1.903184E4,2.0606836E2,1.3634316E4,1.9057617E2,9.948694E1,2.6274297E3,1.1415112E3,0E0,0E0,0E0,0E0,1.3756768E3,2.6032805E3,3.481659E2,5.8542773E2,0E0,0E0,0E0,0E0,0E0,0E0,0E0,0E0],"parents":[2147483647,0,0,1,1,2,2,3,3,4,4,5,5,6,6,11,11,12,12,13,13,14,14],"right_children":[2,4,6,8,10,12,14,-1,-1,-1,-1,16,18,20,22,-1,-1,-1,-1,-1,-1,-1,-1],"split_conditions":[4E0,3E0,2E1,5E0,2E0,5E0,2.2E1,-7.0886034E-1,-5.4537314E-1,-2.3534735E-1,-5.554102E-1,1.8E1,9E0,3E0,4E0,3.3492E-1,8.650094E-2,-3.9541098E-1,1.6480848E-1,-3.1351972E-1,-8.775013E-2,-6.1643595E-1,-2.621461E-1],"split_indices":[1,1,1,0,0,0,1,0,0,0,0,1,1,0,0,0,0,0,0,0,0,0,0],"split_type":[0,0,0,0,0,0,0,0,0,0,0,0,0,0,0,0,0,0,0,0,0,0,0],"sum_hessian":[2.834E3,4.15E2,2.419E3,3.72E2,4.3E1,1.908E3,5.11E2,2.35E2,1.37E2,2.2E1,2.1E1,1.508E3,4E2,2.78E2,2.33E2,1.235E3,2.73E2,1.16E2,2.84E2,1.54E2,1.24E2,1.65E2,6.8E1],"tree_param":{"num_deleted":"0","num_feature":"2","num_nodes":"23","size_leaf_vector":"1"}},{"base_weights":[-6.806237E-3,-5.6339083E0,9.6050006E-1,-5.8558364E0,-3.6245198E0,2.0667977E0,-3.166224E0,-6.3827467E-1,-4.91231E0,-2.1283583E-1,-5.023938E-1,-8.686124E-1,2.4476993E0,-1.922868E0,-4.635156E0,-3.8685718E-1,-5.066583E-1,7.9650946E-2,-4.3742415E-1,2.673518E-1,-3.056082E-2,-3.7519106E-1,-1.3156319E-1,-6.0648E-1,-3.1030488E-1],"categories":[],"categories_nodes":[],"categories_segments":[],"categories_sizes":[],"default_left":[0,0,0,0,0,0,0,0,0,0,0,0,0,0,0,0,0,0,0,0,0,0,0,0,0],"id":6,"left_children":[1,3,5,7,9,11,13,-1,15,-1,-1,17,19,21,23,-1,-1,-1,-1,-1,-1,-1,-1,-1,-1],"loss_changes":[1.5436689E4,1.6428516E2,1.1054777E4,1.5408496E2,8.1432495E1,2.1365825E3,9.2620703E2,0E0,2.6201172E0,0E0,0E0,1.2876898E3,1.0515723E3,3.0493823E2,4.9372607E2,0E0,0E0,0E0,0E0,0E0,0E0,0E0,0E0,0E0,0E0],"parents":[2147483647,0,0,1,1,2,2,3,3,4,4,5,5,6,6,8,8,11,11,12,12,13,13,14,14],"right_children":[2,4,6,8,10,12,14,-1,16,-1,-1,18,20,22,24,-1,-1,-1,-1,-1,-1,-1,-1,-1,-1],"split_conditions":[4E0,3E0,2E1,5E0,2E0,6E0,2.2E1,-6.3827467E-1,1E0,-2.1283583E-1,-5.023938E-1,5E0,1.9E1,2E0,3E0,-3.8685718E-1,-5.066583E-1,7.9650946E-2,-4.3742415E-1,2.673518E-1,-3.056082E-2,-3.7519106E-1,-1.3156319E-1,-6.0648E-1,-3.1030488E-1],"split_indices":[1,1,1,0,0,1,1,0,1,0,0,0,1,0,0,0,0,0,0,0,0,0,0,0,0],"split_type":[0,0,0,0,0,0,0,0,0,0,0,0,0,0,0,0,0,0,0,0,0,0,0,0,0],"sum_hessian":[2.834E3,4.15E2,2.419E3,3.72E2,4.3E1,1.908E3,5.11E2,2.35E2,1.37E2,2.2E1,2.1E1,2.19E2,1.689E3,2.78E2,2.33E2,2.1E1,1.16E2,1.49E2,7E1,1.561E3,1.28E2,6.8E1,2.1E2,1.19E2,1.14E2],"tree_param":{"num_deleted":"0","num_feature":"2","num_nodes":"25","size_leaf_vector":"1"}},{"base_weights":[-7.4627846E-3,-5.075919E0,8.638121E-1,-5.2743597E0,-3.2783227E0,1.860055E0,-2.8523822E0,-5.747177E-1,-4.4275537E0,-1.9247757E-1,-4.5443803E-1,2.3872206E0,-1.2835622E-1,-1.7323977E0,-4.1755586E0,-3.499299E-1,-4.5642552E-1,2.7700424E-1,6.516185E-2,-3.405485E-1,1.2174417E-1,-2.3167479E-1,1.213204E-3,-5.0308836E-1,-2.0573063E-1],"categories":[],"categories_nodes":[],"categories_segments":[],"categories_sizes":[],"default_left":[0,0,0,0,0,0,0,0,0,0,0,0,0,0,0,0,0,0,0,0,0,0,0,0,0],"id":7,"left_children":[1,3,5,7,9,11,13,-1,15,-1,-1,17,19,21,23,-1,-1,-1,-1,-1,-1,-1,-1,-1,-1],"loss_changes":[1.2523797E4,1.3110254E2,8.964708E3,1.2389746E2,6.665448E1,2.0013618E3,7.5151807E2,0E0,1.5397949E0,0E0,0E0,1.0008135E3,1.7726976E3,2.8444537E2,4.1360913E2,0E0,0E0,0E0,0E0,0E0,0E0,0E0,0E0,0E0,0E0],"parents":[2147483647,0,0,1,1,2,2,3,3,4,4,5,5,6,6,8,8,11,11,12,12,13,13,14,14],"right_children":[2,4,6,8,10,12,14,-1,16,-1,-1,18,20,22,24,-1,-1,-1,-1,-1,-1,-1,-1,-1,-1],"split_conditions":[4E0,3E0,2E1,5E0,2E0,5E0,2.2E1,-5.747177E-1,1E0,-1.9247757E-1,-4.5443803E-1,1.8E1,9E0,4E0,4E0,-3.499299E-1,-4.5642552E-1,2.7700424E-1,6.516185E-2,-3.405485E-1,1.2174417E-1,-2.3167479E-1,1.213204E-3,-5.0308836E-1,-2.0573063E-1],"split_indices":[1,1,1,0,0,0,1,0,1,0,0,1,1,0,0,0,0,0,0,0,0,0,0,0,0],"split_type":[0,0,0,0,0,0,0,0,0,0,0,0,0,0,0,0,0,0,0,0,0,0,0,0,0],"sum_hessian":[2.834E3,4.15E2,2.419E3,3.72E2,4.3E1,1.908E3,5.11E2,2.35E2,1.37E2,2.2E1,2.1E1,1.508E3,4E2,2.78E2,2.33E2,2.1E1,1.16E2,1.235E3,2.73E2,1.16E2,2.84E2,2.08E2,7E1,1.65E2,6.8E1],"tree_param":{"num_deleted":"0","num_feature":"2","num_nodes":"25","size_leaf_vector":"1"}},{"base_weights":[-7.719621E-3,-4.573202E0,7.7709377E-1,-4.750626E0,-2.9651933E0,1.8190546E0,-2.123702E0,-5.1748943E-1,-3.9906414E0,-1.7406671E-1,-4.1105983E-1,2.379637E0,-1.1606623E-1,-4.5801133E-1,-3.1694212E0,-3.1652752E-1,-4.1117308E-1,4.42232E-2,2.613591E-1,-3.0678472E-1,1.0961248E-1,-1.8357815E-1,9.79979E-2,-4.0480494E-1,-1.08746566E-1],"categories":[],"categories_nodes":[],"categories_segments":[],"categories_sizes":[],"default_left":[0,0,0,0,0,0,0,0,0,0,0,0,0,0,0,0,0,0,0,0,0,0,0,0,0],"id":8,"left_children":[1,3,5,7,9,11,13,-1,15,-1,-1,17,19,21,23,-1,-1,-1,-1,-1,-1,-1,-1,-1,-1],"loss_changes":[1.0161506E4,1.0459766E2,7.3183516E3,9.9618164E1,5.4558258E1,1.9322959E3,1.1133289E3,0E0,7.7734375E-1,0E0,0E0,6.248008E2,1.4381897E3,4.931416E2,7.1449854E2,0E0,0E0,0E0,0E0,0E0,0E0,0E0,0E0,0E0,0E0],"parents":[2147483647,0,0,1,1,2,2,3,3,4,4,5,5,6,6,8,8,11,11,12,12,13,13,14,14],"right_children":[2,4,6,8,10,12,14,-1,16,-1,-1,18,20,22,24,-1,-1,-1,-1,-1,-1,-1,-1,-1,-1],"split_conditions":[4E0,3E0,1.9E1,5E0,2E0,5E0,2.1E1,-5.1748943E-1,1E0,-1.7406671E-1,-4.1105983E-1,5E0,9E0,3E0,4E0,-3.1652752E-1,-4.1117308E-1,4.42232E-2,2.613591E-1,-3.0678472E-1,1.0961248E-1,-1.8357815E-1,9.79979E-2,-4.0480494E-1,-1.08746566E-1],"split_indices":[1,1,1,0,0,0,1,0,1,0,0,1,1,0,0,0,0,0,0,0,0,0,0,0,0],"split_type":[0,0,0,0,0,0,0,0,0,0,0,0,0,0,0,0,0,0,0,0,0,0,0,0,0],"sum_hessian":[2.834E3,4.15E2,2.419E3,3.72E2,4.3E1,1.78E3,6.39E2,2.35E2,1.37E2,2.2E1,2.1E1,1.38E3,4E2,2.47E2,3.92E2,2.1E1,1.16E2,1.49E2,1.231E3,1.16E2,2.84E2,1.26E2,1.21E2,2.75E2,1.17E2],"tree_param":{"num_deleted":"0","num_feature":"2","num_nodes":"25","size_leaf_vector":"1"}},{"base_weights":[-7.7661034E-3,-4.1202817E0,6.991819E-1,-4.278902E0,-2.6819723E0,1.6372104E0,-1.9122679E0,-4.6595976E-1,-3.5968506E0,-1.5741687E-1,-3.7182227E-1,2.1418953E0,-1.0495201E-1,-4.1255492E-1,-2.8537858E0,-2.8631353E-1,-3.704072E-1,3.983041E-2,2.3524447E-1,-2.7636847E-1,9.868959E-2,-1.6536485E-1,8.827847E-2,-3.644711E-1,-9.796407E-2],"categories":[],"categories_nodes":[],"categories_segments":[],"categories_sizes":[],"default_left":[0,0,0,0,0,0,0,0,0,0,0,0,0,0,0,0,0,0,0,0,0,0,0,0,0],"id":9,"left_children":[1,3,5,7,9,11,13,-1,15,-1,-1,17,19,21,23,-1,-1,-1,-1,-1,-1,-1,-1,-1,-1],"loss_changes":[8.245175E3,8.343213E1,5.9311973E3,8.009082E1,4.4657227E1,1.5661572E3,9.025071E2,0E0,2.5109863E-1,0E0,0E0,5.0604443E2,1.1668031E3,4.0015396E2,5.7897656E2,0E0,0E0,0E0,0E0,0E0,0E0,0E0,0E0,0E0,0E0],"parents":[2147483647,0,0,1,1,2,2,3,3,4,4,5,5,6,6,8,8,11,11,12,12,13,13,14,14],"right_children":[2,4,6,8,10,12,14,-1,16,-1,-1,18,20,22,24,-1,-1,-1,-1,-1,-1,-1,-1,-1,-1],"split_conditions":[4E0,3E0,1.9E1,5E0,2E0,5E0,2.1E1,-4.6595976E-1,1E0,-1.5741687E-1,-3.7182227E-1,5E0,9E0,3E0,4E0,-2.8631353E-1,-3.704072E-1,3.983041E-2,2.3524447E-1,-2.7636847E-1,9.868959E-2,-1.6536485E-1,8.827847E-2,-3.644711E-1,-9.796407E-2],"split_indices":[1,1,1,0,0,0,1,0,1,0,0,1,1,0,0,0,0,0,0,0,0,0,0,0,0],"split_type":[0,0,0,0,0,0,0,0,0,0,0,0,0,0,0,0,0,0,0,0,0,0,0,0,0],"sum_hessian":[2.834E3,4.15E2,2.419E3,3.72E2,4.3E1,1.78E3,6.39E2,2.35E2,1.37E2,2.2E1,2.1E1,1.38E3,4E2,2.47E2,3.92E2,2.1E1,1.16E2,1.49E2,1.231E3,1.16E2,2.84E2,1.26E2,1.21E2,2.75E2,1.17E2],"tree_param":{"num_deleted":"0","num_feature":"2","num_nodes":"25","size_leaf_vector":"1"}},{"base_weights":[-7.728311E-3,-3.7122247E0,6.290809E-1,-3.8540218E0,-2.425803E0,1.4735438E0,-1.721884E0,-4.1956124E-1,-3.2419246E-1,-1.4235955E-1,-3.3633015E-1,1.9279048E0,-9.4900295E-2,-8.9167356E-1,-3.1585243E0,1.4208135E-1,2.5318983E-1,-2.4896787E-1,8.885522E-2,-2.6795945E-1,-2.3690756E-2,-4.201613E-1,-2.0426185E-1],"categories":[],"categories_nodes":[],"categories_segments":[],"categories_sizes":[],"default_left":[0,0,0,0,0,0,0,0,0,0,0,0,0,0,0,0,0,0,0,0,0,0,0],"id":10,"left_children":[1,3,5,7,9,11,13,-1,-1,-1,-1,15,17,19,21,-1,-1,-1,-1,-1,-1,-1,-1],"loss_changes":[6.690262E3,6.653418E1,4.8069697E3,6.4387695E1,3.655298E1,1.2693943E3,7.605205E2,0E0,0E0,0E0,0E0,4.193755E2,9.4662756E2,4.758278E2,2.6379077E2,0E0,0E0,0E0,0E0,0E0,0E0,0E0,0E0],"parents":[2147483647,0,0,1,1,2,2,3,3,4,4,5,5,6,6,11,11,12,12,13,13,14,14],"right_children":[2,4,6,8,10,12,14,-1,-1,-1,-1,16,18,20,22,-1,-1,-1,-1,-1,-1,-1,-1],"split_conditions":[4E0,3E0,1.9E1,5E0,2E0,5E0,2.2E1,-4.1956124E-1,-3.2419246E-1,-1.4235955E-1,-3.3633015E-1,1.3E1,9E0,2E0,3E0,1.4208135E-1,2.5318983E-1,-2.4896787E-1,8.885522E-2,-2.6795945E-1,-2.3690756E-2,-4.201613E-1,-2.0426185E-1],"split_indices":[1,1,1,0,0,0,1,0,0,0,0,1,1,0,0,0,0,0,0,0,0,0,0],"split_type":[0,0,0,0,0,0,0,0,0,0,0,0,0,0,0,0,0,0,0,0,0,0,0],"sum_hessian":[2.834E3,4.15E2,2.419E3,3.72E2,4.3E1,1.78E3,6.39E2,2.35E2,1.37E2,2.2E1,2.1E1,1.38E3,4E2,4.06E2,2.33E2,7.52E2,6.28E2,1.16E2,2.84E2,1.08E2,2.98E2,1.19E2,1.14E2],"tree_param":{"num_deleted":"0","num_feature":"2","num_nodes":"23","size_leaf_vector":"1"}},{"base_weights":[-7.6268497E-3,-3.3439407E0,5.658914E-1,-3.4706135E0,-2.194102E0,1.1299329E0,-2.346175E0,-3.777829E-1,-2.9200814E0,-1.2874255E-1,-3.0422592E-1,-7.5101733E-1,1.3580585E0,-3.0179768E0,-7.549585E-1,-2.28038E-1,-3.015409E-1,5.325516E-1,-1.3188545E-1,1.71596E-1,6.4153443E-3,-3.6622685E-1,-2.5208423E-1,2.1866454E-2,-1.4495412E-1],"categories":[],"categories_nodes":[],"categories_segments":[],"categories_sizes":[],"default_left":[0,0,0,0,0,0,0,0,0,0,0,0,0,0,0,0,0,0,0,0,0,0,0,0,0],"id":11,"left_children":[1,3,5,7,9,11,13,-1,15,-1,-1,17,19,21,23,-1,-1,-1,-1,-1,-1,-1,-1,-1,-1],"loss_changes":[5.4264854E3,5.297705E1,3.9775642E3,5.2054688E1,2.9919495E1,8.712202E2,4.178318E2,0E0,1.5393066E0,0E0,0E0,7.6612946E2,8.376211E2,7.917041E1,8.011584E1,0E0,0E0,0E0,0E0,0E0,0E0,0E0,0E0,0E0,0E0],"parents":[2147483647,0,0,1,1,2,2,3,3,4,4,5,5,6,6,8,8,11,11,12,12,13,13,14,14],"right_children":[2,4,6,8,10,12,14,-1,16,-1,-1,18,20,22,24,-1,-1,-1,-1,-1,-1,-1,-1,-1,-1],"split_conditions":[4E0,3E0,2.1E1,5E0,2E0,6E0,4E0,-3.777829E-1,1E0,-1.2874255E-1,-3.0422592E-1,2E0,1.8E1,2E0,2.2E1,-2.28038E-1,-3.015409E-1,5.325516E-1,-1.3188545E-1,1.71596E-1,6.4153443E-3,-3.6622685E-1,-2.5208423E-1,2.1866454E-2,-1.4495412E-1],"split_indices":[1,1,1,0,0,1,0,0,1,0,0,0,1,0,1,0,0,0,0,0,0,0,0,0,0],"split_type":[0,0,0,0,0,0,0,0,0,0,0,0,0,0,0,0,0,0,0,0,0,0,0,0,0],"sum_hessian":[2.834E3,4.15E2,2.419E3,3.72E2,4.3E1,2.027E3,3.92E2,2.35E2,1.37E2,2.2E1,2.1E1,2.19E2,1.808E3,2.75E2,1.17E2,2.1E1,1.16E2,1.8E1,2.01E2,1.416E3,3.92E2,1.17E2,1.58E2,4.9E1,6.8E1],"tree_param":{"num_deleted":"0","num_feature":"2","num_nodes":"25","size_leaf_vector":"1"}},{"base_weights":[-7.394553E-3,-3.0127685E0,5.092348E-1,-3.125985E0,-1.9845321E0,1.0172247E0,-2.113444E0,-3.401647E-1,-2.6319108E0,-1.1642807E-1,-2.7518618E-1,1.3174056E0,-2.0400143E-1,-2.7184196E0,-6.805062E-1,-2.0627077E-1,-2.7164456E-1,1.7168598E-1,5.7754763E-3,-2.2313975E-1,6.290138E-2,-3.299145E-1,-2.2703438E-1,1.97235E-2,-1.3066882E-1],"categories":[],"categories_nodes":[],"categories_segments":[],"categories_sizes":[],"default_left":[0,0,0,0,0,0,0,0,0,0,0,0,0,0,0,0,0,0,0,0,0,0,0,0,0],"id":12,"left_children":[1,3,5,7,9,11,13,-1,15,-1,-1,17,19,21,23,-1,-1,-1,-1,-1,-1,-1,-1,-1,-1],"loss_changes":[4.4033384E3,4.2223877E1,3.2263022E3,4.1848877E1,2.4489807E1,7.4371045E2,3.3883862E2,0E0,1.0369263E0,0E0,0E0,8.1906616E2,6.786331E2,6.4327515E1,6.5113556E1,0E0,0E0,0E0,0E0,0E0,0E0,0E0,0E0,0E0,0E0],"parents":[2147483647,0,0,1,1,2,2,3,3,4,4,5,5,6,6,8,8,11,11,12,12,13,13,14,14],"right_children":[2,4,6,8,10,12,14,-1,16,-1,-1,18,20,22,24,-1,-1,-1,-1,-1,-1,-1,-1,-1,-1],"split_conditions":[4E0,3E0,2.1E1,5E0,2E0,5E0,4E0,-3.401647E-1,1E0,-1.1642807E-1,-2.7518618E-1,1.8E1,9E0,2E0,2.2E1,-2.0627077E-1,-2.7164456E-1,1.7168598E-1,5.7754763E-3,-2.2313975E-1,6.290138E-2,-3.299145E-1,-2.2703438E-1,1.97235E-2,-1.3066882E-1],"split_indices":[1,1,1,0,0,0,0,0,1,0,0,1,1,0,1,0,0,0,0,0,0,0,0,0,0],"split_type":[0,0,0,0,0,0,0,0,0,0,0,0,0,0,0,0,0,0,0,0,0,0,0,0,0],"sum_hessian":[2.834E3,4.15E2,2.419E3,3.72E2,4.3E1,2.027E3,3.92E2,2.35E2,1.37E2,2.2E1,2.1E1,1.627E3,4E2,2.75E2,1.17E2,2.1E1,1.16E2,1.235E3,3.92E2,1.16E2,2.84E2,1.17E2,1.58E2,4.9E1,6.8E1],"tree_param":{"num_deleted":"0","num_feature":"2","num_nodes":"25","size_leaf_vector":"1"}},{"base_weights":[-7.3113176E-3,-2.7143996E0,4.580424E-1,-2.8155797E0,-1.7949791E0,1.0838525E0,-1.2841854E0,-3.0629236E-1,-2.3721828E0,-1.0529144E-1,-2.4891841E-1,1.4512132E0,-1.8400028E-1,-2.1083152E0,-3.8339192E-1,-1.8658128E-1,-2.4471226E-1,9.80262E-2,2.0126998E-1,-2.0101647E-1,5.663339E-2,-1.501585E-1,-3.177805E-1,8.066356E-2,-1.1618864E-1],"categories":[],"categories_nodes":[],"categories_segments":[],"categories_sizes":[],"default_left":[0,0,0,0,0,0,0,0,0,0,0,0,0,0,0,0,0,0,0,0,0,0,0,0,0],"id":13,"left_children":[1,3,5,7,9,11,13,-1,15,-1,-1,17,19,21,23,-1,-1,-1,-1,-1,-1,-1,-1,-1,-1],"loss_changes":[3.572645E3,3.3645264E1,2.639927E3,3.36416E1,2.0045471E1,8.297844E2,4.7430896E2,0E0,6.7089844E-1,0E0,0E0,3.632085E2,5.506021E2,2.1195825E2,2.8535117E2,0E0,0E0,0E0,0E0,0E0,0E0,0E0,0E0,0E0,0E0],"parents":[2147483647,0,0,1,1,2,2,3,3,4,4,5,5,6,6,8,8,11,11,12,12,13,13,14,14],"right_children":[2,4,6,8,10,12,14,-1,16,-1,-1,18,20,22,24,-1,-1,-1,-1,-1,-1,-1,-1,-1,-1],"split_conditions":[4E0,3E0,1.9E1,5E0,2E0,5E0,3E0,-3.0629236E-1,1E0,-1.0529144E-1,-2.4891841E-1,1.3E1,9E0,2.2E1,2.1E1,-1.8658128E-1,-2.4471226E-1,9.80262E-2,2.0126998E-1,-2.0101647E-1,5.663339E-2,-1.501585E-1,-3.177805E-1,8.066356E-2,-1.1618864E-1],"split_indices":[1,1,1,0,0,0,0,0,1,0,0,1,1,1,1,0,0,0,0,0,0,0,0,0,0],"split_type":[0,0,0,0,0,0,0,0,0,0,0,0,0,0,0,0,0,0,0,0,0,0,0,0,0],"sum_hessian":[2.834E3,4.15E2,2.419E3,3.72E2,4.3E1,1.78E3,6.39E2,2.35E2,1.37E2,2.2E1,2.1E1,1.38E3,4E2,3.33E2,3.06E2,2.1E1,1.16E2,7.52E2,6.28E2,1.16E2,2.84E2,2.14E2,1.19E2,1.21E2,1.85E2],"tree_param":{"num_deleted":"0","num_feature":"2","num_nodes":"25","size_leaf_vector":"1"}},{"base_weights":[-7.0879916E-3,-2.445584E0,4.1209444E-1,-2.5359988E0,-1.6235315E0,8.99239E-1,-1.4050366E0,-2.757929E-1,-2.13809E0,-9.52201E-2,-2.25158E-1,-7.218044E-1,1.1097302E0,-7.8233E-1,-2.14149E0,-1.6877127E-1,-2.204502E-1,4.565477E-1,-1.2155496E-1,2.5783462E-2,1.331247E-1,-1.0939105E-1,1.4587656E-2,-2.8626725E-1,-1.3703302E-1],"categories":[],"categories_nodes":[],"categories_segments":[],"categories_sizes":[],"default_left":[0,0,0,0,0,0,0,0,0,0,0,0,0,0,0,0,0,0,0,0,0,0,0,0,0],"id":14,"left_children":[1,3,5,7,9,11,13,-1,15,-1,-1,17,19,21,23,-1,-1,-1,-1,-1,-1,-1,-1,-1,-1],"loss_changes":[2.898873E3,2.6802246E1,2.143461E3,2.7042236E1,1.6407692E1,6.521815E2,2.33125E2,0E0,4.071045E-1,0E0,0E0,5.798749E2,3.1857495E2,8.084947E1,1.262157E2,0E0,0E0,0E0,0E0,0E0,0E0,0E0,0E0,0E0,0E0],"parents":[2147483647,0,0,1,1,2,2,3,3,4,4,5,5,6,6,8,8,11,11,12,12,13,13,14,14],"right_children":[2,4,6,8,10,12,14,-1,16,-1,-1,18,20,22,24,-1,-1,-1,-1,-1,-1,-1,-1,-1,-1],"split_conditions":[4E0,3E0,2E1,5E0,2E0,6E0,2.2E1,-2.757929E-1,1E0,-9.52201E-2,-2.25158E-1,2E0,2E0,4E0,3E0,-1.6877127E-1,-2.204502E-1,4.565477E-1,-1.2155496E-1,2.5783462E-2,1.331247E-1,-1.0939105E-1,1.4587656E-2,-2.8626725E-1,-1.3703302E-1],"split_indices":[1,1,1,0,0,1,1,0,1,0,0,0,0,0,0,0,0,0,0,0,0,0,0,0,0],"split_type":[0,0,0,0,0,0,0,0,0,0,0,0,0,0,0,0,0,0,0,0,0,0,0,0,0],"sum_hessian":[2.834E3,4.15E2,2.419E3,3.72E2,4.3E1,1.908E3,5.11E2,2.35E2,1.37E2,2.2E1,2.1E1,2.19E2,1.689E3,2.78E2,2.33E2,2.1E1,1.16E2,1.8E1,2.01E2,3.49E2,1.34E3,2.08E2,7E1,1.19E2,1.14E2],"tree_param":{"num_deleted":"0","num_feature":"2","num_nodes":"25","size_leaf_vector":"1"}},{"base_weights":[-6.7354804E-3,-2.2033942E0,3.7087476E-1,-2.2841816E0,-1.4684592E0,8.866016E-1,-1.0648758E0,-2.4833043E-1,-1.927101E0,-8.611204E-2,-2.0366564E-1,1.217241E0,-2.5429538E-1,-2.252202E0,-5.917643E-1,-1.5266128E-1,-1.9859356E-1,9.383691E-2,2.0683216E-1,-1.7904808E-1,3.7724145E-2,-1.9326763E-1,-2.6924196E-1,-6.500931E-3,-1.566348E-1],"categories":[],"categories_nodes":[],"categories_segments":[],"categories_sizes":[],"default_left":[0,0,0,0,0,0,0,0,0,0,0,0,0,0,0,0,0,0,0,0,0,0,0,0,0],"id":15,"left_children":[1,3,5,7,9,11,13,-1,15,-1,-1,17,19,21,23,-1,-1,-1,-1,-1,-1,-1,-1,-1,-1],"loss_changes":[2.3523953E3,2.1345215E1,1.7928456E3,2.173584E1,1.3430077E1,6.721481E2,3.5817938E2,0E0,2.1984863E-1,0E0,0E0,3.2582922E2,3.8970862E2,2.0396667E1,2.3553352E2,0E0,0E0,0E0,0E0,0E0,0E0,0E0,0E0,0E0,0E0],"parents":[2147483647,0,0,1,1,2,2,3,3,4,4,5,5,6,6,8,8,11,11,12,12,13,13,14,14],"right_children":[2,4,6,8,10,12,14,-1,16,-1,-1,18,20,22,24,-1,-1,-1,-1,-1,-1,-1,-1,-1,-1],"split_conditions":[4E0,3E0,1.9E1,5E0,2E0,5E0,2E0,-2.4833043E-1,1E0,-8.611204E-2,-2.0366564E-1,4E0,9E0,2.2E1,2.2E1,-1.5266128E-1,-1.9859356E-1,9.383691E-2,2.0683216E-1,-1.7904808E-1,3.7724145E-2,-1.9326763E-1,-2.6924196E-1,-6.500931E-3,-1.566348E-1],"split_indices":[1,1,1,0,0,0,0,0,1,0,0,0,1,1,1,0,0,0,0,0,0,0,0,0,0],"split_type":[0,0,0,0,0,0,0,0,0,0,0,0,0,0,0,0,0,0,0,0,0,0,0,0,0],"sum_hessian":[2.834E3,4.15E2,2.419E3,3.72E2,4.3E1,1.78E3,6.39E2,2.35E2,1.37E2,2.2E1,2.1E1,1.38E3,4E2,1.81E2,4.58E2,2.1E1,1.16E2,1.041E3,3.39E2,1.16E2,2.84E2,1.08E2,7.3E1,2.98E2,1.6E2],"tree_param":{"num_deleted":"0","num_feature":"2","num_nodes":"25","size_leaf_vector":"1"}},{"base_weights":[-6.54039E-3,-1.5344733E0,4.342792E-1,-2.0573711E0,-7.870385E-1,1.0050209E0,-9.593657E-1,-2.2360263E0,-1.7369362E0,1.4372153E0,-1.1924528E0,1.2368989E0,1.3892195E-1,-1.3971845E0,1.16800465E-1,-2.0363419E-1,-2.3584075E-1,-1.3808906E-1,-1.7890394E-1,-7.787524E-2,4.0440598E-1,-6.627879E-2,-1.9394451E-1,4.9588926E-2,1.4844353E-1,-1.08121626E-1,3.3965025E-2,-6.3465334E-2,-1.8894254E-1,1.361238E-1,-3.1377368E-2],"categories":[],"categories_nodes":[],"categories_segments":[],"categories_sizes":[],"default_left":[0,0,0,0,0,0,0,0,0,0,0,0,0,0,0,0,0,0,0,0,0,0,0,0,0,0,0,0,0,0,0],"id":16,"left_children":[1,3,5,7,9,11,13,15,17,19,21,23,25,27,29,-1,-1,-1,-1,-1,-1,-1,-1,-1,-1,-1,-1,-1,-1,-1,-1],"loss_changes":[1.91016E3,2.4655908E2,1.7516644E3,1.7469604E1,2.3887254E2,3.1352344E2,3.017093E2,9.647217E-1,8.956909E-2,2.3999332E2,8.694574E1,2.2524573E2,8.143452E1,1.695846E2,1.0009012E2,0E0,0E0,0E0,0E0,0E0,0E0,0E0,0E0,0E0,0E0,0E0,0E0,0E0,0E0,0E0,0E0],"parents":[2147483647,0,0,1,1,2,2,3,3,4,4,5,5,6,6,7,7,8,8,9,9,10,10,11,11,12,12,13,13,14,14],"right_children":[2,4,6,8,10,12,14,16,18,20,22,24,26,28,30,-1,-1,-1,-1,-1,-1,-1,-1,-1,-1,-1,-1,-1,-1,-1,-1],"split_conditions":[6E0,3E0,1.9E1,5E0,2E0,5E0,4E0,2E0,1E0,4E0,5E0,2E0,9E0,2.1E1,2E1,-2.0363419E-1,-2.3584075E-1,-1.3808906E-1,-1.7890394E-1,-7.787524E-2,4.0440598E-1,-6.627879E-2,-1.9394451E-1,4.9588926E-2,1.4844353E-1,-1.08121626E-1,3.3965025E-2,-6.3465334E-2,-1.8894254E-1,1.361238E-1,-3.1377368E-2],"split_indices":[1,1,1,0,0,0,0,0,1,1,0,0,1,1,1,0,0,0,0,0,0,0,0,0,0,0,0,0,0,0,0],"split_type":[0,0,0,0,0,0,0,0,0,0,0,0,0,0,0,0,0,0,0,0,0,0,0,0,0,0,0,0,0,0,0],"sum_hessian":[2.834E3,6.34E2,2.2E3,3.72E2,2.62E2,1.561E3,6.39E2,2.35E2,1.37E2,4E1,2.22E2,1.231E3,3.3E2,4.54E2,1.85E2,9.6E1,1.39E2,2.1E1,1.16E2,2.2E1,1.8E1,1.31E2,9.1E1,3.09E2,9.22E2,4.6E1,2.84E2,1.79E2,2.75E2,4.7E1,1.38E2],"tree_param":{"num_deleted":"0","num_feature":"2","num_nodes":"31","size_leaf_vector":"1"}},{"base_weights":[-6.138002E-3,-1.3821129E0,3.908407E-1,-1.8536619E0,-7.080826E-1,9.903285E-1,-6.9178987E-1,-2.0142858E0,-1.5655396E0,1.3014581E0,-1.0743746E0,6.3710976E-1,2.049183E0,-1.6267318E0,1.8498278E-1,-1.9332E-1,-2.3154895E-1,-1.2490783E-1,-1.6116644E-1,-7.042631E-2,3.6609384E-1,-5.970114E-2,-1.7476088E-1,8.672668E-2,1.2480648E-2,1.6167939E-1,3.8439834E-1,-2.695287E-1,-1.4714958E-1,1.2644646E-1,-5.7459008E-2],"categories":[],"categories_nodes":[],"categories_segments":[],"categories_sizes":[],"default_left":[0,0,0,0,0,0,0,0,0,0,0,0,0,0,0,0,0,0,0,0,0,0,0,0,0,0,0,0,0,0,0],"id":17,"left_children":[1,3,5,7,9,11,13,15,17,19,21,23,25,27,29,-1,-1,-1,-1,-1,-1,-1,-1,-1,-1,-1,-1,-1,-1,-1,-1],"loss_changes":[1.54911E3,2.0051477E2,1.4291865E3,1.4108643E1,1.949869E2,5.286627E2,6.4379016E2,1.2876587E0,1.2512207E-3,1.966091E2,7.062378E1,1.25348236E2,2.6850745E2,5.9067627E1,3.3362427E2,0E0,0E0,0E0,0E0,0E0,0E0,0E0,0E0,0E0,0E0,0E0,0E0,0E0,0E0,0E0,0E0],"parents":[2147483647,0,0,1,1,2,2,3,3,4,4,5,5,6,6,7,7,8,8,9,9,10,10,11,11,12,12,13,13,14,14],"right_children":[2,4,6,8,10,12,14,16,18,20,22,24,26,28,30,-1,-1,-1,-1,-1,-1,-1,-1,-1,-1,-1,-1,-1,-1,-1,-1],"split_conditions":[6E0,3E0,1.8E1,5E0,2E0,1.5E1,3E0,4E0,1E0,4E0,5E0,5E0,4E0,1.9E1,2E1,-1.9332E-1,-2.3154895E-1,-1.2490783E-1,-1.6116644E-1,-7.042631E-2,3.6609384E-1,-5.970114E-2,-1.7476088E-1,8.672668E-2,1.2480648E-2,1.6167939E-1,3.8439834E-1,-2.695287E-1,-1.4714958E-1,1.2644646E-1,-5.7459008E-2],"split_indices":[1,1,1,0,0,1,0,0,1,1,0,0,0,1,1,0,0,0,0,0,0,0,0,0,0,0,0,0,0,0,0],"split_type":[0,0,0,0,0,0,0,0,0,0,0,0,0,0,0,0,0,0,0,0,0,0,0,0,0,0,0,0,0,0,0],"sum_hessian":[2.834E3,6.34E2,2.2E3,3.72E2,2.62E2,1.416E3,7.84E2,2.35E2,1.37E2,4E1,2.22E2,1.063E3,3.53E2,3.79E2,4.05E2,1.91E2,4.4E1,2.1E1,1.16E2,2.2E1,1.8E1,1.31E2,9.1E1,7.33E2,3.3E2,2.86E2,6.7E1,4.6E1,3.33E2,1.67E2,2.38E2],"tree_param":{"num_deleted":"0","num_feature":"2","num_nodes":"31","size_leaf_vector":"1"}},{"base_weights":[-5.6484565E-3,-1.6115879E0,2.7041617E-1,-1.6702017E0,-1.0780756E0,5.514702E-1,-1.1805966E0,-1.8146574E0,-1.4110583E-1,-6.368991E-2,-1.4903022E-1,-5.459395E-1,6.846259E-1,-1.5766484E0,-2.4423338E-1,-1.740887E-1,-2.089086E-1,3.314112E-1,-9.06311E-2,8.917508E-2,-6.3925222E-3,-1.9296797E-1,-1.3047342E-1,3.7090626E-2,-6.864472E-2],"categories":[],"categories_nodes":[],"categories_segments":[],"categories_sizes":[],"default_left":[0,0,0,0,0,0,0,0,0,0,0,0,0,0,0,0,0,0,0,0,0,0,0,0,0],"id":18,"left_children":[1,3,5,7,9,11,13,15,-1,-1,-1,17,19,21,23,-1,-1,-1,-1,-1,-1,-1,-1,-1,-1],"loss_changes":[1.2573134E3,1.1208252E1,9.875587E2,1.1402588E1,7.0528755E0,2.9671802E2,1.4535828E2,1.1408691E0,0E0,0E0,0E0,3.0903522E2,2.8053088E2,2.3976685E1,3.2353344E1,0E0,0E0,0E0,0E0,0E0,0E0,0E0,0E0,0E0,0E0],"parents":[2147483647,0,0,1,1,2,2,3,3,4,4,5,5,6,6,7,7,11,11,12,12,13,13,14,14],"right_children":[2,4,6,8,10,12,14,16,-1,-1,-1,18,20,22,24,-1,-1,-1,-1,-1,-1,-1,-1,-1,-1],"split_conditions":[4E0,3E0,2.1E1,5E0,2E0,6E0,4E0,4E0,-1.4110583E-1,-6.368991E-2,-1.4903022E-1,2E0,1.8E1,2E0,2.2E1,-1.740887E-1,-2.089086E-1,3.314112E-1,-9.06311E-2,8.917508E-2,-6.3925222E-3,-1.9296797E-1,-1.3047342E-1,3.7090626E-2,-6.864472E-2],"split_indices":[1,1,1,0,0,1,0,0,0,0,0,0,1,0,1,0,0,0,0,0,0,0,0,0,0],"split_type":[0,0,0,0,0,0,0,0,0,0,0,0,0,0,0,0,0,0,0,0,0,0,0,0,0],"sum_hessian":[2.834E3,4.15E2,2.419E3,3.72E2,4.3E1,2.027E3,3.92E2,2.35E2,1.37E2,2.2E1,2.1E1,2.19E2,1.808E3,2.75E2,1.17E2,1.91E2,4.4E1,1.8E1,2.01E2,1.416E3,3.92E2,1.17E2,1.58E2,4.9E1,6.8E1],"tree_param":{"num_deleted":"0","num_feature":"2","num_nodes":"25","size_leaf_vector":"1"}},{"base_weights":[-5.3541586E-3,-1.4522003E0,2.433621E-1,-1.5045866E0,-9.751024E-1,4.964834E-1,-1.0634402E0,-1.6348145E0,-1.2709752E0,-5.7597805E-2,-1.348046E-1,6.786543E-1,-2.443415E-1,-1.4201553E0,-2.2007747E-1,-1.4711858E-1,-1.7365086E-1,-9.951561E-2,-1.3119756E-1,4.3099813E-2,1.4181386E-1,-1.3356042E-1,2.045079E-2,-1.0457963E-1,-1.6619246E-1,3.3455778E-2,-6.1879754E-2],"categories":[],"categories_nodes":[],"categories_segments":[],"categories_sizes":[],"default_left":[0,0,0,0,0,0,0,0,0,0,0,0,0,0,0,0,0,0,0,0,0,0,0,0,0,0,0],"id":19,"left_children":[1,3,5,7,9,11,13,15,17,-1,-1,19,21,23,25,-1,-1,-1,-1,-1,-1,-1,-1,-1,-1,-1,-1],"loss_changes":[1.0205399E3,8.930115E0,8.0101434E2,9.2699585E0,5.772995E0,2.7385815E2,1.179176E2,1.3723145E0,2.5497437E-1,0E0,0E0,2.9753717E2,1.9668799E2,2.324237E1,2.6302034E1,0E0,0E0,0E0,0E0,0E0,0E0,0E0,0E0,0E0,0E0,0E0,0E0],"parents":[2147483647,0,0,1,1,2,2,3,3,4,4,5,5,6,6,7,7,8,8,11,11,12,12,13,13,14,14],"right_children":[2,4,6,8,10,12,14,16,18,-1,-1,20,22,24,26,-1,-1,-1,-1,-1,-1,-1,-1,-1,-1,-1,-1],"split_conditions":[4E0,3E0,2.1E1,5E0,2E0,5E0,4E0,2E0,1E0,-5.7597805E-2,-1.348046E-1,4E0,9E0,2.2E1,2.2E1,-1.4711858E-1,-1.7365086E-1,-9.951561E-2,-1.3119756E-1,4.3099813E-2,1.4181386E-1,-1.3356042E-1,2.045079E-2,-1.0457963E-1,-1.6619246E-1,3.3455778E-2,-6.1879754E-2],"split_indices":[1,1,1,0,0,0,0,0,1,0,0,0,1,1,1,0,0,0,0,0,0,0,0,0,0,0,0],"split_type":[0,0,0,0,0,0,0,0,0,0,0,0,0,0,0,0,0,0,0,0,0,0,0,0,0,0,0],"sum_hessian":[2.834E3,4.15E2,2.419E3,3.72E2,4.3E1,2.027E3,3.92E2,2.35E2,1.37E2,2.2E1,2.1E1,1.627E3,4E2,2.75E2,1.17E2,9.6E1,1.39E2,2.1E1,1.16E2,1.22E3,4.07E2,1.16E2,2.84E2,1.1E2,1.65E2,4.9E1,6.8E1],"tree_param":{"num_deleted":"0","num_feature":"2","num_nodes":"27","size_leaf_vector":"1"}},{"base_weights":[-5.1614237E-3,-1.0288569E0,2.9018238E-1,-1.3556066E0,-5.615318E-1,7.5256747E-1,-5.448365E-1,-1.4726923E0,-1.1455497E0,1.079185E0,-8.6067015E-1,4.3823242E-1,1.6952226E0,-1.0430787E0,6.1161834E-1,-1.4082246E-1,-1.7150281E-1,-9.001642E-2,-1.1818995E-1,-5.2088417E-2,2.959312E-1,-1.9995727E-1,-5.695457E-2,1.9074863E-1,3.684562E-2,1.3238631E-1,3.237648E-1,-1.5952311E-1,-7.093971E-2,2.4442267E-1,9.598796E-3],"categories":[],"categories_nodes":[],"categories_segments":[],"categories_sizes":[],"default_left":[0,0,0,0,0,0,0,0,0,0,0,0,0,0,0,0,0,0,0,0,0,0,0,0,0,0,0,0,0,0,0],"id":20,"left_children":[1,3,5,7,9,11,13,15,17,19,21,23,25,27,29,-1,-1,-1,-1,-1,-1,-1,-1,-1,-1,-1,-1,-1,-1,-1,-1],"loss_changes":[8.574385E2,9.620221E1,8.502168E2,7.4867554E0,1.3000958E2,4.191277E2,4.5295068E2,1.2718811E0,1.670227E-1,1.24883095E2,7.2799545E1,1.0837735E2,1.9848297E2,1.0001782E2,2.237182E2,0E0,0E0,0E0,0E0,0E0,0E0,0E0,0E0,0E0,0E0,0E0,0E0,0E0,0E0,0E0,0E0],"parents":[2147483647,0,0,1,1,2,2,3,3,4,4,5,5,6,6,7,7,8,8,9,9,10,10,11,11,12,12,13,13,14,14],"right_children":[2,4,6,8,10,12,14,16,18,20,22,24,26,28,30,-1,-1,-1,-1,-1,-1,-1,-1,-1,-1,-1,-1,-1,-1,-1,-1],"split_conditions":[6E0,3E0,1.8E1,5E0,2E0,1.5E1,4E0,4E0,1E0,4E0,3E0,7E0,4E0,2E0,1.9E1,-1.4082246E-1,-1.7150281E-1,-9.001642E-2,-1.1818995E-1,-5.2088417E-2,2.959312E-1,-1.9995727E-1,-5.695457E-2,1.9074863E-1,3.684562E-2,1.3238631E-1,3.237648E-1,-1.5952311E-1,-7.093971E-2,2.4442267E-1,9.598796E-3],"split_indices":[1,1,1,0,0,1,0,0,1,1,0,1,0,0,1,0,0,0,0,0,0,0,0,0,0,0,0,0,0,0,0],"split_type":[0,0,0,0,0,0,0,0,0,0,0,0,0,0,0,0,0,0,0,0,0,0,0,0,0,0,0,0,0,0,0],"sum_hessian":[2.834E3,6.34E2,2.2E3,3.72E2,2.62E2,1.416E3,7.84E2,2.35E2,1.37E2,4E1,2.22E2,1.063E3,3.53E2,5.48E2,2.36E2,1.91E2,4.4E1,2.1E1,1.16E2,2.2E1,1.8E1,4.4E1,1.78E2,4.7E1,1.016E3,2.86E2,6.7E1,2.05E2,3.43E2,5.1E1,1.85E2],"tree_param":{"num_deleted":"0","num_feature":"2","num_nodes":"31","size_leaf_vector":"1"}},{"base_weights":[-4.5842617E-3,-9.503609E-1,2.5513443E-1,-1.1828417E0,-4.5208356E-1,6.6105306E-1,-4.903228E-1,-1.2214414E0,-8.287377E-1,2.678956E-1,-7.8375584E-1,3.786982E-1,1.5269883E0,-9.3919057E-1,5.515284E-1,-1.3267465E-1,-1.0325035E-1,-4.7106024E-2,-1.1650033E-1,-4.1631397E-2,-1.7990448E-1,5.775707E-2,-3.3558332E-3,1.1919373E-1,2.9186445E-1,-1.1966496E-1,-3.581693E-2,1.6244128E-1,-2.1658018E-2],"categories":[],"categories_nodes":[],"categories_segments":[],"categories_sizes":[],"default_left":[0,0,0,0,0,0,0,0,0,0,0,0,0,0,0,0,0,0,0,0,0,0,0,0,0,0,0,0,0],"id":21,"left_children":[1,3,5,7,9,11,13,15,17,-1,19,21,23,25,27,-1,-1,-1,-1,-1,-1,-1,-1,-1,-1,-1,-1,-1,-1],"loss_changes":[6.966201E2,7.024347E1,6.73598E2,4.673767E0,2.0564157E2,3.5174774E2,3.6762592E2,6.0513916E0,4.7432957E0,0E0,6.5655655E1,8.922066E1,1.6158276E2,8.169577E1,1.9566156E2,0E0,0E0,0E0,0E0,0E0,0E0,0E0,0E0,0E0,0E0,0E0,0E0,0E0,0E0],"parents":[2147483647,0,0,1,1,2,2,3,3,4,4,5,5,6,6,7,7,8,8,10,10,11,11,12,12,13,13,14,14],"right_children":[2,4,6,8,10,12,14,16,18,-1,20,22,24,26,28,-1,-1,-1,-1,-1,-1,-1,-1,-1,-1,-1,-1,-1,-1],"split_conditions":[5E0,4E0,1.8E1,3E0,2E0,1.5E1,4E0,5E0,2E0,2.678956E-1,5E0,5E0,4E0,3E0,2E1,-1.3267465E-1,-1.0325035E-1,-4.7106024E-2,-1.1650033E-1,-4.1631397E-2,-1.7990448E-1,5.775707E-2,-3.3558332E-3,1.1919373E-1,2.9186445E-1,-1.1966496E-1,-3.581693E-2,1.6244128E-1,-2.1658018E-2],"split_indices":[1,1,1,1,0,1,0,0,0,0,0,0,0,0,1,0,0,0,0,0,0,0,0,0,0,0,0,0,0],"split_type":[0,0,0,0,0,0,0,0,0,0,0,0,0,0,0,0,0,0,0,0,0,0,0,0,0,0,0,0,0],"sum_hessian":[2.834E3,6.1E2,2.224E3,4.15E2,1.95E2,1.44E3,7.84E2,3.72E2,4.3E1,1.8E1,1.77E2,1.087E3,3.53E2,5.48E2,2.36E2,2.35E2,1.37E2,2.2E1,2.1E1,1.31E2,4.6E1,7.33E2,3.54E2,2.86E2,6.7E1,3.79E2,1.69E2,9.8E1,1.38E2],"tree_param":{"num_deleted":"0","num_feature":"2","num_nodes":"29","size_leaf_vector":"1"}},{"base_weights":[-4.091308E-3,-8.357966E-1,2.3586187E-1,-1.0655178E0,-3.9761558E-1,6.1083955E-1,-4.4130918E-1,-1.0999297E0,-7.495823E-1,2.4251612E-1,-6.611559E-1,3.5587427E-1,1.3754504E0,-8.455546E-1,4.9696952E-1,-1.194634E-1,-9.300012E-2,-4.260025E-2,-1.05379835E-1,-1.7633526E-1,-3.4305453E-2,1.6641589E-1,2.9377643E-2,1.9635774E-1,6.582325E-2,-1.3173983E-1,-5.6053907E-2,2.045187E-1,6.146266E-3],"categories":[],"categories_nodes":[],"categories_segments":[],"categories_sizes":[],"default_left":[0,0,0,0,0,0,0,0,0,0,0,0,0,0,0,0,0,0,0,0,0,0,0,0,0,0,0,0,0],"id":22,"left_children":[1,3,5,7,9,11,13,15,17,-1,19,21,23,25,27,-1,-1,-1,-1,-1,-1,-1,-1,-1,-1,-1,-1,-1,-1],"loss_changes":[5.65979E2,6.3495117E1,5.5915643E2,3.6982422E0,1.652648E2,2.7575354E2,2.9816672E2,4.891632E0,3.8823566E0,0E0,7.021834E1,8.5952255E1,1.4803009E2,7.309253E1,1.5967375E2,0E0,0E0,0E0,0E0,0E0,0E0,0E0,0E0,0E0,0E0,0E0,0E0,0E0,0E0],"parents":[2147483647,0,0,1,1,2,2,3,3,4,4,5,5,6,6,7,7,8,8,10,10,11,11,12,12,13,13,14,14],"right_children":[2,4,6,8,10,12,14,16,18,-1,20,22,24,26,28,-1,-1,-1,-1,-1,-1,-1,-1,-1,-1,-1,-1,-1,-1],"split_conditions":[6E0,4E0,1.8E1,3E0,2E0,1.5E1,4E0,5E0,2E0,2.4251612E-1,3E0,7E0,3E0,2E0,1.9E1,-1.194634E-1,-9.300012E-2,-4.260025E-2,-1.05379835E-1,-1.7633526E-1,-3.4305453E-2,1.6641589E-1,2.9377643E-2,1.9635774E-1,6.582325E-2,-1.3173983E-1,-5.6053907E-2,2.045187E-1,6.146266E-3],"split_indices":[1,1,1,1,0,1,0,0,0,0,0,1,0,0,1,0,0,0,0,0,0,0,0,0,0,0,0,0,0],"split_type":[0,0,0,0,0,0,0,0,0,0,0,0,0,0,0,0,0,0,0,0,0,0,0,0,0,0,0,0,0],"sum_hessian":[2.834E3,6.34E2,2.2E3,4.15E2,2.19E2,1.416E3,7.84E2,3.72E2,4.3E1,1.8E1,2.01E2,1.063E3,3.53E2,5.48E2,2.36E2,2.35E2,1.37E2,2.2E1,2.1E1,4.4E1,1.57E2,4.7E1,1.016E3,1.93E2,1.6E2,2.05E2,3.43E2,5.1E1,1.85E2],"tree_param":{"num_deleted":"0","num_feature":"2","num_nodes":"29","size_leaf_vector":"1"}},{"base_weights":[-3.6282244E-3,-7.527343E-1,2.1249445E-1,-9.598325E-1,-3.5770896E-1,5.5007935E-1,-3.971492E-1,-9.905064E-1,-6.77987E-1,2.1954095E-1,-5.960829E-1,3.2047144E-1,1.2386463E0,-9.805623E-1,1.4988072E-1,-1.0756767E-1,-8.3767526E-2,-3.852541E-2,-9.532084E-2,-1.5909359E-1,-3.089661E-2,1.5012097E-1,2.6442826E-2,9.197839E-2,2.5662178E-1,-2.1421252E-1,-8.1417315E-2,7.0899144E-2,-5.152448E-2],"categories":[],"categories_nodes":[],"categories_segments":[],"categories_sizes":[],"default_left":[0,0,0,0,0,0,0,0,0,0,0,0,0,0,0,0,0,0,0,0,0,0,0,0,0,0,0,0,0],"id":23,"left_children":[1,3,5,7,9,11,13,15,17,-1,19,21,23,25,27,-1,-1,-1,-1,-1,-1,-1,-1,-1,-1,-1,-1,-1,-1],"loss_changes":[4.591431E2,5.1605377E1,4.531985E2,2.9249268E0,1.352E2,2.2363132E2,2.5067538E2,3.954132E0,3.1776924E0,0E0,5.720752E1,7.001039E1,1.4749231E2,7.16991E1,1.5134808E2,0E0,0E0,0E0,0E0,0E0,0E0,0E0,0E0,0E0,0E0,0E0,0E0,0E0,0E0],"parents":[2147483647,0,0,1,1,2,2,3,3,4,4,5,5,6,6,7,7,8,8,10,10,11,11,12,12,13,13,14,14],"right_children":[2,4,6,8,10,12,14,16,18,-1,20,22,24,26,28,-1,-1,-1,-1,-1,-1,-1,-1,-1,-1,-1,-1,-1,-1],"split_conditions":[6E0,4E0,1.8E1,3E0,2E0,1.5E1,3E0,5E0,2E0,2.1954095E-1,3E0,7E0,4E0,1.9E1,2.1E1,-1.0756767E-1,-8.3767526E-2,-3.852541E-2,-9.532084E-2,-1.5909359E-1,-3.089661E-2,1.5012097E-1,2.6442826E-2,9.197839E-2,2.5662178E-1,-2.1421252E-1,-8.1417315E-2,7.0899144E-2,-5.152448E-2],"split_indices":[1,1,1,1,0,1,0,0,0,0,0,1,0,1,1,0,0,0,0,0,0,0,0,0,0,0,0,0,0],"split_type":[0,0,0,0,0,0,0,0,0,0,0,0,0,0,0,0,0,0,0,0,0,0,0,0,0,0,0,0,0],"sum_hessian":[2.834E3,6.34E2,2.2E3,4.15E2,2.19E2,1.416E3,7.84E2,3.72E2,4.3E1,1.8E1,2.01E2,1.063E3,3.53E2,3.79E2,4.05E2,2.35E2,1.37E2,2.2E1,2.1E1,4.4E1,1.57E2,4.7E1,1.016E3,2.86E2,6.7E1,4.6E1,3.33E2,2.2E2,1.85E2],"tree_param":{"num_deleted":"0","num_feature":"2","num_nodes":"29","size_leaf_vector":"1"}},{"base_weights":[-3.2821684E-3,-6.779265E-1,1.9135775E-1,-8.6463094E-1,-3.2180387E-1,4.954416E-1,-3.577864E-1,-8.919688E-1,-6.1323017E-1,1.9874227E-1,-5.3741527E-1,2.8858963E-1,1.1157665E0,-7.0067E-1,4.379979E-1,-9.685649E-2,-7.5451486E-2,-3.484035E-2,-8.622203E-2,-1.4353774E-1,-2.7826522E-2,4.4745404E-2,-6.4567733E-3,1.6767278E-1,4.3289542E-2,-1.0898047E-1,-4.6560485E-2,1.2851527E-1,-1.6852235E-2],"categories":[],"categories_nodes":[],"categories_segments":[],"categories_sizes":[],"default_left":[0,0,0,0,0,0,0,0,0,0,0,0,0,0,0,0,0,0,0,0,0,0,0,0,0,0,0,0,0],"id":24,"left_children":[1,3,5,7,9,11,13,15,17,-1,19,21,23,25,27,-1,-1,-1,-1,-1,-1,-1,-1,-1,-1,-1,-1,-1,-1],"loss_changes":[3.7240125E2,4.194272E1,3.6771317E2,2.3121033E0,1.106051E2,1.8150095E2,2.1450307E2,3.1963196E0,2.6009254E0,0E0,4.6607388E1,5.9723686E1,1.348789E2,4.9710693E1,1.2199109E2,0E0,0E0,0E0,0E0,0E0,0E0,0E0,0E0,0E0,0E0,0E0,0E0,0E0,0E0],"parents":[2147483647,0,0,1,1,2,2,3,3,4,4,5,5,6,6,7,7,8,8,10,10,11,11,12,12,13,13,14,14],"right_children":[2,4,6,8,10,12,14,16,18,-1,20,22,24,26,28,-1,-1,-1,-1,-1,-1,-1,-1,-1,-1,-1,-1,-1,-1],"split_conditions":[6E0,4E0,1.8E1,3E0,2E0,1.5E1,4E0,5E0,2E0,1.9874227E-1,3E0,5E0,3E0,2E0,2E1,-9.685649E-2,-7.5451486E-2,-3.484035E-2,-8.622203E-2,-1.4353774E-1,-2.7826522E-2,4.4745404E-2,-6.4567733E-3,1.6767278E-1,4.3289542E-2,-1.0898047E-1,-4.6560485E-2,1.2851527E-1,-1.6852235E-2],"split_indices":[1,1,1,1,0,1,0,0,0,0,0,0,0,0,1,0,0,0,0,0,0,0,0,0,0,0,0,0,0],"split_type":[0,0,0,0,0,0,0,0,0,0,0,0,0,0,0,0,0,0,0,0,0,0,0,0,0,0,0,0,0],"sum_hessian":[2.834E3,6.34E2,2.2E3,4.15E2,2.19E2,1.416E3,7.84E2,3.72E2,4.3E1,1.8E1,2.01E2,1.063E3,3.53E2,5.48E2,2.36E2,2.35E2,1.37E2,2.2E1,2.1E1,4.4E1,1.57E2,7.33E2,3.3E2,1.93E2,1.6E2,2.05E2,3.43E2,9.8E1,1.38E2],"tree_param":{"num_deleted":"0","num_feature":"2","num_nodes":"29","size_leaf_vector":"1"}},{"base_weights":[-2.975174E-3,-6.105528E-1,1.723155E-1,-7.78873E-1,-2.894992E-1,3.4560487E-1,-6.2578326E-1,-8.032338E-1,-5.546584E-1,1.799141E-1,-4.8452228E-1,-2.0751019E-1,4.8942062E-1,-8.377683E-1,-1.24650605E-1,-8.721187E-2,-6.796102E-2,-3.1507775E-2,-7.799174E-2,-3.0376209E-2,-1.8125038E-1,3.513303E-2,-1.2842765E-1,1.0060748E-1,3.1175569E-2,-5.0358158E-2,-1.0561837E-1,3.7457474E-2,-4.8460156E-2],"categories":[],"categories_nodes":[],"categories_segments":[],"categories_sizes":[],"default_left":[0,0,0,0,0,0,0,0,0,0,0,0,0,0,0,0,0,0,0,0,0,0,0,0,0,0,0,0,0],"id":25,"left_children":[1,3,5,7,9,11,13,15,17,-1,19,21,23,25,27,-1,-1,-1,-1,-1,-1,-1,-1,-1,-1,-1,-1,-1,-1],"loss_changes":[3.020403E2,3.4089798E1,3.0461905E2,1.8266754E0,9.0484985E1,1.4400146E2,4.164499E1,2.5837097E0,2.1288443E0,0E0,4.7938763E1,2.255022E2,1.3149869E2,1.9613785E1,2.1385723E1,0E0,0E0,0E0,0E0,0E0,0E0,0E0,0E0,0E0,0E0,0E0,0E0,0E0,0E0],"parents":[2147483647,0,0,1,1,2,2,3,3,4,4,5,5,6,6,7,7,8,8,10,10,11,11,12,12,13,13,14,14],"right_children":[2,4,6,8,10,12,14,16,18,-1,20,22,24,26,28,-1,-1,-1,-1,-1,-1,-1,-1,-1,-1,-1,-1,-1,-1],"split_conditions":[6E0,4E0,2.1E1,3E0,2E0,2E0,4E0,5E0,2E0,1.799141E-1,7E0,1.7E1,3E0,2.2E1,2.2E1,-8.721187E-2,-6.796102E-2,-3.1507775E-2,-7.799174E-2,-3.0376209E-2,-1.8125038E-1,3.513303E-2,-1.2842765E-1,1.0060748E-1,3.1175569E-2,-5.0358158E-2,-1.0561837E-1,3.7457474E-2,-4.8460156E-2],"split_indices":[1,1,1,1,0,0,0,0,0,0,0,1,0,1,1,0,0,0,0,0,0,0,0,0,0,0,0,0,0],"split_type":[0,0,0,0,0,0,0,0,0,0,0,0,0,0,0,0,0,0,0,0,0,0,0,0,0,0,0,0,0],"sum_hessian":[2.834E3,6.34E2,2.2E3,4.15E2,2.19E2,1.808E3,3.92E2,3.72E2,4.3E1,1.8E1,2.01E2,3.73E2,1.435E3,2.75E2,1.17E2,2.35E2,1.37E2,2.2E1,2.1E1,1.78E2,2.3E1,2.46E2,1.27E2,3.66E2,1.069E3,1.1E2,1.65E2,4.9E1,6.8E1],"tree_param":{"num_deleted":"0","num_feature":"2","num_nodes":"29","size_leaf_vector":"1"}},{"base_weights":[-2.8275165E-3,-5.636901E-1,1.5119042E-1,-7.0162195E-1,-2.6806095E-1,3.0436727E-1,-5.6362987E-1,-5.833109E-1,-7.4651253E-1,9.728544E-2,-1.4283566E0,-1.8700889E-1,4.3003187E-1,-7.545566E-1,-1.1227894E-1,-1.9171046E-2,-6.854205E-2,-8.74749E-2,-6.289049E-2,-4.514007E-2,1.5669973E-1,-1.158393E-1,-1.6388054E-1,2.6668507E-1,-3.729514E-2,5.9872366E-2,-9.6737575E-3,-4.536773E-2,-9.512015E-2,3.3786625E-2,-4.368439E-2],"categories":[],"categories_nodes":[],"categories_segments":[],"categories_sizes":[],"default_left":[0,0,0,0,0,0,0,0,0,0,0,0,0,0,0,0,0,0,0,0,0,0,0,0,0,0,0,0,0,0,0],"id":26,"left_children":[1,3,5,7,9,11,13,15,17,19,21,23,25,27,29,-1,-1,-1,-1,-1,-1,-1,-1,-1,-1,-1,-1,-1,-1,-1,-1],"loss_changes":[2.4498076E2,2.472647E1,2.4379553E2,1.773941E0,8.322529E1,1.1326558E2,3.3782036E1,4.6269493E0,3.9441833E0,1.2166892E2,7.718506E-1,1.9945912E2,1.2979593E2,1.5898392E1,1.7387554E1,0E0,0E0,0E0,0E0,0E0,0E0,0E0,0E0,0E0,0E0,0E0,0E0,0E0,0E0,0E0,0E0],"parents":[2147483647,0,0,1,1,2,2,3,3,4,4,5,5,6,6,7,7,8,8,9,9,10,10,11,11,12,12,13,13,14,14],"right_children":[2,4,6,8,10,12,14,16,18,20,22,24,26,28,30,-1,-1,-1,-1,-1,-1,-1,-1,-1,-1,-1,-1,-1,-1,-1,-1],"split_conditions":[5E0,4E0,2.1E1,2E0,5E0,2E0,4E0,2E0,5E0,4E0,7E0,7E0,5E0,2.2E1,2.2E1,-1.9171046E-2,-6.854205E-2,-8.74749E-2,-6.289049E-2,-4.514007E-2,1.5669973E-1,-1.158393E-1,-1.6388054E-1,2.6668507E-1,-3.729514E-2,5.9872366E-2,-9.6737575E-3,-4.536773E-2,-9.512015E-2,3.3786625E-2,-4.368439E-2],"split_indices":[1,1,1,0,0,0,0,1,0,0,0,1,0,1,1,0,0,0,0,0,0,0,0,0,0,0,0,0,0,0,0],"split_type":[0,0,0,0,0,0,0,0,0,0,0,0,0,0,0,0,0,0,0,0,0,0,0,0,0,0,0,0,0,0,0],"sum_hessian":[2.834E3,6.1E2,2.224E3,4.15E2,1.95E2,1.832E3,3.92E2,1.18E2,2.97E2,1.49E2,4.6E1,3.73E2,1.459E3,2.75E2,1.17E2,2.5E1,9.3E1,1.39E2,1.58E2,1.09E2,4E1,2.3E1,2.3E1,2.2E1,3.51E2,1.105E3,3.54E2,1.1E2,1.65E2,4.9E1,6.8E1],"tree_param":{"num_deleted":"0","num_feature":"2","num_nodes":"31","size_leaf_vector":"1"}},{"base_weights":[-2.6423126E-3,-4.9599978E-1,1.396951E-1,-6.5329754E-1,-2.710261E-1,4.0410802E-1,-2.4804981E-1,-4.2616275E-1,-6.83946E-1,4.767089E-2,-8.63905E-1,2.8062278E-1,2.0538266E0,-9.89841E-1,3.2361418E-2,-4.7419704E-2,-3.5002396E-2,-7.450875E-2,-5.2446682E-2,-3.7711736E-2,1.4141192E-1,-1.1014538E-1,-1.8321622E-2,6.456897E-2,5.6968094E-3,1.0013936E-1,3.061611E-1,-1.5127169E-1,-5.9991896E-2,1.108771E-1,-9.7605875E-3],"categories":[],"categories_nodes":[],"categories_segments":[],"categories_sizes":[],"default_left":[0,0,0,0,0,0,0,0,0,0,0,0,0,0,0,0,0,0,0,0,0,0,0,0,0,0,0,0,0,0,0],"id":27,"left_children":[1,3,5,7,9,11,13,15,17,19,21,23,25,27,29,-1,-1,-1,-1,-1,-1,-1,-1,-1,-1,-1,-1,-1,-1,-1,-1],"loss_changes":[1.9915211E2,2.2294235E1,2.2575723E2,2.3050995E0,4.97347E1,2.660877E2,1.8578189E2,5.911827E-3,2.7977295E0,1.00370895E2,1.46742935E1,9.9493256E1,9.345105E1,4.9043304E1,9.090205E1,0E0,0E0,0E0,0E0,0E0,0E0,0E0,0E0,0E0,0E0,0E0,0E0,0E0,0E0,0E0,0E0],"parents":[2147483647,0,0,1,1,2,2,3,3,4,4,5,5,6,6,7,7,8,8,9,9,10,10,11,11,12,12,13,13,14,14],"right_children":[2,4,6,8,10,12,14,16,18,20,22,24,26,28,30,-1,-1,-1,-1,-1,-1,-1,-1,-1,-1,-1,-1,-1,-1,-1,-1],"split_conditions":[6E0,3E0,1.7E1,1E0,5E0,1.6E1,2E0,3E0,7E0,4E0,5E0,3E0,4E0,2E1,1.8E1,-4.7419704E-2,-3.5002396E-2,-7.450875E-2,-5.2446682E-2,-3.7711736E-2,1.4141192E-1,-1.1014538E-1,-1.8321622E-2,6.456897E-2,5.6968094E-3,1.0013936E-1,3.061611E-1,-1.5127169E-1,-5.9991896E-2,1.108771E-1,-9.7605875E-3],"split_indices":[1,1,1,1,0,1,0,0,0,0,1,0,0,1,1,0,0,0,0,0,0,0,0,0,0,0,0,0,0,0,0],"split_type":[0,0,0,0,0,0,0,0,0,0,0,0,0,0,0,0,0,0,0,0,0,0,0,0,0,0,0,0,0,0,0],"sum_hessian":[2.834E3,6.34E2,2.2E3,3.72E2,2.62E2,1.308E3,8.92E2,4.6E1,3.26E2,1.71E2,9.1E1,1.218E3,9E1,2.44E2,6.48E2,2.5E1,2.1E1,2.33E2,9.3E1,1.31E2,4E1,6.7E1,2.4E1,4.62E2,7.56E2,4.5E1,4.5E1,1.03E2,1.41E2,6.9E1,5.79E2],"tree_param":{"num_deleted":"0","num_feature":"2","num_nodes":"31","size_leaf_vector":"1"}},{"base_weights":[-2.3316438E-3,-4.4676843E-1,1.2589175E-1,-5.8852917E-1,-2.4401742E-1,3.6406082E-1,-2.2336826E-1,-3.8530016E-1,-6.159397E-1,6.883054E-1,-4.143368E-1,1.6142435E-1,1.2390248E0,-8.9171916E-1,2.9280966E-2,-4.2860106E-2,-3.1661276E-2,-6.708972E-2,-4.7257792E-2,-1.8330533E-2,1.7071865E-1,-1.1843169E-1,-2.1845166E-2,1.0252627E-1,1.204945E-2,2.3190057E-1,3.770179E-2,-1.3628995E-1,-5.4034956E-2,2.3831846E-2,-6.058036E-2],"categories":[],"categories_nodes":[],"categories_segments":[],"categories_sizes":[],"default_left":[0,0,0,0,0,0,0,0,0,0,0,0,0,0,0,0,0,0,0,0,0,0,0,0,0,0,0,0,0,0,0],"id":28,"left_children":[1,3,5,7,9,11,13,15,17,19,21,23,25,27,29,-1,-1,-1,-1,-1,-1,-1,-1,-1,-1,-1,-1,-1,-1,-1,-1],"loss_changes":[1.6161494E2,1.8107643E1,1.8316693E2,1.8405151E0,4.204765E1,2.3188516E2,1.5081662E2,4.087925E-3,2.2593155E0,3.672371E1,3.337585E1,3.7496082E1,2.2813959E2,3.9825394E1,8.6303345E1,0E0,0E0,0E0,0E0,0E0,0E0,0E0,0E0,0E0,0E0,0E0,0E0,0E0,0E0,0E0,0E0],"parents":[2147483647,0,0,1,1,2,2,3,3,4,4,5,5,6,6,7,7,8,8,9,9,10,10,11,11,12,12,13,13,14,14],"right_children":[2,4,6,8,10,12,14,16,18,20,22,24,26,28,30,-1,-1,-1,-1,-1,-1,-1,-1,-1,-1,-1,-1,-1,-1,-1,-1],"split_conditions":[6E0,3E0,1.7E1,1E0,2E0,1.5E1,2E0,3E0,7E0,4E0,3E0,7E0,3E0,2E1,2.2E1,-4.2860106E-2,-3.1661276E-2,-6.708972E-2,-4.7257792E-2,-1.8330533E-2,1.7071865E-1,-1.1843169E-1,-2.1845166E-2,1.0252627E-1,1.204945E-2,2.3190057E-1,3.770179E-2,-1.3628995E-1,-5.4034956E-2,2.3831846E-2,-6.058036E-2],"split_indices":[1,1,1,1,0,1,0,0,0,1,0,1,0,1,1,0,0,0,0,0,0,0,0,0,0,0,0,0,0,0,0],"split_type":[0,0,0,0,0,0,0,0,0,0,0,0,0,0,0,0,0,0,0,0,0,0,0,0,0,0,0,0,0,0,0],"sum_hessian":[2.834E3,6.34E2,2.2E3,3.72E2,2.62E2,1.308E3,8.92E2,4.6E1,3.26E2,4E1,2.22E2,1.063E3,2.45E2,2.44E2,6.48E2,2.5E1,2.1E1,2.33E2,9.3E1,2.2E1,1.8E1,4.4E1,1.78E2,4.7E1,1.016E3,1.08E2,1.37E2,1.03E2,1.41E2,4.88E2,1.6E2],"tree_param":{"num_deleted":"0","num_feature":"2","num_nodes":"31","size_leaf_vector":"1"}},{"base_weights":[-2.1052978E-3,-4.0236992E-1,1.1337409E-1,-5.301825E-1,-2.1956965E-1,2.3552527E-1,-4.4918275E-1,-3.4835565E-1,-5.546953E-1,6.933169E-2,-7.5730294E-1,-1.7524955E-1,3.4234577E-1,-6.1119044E-1,-6.644282E-2,-3.8738947E-2,-2.8639039E-2,-6.0409408E-2,-4.2582273E-2,-3.126603E-2,1.2974687E-1,-9.7140394E-2,-1.44656105E-2,2.2519302E-1,-3.333458E-2,4.736E-2,-9.725993E-3,-5.423979E-2,-1.2517957E-1,2.9096533E-2,-3.244713E-2],"categories":[],"categories_nodes":[],"categories_segments":[],"categories_sizes":[],"default_left":[0,0,0,0,0,0,0,0,0,0,0,0,0,0,0,0,0,0,0,0,0,0,0,0,0,0,0,0,0,0,0],"id":29,"left_children":[1,3,5,7,9,11,13,15,17,19,21,23,25,27,29,-1,-1,-1,-1,-1,-1,-1,-1,-1,-1,-1,-1,-1,-1,-1,-1],"loss_changes":[1.3108588E2,1.4719849E1,1.5135187E2,1.4692535E0,4.091004E1,7.9437416E1,2.4328064E1,2.7365685E-3,1.8244934E0,8.109749E1,1.1926964E1,1.4426495E2,8.290338E1,1.1484032E1,1.0976544E1,0E0,0E0,0E0,0E0,0E0,0E0,0E0,0E0,0E0,0E0,0E0,0E0,0E0,0E0,0E0,0E0],"parents":[2147483647,0,0,1,1,2,2,3,3,4,4,5,5,6,6,7,7,8,8,9,9,10,10,11,11,12,12,13,13,14,14],"right_children":[2,4,6,8,10,12,14,16,18,20,22,24,26,28,30,-1,-1,-1,-1,-1,-1,-1,-1,-1,-1,-1,-1,-1,-1,-1,-1],"split_conditions":[6E0,3E0,2.1E1,1E0,5E0,2E0,4E0,3E0,7E0,4E0,5E0,7E0,5E0,2.3E1,2.2E1,-3.8738947E-2,-2.8639039E-2,-6.0409408E-2,-4.2582273E-2,-3.126603E-2,1.2974687E-1,-9.7140394E-2,-1.44656105E-2,2.2519302E-1,-3.333458E-2,4.736E-2,-9.725993E-3,-5.423979E-2,-1.2517957E-1,2.9096533E-2,-3.244713E-2],"split_indices":[1,1,1,1,0,0,0,0,0,0,1,1,0,1,1,0,0,0,0,0,0,0,0,0,0,0,0,0,0,0,0],"split_type":[0,0,0,0,0,0,0,0,0,0,0,0,0,0,0,0,0,0,0,0,0,0,0,0,0,0,0,0,0,0,0],"sum_hessian":[2.834E3,6.34E2,2.2E3,3.72E2,2.62E2,1.808E3,3.92E2,4.6E1,3.26E2,1.71E2,9.1E1,3.73E2,1.435E3,2.75E2,1.17E2,2.5E1,2.1E1,2.33E2,9.3E1,1.31E2,4E1,6.7E1,2.4E1,2.2E1,3.51E2,1.105E3,3.3E2,2.5E2,2.5E1,4.9E1,6.8E1],"tree_param":{"num_deleted":"0","num_feature":"2","num_nodes":"31","size_leaf_vector":"1"}},{"base_weights":[-1.9429123E-3,-3.624219E-1,1.02058046E-1,-8.26306E-2,-4.3851206E-1,3.0583635E-1,-1.9676377E-1,-3.4661147E-1,1.5750723E-1,-8.945659E-1,-3.3597073E-1,1.9823693E-1,1.7438349E0,-7.529035E-1,1.3484328E-2,2.0961396E-3,-4.445932E-2,-3.5014052E-2,-1.0954825E-1,-1.0285344E-2,-5.187579E-2,4.9811337E-2,1.4563192E-3,7.708683E-2,2.678892E-1,-1.1949062E-1,-4.238811E-2,9.293022E-2,-9.706866E-3],"categories":[],"categories_nodes":[],"categories_segments":[],"categories_sizes":[],"default_left":[0,0,0,0,0,0,0,0,0,0,0,0,0,0,0,0,0,0,0,0,0,0,0,0,0,0,0,0,0],"id":30,"left_children":[1,3,5,7,9,11,13,15,-1,17,19,21,23,25,27,-1,-1,-1,-1,-1,-1,-1,-1,-1,-1,-1,-1,-1,-1],"loss_changes":[1.0632159E2,1.3482506E1,1.3408656E2,6.049739E1,2.3034882E1,2.02193E2,1.0442627E2,4.2951527E0,0E0,9.570381E0,1.7374481E1,6.713457E1,8.072485E1,3.512355E1,6.579912E1,0E0,0E0,0E0,0E0,0E0,0E0,0E0,0E0,0E0,0E0,0E0,0E0,0E0,0E0],"parents":[2147483647,0,0,1,1,2,2,3,3,4,4,5,5,6,6,7,7,9,9,10,10,11,11,12,12,13,13,14,14],"right_children":[2,4,6,8,10,12,14,16,-1,18,20,22,24,26,28,-1,-1,-1,-1,-1,-1,-1,-1,-1,-1,-1,-1,-1,-1],"split_conditions":[6E0,2E0,1.7E1,4E0,3E0,1.6E1,2E0,2E0,1.5750723E-1,1E0,5E0,3E0,4E0,2E1,1.8E1,2.0961396E-3,-4.445932E-2,-3.5014052E-2,-1.0954825E-1,-1.0285344E-2,-5.187579E-2,4.9811337E-2,1.4563192E-3,7.708683E-2,2.678892E-1,-1.1949062E-1,-4.238811E-2,9.293022E-2,-9.706866E-3],"split_indices":[1,0,1,1,0,1,0,1,0,1,0,0,0,1,1,0,0,0,0,0,0,0,0,0,0,0,0,0,0],"split_type":[0,0,0,0,0,0,0,0,0,0,0,0,0,0,0,0,0,0,0,0,0,0,0,0,0,0,0,0,0],"sum_hessian":[2.834E3,6.34E2,2.2E3,1.36E2,4.98E2,1.308E3,8.92E2,1.18E2,1.8E1,9E1,4.08E2,1.218E3,9E1,2.44E2,6.48E2,2.5E1,9.3E1,2.5E1,6.5E1,1.8E2,2.28E2,4.62E2,7.56E2,4.5E1,4.5E1,1.03E2,1.41E2,6.9E1,5.79E2],"tree_param":{"num_deleted":"0","num_feature":"2","num_nodes":"29","size_leaf_vector":"1"}},{"base_weights":[-1.6690271E-3,-3.3582905E-1,9.009431E-2,-7.3527016E-2,-4.1077545E-1,1.6700846E-1,-5.65047E-1,-3.1230628E-1,1.4258552E-1,-8.066976E-1,-3.161269E-1,-1.8634552E-1,2.6068145E-1,-7.865693E-1,-3.2897988E-1,1.8945842E-3,-4.006068E-2,-3.1647302E-2,-9.875937E-2,-9.262512E-3,-5.1192056E-2,1.9888833E-1,-3.1221403E-2,6.2398113E-2,1.32289305E-2,-6.950613E-2,-1.09067276E-1,-4.3376606E-2,1.0902422E-2],"categories":[],"categories_nodes":[],"categories_segments":[],"categories_sizes":[],"default_left":[0,0,0,0,0,0,0,0,0,0,0,0,0,0,0,0,0,0,0,0,0,0,0,0,0,0,0,0,0],"id":31,"left_children":[1,3,5,7,9,11,13,15,-1,17,19,21,23,25,27,-1,-1,-1,-1,-1,-1,-1,-1,-1,-1,-1,-1,-1,-1],"loss_changes":[8.696168E1,1.1981201E1,1.1221131E2,4.9494232E1,1.7544876E1,6.598323E1,1.197805E1,3.488309E0,0E0,7.7573013E0,1.6800274E1,1.1506633E2,7.338304E1,2.5812683E0,5.3254204E0,0E0,0E0,0E0,0E0,0E0,0E0,0E0,0E0,0E0,0E0,0E0,0E0,0E0,0E0],"parents":[2147483647,0,0,1,1,2,2,3,3,4,4,5,5,6,6,7,7,9,9,10,10,11,11,12,12,13,13,14,14],"right_children":[2,4,6,8,10,12,14,16,-1,18,20,22,24,26,28,-1,-1,-1,-1,-1,-1,-1,-1,-1,-1,-1,-1,-1,-1],"split_conditions":[5E0,2E0,2.2E1,4E0,3E0,2E0,3E0,2E0,1.4258552E-1,1E0,5E0,7E0,3E0,2.3E1,2.3E1,1.8945842E-3,-4.006068E-2,-3.1647302E-2,-9.875937E-2,-9.262512E-3,-5.1192056E-2,1.9888833E-1,-3.1221403E-2,6.2398113E-2,1.32289305E-2,-6.950613E-2,-1.09067276E-1,-4.3376606E-2,1.0902422E-2],"split_indices":[1,0,1,1,0,0,0,1,0,1,0,1,0,1,1,0,0,0,0,0,0,0,0,0,0,0,0,0,0],"split_type":[0,0,0,0,0,0,0,0,0,0,0,0,0,0,0,0,0,0,0,0,0,0,0,0,0,0,0,0,0],"sum_hessian":[2.834E3,6.1E2,2.224E3,1.36E2,4.74E2,1.991E3,2.33E2,1.18E2,1.8E1,9E1,3.84E2,4.17E2,1.574E3,1.19E2,1.14E2,2.5E1,9.3E1,2.5E1,6.5E1,1.8E2,2.04E2,2.2E1,3.95E2,4.1E2,1.164E3,9.4E1,2.5E1,9.2E1,2.2E1],"tree_param":{"num_deleted":"0","num_feature":"2","num_nodes":"29","size_leaf_vector":"1"}},{"base_weights":[-1.521487E-3,-3.0238757E-1,8.109905E-2,-6.541205E-2,-3.7009966E-1,2.5155634E-1,-1.7343697E-1,-2.8139627E-1,1.2907739E-1,-7.274608E-1,-2.8467122E-1,1.5483603E-1,1.5699276E0,-3.6490658E-1,3.5807768E-1,1.7124249E-3,-3.609722E-2,-2.8604303E-2,-8.903305E-2,-8.341397E-3,-4.6097796E-2,4.2091053E-2,-3.0990705E-4,7.0184134E-2,2.403885E-1,-6.317357E-2,-2.0573458E-2,1.4960185E-1,3.801857E-3],"categories":[],"categories_nodes":[],"categories_segments":[],"categories_sizes":[],"default_left":[0,0,0,0,0,0,0,0,0,0,0,0,0,0,0,0,0,0,0,0,0,0,0,0,0,0,0,0,0],"id":32,"left_children":[1,3,5,7,9,11,13,15,-1,17,19,21,23,25,27,-1,-1,-1,-1,-1,-1,-1,-1,-1,-1,-1,-1,-1,-1],"loss_changes":[7.049615E1,9.779968E0,9.658086E1,4.0492542E1,1.4294106E1,1.697321E2,9.10103E1,2.8330326E0,0E0,6.2876396E0,1.3622505E1,5.2235268E1,6.419203E1,2.7773949E1,8.626048E1,0E0,0E0,0E0,0E0,0E0,0E0,0E0,0E0,0E0,0E0,0E0,0E0,0E0,0E0],"parents":[2147483647,0,0,1,1,2,2,3,3,4,4,5,5,6,6,7,7,9,9,10,10,11,11,12,12,13,13,14,14],"right_children":[2,4,6,8,10,12,14,16,-1,18,20,22,24,26,28,-1,-1,-1,-1,-1,-1,-1,-1,-1,-1,-1,-1,-1,-1],"split_conditions":[5E0,2E0,1.7E1,4E0,3E0,1.6E1,4E0,2E0,1.2907739E-1,1E0,5E0,3E0,4E0,2E0,1.9E1,1.7124249E-3,-3.609722E-2,-2.8604303E-2,-8.903305E-2,-8.341397E-3,-4.6097796E-2,4.2091053E-2,-3.0990705E-4,7.0184134E-2,2.403885E-1,-6.317357E-2,-2.0573458E-2,1.4960185E-1,3.801857E-3],"split_indices":[1,0,1,1,0,1,0,1,0,1,0,0,0,0,1,0,0,0,0,0,0,0,0,0,0,0,0,0,0],"split_type":[0,0,0,0,0,0,0,0,0,0,0,0,0,0,0,0,0,0,0,0,0,0,0,0,0,0,0,0,0],"sum_hessian":[2.834E3,6.1E2,2.224E3,1.36E2,4.74E2,1.332E3,8.92E2,1.18E2,1.8E1,9E1,3.84E2,1.242E3,9E1,6.56E2,2.36E2,2.5E1,9.3E1,2.5E1,6.5E1,1.8E2,2.04E2,4.62E2,7.8E2,4.5E1,4.5E1,2.44E2,4.12E2,5.1E1,1.85E2],"tree_param":{"num_deleted":"0","num_feature":"2","num_nodes":"29","size_leaf_vector":"1"}},{"base_weights":[-1.2481229E-3,-2.2107917E-1,9.458771E-2,-8.9798644E-2,-5.004995E-1,3.0113804E-1,-1.5601543E-1,-4.3446022E-1,1.4153638E-1,-2.6288676E-1,-8.1913126E-1,1.17606334E-1,9.251154E-1,-3.2854354E-1,3.22917E-1,-3.68713E-2,-7.053272E-2,2.2857639E-3,5.1405836E-2,-1.1666792E-2,-2.8429205E-2,-6.427016E-2,-1.06822446E-1,-4.4019237E-2,2.2915741E-2,1.9784136E-1,8.645877E-3,-5.6882005E-2,-1.852111E-2,1.3492943E-1,3.4236708E-3],"categories":[],"categories_nodes":[],"categories_segments":[],"categories_sizes":[],"default_left":[0,0,0,0,0,0,0,0,0,0,0,0,0,0,0,0,0,0,0,0,0,0,0,0,0,0,0,0,0,0,0],"id":33,"left_children":[1,3,5,7,9,11,13,15,17,19,21,23,25,27,29,-1,-1,-1,-1,-1,-1,-1,-1,-1,-1,-1,-1,-1,-1,-1,-1],"loss_changes":[5.9747818E1,3.1538635E1,1.02277245E2,4.686435E1,2.0605179E1,1.2391598E2,7.389407E1,3.9428024E0,1.5550324E1,4.6447945E-1,4.4552994E0,5.2243786E1,2.171344E2,2.2521347E1,7.017569E1,0E0,0E0,0E0,0E0,0E0,0E0,0E0,0E0,0E0,0E0,0E0,0E0,0E0,0E0,0E0,0E0],"parents":[2147483647,0,0,1,1,2,2,3,3,4,4,5,5,6,6,7,7,8,8,9,9,10,10,11,11,12,12,13,13,14,14],"right_children":[2,4,6,8,10,12,14,16,18,20,22,24,26,28,30,-1,-1,-1,-1,-1,-1,-1,-1,-1,-1,-1,-1,-1,-1,-1,-1],"split_conditions":[9E0,5E0,1.7E1,3E0,4E0,1.5E1,4E0,4E0,4E0,1E0,6E0,2E0,3E0,2E0,1.9E1,-3.68713E-2,-7.053272E-2,2.2857639E-3,5.1405836E-2,-1.1666792E-2,-2.8429205E-2,-6.427016E-2,-1.06822446E-1,-4.4019237E-2,2.2915741E-2,1.9784136E-1,8.645877E-3,-5.6882005E-2,-1.852111E-2,1.3492943E-1,3.4236708E-3],"split_indices":[1,0,1,1,1,1,0,0,0,1,1,0,0,0,1,0,0,0,0,0,0,0,0,0,0,0,0,0,0,0,0],"split_type":[0,0,0,0,0,0,0,0,0,0,0,0,0,0,0,0,0,0,0,0,0,0,0,0,0,0,0,0,0,0,0],"sum_hessian":[2.834E3,8.6E2,1.974E3,5.86E2,2.74E2,1.082E3,8.92E2,2.35E2,3.51E2,1.58E2,1.16E2,8.37E2,2.45E2,6.56E2,2.36E2,1.91E2,4.4E1,2.67E2,8.4E1,2.1E1,1.37E2,7E1,4.6E1,1.39E2,6.98E2,1.08E2,1.37E2,2.44E2,4.12E2,5.1E1,1.85E2],"tree_param":{"num_deleted":"0","num_feature":"2","num_nodes":"31","size_leaf_vector":"1"}},{"base_weights":[-1.1289403E-3,4.002306E-2,-4.5872027E-1,-1.9927882E-1,1.582773E-1,-6.213805E-1,-2.8499895E-1,-8.091005E-2,-4.5121768E-1,-1.943582E-1,2.5417128E-1,-5.466972E-1,-8.703626E-2,-3.7509263E-1,9.16841E-3,-3.914694E-2,1.2753571E-2,-2.3685042E-2,-7.386808E-2,7.269366E-3,-5.068589E-2,5.2130908E-2,1.580781E-2,-3.1984773E-2,-7.7156805E-2,-3.0887036E-2,-4.3333422E-2],"categories":[],"categories_nodes":[],"categories_segments":[],"categories_sizes":[],"default_left":[0,0,0,0,0,0,0,0,0,0,0,0,0,0,0,0,0,0,0,0,0,0,0,0,0,0,0],"id":34,"left_children":[1,3,5,7,9,11,13,15,17,19,21,23,-1,25,-1,-1,-1,-1,-1,-1,-1,-1,-1,-1,-1,-1,-1],"loss_changes":[5.3403675E1,7.366414E1,6.435177E0,2.5639969E1,5.8956215E1,1.7555466E0,3.9371157E0,3.8049244E1,1.6771282E1,3.1165146E1,3.5085663E1,4.5993423E0,0E0,2.248478E-1,0E0,0E0,0E0,0E0,0E0,0E0,0E0,0E0,0E0,0E0,0E0,0E0,0E0],"parents":[2147483647,0,0,1,1,2,2,3,3,4,4,5,5,6,6,7,7,8,8,9,9,10,10,11,11,13,13],"right_children":[2,4,6,8,10,12,14,16,18,20,22,24,-1,26,-1,-1,-1,-1,-1,-1,-1,-1,-1,-1,-1,-1,-1],"split_conditions":[2.2E1,9E0,3E0,5E0,2E0,2.3E1,2.3E1,3E0,4E0,1.7E1,3E0,2E0,-8.703626E-2,4E0,9.16841E-3,-3.914694E-2,1.2753571E-2,-2.3685042E-2,-7.386808E-2,7.269366E-3,-5.068589E-2,5.2130908E-2,1.580781E-2,-3.1984773E-2,-7.7156805E-2,-3.0887036E-2,-4.3333422E-2],"split_indices":[1,1,0,0,0,1,1,1,1,1,0,0,0,0,0,0,0,0,0,0,0,0,0,0,0,0,0],"split_type":[0,0,0,0,0,0,0,0,0,0,0,0,0,0,0,0,0,0,0,0,0,0,0,0,0,0,0],"sum_hessian":[2.834E3,2.601E3,2.33E2,8.6E2,1.741E3,1.19E2,1.14E2,5.86E2,2.74E2,3.72E2,1.369E3,9.4E1,2.5E1,9.2E1,2.2E1,2.35E2,3.51E2,1.58E2,1.16E2,2.01E2,1.71E2,3.61E2,1.008E3,4.8E1,4.6E1,4.6E1,4.6E1],"tree_param":{"num_deleted":"0","num_feature":"2","num_nodes":"27","size_leaf_vector":"1"}},{"base_weights":[-1.1434732E-3,3.598232E-2,-4.139647E-1,-1.7949513E-1,1.4246343E-1,-5.6087726E-1,-2.570649E-1,-7.2864346E-2,-4.0645066E-1,-1.7503852E-1,2.2880341E-1,-4.9317637E-1,-7.866738E-2,-3.383816E-1,8.291411E-3,-3.5248835E-2,1.1481783E-2,-2.1331439E-2,-6.6544406E-2,-8.842995E-2,-5.4803733E-3,3.2986518E-2,-5.741301E-5,-2.8851569E-2,-6.960529E-2,-2.7864045E-2,-3.9092313E-2],"categories":[],"categories_nodes":[],"categories_segments":[],"categories_sizes":[],"default_left":[0,0,0,0,0,0,0,0,0,0,0,0,0,0,0,0,0,0,0,0,0,0,0,0,0,0,0],"id":35,"left_children":[1,3,5,7,9,11,13,15,17,19,21,23,-1,25,-1,-1,-1,-1,-1,-1,-1,-1,-1,-1,-1,-1,-1],"loss_changes":[4.3464996E1,5.9726585E1,5.249645E0,2.0806967E1,4.7793682E1,1.4464302E0,3.2073421E0,3.0846493E1,1.3613834E1,3.1760178E1,3.1758583E1,3.7436562E0,0E0,1.8299103E-1,0E0,0E0,0E0,0E0,0E0,0E0,0E0,0E0,0E0,0E0,0E0,0E0,0E0],"parents":[2147483647,0,0,1,1,2,2,3,3,4,4,5,5,6,6,7,7,8,8,9,9,10,10,11,11,13,13],"right_children":[2,4,6,8,10,12,14,16,18,20,22,24,-1,26,-1,-1,-1,-1,-1,-1,-1,-1,-1,-1,-1,-1,-1],"split_conditions":[2.2E1,9E0,3E0,5E0,2E0,2.3E1,2.3E1,3E0,4E0,1E1,1.8E1,2E0,-7.866738E-2,4E0,8.291411E-3,-3.5248835E-2,1.1481783E-2,-2.1331439E-2,-6.6544406E-2,-8.842995E-2,-5.4803733E-3,3.2986518E-2,-5.741301E-5,-2.8851569E-2,-6.960529E-2,-2.7864045E-2,-3.9092313E-2],"split_indices":[1,1,0,0,0,1,1,1,1,1,1,0,0,0,0,0,0,0,0,0,0,0,0,0,0,0,0],"split_type":[0,0,0,0,0,0,0,0,0,0,0,0,0,0,0,0,0,0,0,0,0,0,0,0,0,0,0],"sum_hessian":[2.834E3,2.601E3,2.33E2,8.6E2,1.741E3,1.19E2,1.14E2,5.86E2,2.74E2,3.72E2,1.369E3,9.4E1,2.5E1,9.2E1,2.2E1,2.35E2,3.51E2,1.58E2,1.16E2,5.3E1,3.19E2,9.5E2,4.19E2,4.8E1,4.6E1,4.6E1,4.6E1],"tree_param":{"num_deleted":"0","num_feature":"2","num_nodes":"27","size_leaf_vector":"1"}},{"base_weights":[-1.1730129E-3,3.231794E-2,-3.7357593E-1,-9.451818E-2,1.8763746E-1,-5.062656E-1,-2.3186868E-1,-3.8948722E-2,-1.05936E0,4.778946E-1,-3.737624E-2,-4.4489512E-1,-7.110321E-2,-3.052636E-1,7.498335E-3,-1.2069228E-2,3.681401E-2,-4.483944E-2,-1.7242573E-1,1.5334928E-1,-7.168278E-3,-2.2214772E-2,5.007595E-2,-2.6025299E-2,-6.279286E-2,-2.5136938E-2,-3.5266284E-2],"categories":[],"categories_nodes":[],"categories_segments":[],"categories_sizes":[],"default_left":[0,0,0,0,0,0,0,0,0,0,0,0,0,0,0,0,0,0,0,0,0,0,0,0,0,0,0],"id":36,"left_children":[1,3,5,7,9,11,13,15,17,19,21,23,-1,25,-1,-1,-1,-1,-1,-1,-1,-1,-1,-1,-1,-1,-1],"loss_changes":[3.5370552E1,5.1277462E1,4.2825356E0,7.6790085E1,7.643271E1,1.191658E0,2.6128483E0,4.516789E1,3.091275E1,2.9655786E2,6.573645E1,3.0471706E0,0E0,1.4892387E-1,0E0,0E0,0E0,0E0,0E0,0E0,0E0,0E0,0E0,0E0,0E0,0E0,0E0],"parents":[2147483647,0,0,1,1,2,2,3,3,4,4,5,5,6,6,7,7,8,8,9,9,10,10,11,11,13,13],"right_children":[2,4,6,8,10,12,14,16,18,20,22,24,-1,26,-1,-1,-1,-1,-1,-1,-1,-1,-1,-1,-1,-1,-1],"split_conditions":[2.2E1,1.3E1,3E0,1.2E1,1.7E1,2.3E1,2.3E1,1.1E1,4E0,3E0,4E0,2E0,-7.110321E-2,4E0,7.498335E-3,-1.2069228E-2,3.681401E-2,-4.483944E-2,-1.7242573E-1,1.5334928E-1,-7.168278E-3,-2.2214772E-2,5.007595E-2,-2.6025299E-2,-6.279286E-2,-2.5136938E-2,-3.5266284E-2],"split_indices":[1,1,0,1,1,1,1,1,0,0,0,0,0,0,0,0,0,0,0,0,0,0,0,0,0,0,0],"split_type":[0,0,0,0,0,0,0,0,0,0,0,0,0,0,0,0,0,0,0,0,0,0,0,0,0,0,0],"sum_hessian":[2.834E3,2.601E3,2.33E2,1.432E3,1.169E3,1.19E2,1.14E2,1.355E3,7.7E1,5.1E2,6.59E2,9.4E1,2.5E1,9.2E1,2.2E1,1.129E3,2.26E2,4.1E1,3.6E1,1.74E2,3.36E2,4.91E2,1.68E2,4.8E1,4.6E1,4.6E1,4.6E1],"tree_param":{"num_deleted":"0","num_feature":"2","num_nodes":"27","size_leaf_vector":"1"}},{"base_weights":[-1.137159E-3,2.907921E-2,-3.37128E-1,-8.520042E-2,1.6902249E-1,-4.569718E-1,-2.0914207E-1,-3.5035323E-2,-9.5620906E-1,4.30391E-1,-3.35962E-2,-4.013406E-1,-6.426637E-2,-2.753869E-1,6.781056E-3,-1.0863345E-2,3.3148855E-2,-1.3913764E-1,-3.2359783E-3,1.3810202E-1,-6.453627E-3,-1.9997796E-2,4.5098033E-2,-2.3475887E-2,-5.664718E-2,-2.2676727E-2,-3.181472E-2],"categories":[],"categories_nodes":[],"categories_segments":[],"categories_sizes":[],"default_left":[0,0,0,0,0,0,0,0,0,0,0,0,0,0,0,0,0,0,0,0,0,0,0,0,0,0,0],"id":37,"left_children":[1,3,5,7,9,11,13,15,17,19,21,23,-1,25,-1,-1,-1,-1,-1,-1,-1,-1,-1,-1,-1,-1,-1],"loss_changes":[2.8791925E1,4.1627316E1,3.4935932E0,6.258033E1,6.1975487E1,9.817047E-1,2.128542E0,3.6614746E1,3.1313255E1,2.405107E2,5.3302486E1,2.4802608E0,0E0,1.2120056E-1,0E0,0E0,0E0,0E0,0E0,0E0,0E0,0E0,0E0,0E0,0E0,0E0,0E0],"parents":[2147483647,0,0,1,1,2,2,3,3,4,4,5,5,6,6,7,7,8,8,9,9,10,10,11,11,13,13],"right_children":[2,4,6,8,10,12,14,16,18,20,22,24,-1,26,-1,-1,-1,-1,-1,-1,-1,-1,-1,-1,-1,-1,-1],"split_conditions":[2.2E1,1.3E1,3E0,1.2E1,1.7E1,2.3E1,2.3E1,1.1E1,5E0,3E0,4E0,2E0,-6.426637E-2,4E0,6.781056E-3,-1.0863345E-2,3.3148855E-2,-1.3913764E-1,-3.2359783E-3,1.3810202E-1,-6.453627E-3,-1.9997796E-2,4.5098033E-2,-2.3475887E-2,-5.664718E-2,-2.2676727E-2,-3.181472E-2],"split_indices":[1,1,0,1,1,1,1,1,0,0,0,0,0,0,0,0,0,0,0,0,0,0,0,0,0,0,0],"split_type":[0,0,0,0,0,0,0,0,0,0,0,0,0,0,0,0,0,0,0,0,0,0,0,0,0,0,0],"sum_hessian":[2.834E3,2.601E3,2.33E2,1.432E3,1.169E3,1.19E2,1.14E2,1.355E3,7.7E1,5.1E2,6.59E2,9.4E1,2.5E1,9.2E1,2.2E1,1.129E3,2.26E2,5.2E1,2.5E1,1.74E2,3.36E2,4.91E2,1.68E2,4.8E1,4.6E1,4.6E1,4.6E1],"tree_param":{"num_deleted":"0","num_feature":"2","num_nodes":"27","size_leaf_vector":"1"}},{"base_weights":[-1.0780229E-3,-2.331447E-1,3.8814876E-2,-1.4594723E-1,-2.671828E-1,1.187048E-1,-1.277313E-1,1.4451566E-2,-2.2473541E-1,-3.7640837E-1,-1.6932894E-1,1.5860232E-2,4.9110842E-1,-2.8566355E-1,2.3865075E-1,-2.857622E-2,-2.3923959E-3,-1.2950105E-2,-4.289578E-2,-4.067126E-3,-1.8861257E-2,3.3313315E-3,-9.010875E-2,1.0015165E-1,-1.2696773E-2,-8.5959464E-2,-1.6520394E-2,1.1081689E-1,-5.723415E-4],"categories":[],"categories_nodes":[],"categories_segments":[],"categories_sizes":[],"default_left":[0,0,0,0,0,0,0,0,0,0,0,0,0,0,0,0,0,0,0,0,0,0,0,0,0,0,0,0,0],"id":38,"left_children":[1,3,5,7,9,11,13,-1,15,17,19,21,23,25,27,-1,-1,-1,-1,-1,-1,-1,-1,-1,-1,-1,-1,-1,-1],"loss_changes":[2.625495E1,1.1957092E0,3.2214138E1,2.7557974E0,3.1213284E0,6.2650505E1,4.549106E1,0E0,1.145122E0,1.7609253E0,3.8680553E-1,2.0562593E1,1.11803894E2,3.781339E1,5.0365944E1,0E0,0E0,0E0,0E0,0E0,0E0,0E0,0E0,0E0,0E0,0E0,0E0,0E0,0E0],"parents":[2147483647,0,0,1,1,2,2,3,3,4,4,5,5,6,6,8,8,9,9,10,10,11,11,12,12,13,13,14,14],"right_children":[2,4,6,8,10,12,14,-1,16,18,20,22,24,26,28,-1,-1,-1,-1,-1,-1,-1,-1,-1,-1,-1,-1,-1,-1],"split_conditions":[4E0,2E0,1.8E1,2E0,5E0,1.5E1,4E0,1.4451566E-2,3E0,1E0,1E0,7E0,3E0,1.9E1,1.9E1,-2.857622E-2,-2.3923959E-3,-1.2950105E-2,-4.289578E-2,-4.067126E-3,-1.8861257E-2,3.3313315E-3,-9.010875E-2,1.0015165E-1,-1.2696773E-2,-8.5959464E-2,-1.6520394E-2,1.1081689E-1,-5.723415E-4],"split_indices":[1,0,1,1,0,1,0,0,1,1,1,0,0,1,1,0,0,0,0,0,0,0,0,0,0,0,0,0,0],"split_type":[0,0,0,0,0,0,0,0,0,0,0,0,0,0,0,0,0,0,0,0,0,0,0,0,0,0,0,0,0],"sum_hessian":[2.834E3,4.15E2,2.419E3,1.18E2,2.97E2,1.635E3,7.84E2,2.5E1,9.3E1,1.39E2,1.58E2,1.282E3,3.53E2,5.48E2,2.36E2,7.1E1,2.2E1,2.5E1,1.14E2,2.1E1,1.37E2,1.259E3,2.3E1,1.93E2,1.6E2,9.4E1,4.54E2,5.1E1,1.85E2],"tree_param":{"num_deleted":"0","num_feature":"2","num_nodes":"29","size_leaf_vector":"1"}},{"base_weights":[-1.0010472E-3,2.5206946E-2,-2.924207E-1,-1.2684104E-1,1.0034363E-1,-3.96095E-1,-1.8169603E-1,-3.277913E-2,-3.271592E-1,-2.1656422E-1,1.865526E-1,-3.4570333E-1,-5.6498397E-2,-2.3997961E-1,6.1872234E-3,-2.653947E-2,1.2327214E-2,-2.2723446E-2,-8.0706574E-2,-7.782679E-2,-1.2109998E-2,2.7104652E-2,-5.209973E-4,-1.9557863E-2,-4.9486097E-2,-1.8840376E-2,-2.8644953E-2],"categories":[],"categories_nodes":[],"categories_segments":[],"categories_sizes":[],"default_left":[0,0,0,0,0,0,0,0,0,0,0,0,0,0,0,0,0,0,0,0,0,0,0,0,0,0,0],"id":39,"left_children":[1,3,5,7,9,11,13,15,17,19,21,23,-1,25,-1,-1,-1,-1,-1,-1,-1,-1,-1,-1,-1,-1,-1],"loss_changes":[2.1659754E1,2.9738968E1,2.6141853E0,1.6212503E1,4.7632362E1,8.2595634E-1,1.6473918E0,2.1340788E1,1.3004099E1,1.990699E1,2.2199203E1,2.0304785E0,0E0,1.6892767E-1,0E0,0E0,0E0,0E0,0E0,0E0,0E0,0E0,0E0,0E0,0E0,0E0,0E0],"parents":[2147483647,0,0,1,1,2,2,3,3,4,4,5,5,6,6,7,7,8,8,9,9,10,10,11,11,13,13],"right_children":[2,4,6,8,10,12,14,16,18,20,22,24,-1,26,-1,-1,-1,-1,-1,-1,-1,-1,-1,-1,-1,-1,-1],"split_conditions":[2.2E1,9E0,3E0,5E0,2E0,2.3E1,2.3E1,3E0,6E0,1E1,1.8E1,2E0,-5.6498397E-2,4E0,6.1872234E-3,-2.653947E-2,1.2327214E-2,-2.2723446E-2,-8.0706574E-2,-7.782679E-2,-1.2109998E-2,2.7104652E-2,-5.209973E-4,-1.9557863E-2,-4.9486097E-2,-1.8840376E-2,-2.8644953E-2],"split_indices":[1,1,0,0,0,1,1,1,1,1,1,0,0,0,0,0,0,0,0,0,0,0,0,0,0,0,0],"split_type":[0,0,0,0,0,0,0,0,0,0,0,0,0,0,0,0,0,0,0,0,0,0,0,0,0,0,0],"sum_hessian":[2.834E3,2.601E3,2.33E2,8.6E2,1.741E3,1.19E2,1.14E2,5.86E2,2.74E2,3.72E2,1.369E3,9.4E1,2.5E1,9.2E1,2.2E1,2.35E2,3.51E2,2.28E2,4.6E1,5.3E1,3.19E2,9.5E2,4.19E2,4.8E1,4.6E1,4.6E1,4.6E1],"tree_param":{"num_deleted":"0","num_feature":"2","num_nodes":"27","size_leaf_vector":"1"}},{"base_weights":[-1.0239087E-3,2.2616401E-2,-2.638917E-1,-6.857528E-2,1.3428739E-1,-3.5753164E-1,-1.6388573E-1,-2.1740384E-2,-8.8190275E-1,3.4751347E-1,-3.1004732E-2,-3.118597E-1,-5.1065862E-2,-2.1649244E-1,5.5953814E-3,-8.145434E-3,2.7560988E-2,-2.7890293E-2,-1.5425539E-1,1.17251635E-1,-8.193168E-3,-1.6992904E-2,3.736211E-2,-1.7641982E-2,-4.4642773E-2,-1.6996425E-2,-2.5841443E-2],"categories":[],"categories_nodes":[],"categories_segments":[],"categories_sizes":[],"default_left":[0,0,0,0,0,0,0,0,0,0,0,0,0,0,0,0,0,0,0,0,0,0,0,0,0,0,0],"id":40,"left_children":[1,3,5,7,9,11,13,15,17,19,21,23,-1,25,-1,-1,-1,-1,-1,-1,-1,-1,-1,-1,-1,-1,-1],"loss_changes":[1.762344E1,2.6506586E1,2.1327114E0,5.4566822E1,4.124694E1,6.799784E-1,1.3420925E0,2.4099533E1,3.064283E1,1.8114001E2,3.7163654E1,1.6526995E0,0E0,1.3748026E-1,0E0,0E0,0E0,0E0,0E0,0E0,0E0,0E0,0E0,0E0,0E0,0E0,0E0],"parents":[2147483647,0,0,1,1,2,2,3,3,4,4,5,5,6,6,7,7,8,8,9,9,10,10,11,11,13,13],"right_children":[2,4,6,8,10,12,14,16,18,20,22,24,-1,26,-1,-1,-1,-1,-1,-1,-1,-1,-1,-1,-1,-1,-1],"split_conditions":[2.2E1,1.3E1,3E0,1.2E1,1.7E1,2.3E1,2.3E1,1.1E1,4E0,3E0,4E0,2E0,-5.1065862E-2,4E0,5.5953814E-3,-8.145434E-3,2.7560988E-2,-2.7890293E-2,-1.5425539E-1,1.17251635E-1,-8.193168E-3,-1.6992904E-2,3.736211E-2,-1.7641982E-2,-4.4642773E-2,-1.6996425E-2,-2.5841443E-2],"split_indices":[1,1,0,1,1,1,1,1,0,0,0,0,0,0,0,0,0,0,0,0,0,0,0,0,0,0,0],"split_type":[0,0,0,0,0,0,0,0,0,0,0,0,0,0,0,0,0,0,0,0,0,0,0,0,0,0,0],"sum_hessian":[2.834E3,2.601E3,2.33E2,1.432E3,1.169E3,1.19E2,1.14E2,1.355E3,7.7E1,5.1E2,6.59E2,9.4E1,2.5E1,9.2E1,2.2E1,1.129E3,2.26E2,4.1E1,3.6E1,1.74E2,3.36E2,4.91E2,1.68E2,4.8E1,4.6E1,4.6E1,4.6E1],"tree_param":{"num_deleted":"0","num_feature":"2","num_nodes":"27","size_leaf_vector":"1"}},{"base_weights":[-9.862639E-4,-1.789625E-1,2.9608406E-2,-1.0428324E-1,-2.0818353E-1,6.8970315E-2,-1.735864E-1,1.6397085E-2,-1.7737179E-1,-3.0472928E-1,-1.2186538E-1,1.2437423E-1,-1.5613332E-1,-2.3119515E-1,-3.7369404E-2,-2.233797E-2,-2.5635264E-3,-2.2626886E-2,-4.6533972E-2,-7.3232653E-4,-1.3924263E-2,4.4464567E-4,4.8297092E-2,-5.0826382E-2,-1.102665E-3,-1.392856E-2,-5.0490525E-2,1.0766659E-2,-1.4192636E-2],"categories":[],"categories_nodes":[],"categories_segments":[],"categories_sizes":[],"default_left":[0,0,0,0,0,0,0,0,0,0,0,0,0,0,0,0,0,0,0,0,0,0,0,0,0,0,0,0,0],"id":41,"left_children":[1,3,5,7,9,11,13,-1,15,17,19,21,23,25,27,-1,-1,-1,-1,-1,-1,-1,-1,-1,-1,-1,-1,-1,-1],"loss_changes":[1.54422245E1,8.860874E-1,1.9367458E1,2.3622332E0,2.446292E0,2.5311876E1,3.075346E0,0E0,6.5049505E-1,1.658927E0,3.154583E-1,7.001114E1,2.0484089E1,6.8728886E0,1.8046945E0,0E0,0E0,0E0,0E0,0E0,0E0,0E0,0E0,0E0,0E0,0E0,0E0,0E0,0E0],"parents":[2147483647,0,0,1,1,2,2,3,3,4,4,5,5,6,6,8,8,9,9,10,10,11,11,12,12,13,13,14,14],"right_children":[2,4,6,8,10,12,14,-1,16,18,20,22,24,26,28,-1,-1,-1,-1,-1,-1,-1,-1,-1,-1,-1,-1,-1,-1],"split_conditions":[4E0,2E0,2.1E1,2E0,5E0,5E0,4E0,1.6397085E-2,3E0,4E0,1E0,4E0,9E0,3E0,2.2E1,-2.233797E-2,-2.5635264E-3,-2.2626886E-2,-4.6533972E-2,-7.3232653E-4,-1.3924263E-2,4.4464567E-4,4.8297092E-2,-5.0826382E-2,-1.102665E-3,-1.392856E-2,-5.0490525E-2,1.0766659E-2,-1.4192636E-2],"split_indices":[1,0,1,1,0,0,0,0,1,0,1,0,1,0,1,0,0,0,0,0,0,0,0,0,0,0,0,0,0],"split_type":[0,0,0,0,0,0,0,0,0,0,0,0,0,0,0,0,0,0,0,0,0,0,0,0,0,0,0,0,0],"sum_hessian":[2.834E3,4.15E2,2.419E3,1.18E2,2.97E2,2.027E3,3.92E2,2.5E1,9.3E1,1.39E2,1.58E2,1.627E3,4E2,2.75E2,1.17E2,7.1E1,2.2E1,9.5E1,4.4E1,2.1E1,1.37E2,1.22E3,4.07E2,1.16E2,2.84E2,2.07E2,6.8E1,4.9E1,6.8E1],"tree_param":{"num_deleted":"0","num_feature":"2","num_nodes":"29","size_leaf_vector":"1"}},{"base_weights":[-9.4529364E-4,-1.306117E-1,3.58595E-2,3.207862E-1,-2.833658E-1,-1.8428625E-1,1.0425838E-1,-9.39264E-2,1.5166402E0,-9.373496E-1,-1.545105E-1,-5.4225206E-1,-8.230991E-2,3.2715532E-1,2.7449025E-2,1.4820451E-2,-1.5989957E-2,1.157552E-1,1.7473374E-1,-1.4451045E-1,-6.943225E-2,1.5396937E-2,-3.4148596E-2,-6.1941505E-3,-6.735249E-2,3.2336835E-3,-1.7256645E-2,8.3410665E-2,-4.221052E-2,2.3231458E-2,-8.11307E-3],"categories":[],"categories_nodes":[],"categories_segments":[],"categories_sizes":[],"default_left":[0,0,0,0,0,0,0,0,0,0,0,0,0,0,0,0,0,0,0,0,0,0,0,0,0,0,0,0,0,0,0],"id":42,"left_children":[1,3,5,7,9,11,13,15,17,19,21,23,25,27,29,-1,-1,-1,-1,-1,-1,-1,-1,-1,-1,-1,-1,-1,-1,-1,-1],"loss_changes":[1.3534284E1,4.3324345E1,3.3281723E1,7.899622E1,3.9377464E1,1.9083488E1,2.8856304E1,1.9246206E0,1.3738403E0,8.498291E0,2.2720097E1,7.272274E0,4.237757E0,1.6444234E2,2.7935377E1,0E0,0E0,0E0,0E0,0E0,0E0,0E0,0E0,0E0,0E0,0E0,0E0,0E0,0E0,0E0,0E0],"parents":[2147483647,0,0,1,1,2,2,3,3,4,4,5,5,6,6,7,7,8,8,9,9,10,10,11,11,12,12,13,13,14,14],"right_children":[2,4,6,8,10,12,14,16,18,20,22,24,26,28,30,-1,-1,-1,-1,-1,-1,-1,-1,-1,-1,-1,-1,-1,-1,-1,-1],"split_conditions":[2E0,7E0,7E0,4E0,1E1,3E0,3E0,2E0,5E0,9E0,1.7E1,1E0,5E0,1.8E1,1.2E1,1.4820451E-2,-1.5989957E-2,1.157552E-1,1.7473374E-1,-1.4451045E-1,-6.943225E-2,1.5396937E-2,-3.4148596E-2,-6.1941505E-3,-6.735249E-2,3.2336835E-3,-1.7256645E-2,8.3410665E-2,-4.221052E-2,2.3231458E-2,-8.11307E-3],"split_indices":[0,1,1,1,1,0,0,1,1,1,1,1,0,1,1,0,0,0,0,0,0,0,0,0,0,0,0,0,0,0,0],"split_type":[0,0,0,0,0,0,0,0,0,0,0,0,0,0,0,0,0,0,0,0,0,0,0,0,0,0,0,0,0,0,0],"sum_hessian":[2.834E3,6.26E2,2.208E3,1.58E2,4.68E2,5.23E2,1.685E3,1.18E2,4E1,7.6E1,3.92E2,1.15E2,4.08E2,4.31E2,1.254E3,2.5E1,9.3E1,1.8E1,2.2E1,2.3E1,5.3E1,1.48E2,2.44E2,2.5E1,9E1,1.8E2,2.28E2,2.57E2,1.74E2,4.34E2,8.2E2],"tree_param":{"num_deleted":"0","num_feature":"2","num_nodes":"31","size_leaf_vector":"1"}},{"base_weights":[-8.416214E-4,-6.492384E-2,6.461145E-2,-2.2531917E-2,-8.010587E-1,2.9084706E-1,-6.491935E-2,-1.7746183E-1,7.195979E-2,-1.2273206E0,9.866957E-3,1.0052053E0,-8.097351E-2,-1.5471838E-1,1.8429111E-1,-1.5546888E-3,-4.444579E-2,-1.3736648E-2,4.4546988E-2,-2.5594398E-2,-4.524862E-1,4.3953102E-2,1.5225361E-1,-3.576627E-2,9.606742E-2,-3.4760673E-2,-6.832047E-3,9.239379E-2,-2.3482682E-3],"categories":[],"categories_nodes":[],"categories_segments":[],"categories_sizes":[],"default_left":[0,0,0,0,0,0,0,0,0,0,0,0,0,0,0,0,0,0,0,0,0,0,0,0,0,0,0,0,0],"id":43,"left_children":[1,3,5,7,9,11,13,15,17,19,-1,21,23,25,27,-1,-1,-1,-1,-1,-1,-1,-1,-1,-1,-1,-1,-1,-1],"loss_changes":[1.1895256E1,4.4700394E1,4.1133068E1,1.986406E1,3.0035645E1,1.3580968E2,2.0012833E1,2.2213644E1,6.597154E1,1.6860907E2,0E0,5.054294E1,9.747126E1,1.0925255E1,3.644367E1,0E0,0E0,0E0,0E0,0E0,0E0,0E0,0E0,0E0,0E0,0E0,0E0,0E0,0E0],"parents":[2147483647,0,0,1,1,2,2,3,3,4,4,5,5,6,6,7,7,8,8,9,9,11,11,12,12,13,13,14,14],"right_children":[2,4,6,8,10,12,14,16,18,20,-1,22,24,26,28,-1,-1,-1,-1,-1,-1,-1,-1,-1,-1,-1,-1,-1,-1],"split_conditions":[1.3E1,1.2E1,1.7E1,3E0,5E0,3E0,4E0,9E0,9E0,4E0,9.866957E-3,2E0,1.6E1,1.9E1,1.9E1,-1.5546888E-3,-4.444579E-2,-1.3736648E-2,4.4546988E-2,-2.5594398E-2,-4.524862E-1,4.3953102E-2,1.5225361E-1,-3.576627E-2,9.606742E-2,-3.4760673E-2,-6.832047E-3,9.239379E-2,-2.3482682E-3],"split_indices":[1,1,1,0,0,0,0,1,1,0,0,0,1,1,1,0,0,0,0,0,0,0,0,0,0,0,0,0,0],"split_type":[0,0,0,0,0,0,0,0,0,0,0,0,0,0,0,0,0,0,0,0,0,0,0,0,0,0,0,0,0],"sum_hessian":[2.834E3,1.432E3,1.402E3,1.355E3,7.7E1,5.1E2,8.92E2,5.13E2,8.42E2,5.2E1,2.5E1,1.74E2,3.36E2,6.56E2,2.36E2,3.2E2,1.93E2,5.4E2,3.02E2,4.1E1,1.1E1,8.4E1,9E1,2.66E2,7E1,2.02E2,4.54E2,5.1E1,1.85E2],"tree_param":{"num_deleted":"0","num_feature":"2","num_nodes":"29","size_leaf_vector":"1"}},{"base_weights":[-8.2030473E-4,2.9610535E-2,-1.2477415E-1,-4.881926E-2,2.6512355E-1,-1.2315484E-2,-2.688546E-1,9.341396E-3,-1.7172581E-1,-2.250608E-1,4.7278908E-1,-2.3416315E-1,1.4759876E-1,-8.166955E-2,-1.5797493E-1,1.0779464E-2,-2.0310756E-2,-6.978258E-2,-6.150336E-3,1.2520245E-2,-1.2955108E-1,2.5657302E-1,2.1351123E-2,-1.4170833E-2,-6.796523E-2,-8.216407E-3,-2.165907E-2],"categories":[],"categories_nodes":[],"categories_segments":[],"categories_sizes":[],"default_left":[0,0,0,0,0,0,0,0,0,0,0,0,0,0,0,0,0,0,0,0,0,0,0,0,0,0,0],"id":44,"left_children":[1,3,5,7,9,11,13,15,17,19,21,23,-1,-1,25,-1,-1,-1,-1,-1,-1,-1,-1,-1,-1,-1,-1],"loss_changes":[1.0697371E1,4.2071945E1,9.05422E0,1.2218094E1,5.8027416E1,1.04351234E2,1.4753359E1,2.4305706E1,3.1792507E1,6.390188E1,2.1651349E2,1.1230281E1,0E0,0E0,8.931651E-1,0E0,0E0,0E0,0E0,0E0,0E0,0E0,0E0,0E0,0E0,0E0,0E0],"parents":[2147483647,0,0,1,1,2,2,3,3,4,4,5,5,6,6,7,7,8,8,9,9,10,10,11,11,14,14],"right_children":[2,4,6,8,10,12,14,16,18,20,22,24,-1,-1,26,-1,-1,-1,-1,-1,-1,-1,-1,-1,-1,-1,-1],"split_conditions":[5E0,4E0,1E1,1.8E1,1E1,9E0,1.1E1,3E0,1.9E1,9E0,1.2E1,6E0,1.4759876E-1,-8.166955E-2,1.4E1,1.0779464E-2,-2.0310756E-2,-6.978258E-2,-6.150336E-3,1.2520245E-2,-1.2955108E-1,2.5657302E-1,2.1351123E-2,-1.4170833E-2,-6.796523E-2,-8.216407E-3,-2.165907E-2],"split_indices":[0,0,1,1,1,1,1,0,1,1,1,1,0,0,1,0,0,0,0,0,0,0,0,0,0,0,0],"split_type":[0,0,0,0,0,0,0,0,0,0,0,0,0,0,0,0,0,0,0,0,0,0,0,0,0,0,0],"sum_hessian":[2.834E3,2.276E3,5.58E2,1.708E3,5.68E2,3.14E2,2.44E2,1.16E3,5.48E2,1.69E2,3.99E2,2.74E2,4E1,4E1,2.04E2,7.93E2,3.67E2,9.4E1,4.54E2,1.28E2,4.1E1,4.3E1,3.56E2,2.28E2,4.6E1,9E1,1.14E2],"tree_param":{"num_deleted":"0","num_feature":"2","num_nodes":"27","size_leaf_vector":"1"}},{"base_weights":[-7.280001E-4,-6.1496876E-2,6.13408E-2,-2.3283856E-2,-7.2502714E-1,2.62866E-1,-5.4046333E-2,-1.705645E-1,6.654478E-2,-1.1146468E0,9.708317E-3,8.95087E-1,-6.6218704E-2,-2.838274E-1,3.2780185E-2,-2.474333E-3,-4.1096676E-2,-1.0968536E-2,3.8098034E-2,-2.2667676E-2,-4.1296545E-1,3.854417E-2,1.3612932E-1,-8.7595105E-2,2.4141936E-2,-1.1852787E-1,-1.0741051E-2,7.1018636E-2,-4.9032257E-3],"categories":[],"categories_nodes":[],"categories_segments":[],"categories_sizes":[],"default_left":[0,0,0,0,0,0,0,0,0,0,0,0,0,0,0,0,0,0,0,0,0,0,0,0,0,0,0,0,0],"id":45,"left_children":[1,3,5,7,9,11,13,15,17,19,-1,21,23,25,27,-1,-1,-1,-1,-1,-1,-1,-1,-1,-1,-1,-1,-1,-1],"loss_changes":[1.0696971E1,3.6317543E1,3.2638744E1,1.7951258E1,2.5092419E1,1.06375015E2,1.7825628E1,1.8008476E1,4.675496E1,1.4095744E2,0E0,4.1055267E1,8.415968E1,3.883534E1,3.6002563E1,0E0,0E0,0E0,0E0,0E0,0E0,0E0,0E0,0E0,0E0,0E0,0E0,0E0,0E0],"parents":[2147483647,0,0,1,1,2,2,3,3,4,4,5,5,6,6,7,7,8,8,9,9,11,11,12,12,13,13,14,14],"right_children":[2,4,6,8,10,12,14,16,18,20,-1,22,24,26,28,-1,-1,-1,-1,-1,-1,-1,-1,-1,-1,-1,-1,-1,-1],"split_conditions":[1.3E1,1.2E1,1.7E1,3E0,5E0,3E0,2E0,9E0,9E0,4E0,9.708317E-3,2E0,4E0,1.8E1,1.8E1,-2.474333E-3,-4.1096676E-2,-1.0968536E-2,3.8098034E-2,-2.2667676E-2,-4.1296545E-1,3.854417E-2,1.3612932E-1,-8.7595105E-2,2.4141936E-2,-1.1852787E-1,-1.0741051E-2,7.1018636E-2,-4.9032257E-3],"split_indices":[1,1,1,0,0,0,0,1,1,0,0,0,0,1,1,0,0,0,0,0,0,0,0,0,0,0,0,0,0],"split_type":[0,0,0,0,0,0,0,0,0,0,0,0,0,0,0,0,0,0,0,0,0,0,0,0,0,0,0,0,0],"sum_hessian":[2.834E3,1.432E3,1.402E3,1.355E3,7.7E1,5.1E2,8.92E2,5.13E2,8.42E2,5.2E1,2.5E1,1.74E2,3.36E2,2.44E2,6.48E2,3.2E2,1.93E2,5.4E2,3.02E2,4.1E1,1.1E1,8.4E1,9E1,9.2E1,2.44E2,3.9E1,2.05E2,6.9E1,5.79E2],"tree_param":{"num_deleted":"0","num_feature":"2","num_nodes":"29","size_leaf_vector":"1"}},{"base_weights":[-7.941963E-4,2.889275E-2,-1.2171795E-1,-4.178712E-2,2.4113002E-1,-6.172981E-3,-2.6977897E-1,8.292699E-3,-1.4761752E-1,-2.0417218E-1,4.2978063E-1,-2.0011692E-1,1.294821E-1,-7.741867E-2,-1.6758144E-1,-7.642012E-3,1.8605456E-2,-6.2245112E-2,-4.8152E-3,1.2366346E-2,-1.2062347E-1,2.277757E-1,2.0081496E-2,-1.166788E-2,-6.02398E-2,-1.0069644E-2,-2.190506E-2],"categories":[],"categories_nodes":[],"categories_segments":[],"categories_sizes":[],"default_left":[0,0,0,0,0,0,0,0,0,0,0,0,0,0,0,0,0,0,0,0,0,0,0,0,0,0,0],"id":46,"left_children":[1,3,5,7,9,11,13,15,17,19,21,23,-1,-1,25,-1,-1,-1,-1,-1,-1,-1,-1,-1,-1,-1,-1],"loss_changes":[1.0180761E1,3.4167133E1,9.5615425E0,9.058867E0,4.7887463E1,7.973988E1,1.2499821E1,1.749738E1,2.5899065E1,5.5996174E1,1.6879184E2,9.160245E0,0E0,0E0,6.8365765E-1,0E0,0E0,0E0,0E0,0E0,0E0,0E0,0E0,0E0,0E0,0E0,0E0],"parents":[2147483647,0,0,1,1,2,2,3,3,4,4,5,5,6,6,7,7,8,8,9,9,10,10,11,11,14,14],"right_children":[2,4,6,8,10,12,14,16,18,20,22,24,-1,-1,26,-1,-1,-1,-1,-1,-1,-1,-1,-1,-1,-1,-1],"split_conditions":[5E0,4E0,1E1,1.8E1,1E1,9E0,1.1E1,1.3E1,1.9E1,9E0,1.2E1,6E0,1.294821E-1,-7.741867E-2,1.4E1,-7.642012E-3,1.8605456E-2,-6.2245112E-2,-4.8152E-3,1.2366346E-2,-1.2062347E-1,2.277757E-1,2.0081496E-2,-1.166788E-2,-6.02398E-2,-1.0069644E-2,-2.190506E-2],"split_indices":[0,0,1,1,1,1,1,1,1,1,1,1,0,0,1,0,0,0,0,0,0,0,0,0,0,0,0],"split_type":[0,0,0,0,0,0,0,0,0,0,0,0,0,0,0,0,0,0,0,0,0,0,0,0,0,0,0],"sum_hessian":[2.834E3,2.276E3,5.58E2,1.708E3,5.68E2,3.14E2,2.44E2,1.16E3,5.48E2,1.69E2,3.99E2,2.74E2,4E1,4E1,2.04E2,7.86E2,3.74E2,9.4E1,4.54E2,1.28E2,4.1E1,4.3E1,3.56E2,2.28E2,4.6E1,9E1,1.14E2],"tree_param":{"num_deleted":"0","num_feature":"2","num_nodes":"27","size_leaf_vector":"1"}},{"base_weights":[-7.03595E-4,1.5979815E-2,-1.862144E-1,-4.042502E-2,1.2179134E-1,-2.4589315E-1,-1.22321665E-1,-1.3310218E-1,-1.4324715E-2,-3.2994602E-2,5.6070995E-1,-2.0444313E-1,-3.8788777E-2,-1.6096301E-1,3.9242124E-3,-1.8803775E-2,-3.8189867E-3,4.0909764E-3,-1.32743865E-2,1.9384056E-2,-5.0741937E-2,1.1127599E-1,-7.701971E-5,-8.408571E-3,-3.255723E-2,-7.3755346E-3,-2.4474595E-2],"categories":[],"categories_nodes":[],"categories_segments":[],"categories_sizes":[],"default_left":[0,0,0,0,0,0,0,0,0,0,0,0,0,0,0,0,0,0,0,0,0,0,0,0,0,0,0],"id":47,"left_children":[1,3,5,7,9,11,13,15,17,19,21,23,-1,25,-1,-1,-1,-1,-1,-1,-1,-1,-1,-1,-1,-1,-1],"loss_changes":[8.777167E0,1.5534393E1,8.621731E-1,4.105389E0,6.150278E1,6.269803E-1,7.242664E-1,1.9376645E0,8.678557E0,7.2201225E1,7.315262E1,1.3576095E0,0E0,6.6145444E-1,0E0,0E0,0E0,0E0,0E0,0E0,0E0,0E0,0E0,0E0,0E0,0E0,0E0],"parents":[2147483647,0,0,1,1,2,2,3,3,4,4,5,5,6,6,7,7,8,8,9,9,10,10,11,11,13,13],"right_children":[2,4,6,8,10,12,14,16,18,20,22,24,-1,26,-1,-1,-1,-1,-1,-1,-1,-1,-1,-1,-1,-1,-1],"split_conditions":[2.2E1,1.5E1,3E0,3E0,4E0,2.3E1,2.3E1,5E0,5E0,3E0,1.9E1,2E0,-3.8788777E-2,4E0,3.9242124E-3,-1.8803775E-2,-3.8189867E-3,4.0909764E-3,-1.32743865E-2,1.9384056E-2,-5.0741937E-2,1.1127599E-1,-7.701971E-5,-8.408571E-3,-3.255723E-2,-7.3755346E-3,-2.4474595E-2],"split_indices":[1,1,0,1,0,1,1,0,0,0,1,0,0,0,0,0,0,0,0,0,0,0,0,0,0,0,0],"split_type":[0,0,0,0,0,0,0,0,0,0,0,0,0,0,0,0,0,0,0,0,0,0,0,0,0,0,0],"sum_hessian":[2.834E3,2.601E3,2.33E2,1.697E3,9.04E2,1.19E2,1.14E2,3.72E2,1.325E3,6.69E2,2.35E2,9.4E1,2.5E1,9.2E1,2.2E1,2.35E2,1.37E2,9.04E2,4.21E2,4.53E2,2.16E2,1.18E2,1.17E2,4.8E1,4.6E1,4.6E1,4.6E1],"tree_param":{"num_deleted":"0","num_feature":"2","num_nodes":"27","size_leaf_vector":"1"}},{"base_weights":[-6.5439753E-4,-9.8918855E-2,2.723717E-2,3.0117083E-1,-2.3434603E-1,-1.2714486E-1,7.5202145E-2,-6.9246374E-2,1.3689386E0,-1.3096827E-1,-1.7595494E-1,-4.827542E-1,-2.5976574E-2,2.4865878E-1,1.543444E-2,1.5289219E-2,-1.299523E-2,1.0448573E-1,1.5771389E-1,-2.8912896E-2,6.836922E-3,-3.7047819E-3,-6.047939E-2,-1.6306197E-2,4.3669604E-3,6.50001E-2,-3.444552E-2,-6.4037624E-3,1.3596534E-2],"categories":[],"categories_nodes":[],"categories_segments":[],"categories_sizes":[],"default_left":[0,0,0,0,0,0,0,0,0,0,0,0,0,0,0,0,0,0,0,0,0,0,0,0,0,0,0,0,0],"id":48,"left_children":[1,3,5,7,9,11,13,15,17,-1,19,21,23,25,27,-1,-1,-1,-1,-1,-1,-1,-1,-1,-1,-1,-1,-1,-1],"loss_changes":[7.77272E0,3.4043327E1,1.6367052E1,6.2982395E1,2.9218103E1,1.8839088E1,1.7475101E1,1.6245987E0,1.1185532E0,0E0,1.235218E1,6.287285E0,3.9120376E0,1.0305789E2,1.203015E1,0E0,0E0,0E0,0E0,0E0,0E0,0E0,0E0,0E0,0E0,0E0,0E0,0E0,0E0],"parents":[2147483647,0,0,1,1,2,2,3,3,4,4,5,5,6,6,7,7,8,8,10,10,11,11,12,12,13,13,14,14],"right_children":[2,4,6,8,10,12,14,16,18,-1,20,22,24,26,28,-1,-1,-1,-1,-1,-1,-1,-1,-1,-1,-1,-1,-1,-1],"split_conditions":[2E0,7E0,7E0,4E0,9E0,3E0,3E0,2E0,5E0,-1.3096827E-1,2E1,1E0,2E0,1.8E1,1.6E1,1.5289219E-2,-1.299523E-2,1.0448573E-1,1.5771389E-1,-2.8912896E-2,6.836922E-3,-3.7047819E-3,-6.047939E-2,-1.6306197E-2,4.3669604E-3,6.50001E-2,-3.444552E-2,-6.4037624E-3,1.3596534E-2],"split_indices":[0,1,1,1,1,0,0,1,1,0,1,1,1,1,1,0,0,0,0,0,0,0,0,0,0,0,0,0,0],"split_type":[0,0,0,0,0,0,0,0,0,0,0,0,0,0,0,0,0,0,0,0,0,0,0,0,0,0,0,0,0],"sum_hessian":[2.834E3,6.26E2,2.208E3,1.58E2,4.68E2,5.23E2,1.685E3,1.18E2,4E1,2.3E1,4.45E2,1.15E2,4.08E2,4.31E2,1.254E3,2.5E1,9.3E1,1.8E1,2.2E1,3.04E2,1.41E2,2.5E1,9E1,1.37E2,2.71E2,2.57E2,1.74E2,7.56E2,4.98E2],"tree_param":{"num_deleted":"0","num_feature":"2","num_nodes":"29","size_leaf_vector":"1"}},{"base_weights":[-5.6330767E-4,1.4677969E-2,-1.7003869E-1,-2.8727315E-2,1.2189839E-1,-2.1292345E-1,-1.23810776E-1,-6.371778E-5,-9.507907E-2,1.0477346E0,-5.939476E-3,-1.7120558E-1,-3.5716474E-2,-1.5865965E-1,2.2482998E-3,-1.5482388E-2,3.439238E-3,5.222041E-4,-2.2364957E-2,2.7250875E-2,1.8001835E-1,-2.7714938E-2,8.946757E-3,-8.254613E-3,-2.599951E-2,-7.98438E-3,-2.3409978E-2],"categories":[],"categories_nodes":[],"categories_segments":[],"categories_sizes":[],"default_left":[0,0,0,0,0,0,0,0,0,0,0,0,0,0,0,0,0,0,0,0,0,0,0,0,0,0,0],"id":49,"left_children":[1,3,5,7,9,11,13,15,17,19,21,23,-1,25,-1,-1,-1,-1,-1,-1,-1,-1,-1,-1,-1,-1,-1],"loss_changes":[7.325361E0,1.2113035E1,4.3753624E-1,3.5241776E0,8.8773926E1,6.6094446E-1,5.898572E-1,6.910824E0,7.2098994E0,5.2591354E1,1.7102516E1,7.2638154E-1,0E0,5.3427505E-1,0E0,0E0,0E0,0E0,0E0,0E0,0E0,0E0,0E0,0E0,0E0,0E0,0E0],"parents":[2147483647,0,0,1,1,2,2,3,3,4,4,5,5,6,6,7,7,8,8,9,9,10,10,11,11,13,13],"right_children":[2,4,6,8,10,12,14,16,18,20,22,24,-1,26,-1,-1,-1,-1,-1,-1,-1,-1,-1,-1,-1,-1,-1],"split_conditions":[2.2E1,1.6E1,3E0,5E0,1.7E1,2.3E1,2.3E1,3E0,1E1,4E0,2E0,2E0,-3.5716474E-2,4E0,2.2482998E-3,-1.5482388E-2,3.439238E-3,5.222041E-4,-2.2364957E-2,2.7250875E-2,1.8001835E-1,-2.7714938E-2,8.946757E-3,-8.254613E-3,-2.599951E-2,-7.98438E-3,-2.3409978E-2],"split_indices":[1,1,0,0,1,1,1,1,1,0,0,0,0,0,0,0,0,0,0,0,0,0,0,0,0,0,0],"split_type":[0,0,0,0,0,0,0,0,0,0,0,0,0,0,0,0,0,0,0,0,0,0,0,0,0,0,0],"sum_hessian":[2.834E3,2.601E3,2.33E2,1.852E3,7.49E2,1.19E2,1.14E2,1.294E3,5.58E2,9E1,6.59E2,9.4E1,2.5E1,9.2E1,2.2E1,2.35E2,1.059E3,3.14E2,2.44E2,4.5E1,4.5E1,1.71E2,4.88E2,4.8E1,4.6E1,4.6E1,4.6E1],"tree_param":{"num_deleted":"0","num_feature":"2","num_nodes":"27","size_leaf_vector":"1"}}]},"name":"gbtree"},"learner_model_param":{"base_score":"[1.3703952E1]","boost_from_average":"1","num_class":"0","num_feature":"2","num_target":"1"},"objective":{"name":"reg:squarederror","reg_loss_param":{"scale_pos_weight":"1"}}},"version":[3,2,0]}